svm_type c_svc
kernel_type rbf
gamma 0.0625
nr_class 15
total_sv 2435
rho -0.8851321202013016 0.15948812244690033 -1.0239509961441269 -1.0459799134738135 -1.7403516508540846 -1.0152474203696695 -0.7440171216303062 -0.8235869005074269 -1.0191375638388767 -0.9551796719830784 -1.2296300253446422 -0.6150500432112767 -1.0398900841624763 -0.6756765794827441 0.5898622012354136 -1.0413280662532505 -0.7670373967623145 -0.7417858231538192 -0.8366092356711328 -0.2696088882618482 -0.33839973840621895 -1.0093047913045787 -0.9758631115217978 -0.5485810370746833 -0.05523058443492677 -0.9985485721871273 -0.3811214463951275 -0.5009199741153614 -0.6492464457506906 -0.5440992608592641 -0.49332834380836743 -0.25789843552841935 -0.24765056163946694 -0.2823221612681733 -0.3157907852183766 -0.41673988388455907 -0.3654971891435397 -0.8063287002104951 -0.18055370863245568 0.9578036018755098 0.9558143776606052 0.906356777915415 0.7663666501911328 0.8841317736755535 -0.8090424239635468 -0.6776836634549859 0.79758450299188 1.0380039130182328 -0.8864905612817572 0.257162770003599 0.9584628125262632 -0.8027400718075682 0.4434106033967758 0.5587855296923466 -0.9800573875430842 -0.8733647369221758 0.1104362764702248 1.0592345875096394 -0.9655538325142996 0.018832566924778624 -0.9811326660455401 -0.06174520335046691 -0.7191290020087228 -1.0104469872717323 -0.973780522688747 -0.39447414562482225 0.9246709110459529 -0.9631649930226195 -0.27795045307673616 0.4641633098250557 0.7077778786573322 -0.9160836279738417 -0.8651568629195311 0.2796434361121723 1.0129688889729347 -0.9855125021733563 0.06746451099100036 0.10473036733934019 -1.0519553912349149 -0.9274515698934065 -0.7642407206608925 0.5810312146836419 -0.9423761215536061 -0.35620892643258667 -1.0195061990745897 -0.8803610070873091 -1.000503957952615 0.9576455036265802 -0.9998862987521137 -0.4466716640596706 0.39357542991638184 0.9924582403983633 1.0119916719829742 -0.7355271884964487 1.044208779949431 0.8574431598980338 1.0019975443812166 -0.886482771702353 0.6256122402145701 0.8166551820143267 -0.8877624478578564 -0.011180901505853272 -1.0004957389992493 -0.6491217200366532 0.8552101145779701
label 4 2 1 8 9 18 5 15 11 14 10 6 13 12 0
probA -34.201599729648585 -3.012314169434727 -234.74016578830458 -114.998305355623 -1.414277395876566 -191.0946796407355 -1.8962700761032683 -11.805513625094465 -221.96302687883204 -167.270699304775 -2.7614556338645735 -1.2934451353317817 26.958607248555865 -2.9190460610578746 -5.138481487967292 -24.489711801802272 -1.5647296995066675 -2.852024447652224 -2.8205916935306354 -3.341562849672389 -2.6392332206001075 -16.28198037728708 -33.31093115996938 -3.1940352913058123 -2.30253708441361 5.999245029716504 -3.1574417058612494 -4.654068047065314 -4.467392626785887 -4.4021831099633415 -4.818644654105704 -4.204533448876288 -4.225899388481926 -3.882956688889308 -7.080721180911283 -4.329763300290674 -4.212338147313587 -27.71362203263516 -3.9781954430953492 -50.66234823645942 -110.91740981333886 -16.48233332401734 -11.600435393995499 -15.978827021310467 -2.1456464989560855 -6.536235461891027 -26.891318564475867 -57.17408934980538 -2.0055770586406556 -4.718949022344824 -21.281352754071282 -8.04996716607765 -2.322354343987408 -1.3724453729538604 -74.16533312427428 -77.25289776852595 -2.2904838069731763 -1.8530494892244884 -13.155225490044945 -2.719140640568641 -172.0318542360311 -2.026884814811659 -4.2445319421832455 -170.39862795258412 -164.57626940787927 -2.266641970323869 -1.256231791405885 -100.29879232660292 -2.829201652830271 -4.715283208091588 -4.560004445739742 -13.311212650686075 -18.488327303245004 -5.362029907131143 -9.140627126257964 -29.439270361998606 -2.9886949748242437 -1.96907885029413 -146.59496387069393 -36.14901108605281 -1.3155888799771294 -1.4973039569627482 -50.008564192253104 -2.779529556023617 -102.69821875638621 -26.512119550835028 -2.0998501170950665 -1.5550973779926553 -11.169410857964687 -2.483752121950836 1.0548384229095056 -37.75257051935032 -259.37261529417617 -17.365396694564485 -26.221325128672962 -53.222162132813224 -57.44237419861595 -5.6414439861350925 -7.190397533049148 -1.9924871658321326 -59.64974739097073 -2.767367036041689 -32.053957752864804 -3.975385269174553 -16.682371864859498
probB 32.52906762605967 0.8361831353980984 231.7162100593644 113.58275971608677 -0.10279850843577783 188.8772967697744 0.38428962925134624 10.504128979299784 218.83162693889304 164.50457537258143 1.3058027655356246 -0.11621465004051143 -32.55123556640056 1.2378832036351386 -1.9216455398290992 22.72117869490465 -0.09856751430635864 -0.8408865528392448 1.6014609242507325 -0.6856081166788306 -0.6065620860148734 14.296626060890588 31.089476003562858 -0.7970497835059969 -0.3106222154878375 -9.227602913948843 -0.2263148953887684 1.394202714256553 1.1954483417378754 0.4653967992924038 1.690474756419973 0.31321541302424716 0.12970548270593335 -0.30397823560064974 3.38568695114066 0.15009438349768228 1.2010925846322311 23.979762167384195 -0.16822900049190478 -48.75373100616108 -108.2309603592589 -15.225545478910602 -9.182086504462777 -14.02239356442091 1.2872402059746475 4.985524469317136 -24.73043917836106 -54.41249131640322 0.6121946178980212 -2.3344729481649726 -20.003148443246975 6.972014350838044 -0.57378021882223 -0.1952579462964114 72.38513197057605 75.13917331138673 -0.5934271743957044 -0.32527949916474347 9.902125746513246 0.13921406520372925 170.05208971517106 0.9537342257301301 3.1915841223199792 167.26978752886515 161.79475145068548 1.1735761468652843 0.14764731379545032 96.42866603920639 0.6351973772542613 -2.8861127984430848 -3.177538645082408 11.926387313602326 17.018291794799335 -3.44963709965998 -7.229415796018238 27.16016002531268 -0.26786873717779963 0.6681913096840821 143.6648400966551 33.63353655840768 0.20817985227632663 -0.47084621587882963 47.31275131924718 1.0219024667670755 100.18817440006957 24.449007678105254 -0.9591533870774098 -0.7662811728828742 7.763796972603404 0.23187433103010932 0.31585910812216883 -34.682273362945736 -256.1095029195908 15.395224770738697 -24.28488138468557 -50.79028079317483 -54.99604761158351 4.505110919778445 -4.8093718596758634 -1.2313188894263576 56.4393703423501 0.6243186698601901 28.31899107664733 1.8990573249436018 -14.126481788849322
nr_sv 518 101 95 17 135 427 48 244 159 10 11 245 323 4 98
SV
0.0 0.0 0.0 0.0 1.0 0.0 1.0 0.0 0.0 0.0 0.0 0.718535265723509 0.0 0.0 1:0.0 2:0.0 3:0.0 4:0.19298245614035087 5:0.5625 6:1.0 7:0.5999999999999999 8:1.0 9:0.22523901219553394 10:1.0 11:0.0 12:0.0 13:0.0 14:0.5 15:0.5714285714285714 16:0.5345224838248487 
0.0 0.0 0.0 0.0 0.452911225008644 0.0 0.0 0.0 0.0 0.0 0.8919401524519066 0.0 0.0 0.0 1:0.4472135954999579 2:0.0 3:0.0 4:0.08860759493670886 5:0.7727272727272727 6:0.5 7:0.42426406871192845 8:0.0 9:0.23352725406837663 10:0.5 11:0.0 12:0.0 13:0.5773502691896258 14:0.2727272727272727 15:0.6 16:0.4045199174779452 
0.0 0.0 0.0 1.0 1.0 0.0 1.0 0.0 0.0 0.0 1.0 1.0 0.0 0.0 1:0.4472135954999579 2:0.0 3:0.0 4:0.0949367088607595 5:0.5681818181818181 6:1.0 7:0.3508232077228117 8:0.0 9:0.25603094564996004 10:0.5 11:0.5 12:0.0 13:0.0 14:0.2727272727272727 15:0.35294117647058826 16:0.35564337957950964 
0.0 0.0 0.0 1.0 1.0 0.0 0.0 0.0 0.0 0.0 0.0 0.0 0.0 0.0 1:0.7745966692414834 2:0.0 3:0.0 4:0.06329113924050633 5:0.7954545454545454 6:1.0 7:0.8164965809277261 8:0.3333333333333333 9:0.35670544031729917 10:1.0 11:1.0 12:0.0 13:0.40824829046386296 14:0.22727272727272727 15:0.5555555555555556 16:0.3553345272593507 
0.0 0.0 0.0 0.0 1.0 0.0 0.0 0.0 0.0 0.0 1.0 0.0 0.0 0.0 1:0.4472135954999579 2:0.0 3:0.0 4:0.08860759493670886 5:0.7727272727272727 6:0.5 7:0.42426406871192845 8:0.0 9:0.23352725406837663 10:0.5 11:0.0 12:0.0 13:0.5773502691896258 14:0.2727272727272727 15:0.6 16:0.4045199174779452 
0.0 0.0 0.0 1.0 1.0 0.0 1.0 0.0 0.0 0.0 1.0 1.0 0.0 0.0 1:0.31622776601683794 2:0.0 3:0.0 4:0.10759493670886076 5:0.6818181818181819 6:0.5 7:0.35856858280031806 8:0.0 9:0.26822973539488043 10:0.5 11:0.0 12:0.0 13:0.0 14:0.3181818181818182 15:0.5 16:0.3988620176087328 
0.0 0.0 0.0 1.0 1.0 0.0 0.0 0.0 0.0 0.0 0.0 0.0 0.0 0.0 1:0.7745966692414834 2:0.0 3:0.0 4:0.06329113924050633 5:0.7954545454545454 6:1.0 7:0.8164965809277261 8:0.3333333333333333 9:0.35670544031729917 10:1.0 11:1.0 12:0.0 13:0.40824829046386296 14:0.22727272727272727 15:0.5555555555555556 16:0.3553345272593507 
0.0 0.0 0.0 1.0 1.0 0.6077978046821342 0.0 1.0 0.0 0.0 0.0 0.44512896321315665 0.0 0.0 1:0.5773502691896258 2:0.0 3:0.0 4:0.07352941176470588 5:0.6578947368421053 6:1.0 7:0.4803844614152615 8:0.0 9:0.310470082914461 10:0.5 11:0.5 12:0.0 13:0.4999999999999999 14:0.21052631578947367 15:0.3076923076923077 16:0.2545139051903111 
0.0 0.0 0.0 1.0 1.0 0.9358600845957301 0.0 1.0 0.0 0.0 0.0 0.0 0.0 0.0 1:1.0 2:0.0 3:0.0 4:0.08088235294117647 5:0.7105263157894737 6:1.0 7:0.7071067811865475 8:0.0 9:0.24278201249645612 10:0.0 11:0.0 12:0.0 13:0.0 14:0.21052631578947367 15:0.36363636363636365 16:0.27668578554642986 
0.0 0.0 0.0 0.0 1.0 0.0 0.0 0.0 0.0 0.0 0.0 1.0 0.0 0.0 1:0.4999999999999999 2:0.0 3:0.0 4:0.11029411764705882 5:0.763157894736842 6:1.0 7:0.30151134457776363 8:0.0 9:0.2126880303028394 10:0.0 11:0.0 12:0.0 13:0.0 14:0.15789473684210525 15:0.3333333333333333 16:0.22941573387056172 
0.0 0.0 0.0 1.0 1.0 0.0 1.0 0.0 0.0 0.0 0.0 0.0 0.0 0.0 1:0.7071067811865475 2:0.0 3:0.0 4:0.07352941176470588 5:0.763157894736842 6:1.0 7:0.5222329678670935 8:0.0 9:0.2937939764947646 10:0.5 11:0.5 12:0.0 13:0.0 14:0.15789473684210525 15:0.3333333333333333 16:0.22941573387056172 
0.0 0.0 0.0 0.0 1.0 0.0 0.0 0.0 0.0 0.0 0.0 1.0 0.0 0.0 1:0.4999999999999999 2:0.0 3:0.0 4:0.11029411764705882 5:0.763157894736842 6:1.0 7:0.30151134457776363 8:0.0 9:0.2126880303028394 10:0.0 11:0.0 12:0.0 13:0.0 14:0.15789473684210525 15:0.3333333333333333 16:0.22941573387056172 
1.0 0.0 0.0 0.0 1.0 0.0 1.0 1.0 0.0 0.0 1.0 1.0 0.0 0.0 1:0.0 2:0.0 3:0.0 4:0.22988505747126436 5:0.7307692307692308 6:0.0 7:0.5669467095138409 8:0.0 9:0.37806618668687636 10:0.0 11:0.0 12:0.0 13:0.0 14:0.3076923076923077 15:0.5714285714285714 16:0.4193139346887673 
0.0 0.0 0.0 1.0 1.0 0.0 1.0 1.0 0.0 0.0 1.0 1.0 0.0 1.0 1:0.0 2:0.0 3:0.0 4:0.20689655172413793 5:0.5769230769230769 6:0.0 7:0.40089186286863654 8:0.0 9:0.3800707451835271 10:0.0 11:0.0 12:0.0 13:0.0 14:0.23076923076923078 15:0.3 16:0.2307692307692308 
1.0 0.0 0.0 1.0 0.0 0.0 0.0 0.0 0.0 0.0 0.0 0.0 0.0 0.0 1:0.9999999999999998 2:0.0 3:0.0 4:0.5121951219512195 5:0.6578947368421053 6:1.0 7:0.6681531047810609 8:1.0 9:0.43888065580790003 10:0.3333333333333333 11:0.3333333333333333 12:0.0 13:0.40824829046386296 14:0.5263157894736842 15:0.7692307692307693 16:0.6362847629757777 
0.0 0.0 0.2614190404965013 1.0 1.0 0.0 1.0 1.0 0.0 0.0 1.0 1.0 0.0 0.0 1:0.0 2:0.0 3:0.0 4:0.14634146341463414 5:0.8157894736842105 6:1.0 7:0.35355339059327373 8:0.0 9:0.36145321274893577 10:0.3333333333333333 11:0.3333333333333333 12:0.0 13:0.0 14:0.15789473684210525 15:0.42857142857142855 16:0.26013299085723596 
1.0 0.0 0.0 1.0 0.6528047405641682 0.0 0.0 0.0 0.0 0.0 0.0 0.0 0.0 0.0 1:0.7071067811865475 2:0.0 3:0.0 4:0.21138211382113822 5:0.631578947368421 6:1.0 7:0.8017837257372731 8:1.0 9:0.4640070397152438 10:0.6666666666666666 11:0.6666666666666666 12:0.0 13:0.40824829046386296 14:0.5789473684210527 15:0.7857142857142857 16:0.6744532734334623 
0.0 0.0 0.0 0.0 0.29412881943305813 0.0 0.15165684269047733 0.0 0.0 0.0 0.0 1.0 0.0 0.0 1:0.0 2:0.0 3:0.0 4:0.17073170731707318 5:0.868421052631579 6:1.0 7:0.5303300858899106 8:0.0 9:0.3438957678315264 10:0.3333333333333333 11:0.0 12:0.0 13:0.0 14:0.21052631578947367 15:0.8 16:0.4103913408340616 
0.0 0.0 0.0 0.9962159287651645 0.0 0.0 0.0 0.0 0.0 0.0 0.0 0.0 0.0 0.0 1:0.7071067811865475 2:0.0 3:0.0 4:0.5040650406504065 5:0.763157894736842 6:1.0 7:0.7905694150420948 8:1.0 9:0.44369870521010396 10:0.3333333333333333 11:0.3333333333333333 12:0.0 13:0.5773502691896258 14:0.47368421052631576 15:1.0 16:0.6882472016116852 
0.0 0.0 0.0 1.0 1.0 0.0 1.0 1.0 0.0 0.0 1.0 1.0 0.06719169451130913 1.0 1:0.4999999999999999 2:0.0 3:0.0 4:0.15447154471544716 5:0.631578947368421 6:0.0 7:0.5039526306789696 8:0.0 9:0.4110493524627841 10:0.0 11:0.0 12:0.0 13:0.0 14:0.21052631578947367 15:0.2857142857142857 16:0.2452557357939863 
0.0 0.0 0.0 0.0 1.0 0.0 1.0 1.0 0.15088744898009412 0.0 1.0 1.0 0.0 0.0 1:0.0 2:0.0 3:0.0 4:0.17073170731707318 5:0.6842105263157895 6:0.3333333333333333 7:0.5103103630798287 8:0.0 9:0.35512741683972926 10:0.3333333333333333 11:0.0 12:0.0 13:0.0 14:0.21052631578947367 15:0.3333333333333333 16:0.26490647141300877 
0.0 0.0 0.0 0.0 1.0 0.0 1.0 0.0 0.0 0.0 0.0 1.0 0.0 0.0 1:0.0 2:0.0 3:0.0 4:0.15384615384615385 5:0.7692307692307692 6:0.0 7:0.8660254037844387 8:0.0 9:0.27741935483870966 10:1.0 11:1.0 12:0.0 13:0.0 14:0.3333333333333333 15:0.6666666666666666 16:0.4216370213557839 
0.0 0.0 0.0 0.0 1.0 0.0 1.0 1.0 0.0 0.0 1.0 1.0 0.0 1.0 1:0.0 2:0.0 3:0.0 4:0.10256410256410256 5:0.6538461538461539 6:0.0 7:0.5 8:0.0 9:0.30911019525030614 10:0.5 11:0.5 12:0.0 13:0.0 14:0.16666666666666666 15:0.2222222222222222 16:0.17213259316477406 
0.0 0.0 0.0 0.0 1.0 0.0 0.0 0.0 0.0 0.0 0.0 0.0 0.0 0.0 1:0.8164965809277259 2:0.0 3:0.0 4:0.06993006993006994 5:0.7368421052631579 6:1.0 7:0.3779644730092272 8:0.0 9:0.25634505919887396 10:0.0 11:0.0 12:0.0 13:0.0 14:0.2631578947368421 15:0.5 16:0.3627381250550058 
0.0 0.0 0.0 0.0 1.0 0.0 0.0 0.0 0.0 0.0 0.0 0.0 0.0 0.0 1:0.8164965809277259 2:0.0 3:0.0 4:0.06993006993006994 5:0.7368421052631579 6:1.0 7:0.3779644730092272 8:0.0 9:0.25634505919887396 10:0.0 11:0.0 12:0.0 13:0.0 14:0.2631578947368421 15:0.5 16:0.3627381250550058 
0.0 0.0 0.0 0.0 1.0 0.0 0.0 0.0 0.0 0.0 0.0 0.0 0.0 0.0 1:0.5773502691896258 2:0.0 3:0.0 4:0.09090909090909091 5:0.7894736842105263 6:1.0 7:0.5 8:0.0 9:0.28827838424788316 10:1.0 11:1.0 12:0.0 13:0.0 14:0.3157894736842105 15:0.75 16:0.4866642633922875 
0.0 0.0 0.0 0.0 1.0 0.0 0.0 1.0 0.0 0.0 0.0 0.0 0.0 0.0 1:0.7745966692414834 2:0.0 3:0.0 4:0.1958041958041958 5:0.6842105263157895 6:1.0 7:0.4811252243246881 8:0.0 9:0.3839279542427859 10:0.0 11:0.0 12:0.0 13:0.7071067811865475 14:0.2631578947368421 15:0.4166666666666667 16:0.33113308926626095 
1.0 0.0 0.0 1.0 1.0 0.0 1.0 0.0 0.0 0.0 1.0 1.0 0.0 0.0 1:0.0 2:0.0 3:0.0 4:0.1125 5:0.7727272727272727 6:1.0 7:0.7071067811865476 8:0.0 9:0.43405036052094864 10:1.0 11:1.0 12:0.0 13:0.0 14:0.2727272727272727 15:0.6 16:0.40451991747794525 
0.0 0.0 0.0 0.0 1.0 0.0 1.0 0.0 0.0 0.0 0.0 0.0 0.0 0.0 1:0.7071067811865475 2:0.0 3:0.0 4:0.3 5:0.5454545454545454 6:0.5 7:0.7302967433402214 8:0.0 9:0.3379791833138687 10:1.0 11:0.0 12:0.0 13:0.0 14:0.45454545454545453 15:0.5 16:0.4767312946227962 
1.0 0.0 0.0 0.6286364719124341 1.0 0.0 0.0 0.0 0.0 0.0 0.0 0.0 0.0 0.0 1:1.0 2:0.0 3:0.0 4:0.4875 5:0.5909090909090909 6:1.0 7:0.9258200997725514 8:0.0 9:0.3596673320974767 10:1.0 11:1.0 12:0.0 13:0.0 14:0.5454545454545454 15:0.6666666666666666 16:0.6030226891555273 
0.0 0.0 0.0 0.193348210960944 1.0 0.0 1.0 0.0 0.0 0.0 0.0 0.0 0.0 0.0 1:0.7071067811865475 2:0.0 3:0.0 4:0.3 5:0.5454545454545454 6:0.5 7:0.7302967433402214 8:0.0 9:0.3379791833138687 10:1.0 11:0.0 12:0.0 13:0.0 14:0.45454545454545453 15:0.5 16:0.4767312946227962 
0.3023603718301233 0.0 0.0 0.0 1.0 0.0 0.0 1.0 0.0 0.0 0.0 0.0 0.0 0.0 1:0.9999999999999998 2:0.0 3:0.0 4:0.3 5:0.5909090909090909 6:1.0 7:0.9999999999999999 8:0.0 9:0.420229131108792 10:1.0 11:1.0 12:0.0 13:1.0 14:0.5454545454545454 15:0.6666666666666666 16:0.6030226891555273 
1.0 1.0 0.0 0.0 0.9962191141835668 0.0 0.0 0.0 0.0 0.0 0.0 0.0 0.0 0.0 1:1.0 2:0.0 3:0.0 4:0.7021276595744681 5:0.6428571428571428 6:1.0 7:0.8164965809277259 8:0.0 9:0.5675324675324674 10:1.0 11:1.0 12:0.0 13:0.0 14:0.7142857142857143 15:1.0 16:0.8451542547285165 
0.7736817397173917 0.0 0.0 0.0 1.0 0.0 1.0 0.0 0.0 0.0 0.0 1.0 0.0 0.0 1:0.0 2:0.0 3:0.0 4:0.2972972972972973 5:0.7272727272727273 6:0.0 7:0.5163977794943222 8:0.0 9:0.3341797986959278 10:0.6666666666666666 11:0.6666666666666666 12:0.0 13:0.0 14:0.2727272727272727 15:0.5 16:0.36927447293799825 
0.0 0.0 0.0 1.0 1.0 0.0 0.0 0.0 0.0 0.0 1.0 1.0 0.0 0.0 1:0.0 2:0.0 3:0.0 4:0.3918918918918919 5:0.6818181818181819 6:0.0 7:0.4472135954999579 8:0.0 9:0.34687336473050756 10:0.3333333333333333 11:0.3333333333333333 12:0.0 13:0.4999999999999999 14:0.36363636363636365 15:0.5714285714285714 16:0.4558423058385518 
0.2602389133559574 0.0 0.0 0.5501020763593905 1.0 0.0 0.0 0.0 0.0 0.0 1.0 1.0 0.0 0.0 1:0.0 2:0.0 3:0.0 4:0.4864864864864865 5:0.5909090909090909 6:0.0 7:0.3999999999999999 8:0.0 9:0.3380707357729416 10:0.6666666666666666 11:0.6666666666666666 12:0.0 13:0.7071067811865475 14:0.45454545454545453 15:0.5555555555555556 16:0.502518907629606 
1.0 0.0 0.0 0.0 1.0 0.0 1.0 0.0 0.0 0.0 0.0 1.0 0.0 0.0 1:0.0 2:0.0 3:0.0 4:0.2972972972972973 5:0.7272727272727273 6:0.0 7:0.5163977794943222 8:0.0 9:0.3341797986959278 10:0.6666666666666666 11:0.6666666666666666 12:0.0 13:0.0 14:0.2727272727272727 15:0.5 16:0.36927447293799825 
0.0 0.0 0.0 0.0 1.0 0.0 0.0 0.0 0.0 0.0 0.0 1.0 0.0 0.0 1:0.0 2:0.0 3:0.0 4:0.4864864864864865 5:0.7272727272727273 6:0.0 7:0.5163977794943222 8:0.0 9:0.38301295478714836 10:0.6666666666666666 11:0.6666666666666666 12:0.0 13:0.7071067811865475 14:0.45454545454545453 15:0.8333333333333334 16:0.6154574548966638 
1.0 0.0 0.0 0.38914726557029367 0.0 0.0 0.0 0.47895618807132656 0.0 0.0 0.0 0.0 0.11388970696489689 0.0 1:0.903696114115064 2:0.0 3:0.0 4:0.27040816326530615 5:0.6666666666666666 6:1.0 7:0.8838834764831843 8:0.0 9:0.25863866702511745 10:1.0 11:1.0 12:1.0 13:0.8164965809277259 14:0.5416666666666666 15:0.7222222222222222 16:0.6154574548966637 
1.0 0.0 0.0 0.2505439437854687 0.0 0.0 0.0 0.0 0.0 0.0 0.0 0.0 0.4447322678898222 0.0 1:0.31622776601683794 2:0.0 3:0.0 4:0.27040816326530615 5:0.6851851851851851 6:1.0 7:0.9141379262169075 8:0.0 9:0.23630795481608172 10:0.6666666666666666 11:0.3333333333333333 12:1.0 13:0.8164965809277259 14:0.5833333333333334 15:0.8235294117647058 16:0.6755205294731985 
0.0 0.0 0.0 0.0 1.0 0.0 1.0 1.0 0.0 0.0 1.0 1.0 0.0 0.0 1:0.0 2:0.0 3:0.0 4:0.10204081632653061 5:0.6111111111111112 6:1.0 7:0.7559289460184545 8:0.0 9:0.2098417335860703 10:0.6666666666666666 11:0.3333333333333333 12:0.0 13:0.2886751345948129 14:0.3333333333333333 15:0.38095238095238093 16:0.3038948705590345 
1.0 0.0 0.0 0.20916254723067979 0.0 0.0 0.0 0.0 0.0 0.0 0.0 0.0 0.0 0.0 1:0.9899494936611664 2:0.0 3:0.0 4:0.27040816326530615 5:0.6851851851851851 6:1.0 7:0.8838834764831843 8:0.0 9:0.25863866702511745 10:1.0 11:1.0 12:1.0 13:0.8164965809277259 14:0.5416666666666666 15:0.7647058823529411 16:0.6333004963811236 
0.0 0.0 0.22098177374523081 0.0 1.0 0.2637599769870152 1.0 0.8690288647933916 0.13067053134676276 0.0 1.0 1.0 0.0 0.0 1:0.0 2:0.0 3:0.0 4:0.061224489795918366 5:0.5740740740740741 6:1.0 7:0.8017837257372732 8:0.0 9:0.19787489465862407 10:1.0 11:0.6666666666666666 12:0.0 13:0.2886751345948129 14:0.3333333333333333 15:0.34782608695652173 16:0.2903816034562511 
1.0 0.0 0.0 0.0 1.0 0.0 1.0 1.0 0.5687367677086435 0.0 1.0 1.0 0.0 0.0 1:0.0 2:0.0 3:0.0 4:0.08673469387755102 5:0.5740740740740741 6:1.0 7:0.8703882797784892 8:0.0 9:0.2641733560028444 10:1.0 11:0.3333333333333333 12:0.0 13:0.2886751345948129 14:0.375 15:0.391304347826087 16:0.3266793038882825 
0.379583786028684 0.0 0.0 0.0 0.0 0.0 0.0 0.4603116331618538 0.0 0.0 0.0 1.0 0.0 0.0 1:0.0 2:0.0 3:0.0 4:0.10204081632653061 5:0.8333333333333333 6:1.0 7:0.7144345083117604 8:0.0 9:0.20723014116870048 10:0.5 11:0.5 12:1.0 13:0.40824829046386296 14:0.2916666666666667 15:0.7777777777777778 16:0.5222329678670935 
1.0 0.0 0.0 0.0 1.0 0.0 0.0 0.02650421290614068 0.0 0.0 0.0 0.0 0.0 0.0 1:0.7071067811865475 2:0.0 3:0.0 4:0.3208955223880597 5:0.6388888888888888 6:1.0 7:0.7559289460184544 8:0.0 9:0.3308701037496165 10:0.0 11:0.0 12:0.0 13:0.0 14:0.6111111111111112 15:0.8461538461538461 16:0.7190924955066749 
0.0 0.0 0.0 0.0 1.0 0.0 1.0 1.0 0.0 0.0 1.0 1.0 0.0 0.0 1:0.0 2:0.0 3:0.0 4:0.15671641791044777 5:0.8055555555555556 6:1.0 7:0.3333333333333333 8:0.0 9:0.2868985068790137 10:0.0 11:0.0 12:0.0 13:0.0 14:0.16666666666666666 15:0.42857142857142855 16:0.2672612419124244 
0.0 0.0 0.0 1.0 1.0 0.0 0.0 1.0 0.0 0.0 0.0 1.0 0.0 0.0 1:0.5 2:0.0 3:0.0 4:0.15671641791044777 5:0.6944444444444444 6:1.0 7:0.5039526306789696 8:0.0 9:0.33349412340898404 10:0.0 11:0.0 12:0.0 13:0.0 14:0.2777777777777778 15:0.5 16:0.39223227027636814 
0.0 0.0 0.0 1.0 1.0 0.0 1.0 0.0 0.0 0.0 0.0 1.0 0.0 1.0 1:0.5773502691896258 2:0.0 3:0.0 4:0.10236220472440945 5:0.7222222222222222 6:0.0 7:0.31622776601683794 8:0.0 9:0.2936231883480686 10:0.0 11:0.0 12:0.0 13:0.0 14:0.2222222222222222 15:0.4 16:0.29814239699997197 
0.0 0.0 0.0 1.0 1.0 0.0 0.2504325217386109 0.0 0.0 0.0 0.0 1.0 0.0 1.0 1:0.5773502691896258 2:0.0 3:0.0 4:0.10236220472440945 5:0.7222222222222222 6:0.0 7:0.31622776601683794 8:0.0 9:0.2936231883480686 10:0.0 11:0.0 12:0.0 13:0.0 14:0.2222222222222222 15:0.4 16:0.29814239699997197 
0.0 0.0 0.0 1.0 1.0 0.0 0.0 0.0 0.0 0.0 1.0 1.0 0.0 0.0 1:0.5773502691896258 2:0.0 3:0.0 4:0.14960629921259844 5:0.75 6:0.0 7:0.5773502691896258 8:0.0 9:0.4154423079731532 10:0.0 11:0.0 12:0.0 13:0.5773502691896258 14:0.3333333333333333 15:0.6666666666666666 16:0.4714045207910317 
0.0 0.0 0.0 1.0 1.0 0.2934815703503822 0.0 0.06373935796279259 0.0 0.0 0.0 1.0 0.0 1.0 1:0.5773502691896258 2:0.0 3:0.0 4:0.10236220472440945 5:0.7222222222222222 6:0.0 7:0.31622776601683794 8:0.0 9:0.2936231883480686 10:0.0 11:0.0 12:0.0 13:0.0 14:0.2222222222222222 15:0.4 16:0.29814239699997197 
0.062214944683379875 0.0 0.0 1.0 1.0 0.0 0.0 0.0 0.0 0.0 1.0 1.0 0.0 0.0 1:0.5773502691896258 2:0.0 3:0.0 4:0.14960629921259844 5:0.75 6:0.0 7:0.5773502691896258 8:0.0 9:0.4154423079731532 10:0.0 11:0.0 12:0.0 13:0.5773502691896258 14:0.3333333333333333 15:0.6666666666666666 16:0.4714045207910317 
0.0 0.0 0.0 0.14896705535183669 1.0 0.0 1.0 1.0 0.0 0.0 1.0 1.0 0.0 1.0 1:0.0 2:0.0 3:0.0 4:0.09448818897637795 5:0.6944444444444444 6:0.0 7:0.24999999999999994 8:0.0 9:0.3637490648545217 10:0.0 11:0.0 12:0.0 13:0.0 14:0.16666666666666666 15:0.3 16:0.2614881801842454 
0.0 0.0 0.0 0.0 1.0 0.0 0.0 0.0 0.0 0.0 1.0 1.0 0.0 1.0 1:0.0 2:0.0 3:0.0 4:0.112 5:0.8157894736842105 6:0.0 7:0.26726124191242434 8:0.0 9:0.15835921325051758 10:0.0 11:0.0 12:0.0 13:0.0 14:0.21052631578947367 15:0.5714285714285714 16:0.3468439878096479 
0.0 0.0 0.0 0.0 1.0 0.0 0.0 0.0 0.0 0.0 1.0 1.0 0.0 1.0 1:0.0 2:0.0 3:0.0 4:0.112 5:0.8157894736842105 6:0.0 7:0.26726124191242434 8:0.0 9:0.15835921325051758 10:0.0 11:0.0 12:0.0 13:0.0 14:0.21052631578947367 15:0.5714285714285714 16:0.3468439878096479 
0.0 0.0 0.0 0.0 1.0 0.0 0.0 0.0 0.0 0.0 0.0 0.0 0.0 0.0 1:0.5773502691896258 2:0.0 3:0.0 4:0.12121212121212122 5:0.75 6:1.0 7:0.5976143046671968 8:0.0 9:0.35016794658399625 10:0.5 11:0.0 12:0.0 13:0.0 14:0.4230769230769231 15:0.8461538461538461 16:0.5983211225424633 
0.0 0.0 0.0 0.0 1.0 0.0 0.0 0.0 0.0 0.0 0.0 0.0 0.0 0.0 1:0.5773502691896258 2:0.0 3:0.0 4:0.12121212121212122 5:0.75 6:1.0 7:0.5976143046671968 8:0.0 9:0.35016794658399625 10:0.5 11:0.0 12:0.0 13:0.0 14:0.4230769230769231 15:0.8461538461538461 16:0.5983211225424633 
0.0 0.0 0.0 1.0 1.0 0.0 0.0 0.0 0.0 0.0 0.0 0.0 0.0 0.0 1:0.7302967433402214 2:0.0 3:0.0 4:0.4494949494949495 5:0.5769230769230769 6:0.5 7:0.6999999999999998 8:0.0 9:0.2858771138164024 10:0.5 11:0.0 12:0.0 13:0.4472135954999579 14:0.6538461538461539 15:0.7727272727272727 16:0.7108057085060271 
0.0 0.0 0.0 0.047060942206463056 0.0 0.0 0.0 0.0 0.0 0.0 0.0 0.0 0.0 0.0 1:0.8164965809277261 2:0.0 3:0.0 4:0.4494949494949495 5:0.6538461538461539 6:0.5 7:0.7378647873726218 8:0.0 9:0.31507961469012097 10:0.5 11:0.0 12:0.0 13:0.4472135954999579 14:0.6538461538461539 15:0.9444444444444444 16:0.7858252779857413 
0.0 0.0 0.0 0.19473668790314283 1.0 0.0 1.0 0.0 0.0 0.0 0.0 0.0 0.0 0.0 1:0.4082482904638631 2:0.0 3:0.0 4:0.08585858585858586 5:0.7884615384615384 6:1.0 7:0.47809144373375745 8:0.0 9:0.3657976435776596 10:0.5 11:0.0 12:0.0 13:0.0 14:0.23076923076923078 15:0.6 16:0.38074980525429486 
0.0 0.0 0.0 0.9821477625294466 1.0 0.0 1.0 1.0 0.0 0.0 1.0 1.0 0.0 0.0 1:0.0 2:0.0 3:0.0 4:0.21505376344086022 5:0.6153846153846154 6:1.0 7:0.5962847939999439 8:0.0 9:0.34357846440049356 10:0.0 11:0.0 12:0.0 13:0.0 14:0.23076923076923078 15:0.3 16:0.2631174057921088 
0.0 1.0 0.0 0.0 0.0 0.0 0.0 0.0 0.0 0.0 0.0 0.0 0.0 0.0 1:0.0 2:0.0 3:0.0 4:0.6984126984126984 5:0.6666666666666666 6:0.0 7:0.7745966692414834 8:0.0 9:0.33647983749403626 10:1.0 11:1.0 12:0.0 13:1.0 14:0.6666666666666666 15:1.0 16:0.8164965809277261 
0.0 0.0 0.0 0.0 1.0 0.0 1.0 0.0 0.15549517019087086 0.0 0.0 1.0 0.0 0.0 1:0.0 2:0.0 3:0.0 4:0.19298245614035087 5:0.5625 6:1.0 7:0.5999999999999999 8:1.0 9:0.22523901219553394 10:1.0 11:0.0 12:0.0 13:0.0 14:0.5 15:0.5714285714285714 16:0.5345224838248487 
1.0 0.0 0.0 0.8750113197378471 1.0 0.0 0.0 0.0 0.0 0.0 1.0 1.0 0.0 0.0 1:0.0 2:0.0 3:0.0 4:0.21052631578947367 5:0.6875 6:1.0 7:0.5163977794943222 8:0.0 9:0.40308976013844167 10:1.0 11:1.0 12:0.0 13:1.0 14:0.375 15:0.6 16:0.4743416490252569 
0.0 0.0 0.0 0.0 1.0 0.0 0.0 0.0 0.0 0.0 1.0 0.0 0.0 0.0 1:0.4472135954999579 2:0.0 3:0.0 4:0.08860759493670886 5:0.7727272727272727 6:0.5 7:0.42426406871192845 8:0.0 9:0.23352725406837663 10:0.5 11:0.0 12:0.0 13:0.5773502691896258 14:0.2727272727272727 15:0.6 16:0.4045199174779452 
0.0 0.0 0.0 0.0 1.0 0.0 0.0 0.0 0.0 0.0 1.0 0.0 0.0 0.0 1:0.4472135954999579 2:0.0 3:0.0 4:0.08860759493670886 5:0.7727272727272727 6:0.5 7:0.42426406871192845 8:0.0 9:0.23352725406837663 10:0.5 11:0.0 12:0.0 13:0.5773502691896258 14:0.2727272727272727 15:0.6 16:0.4045199174779452 
0.0 0.0 0.0 1.0 1.0 0.0 0.0 0.0 0.0 0.0 0.0 0.0 0.0 0.0 1:0.7745966692414834 2:0.0 3:0.0 4:0.06329113924050633 5:0.7954545454545454 6:1.0 7:0.8164965809277261 8:0.3333333333333333 9:0.35670544031729917 10:1.0 11:1.0 12:0.0 13:0.40824829046386296 14:0.22727272727272727 15:0.5555555555555556 16:0.3553345272593507 
0.0 0.0 0.0 0.0 1.0 0.0 0.0 0.0 0.0 0.0 1.0 0.5028358380576108 0.0 0.0 1:0.4472135954999579 2:0.0 3:0.0 4:0.08860759493670886 5:0.7727272727272727 6:0.5 7:0.42426406871192845 8:0.0 9:0.23352725406837663 10:0.5 11:0.0 12:0.0 13:0.5773502691896258 14:0.2727272727272727 15:0.6 16:0.4045199174779452 
0.0 0.0 0.0 1.0 1.0 0.0 0.0 0.03414936417752375 0.0 0.0 0.0 0.0 0.0 0.0 1:0.7745966692414834 2:0.0 3:0.0 4:0.06329113924050633 5:0.7954545454545454 6:1.0 7:0.8164965809277261 8:0.3333333333333333 9:0.35670544031729917 10:1.0 11:1.0 12:0.0 13:0.40824829046386296 14:0.22727272727272727 15:0.5555555555555556 16:0.3553345272593507 
0.0 0.0 0.760349948760597 0.7961523873375053 1.0 0.0 0.0 1.0 0.0 0.0 0.0 1.0 0.0 0.0 1:0.7453559924999299 2:0.0 3:0.0 4:0.0949367088607595 5:0.7272727272727273 6:0.3333333333333333 7:0.6363961030678926 8:0.3333333333333333 9:0.29103221481029007 10:1.0 11:1.0 12:0.0 13:0.5163977794943222 14:0.13636363636363635 15:0.25 16:0.1846372364689991 
0.0 0.0 0.0 1.0 1.0 1.0 0.0 1.0 0.0 0.0 0.4089518344898845 1.0 0.0 0.0 1:0.5773502691896258 2:0.0 3:0.0 4:0.07352941176470588 5:0.6578947368421053 6:1.0 7:0.4803844614152615 8:0.0 9:0.310470082914461 10:0.5 11:0.5 12:0.0 13:0.4999999999999999 14:0.21052631578947367 15:0.3076923076923077 16:0.2545139051903111 
0.0 0.0 0.0 0.9900144786655926 1.0 0.0 0.0 1.0 0.0 0.0 0.0 0.0 0.0 0.0 1:1.0 2:0.0 3:0.0 4:0.08088235294117647 5:0.7105263157894737 6:1.0 7:0.7071067811865475 8:0.0 9:0.24278201249645612 10:0.0 11:0.0 12:0.0 13:0.0 14:0.21052631578947367 15:0.36363636363636365 16:0.27668578554642986 
0.0 0.0 0.0 0.0 1.0 0.0 0.0 0.0 0.0 0.0 0.0 1.0 0.0 0.0 1:0.4999999999999999 2:0.0 3:0.0 4:0.11029411764705882 5:0.763157894736842 6:1.0 7:0.30151134457776363 8:0.0 9:0.2126880303028394 10:0.0 11:0.0 12:0.0 13:0.0 14:0.15789473684210525 15:0.3333333333333333 16:0.22941573387056172 
0.0 0.0 0.0 1.0 1.0 0.011046216584926032 1.0 0.0 0.0 0.0 0.0 0.0 0.0 0.0 1:0.7071067811865475 2:0.0 3:0.0 4:0.07352941176470588 5:0.763157894736842 6:1.0 7:0.5222329678670935 8:0.0 9:0.2937939764947646 10:0.5 11:0.5 12:0.0 13:0.0 14:0.15789473684210525 15:0.3333333333333333 16:0.22941573387056172 
0.0 0.0 0.0 0.0 1.0 0.0 0.0 0.0 0.0 0.0 0.0 1.0 0.0 0.0 1:0.4999999999999999 2:0.0 3:0.0 4:0.11029411764705882 5:0.763157894736842 6:1.0 7:0.30151134457776363 8:0.0 9:0.2126880303028394 10:0.0 11:0.0 12:0.0 13:0.0 14:0.15789473684210525 15:0.3333333333333333 16:0.22941573387056172 
1.0 0.0 0.0 0.38635683441711444 1.0 0.0 1.0 1.0 0.0 0.0 1.0 1.0 0.0 0.0 1:0.0 2:0.0 3:0.0 4:0.22988505747126436 5:0.7307692307692308 6:0.0 7:0.5669467095138409 8:0.0 9:0.37806618668687636 10:0.0 11:0.0 12:0.0 13:0.0 14:0.3076923076923077 15:0.5714285714285714 16:0.4193139346887673 
0.2288703451393694 0.0 0.0 1.0 1.0 0.0 1.0 1.0 0.0 0.0 1.0 1.0 0.0 1.0 1:0.0 2:0.0 3:0.0 4:0.20689655172413793 5:0.5769230769230769 6:0.0 7:0.40089186286863654 8:0.0 9:0.3800707451835271 10:0.0 11:0.0 12:0.0 13:0.0 14:0.23076923076923078 15:0.3 16:0.2307692307692308 
0.0 0.0 0.24551390584209765 1.0 1.0 0.0 1.0 1.0 0.6081501976835997 0.0 1.0 1.0 0.0 0.0 1:0.0 2:0.0 3:0.0 4:0.18556701030927836 5:0.75 6:1.0 7:0.3779644730092272 8:0.0 9:0.40381623344877676 10:0.5 11:0.5 12:0.0 13:0.0 14:0.21428571428571427 15:0.42857142857142855 16:0.30304576336566325 
0.0 0.0 0.0 1.0 1.0 0.0 1.0 0.0 0.0 0.0 0.15265550018474286 1.0 0.0 0.0 1:0.0 2:0.0 3:0.0 4:0.21649484536082475 5:0.8214285714285714 6:1.0 7:0.5669467095138409 8:0.0 9:0.3645526558065258 10:0.5 11:0.0 12:0.0 13:0.0 14:0.2857142857142857 15:0.8 16:0.47809144373375745 
1.0 0.0 0.0 0.0 0.0 0.0 0.0 0.0 0.0 0.0 0.0 0.23431253223162632 0.0 0.0 1:0.0 2:0.0 3:0.0 4:0.20491803278688525 5:0.75 6:1.0 7:0.7559289460184544 8:0.0 9:0.1829181146142667 10:0.5 11:0.5 12:1.0 13:0.4999999999999999 14:0.3888888888888889 15:0.7777777777777778 16:0.5499719409228703 
0.0 0.0 0.49945451213128544 0.0 1.0 0.0 1.0 0.0 0.0 0.0 0.0 1.0 0.0 0.0 1:0.0 2:0.0 3:0.0 4:0.15384615384615385 5:0.7692307692307692 6:0.0 7:0.8660254037844387 8:0.0 9:0.27741935483870966 10:1.0 11:1.0 12:0.0 13:0.0 14:0.3333333333333333 15:0.6666666666666666 16:0.4216370213557839 
0.5001296420153241 0.0 0.0 0.0 1.0 0.0 1.0 1.0 0.0 0.0 1.0 1.0 0.0 1.0 1:0.0 2:0.0 3:0.0 4:0.10256410256410256 5:0.6538461538461539 6:0.0 7:0.5 8:0.0 9:0.30911019525030614 10:0.5 11:0.5 12:0.0 13:0.0 14:0.16666666666666666 15:0.2222222222222222 16:0.17213259316477406 
0.0 0.0 0.9561957342032668 0.0 1.0 0.2332594327838388 0.0 0.0 0.0 0.0 1.0 1.0 0.0 0.0 1:0.0 2:0.0 3:0.0 4:0.1484375 5:0.7105263157894737 6:1.0 7:0.45291081365783836 8:0.0 9:0.32621866073934946 10:1.0 11:1.0 12:0.0 13:1.0 14:0.35294117647058826 15:0.5454545454545454 16:0.44008622942335207 
0.0 0.0 0.0 0.0 1.0 0.0 1.0 1.0 0.0 0.0 1.0 1.0 0.0 0.0 1:0.0 2:0.0 3:0.0 4:0.125 5:0.7894736842105263 6:0.5 7:0.2773500981126146 8:0.0 9:0.29436837664176846 10:0.0 11:0.0 12:0.0 13:0.0 14:0.23529411764705882 15:0.5 16:0.3686048903872428 
0.0 0.0 0.0 0.0 1.0 0.0 1.0 0.0 0.11061281021639571 0.0 1.0 1.0 0.0 0.0 1:0.0 2:0.0 3:0.0 4:0.1171875 5:0.763157894736842 6:0.5 7:0.3721042037676254 8:0.0 9:0.3276320004818078 10:1.0 11:0.0 12:0.0 13:0.0 14:0.29411764705882354 15:0.5555555555555556 16:0.41702882811414954 
0.0 0.0 0.0 0.0 1.0 0.22631203174324105 0.0 1.0 0.0 0.0 0.0 0.0 0.0 0.0 1:1.0 2:0.0 3:0.0 4:0.1171875 5:0.6842105263157895 6:0.3333333333333333 7:0.16012815380508716 8:0.0 9:0.268905932019277 10:1.0 11:1.0 12:0.0 13:1.0 14:0.29411764705882354 15:0.4166666666666667 16:0.3009646327144231 
0.0 0.0 0.0 0.2014550444335807 0.0 0.7427104145021873 0.0 0.0 0.0 0.0 0.0 0.0 0.0 0.0 1:0.0 2:0.0 3:0.0 4:0.3072289156626506 5:0.5769230769230769 6:1.0 7:0.819891591749923 8:1.0 9:0.2556672530367776 10:1.0 11:1.0 12:0.0 13:0.35355339059327373 14:0.6923076923076923 15:0.8181818181818182 16:0.7526178090063816 
1.0 0.0 0.004917006804526224 0.0 1.0 0.0 0.0 0.0 0.0 0.0 0.0 0.5663640566050533 0.0 0.0 1:0.0 2:0.0 3:0.0 4:0.22123893805309736 5:0.7352941176470589 6:1.0 7:0.9999999999999999 8:0.0 9:0.19709685528366527 10:1.0 11:1.0 12:1.0 13:0.4999999999999999 14:0.35294117647058826 15:0.6666666666666666 16:0.485071250072666 
1.0 0.0 0.0 1.0 1.0 0.0 0.0 0.0 0.0 0.0 0.0 0.0 0.0 0.0 1:0.7071067811865475 2:0.0 3:0.0 4:0.5740740740740741 5:0.59375 6:1.0 7:0.7142857142857142 8:1.0 9:0.43407691250146974 10:0.5 11:0.5 12:0.0 13:0.40824829046386296 14:0.5625 15:0.6923076923076923 16:0.6240377207533828 
0.0 0.0 1.0 1.0 1.0 0.5218609349413105 1.0 1.0 0.6004267252108338 0.0 1.0 1.0 0.0 0.0 1:0.0 2:0.0 3:0.0 4:0.16666666666666666 5:0.78125 6:1.0 7:0.3779644730092272 8:0.0 9:0.3557044751405654 10:0.5 11:0.5 12:0.0 13:0.0 14:0.1875 15:0.42857142857142855 16:0.2834733547569204 
0.0 0.0 0.0 0.0 1.0 0.0 1.0 1.0 0.0 0.0 1.0 1.0 0.0 0.0 1:0.0 2:0.0 3:0.0 4:0.18518518518518517 5:0.6875 6:1.0 7:0.5962847939999439 8:0.0 9:0.3391558485649846 10:0.0 11:0.0 12:0.0 13:0.0 14:0.25 15:0.4 16:0.31622776601683794 
0.0 0.0 0.0 1.0 0.0 0.0 0.0 0.0 0.0 0.0 0.0 0.0 0.0 0.0 1:1.0 2:0.0 3:0.0 4:0.5740740740740741 5:0.71875 6:1.0 7:0.8451542547285165 8:1.0 9:0.44463105377232803 10:0.5 11:0.5 12:0.0 13:0.5773502691896258 14:0.5625 15:1.0 16:0.75 
0.0 0.0 0.0 0.0 1.0 0.0 1.0 1.0 0.0 0.0 1.0 1.0 0.0 0.0 1:0.0 2:0.0 3:0.0 4:0.18518518518518517 5:0.6875 6:1.0 7:0.5962847939999439 8:0.0 9:0.3391558485649846 10:0.0 11:0.0 12:0.0 13:0.0 14:0.25 15:0.4 16:0.31622776601683794 
0.0 0.0 0.0 0.22397286344970657 1.0 0.0 1.0 0.0 0.038537756591514954 0.0 1.0 1.0 0.0 0.0 1:0.0 2:0.0 3:0.0 4:0.19444444444444445 5:0.625 6:0.3333333333333333 7:0.545544725589981 8:0.0 9:0.3503485972755054 10:0.5 11:0.0 12:0.0 13:0.0 14:0.25 15:0.3333333333333333 16:0.2886751345948129 
0.0 0.0 0.34827909586485684 1.0 1.0 0.5828638653854404 1.0 0.6547401056372294 0.0 0.0 1.0 1.0 0.0 0.0 1:0.0 2:0.0 3:0.0 4:0.07042253521126761 5:0.825 6:1.0 7:0.0 8:0.0 9:0.36643270507768216 10:0.0 11:0.0 12:0.0 13:0.0 14:0.2222222222222222 15:0.5714285714285714 16:0.3086066999241838 
1.0 0.0 0.0 0.7171987199361063 1.0 0.0 0.0 1.0 0.0 0.12154897408729944 1.0 1.0 0.0 0.0 1:0.0 2:0.0 3:0.0 4:0.19626168224299065 5:0.34090909090909094 6:1.0 7:0.6689936080056726 8:1.0 9:0.28833537846128166 10:0.0 11:0.0 12:0.0 13:0.7071067811865475 14:0.5 15:0.3333333333333333 16:0.4950737714883372 
0.0 0.0 0.0 0.0 1.0 0.0 1.0 1.0 0.0 0.0 1.0 1.0 0.0 0.0 1:0.0 2:0.0 3:0.0 4:0.09345794392523364 5:0.7 6:1.0 7:0.4193139346887673 8:0.0 9:0.3355178850918937 10:0.0 11:0.0 12:0.0 13:0.0 14:0.21428571428571427 15:0.3333333333333333 16:0.3233808333817773 
0.0 0.0 0.15294299950828713 0.0 1.0 0.0 1.0 1.0 0.0 0.0 1.0 1.0 0.0 0.0 1:0.0 2:0.0 3:0.0 4:0.11214953271028037 5:0.7666666666666666 6:1.0 7:0.2773500981126146 8:0.0 9:0.3057114776000223 10:0.0 11:0.0 12:0.0 13:0.0 14:0.14285714285714285 15:0.2857142857142857 16:0.18333969940564224 
0.0 0.0 0.0 0.0 1.0 0.0 1.0 0.20217883974426187 0.0 0.0 1.0 1.0 0.0 1.0 1:0.0 2:0.0 3:0.0 4:0.06666666666666667 5:0.8571428571428572 6:0.5 7:0.23570226039551587 8:0.0 9:0.31868620151425575 10:0.0 11:0.0 12:0.0 13:0.0 14:0.07142857142857142 15:0.25 16:0.1336306209562122 
0.9258720006513719 0.0 0.0 0.0 0.0 0.0 0.0 0.0 0.0 0.0 0.0 0.0 0.0 0.0 1:1.0 2:0.0 3:0.0 4:0.5945945945945946 5:0.55 6:1.0 7:0.7715167498104595 8:0.0 9:0.40419452823242025 10:0.5 11:0.5 12:0.0 13:1.0 14:0.8 15:0.8888888888888888 16:0.8432740427115678 
0.0 0.0 0.0 0.0 1.0 0.0 0.0 0.0 0.0 0.0 0.0 1.0 0.0 0.0 1:0.40824829046386296 2:0.0 3:0.0 4:0.19745222929936307 5:0.7391304347826086 6:0.0 7:0.3779644730092272 8:0.0 9:0.27568090835465797 10:0.5 11:0.5 12:0.0 13:0.4999999999999999 14:0.30434782608695654 15:0.5833333333333334 16:0.4213504858001923 
0.0 0.0 0.0 0.0 1.0 0.0 0.0 0.0 0.0 0.0 0.0 0.0 0.0 0.0 1:0.8164965809277259 2:0.0 3:0.0 4:0.06993006993006994 5:0.7368421052631579 6:1.0 7:0.3779644730092272 8:0.0 9:0.25634505919887396 10:0.0 11:0.0 12:0.0 13:0.0 14:0.2631578947368421 15:0.5 16:0.3627381250550058 
0.0 0.0 0.0 0.0 0.614379490968479 0.0 0.0 0.0 0.0 0.0 0.0 0.0 0.0 0.0 1:0.5773502691896258 2:0.0 3:0.0 4:0.08391608391608392 5:0.868421052631579 6:1.0 7:0.5773502691896257 8:0.0 9:0.3452645204563362 10:1.0 11:1.0 12:0.0 13:0.0 14:0.21052631578947367 15:0.8 16:0.4103913408340616 
0.0 0.0 0.0 0.2272621976083163 1.0 0.0 0.0 0.0 0.0 0.0 0.0 0.0 0.0 0.0 1:0.8164965809277259 2:0.0 3:0.0 4:0.06993006993006994 5:0.7368421052631579 6:1.0 7:0.3779644730092272 8:0.0 9:0.25634505919887396 10:0.0 11:0.0 12:0.0 13:0.0 14:0.2631578947368421 15:0.5 16:0.3627381250550058 
0.0 0.0 0.0 0.0 1.0 0.0 0.0 0.0 0.0 0.0 0.0 0.0 0.0 0.0 1:0.5773502691896258 2:0.0 3:0.0 4:0.09090909090909091 5:0.7894736842105263 6:1.0 7:0.5 8:0.0 9:0.28827838424788316 10:1.0 11:1.0 12:0.0 13:0.0 14:0.3157894736842105 15:0.75 16:0.4866642633922875 
0.0 0.0 0.0 0.0 1.0 0.0 0.0 1.0 0.0 0.0 0.0 0.0 0.0 0.0 1:0.7745966692414834 2:0.0 3:0.0 4:0.1958041958041958 5:0.6842105263157895 6:1.0 7:0.4811252243246881 8:0.0 9:0.3839279542427859 10:0.0 11:0.0 12:0.0 13:0.7071067811865475 14:0.2631578947368421 15:0.4166666666666667 16:0.33113308926626095 
0.0 0.0 0.0 1.0 1.0 0.8175468428007279 1.0 0.0 0.0 0.0 0.0 0.0 0.0 0.0 1:0.7071067811865475 2:0.0 3:0.0 4:0.3 5:0.5454545454545454 6:0.5 7:0.7302967433402214 8:0.0 9:0.3379791833138687 10:1.0 11:0.0 12:0.0 13:0.0 14:0.45454545454545453 15:0.5 16:0.4767312946227962 
1.0 0.0 0.19877191039872288 1.0 1.0 0.0 1.0 0.0 0.5191801961906674 0.0 1.0 1.0 0.0 0.0 1:0.0 2:0.0 3:0.0 4:0.1125 5:0.7727272727272727 6:1.0 7:0.7071067811865476 8:0.0 9:0.43405036052094864 10:1.0 11:1.0 12:0.0 13:0.0 14:0.2727272727272727 15:0.6 16:0.40451991747794525 
0.0 0.0 0.0 0.7771675516481517 1.0 1.0 1.0 0.0 0.0 0.0 0.0 0.0 0.0 0.0 1:0.7071067811865475 2:0.0 3:0.0 4:0.3 5:0.5454545454545454 6:0.5 7:0.7302967433402214 8:0.0 9:0.3379791833138687 10:1.0 11:0.0 12:0.0 13:0.0 14:0.45454545454545453 15:0.5 16:0.4767312946227962 
0.0 0.0 0.0 0.0 1.0 0.0 0.0 0.45693659548316895 0.0 0.0 0.0 0.0 0.0 0.0 1:0.7071067811865475 2:0.0 3:0.0 4:0.275 5:0.4583333333333333 6:0.3333333333333333 7:0.8215838362577491 8:0.0 9:0.31270352856235994 10:1.0 11:1.0 12:0.0 13:1.0 14:0.45454545454545453 15:0.4166666666666667 16:0.4351941398892446 
1.0 1.0 0.0 0.0 1.0 0.0 0.0 0.0 0.0 0.0 0.0 0.0 0.0 0.0 1:1.0 2:0.0 3:0.0 4:0.7021276595744681 5:0.6428571428571428 6:1.0 7:0.8164965809277259 8:0.0 9:0.5675324675324674 10:1.0 11:1.0 12:0.0 13:0.0 14:0.7142857142857143 15:1.0 16:0.8451542547285165 
0.0 0.0 0.057765730235376476 1.0 1.0 0.0 0.0 0.0 0.0 0.0 1.0 1.0 0.0 0.0 1:0.0 2:0.0 3:0.0 4:0.3918918918918919 5:0.6818181818181819 6:0.0 7:0.4472135954999579 8:0.0 9:0.34687336473050756 10:0.3333333333333333 11:0.3333333333333333 12:0.0 13:0.4999999999999999 14:0.36363636363636365 15:0.5714285714285714 16:0.4558423058385518 
0.9360264546442318 0.0 0.0 0.094448328976522 1.0 0.0 0.0 0.0 0.0 0.0 1.0 1.0 0.0 0.0 1:0.0 2:0.0 3:0.0 4:0.4864864864864865 5:0.5909090909090909 6:0.0 7:0.3999999999999999 8:0.0 9:0.3380707357729416 10:0.6666666666666666 11:0.6666666666666666 12:0.0 13:0.7071067811865475 14:0.45454545454545453 15:0.5555555555555556 16:0.502518907629606 
0.0 0.0 0.0 0.0 0.3257373232303441 0.0 0.0 0.0 0.0 0.0 0.0 1.0 0.0 0.0 1:0.0 2:0.0 3:0.0 4:0.4864864864864865 5:0.7272727272727273 6:0.0 7:0.5163977794943222 8:0.0 9:0.38301295478714836 10:0.6666666666666666 11:0.6666666666666666 12:0.0 13:0.7071067811865475 14:0.45454545454545453 15:0.8333333333333334 16:0.6154574548966638 
0.0 0.0 0.0 1.0 1.0 0.0 1.0 1.0 0.0 0.0 1.0 1.0 0.0 0.0 1:0.2886751345948129 2:0.0 3:0.0 4:0.10606060606060606 5:0.35714285714285715 6:1.0 7:0.5833333333333334 8:0.0 9:0.22396519993205072 10:0.6666666666666666 11:0.3333333333333333 12:0.0 13:0.0 14:0.35 15:0.25925925925925924 16:0.3265986323710904 
0.0 0.0 0.0 0.0 1.0 0.0 1.0 0.0 0.0 0.0 1.0 1.0 0.0 0.9611959284364685 1:0.0 2:0.0 3:0.0 4:0.08823529411764706 5:0.675 6:0.0 7:0.31622776601683794 8:0.0 9:0.30880294946883724 10:0.5 11:0.5 12:0.0 13:0.35355339059327373 14:0.2 15:0.3076923076923077 16:0.24806946917841693 
0.0 0.0 0.0 0.0 1.0 0.0 1.0 0.0 0.0 0.0 1.0 1.0 0.0 1.0 1:0.0 2:0.0 3:0.0 4:0.08823529411764706 5:0.675 6:0.0 7:0.31622776601683794 8:0.0 9:0.30880294946883724 10:0.5 11:0.5 12:0.0 13:0.35355339059327373 14:0.2 15:0.3076923076923077 16:0.24806946917841693 
1.0 1.0 0.6298563164548016 1.0 1.0 0.08589949856263139 0.0 0.0 0.0 0.0 1.0 1.0 0.0 0.0 1:0.0 2:0.0 3:0.0 4:0.5588235294117647 5:0.47619047619047616 6:0.0 7:0.7882407813680822 8:0.0 9:0.3486349183055067 10:0.5 11:0.5 12:0.0 13:0.6708203932499369 14:0.6 15:0.631578947368421 16:0.6260990336999411 
0.0 0.0 0.0 0.0 1.0 0.0 1.0 0.0 0.0 0.0 1.0 1.0 0.0 1.0 1:0.0 2:0.0 3:0.0 4:0.08823529411764706 5:0.7 6:0.0 7:0.34668762264076824 8:0.0 9:0.3043234918851324 10:0.5 11:0.5 12:0.0 13:0.2886751345948129 14:0.15 15:0.25 16:0.19364916731037085 
0.8011770255985845 0.0 0.0 0.0 1.0 0.0 0.0 0.0 0.0 0.0 0.0 1.0 0.0 0.0 1:0.7071067811865475 2:0.0 3:0.0 4:0.13846153846153847 5:0.7222222222222222 6:0.0 7:0.8660254037844387 8:0.0 9:0.5497835497835498 10:1.0 11:1.0 12:0.0 13:0.0 14:0.4444444444444444 15:0.8 16:0.5962847939999439 
0.0 0.0 0.0 0.0 1.0 0.0 0.0 0.0 0.0 0.0 0.0 0.0 0.0 0.0 1:0.6324555320336759 2:0.0 3:0.0 4:0.25595238095238093 5:0.7045454545454546 6:1.0 7:0.7171371656006361 8:0.0 9:0.29222833980805546 10:0.0 11:0.0 12:0.0 13:0.0 14:0.5 15:0.8461538461538461 16:0.6504436355879909 
0.0 0.0 0.0 0.0 1.0 0.0 0.0 0.0 0.0 0.0 0.0 0.0 0.0 0.0 1:0.6324555320336759 2:0.0 3:0.0 4:0.25595238095238093 5:0.7045454545454546 6:1.0 7:0.7171371656006361 8:0.0 9:0.29222833980805546 10:0.0 11:0.0 12:0.0 13:0.0 14:0.5 15:0.8461538461538461 16:0.6504436355879909 
0.0 0.0 0.0 0.0 1.0 0.0 1.0 1.0 0.0 0.0 0.9112246837661024 1.0 0.0 0.0 1:0.0 2:0.0 3:0.0 4:0.125 5:0.8409090909090908 6:1.0 7:0.31622776601683794 8:0.0 9:0.24722105380000114 10:0.0 11:0.0 12:0.0 13:0.0 14:0.13636363636363635 15:0.42857142857142855 16:0.24174688920761409 
0.0 0.0 0.0 0.0 1.0 0.0 0.0 1.0 0.0 0.0 0.0 1.0 0.0 0.0 1:0.4472135954999579 2:0.0 3:0.0 4:0.125 5:0.75 6:1.0 7:0.47809144373375745 8:0.0 9:0.2942595206549859 10:0.0 11:0.0 12:0.0 13:0.0 14:0.22727272727272727 15:0.5 16:0.35478743759344955 
1.0 0.0 0.0 0.0 1.0 0.0 0.0 0.0 0.0 0.0 0.0 0.0 0.0 0.0 1:0.0 2:0.0 3:0.0 4:0.4235294117647059 5:0.6458333333333334 6:1.0 7:0.9725975251592748 8:0.0 9:0.2747563451383768 10:1.0 11:1.0 12:0.0 13:0.4999999999999999 14:0.6086956521739131 15:0.8235294117647058 16:0.7134772412317412 
0.0 0.0 0.0 0.0 1.0 0.0 1.0 0.0 0.0 0.0 0.0 1.0 0.0 0.0 1:0.4472135954999579 2:0.0 3:0.0 4:0.10240963855421686 5:0.7826086956521738 6:1.0 7:0.5393598899705937 8:0.0 9:0.2752965681183502 10:1.0 11:1.0 12:0.0 13:0.0 14:0.25 15:0.5 16:0.35233213170882205 
0.0 0.0 0.0 0.0 1.0 0.0 1.0 0.0 0.0 0.0 0.0 1.0 0.0 0.0 1:0.4472135954999579 2:0.0 3:0.0 4:0.10240963855421686 5:0.7826086956521738 6:1.0 7:0.5393598899705937 8:0.0 9:0.2752965681183502 10:1.0 11:1.0 12:0.0 13:0.0 14:0.25 15:0.5 16:0.35233213170882205 
0.0 1.0 0.0 0.0 0.0 0.0 0.0 0.0 0.0 0.0 0.0 0.0 0.0 0.0 1:0.8944271909999159 2:0.0 3:0.0 4:0.8253012048192772 5:0.5217391304347826 6:1.0 7:1.0 8:0.0 9:0.3113136863136862 10:1.0 11:1.0 12:0.0 13:1.0 14:0.95 15:1.0 16:0.9826073688810351 
0.0 0.0 0.0 0.0 1.0 0.0 1.0 0.0 0.0 0.0 0.0 0.0 0.0 0.0 1:0.7071067811865475 2:0.0 3:0.0 4:0.10077519379844961 5:0.7941176470588236 6:1.0 7:0.5669467095138409 8:0.0 9:0.18634406529143369 10:1.0 11:1.0 12:0.0 13:0.0 14:0.17647058823529413 15:0.42857142857142855 16:0.27500954910846337 
0.0 0.0 0.0 0.0 1.0 0.6928610927085207 0.0 0.0 0.0 0.0 0.0 0.0 0.0 0.0 1:0.9128709291752769 2:0.0 3:0.0 4:0.17391304347826086 5:0.7391304347826086 6:1.0 7:0.867527617235709 8:0.0 9:0.3476979144738187 10:1.0 11:0.5 12:0.0 13:0.5773502691896258 14:0.3333333333333333 15:0.5833333333333334 16:0.3888888888888889 
0.0 0.0 0.0 0.0 0.0 0.0 0.0 0.0 0.0 0.0 1.0 1.0 0.0 0.0 1:0.0 2:0.0 3:0.0 4:0.08 5:0.8571428571428572 6:0.0 7:0.35355339059327373 8:0.0 9:0.14558781002279453 10:0.0 11:0.0 12:0.0 13:0.4472135954999579 14:0.2222222222222222 15:0.6666666666666666 16:0.3928371006591931 
0.0 0.0 0.0 0.0 0.0 0.0 0.0 0.0 0.0 0.0 0.5737281933395448 1.0 0.0 0.0 1:0.0 2:0.0 3:0.0 4:0.216 5:0.7380952380952381 6:0.0 7:0.6123724356957945 8:0.0 9:0.14174678956985579 10:0.5 11:0.5 12:0.0 13:0.5163977794943222 14:0.4444444444444444 15:0.8 16:0.5337605126836238 
0.0 0.0 0.0 0.0 0.0 0.0 0.0 0.0 0.0 0.0 1.0 1.0 0.0 0.0 1:0.0 2:0.0 3:0.0 4:0.08 5:0.7857142857142857 6:0.0 7:0.20412414523193148 8:0.0 9:0.14540666945511235 10:0.0 11:0.0 12:0.0 13:0.6324555320336759 14:0.2777777777777778 15:0.5555555555555556 16:0.3849001794597505 
0.0 0.0 0.0 0.0 1.0 0.0 1.0 0.0 0.09501409252609005 0.0 1.0 1.0 0.0 1.0 1:0.0 2:0.0 3:0.0 4:0.2127659574468085 5:0.7142857142857143 6:0.0 7:0.25 8:0.0 9:0.21971580840128258 10:0.3333333333333333 11:0.3333333333333333 12:0.0 13:0.0 14:0.21428571428571427 15:0.375 16:0.2834733547569204 
0.0 0.0 0.0 0.0 1.0 0.694438358973732 1.0 0.13521801887195958 0.0 0.0 1.0 1.0 0.0 1.0 1:0.0 2:0.0 3:0.0 4:0.20212765957446807 5:0.6785714285714286 6:0.0 7:0.22360679774997896 8:0.0 9:0.2708623076270135 10:0.3333333333333333 11:0.3333333333333333 12:0.0 13:0.0 14:0.21428571428571427 15:0.3333333333333333 16:0.2672612419124244 
1.0 1.0 0.0 0.0 1.0 0.0 0.0 0.0 0.0 0.0 0.0 0.0 0.0 0.0 1:1.0 2:0.0 3:0.0 4:0.7021276595744681 5:0.6428571428571428 6:1.0 7:0.8164965809277259 8:0.0 9:0.5675324675324674 10:1.0 11:1.0 12:0.0 13:0.0 14:0.7142857142857143 15:1.0 16:0.8451542547285165 
0.0 0.0 0.0 1.0 0.0 0.0 0.0 0.0 0.0 0.0 0.0 0.0 0.0 0.0 1:0.0 2:0.0 3:0.0 4:0.5117647058823529 5:0.5925925925925926 6:1.0 7:0.819891591749923 8:1.0 9:0.2542317597082275 10:1.0 11:1.0 12:0.0 13:0.5773502691896258 14:0.7037037037037037 15:0.8636363636363636 16:0.7795794428691073 
1.0 0.0 0.0 0.0 0.0 0.0 0.0 0.0 0.0 0.0 0.0 1.0 0.11119924864300673 0.0 1:0.0 2:0.0 3:0.0 4:0.21739130434782608 5:0.7352941176470589 6:1.0 7:0.7559289460184544 8:0.0 9:0.1829181146142667 10:0.5 11:0.5 12:1.0 13:0.4999999999999999 14:0.4117647058823529 15:0.7777777777777778 16:0.5659164584181103 
0.21650749858311605 0.0 0.0 1.0 1.0 0.0 1.0 1.0 0.0 0.0 1.0 1.0 0.0 0.0 1:0.0 2:0.0 3:0.0 4:0.31746031746031744 5:0.45 6:1.0 7:0.6761234037828131 8:0.0 9:0.3402705015977326 10:0.0 11:0.0 12:0.0 13:0.0 14:0.3333333333333333 15:0.3 16:0.31622776601683794 
1.0 0.0 0.033501517145236796 1.0 1.0 0.0 1.0 1.0 0.0 0.0 1.0 1.0 0.5385299856898238 0.0 1:0.0 2:0.0 3:0.0 4:0.31746031746031744 5:0.45 6:1.0 7:0.6761234037828131 8:0.0 9:0.3402705015977326 10:0.0 11:0.0 12:0.0 13:0.0 14:0.3333333333333333 15:0.3 16:0.31622776601683794 
0.0 1.0 0.0 0.0 0.0 0.0 0.0 0.0 0.0 0.0 0.0 0.0 0.0 0.0 1:0.9128709291752769 2:0.0 3:0.0 4:0.8765432098765432 5:0.5652173913043478 6:1.0 7:0.9534625892455924 8:0.0 9:0.33109595428187094 10:1.0 11:1.0 12:0.0 13:0.0 14:0.8571428571428571 15:1.0 16:0.9428090415820634 
0.0 0.0 0.0 1.0 1.0 0.0 0.0 0.0 0.0 0.0 0.0 0.3255170970751719 0.0 0.0 1:0.47140452079103173 2:0.0 3:0.0 4:0.2839506172839506 5:0.6521739130434783 6:1.0 7:0.26967994498529685 8:0.0 9:0.22416768182685534 10:0.0 11:0.0 12:0.0 13:0.0 14:0.42857142857142855 15:0.6923076923076923 16:0.510688230856951 
0.0 0.0 0.0 0.0 1.0 0.0 1.0 0.0 0.0 0.0 1.0 1.0 0.0 0.743640158769366 1:0.0 2:0.0 3:0.0 4:0.07407407407407407 5:0.8478260869565217 6:1.0 7:0.17407765595569785 8:0.0 9:0.2272165932012479 10:0.0 11:0.0 12:0.0 13:0.0 14:0.09523809523809523 15:0.2857142857142857 16:0.14547859349066158 
0.0 0.0 0.0 0.5316314375442495 0.0 0.0 0.0 0.0 0.0 0.0 0.0 0.0 0.0 0.0 1:0.0 2:0.0 3:0.0 4:0.6260869565217392 5:0.7058823529411764 6:1.0 7:0.7745966692414834 8:0.0 9:0.3350625530183298 10:1.0 11:1.0 12:0.0 13:0.7071067811865475 14:0.5882352941176471 15:1.0 16:0.7669649888473704 
1.0 1.0 0.6894704970892864 0.0 0.0 0.0 0.0 0.0 0.0 0.0 0.0 0.0 0.0 0.0 1:0.0 2:0.0 3:0.0 4:0.6601941747572816 5:0.6176470588235294 6:0.0 7:0.8660254037844387 8:1.0 9:0.1360308666402849 10:0.3333333333333333 11:0.6666666666666666 12:0.0 13:0.7071067811865475 14:0.7647058823529411 15:1.0 16:0.8744746321952063 
0.0 0.0 0.0 0.3653797473604345 0.0 0.0 0.0 0.0 0.0 0.0 0.0 0.0 0.0 0.0 1:0.9486832980505138 2:0.0 3:0.0 4:0.4418604651162791 5:0.625 6:0.0 7:0.7637626158259734 8:1.0 9:0.28861889243555316 10:1.0 11:0.5 12:0.0 13:1.0 14:0.75 15:1.0 16:0.8660254037844386 
0.06802561085120781 0.0 0.0 0.0 1.0 0.2941676916788931 0.0 1.0 0.09731139779202277 0.0 0.0 1.0 0.0 0.0 1:0.0 2:0.0 3:1.0 4:0.08275862068965517 5:0.8409090909090908 6:1.0 7:0.31622776601683794 8:0.0 9:0.2430896287083685 10:0.0 11:0.0 12:0.0 13:0.5 14:0.19047619047619047 15:0.5714285714285714 16:0.3086066999241838 
0.0 0.0 0.0 0.0 1.0 0.0 1.0 0.0 0.0 0.0 1.0 1.0 0.0 1.0 1:0.0 2:0.0 3:0.0 4:0.07526881720430108 5:0.4642857142857143 6:0.0 7:0.16666666666666669 8:0.0 9:0.17978685251871418 10:1.0 11:1.0 12:0.0 13:0.0 14:0.15384615384615385 15:0.15384615384615385 16:0.20801257358446093 
0.0 0.0 0.0 0.0 1.0 0.0 1.0 1.0 0.0 0.0 1.0 1.0 0.0 1.0 1:0.0 2:0.0 3:0.0 4:0.10303030303030303 5:0.6 6:0.25 7:0.3344968040028363 8:0.0 9:0.21871150642064702 10:0.0 11:0.0 12:0.0 13:0.0 14:0.30434782608695654 15:0.35 16:0.3321819194149599 
0.0 0.0 0.0 0.0 1.0 0.0 0.0 1.0 0.0 0.0 1.0 1.0 0.0 0.0 1:0.0 2:0.0 3:0.0 4:0.14423076923076922 5:0.7142857142857143 6:0.2 7:0.5070925528371099 8:0.0 9:0.31334946635649 10:0.0 11:0.0 12:0.0 13:0.0 14:0.35714285714285715 15:0.625 16:0.472455591261534 
0.7701404965613303 0.0 0.0 0.0 1.0 0.0 0.0 1.0 0.0 0.0 1.0 1.0 0.0 0.0 1:0.0 2:0.0 3:0.0 4:0.14423076923076922 5:0.7142857142857143 6:0.2 7:0.5070925528371099 8:0.0 9:0.31334946635649 10:0.0 11:0.0 12:0.0 13:0.0 14:0.35714285714285715 15:0.625 16:0.472455591261534 
0.0 0.0 0.0 0.0 1.0 0.0 0.0 0.0 0.0 0.0 0.0 0.0 0.0 0.0 1:0.7071067811865475 2:0.0 3:0.0 4:0.125 5:0.7142857142857143 6:1.0 7:0.5669467095138409 8:0.0 9:0.32659127170681795 10:0.0 11:0.0 12:0.0 13:0.0 14:0.42857142857142855 15:0.75 16:0.5669467095138409 
0.0 0.0 0.3895929980445626 0.0 1.0 0.0 0.0 1.0 0.0 0.0 1.0 0.0 0.0 0.0 1:0.4999999999999999 2:0.0 3:0.0 4:0.23076923076923078 5:0.6785714285714286 6:1.0 7:0.5070925528371099 8:0.0 9:0.4180500910146029 10:0.0 11:0.0 12:0.0 13:1.0 14:0.42857142857142855 15:0.6666666666666666 16:0.5345224838248488 
0.9813352783051322 1.0 0.0 0.0 1.0 0.0 0.0 0.0 0.0 0.0 0.0 0.0 0.0 0.0 1:1.0 2:0.0 3:0.0 4:0.7021276595744681 5:0.6428571428571428 6:1.0 7:0.8164965809277259 8:0.0 9:0.5675324675324674 10:1.0 11:1.0 12:0.0 13:0.0 14:0.7142857142857143 15:1.0 16:0.8451542547285165 
1.0 0.5338454709955321 1.0 0.0 1.0 0.4670179928403504 0.0 0.0 0.0 0.0 1.0 1.0 0.0 0.0 1:0.0 2:0.0 3:0.0 4:0.2692307692307692 5:0.6904761904761905 6:0.0 7:0.9101820546182064 8:0.0 9:0.4036391494409136 10:0.6666666666666666 11:0.6666666666666666 12:0.0 13:0.6324555320336759 14:0.5263157894736842 15:0.7692307692307693 16:0.665640235470275 
1.0 0.0 0.0 0.9387282960642932 1.0 0.0 0.0 1.0 0.0 0.0 0.0 0.0 0.0 0.0 1:0.7071067811865475 2:0.0 3:0.0 4:0.3208955223880597 5:0.6388888888888888 6:1.0 7:0.7559289460184544 8:0.0 9:0.3308701037496165 10:0.0 11:0.0 12:0.0 13:0.0 14:0.6111111111111112 15:0.8461538461538461 16:0.7190924955066749 
1.0 0.0 0.0 0.0 1.0 0.0 0.0 1.0 0.0 0.0 0.0 0.0 0.0 0.0 1:0.7071067811865475 2:0.0 3:0.0 4:0.3208955223880597 5:0.6388888888888888 6:1.0 7:0.7559289460184544 8:0.0 9:0.3308701037496165 10:0.0 11:0.0 12:0.0 13:0.0 14:0.6111111111111112 15:0.8461538461538461 16:0.7190924955066749 
0.0 0.0 0.0 0.0 1.0 0.0 1.0 1.0 0.0 0.0 1.0 1.0 0.0 0.0 1:0.0 2:0.0 3:0.0 4:0.15671641791044777 5:0.8055555555555556 6:1.0 7:0.3333333333333333 8:0.0 9:0.2868985068790137 10:0.0 11:0.0 12:0.0 13:0.0 14:0.16666666666666666 15:0.42857142857142855 16:0.2672612419124244 
1.0 0.0 0.0 0.0 1.0 0.0 0.0 0.0 0.0 0.3755332989999537 0.0 1.0 0.031028706557251453 0.0 1:0.7071067811865475 2:0.0 3:0.0 4:0.13846153846153847 5:0.7222222222222222 6:0.0 7:0.8660254037844387 8:0.0 9:0.5497835497835498 10:1.0 11:1.0 12:0.0 13:0.0 14:0.4444444444444444 15:0.8 16:0.5962847939999439 
1.0 0.0 0.0 0.5230983000550141 1.0 0.0 0.0 0.0 0.0 0.0 0.0 0.0 0.0 0.0 1:0.0 2:0.0 3:0.0 4:0.4235294117647059 5:0.6458333333333334 6:1.0 7:0.9725975251592748 8:0.0 9:0.2747563451383768 10:1.0 11:1.0 12:0.0 13:0.4999999999999999 14:0.6086956521739131 15:0.8235294117647058 16:0.7134772412317412 
0.0 0.0 0.0 0.820813641496705 0.0 0.0 0.0 0.0 0.0 0.0 0.0 0.0 0.0 0.0 1:0.0 2:0.0 3:0.0 4:0.6181818181818182 5:0.6176470588235294 6:1.0 7:0.8660254037844387 8:1.0 9:0.1360308666402849 10:0.3333333333333333 11:0.6666666666666666 12:0.0 13:0.7071067811865475 14:0.7647058823529411 15:1.0 16:0.8744746321952063 
0.0 0.0 0.0 0.802434523645563 1.0 0.0 1.0 0.0 0.0 0.0 0.0 1.0 0.0 0.0 1:0.5 2:0.0 3:0.0 4:0.12738853503184713 5:0.7727272727272727 6:1.0 7:0.5393598899705937 8:0.0 9:0.2752965681183502 10:1.0 11:1.0 12:0.0 13:0.0 14:0.2631578947368421 15:0.5 16:0.35856858280031806 
0.0 0.0 0.0 1.0 1.0 0.0 1.0 0.0 0.0 0.0 0.0 1.0 0.0 0.0 1:0.5 2:0.0 3:0.0 4:0.12738853503184713 5:0.7727272727272727 6:1.0 7:0.5393598899705937 8:0.0 9:0.2752965681183502 10:1.0 11:1.0 12:0.0 13:0.0 14:0.2631578947368421 15:0.5 16:0.35856858280031806 
0.0 0.0 0.0 1.0 1.0 0.0 0.0 1.0 0.0 0.0 0.0 1.0 0.0 0.0 1:0.5773502691896258 2:0.0 3:0.0 4:0.1337579617834395 5:0.7954545454545454 6:1.0 7:0.5393598899705937 8:0.0 9:0.4201707056398131 10:0.0 11:0.0 12:0.0 13:0.0 14:0.15789473684210525 15:0.3333333333333333 16:0.2519763153394848 
0.0 1.0 0.0 0.0 0.0 0.0 0.0 0.0 0.0 0.0 0.0 0.0 0.0 0.0 1:0.7071067811865475 2:0.0 3:0.0 4:0.8805970149253731 5:0.5277777777777778 6:0.5 7:0.9354143466934852 8:0.0 9:0.24709760512392098 10:1.0 11:1.0 12:0.0 13:1.0000000000000002 14:0.9444444444444444 15:1.0 16:0.9718253158075502 
0.0 1.0 0.0 0.0 0.0 0.0 0.0 0.0 0.0 0.0 0.0 1.0 0.0 0.0 1:0.0 2:0.0 3:0.0 4:0.48091603053435117 5:0.7272727272727273 6:1.0 7:0.8660254037844386 8:0.0 9:0.24961468260208064 10:0.5 11:0.5 12:0.0 13:0.0 14:0.6 15:1.0 16:0.7359800721939873 
0.0 0.0 0.1504980523895343 0.0 1.0 0.0 1.0 1.0 0.0 0.0 1.0 1.0 0.0 0.0 1:0.0 2:0.0 3:0.0 4:0.12790697674418605 5:0.7916666666666667 6:1.0 7:0.16666666666666669 8:0.0 9:0.2824278268232824 10:0.0 11:0.0 12:0.0 13:0.0 14:0.16666666666666666 15:0.4 16:0.2581988897471611 
0.0 1.0 0.0 0.0 0.0 0.0 0.0 0.3391369298697801 0.0 0.0 0.0 1.0 0.0 0.0 1:0.0 2:0.0 3:0.0 4:0.45348837209302323 5:0.7916666666666667 6:1.0 7:0.8660254037844387 8:0.0 9:0.2716163738222562 10:0.0 11:0.0 12:0.0 13:0.0 14:0.4166666666666667 15:1.0 16:0.6454972243679028 
0.0 0.0 0.0 1.0 1.0 0.0 1.0 1.0 0.0 0.0 1.0 1.0 0.0 0.0 1:0.35355339059327373 2:0.0 3:0.0 4:0.05952380952380952 5:0.7083333333333334 6:1.0 7:0.4193139346887673 8:0.0 9:0.3884719666087779 10:0.5 11:0.5 12:0.0 13:0.0 14:0.18181818181818182 15:0.2857142857142857 16:0.2525381361380527 
0.0 0.0 0.0 0.0 0.03277187231752016 0.0 0.0 0.0 0.0 0.0 1.0 1.0 0.0 1.0 1:0.31622776601683794 2:0.0 3:0.0 4:0.08225108225108226 5:0.7428571428571429 6:0.0 7:0.07647191129018724 8:0.0 9:0.19562656421450914 10:0.0 11:0.0 12:0.0 13:0.8164965809277259 14:0.1935483870967742 15:0.3333333333333333 16:0.24595492912420727 
0.7982584728972204 0.0 0.0 1.0 0.0 0.0 0.0 0.0 0.0 0.0 0.0 1.0 0.0 0.0 1:0.6324555320336759 2:0.0 3:0.0 4:0.19480519480519481 5:0.7142857142857143 6:0.0 7:0.29019050004400465 8:0.5 9:0.20711497662908307 10:0.25 11:0.25 12:0.0 13:0.5773502691896258 14:0.41935483870967744 15:0.65 16:0.5666666666666667 
0.0 0.0 0.0 0.0 1.0 0.1309930459354289 0.0 0.0 0.0 0.0 0.0 1.0 0.0 0.0 1:0.5163977794943222 2:0.0 3:0.0 4:0.1471861471861472 5:0.7142857142857143 6:0.0 7:0.7947194142390263 8:0.0 9:0.21235965611062024 10:0.75 11:0.75 12:0.0 13:0.0 14:0.4838709677419355 15:0.75 16:0.6333333333333333 
1.0 0.0 0.4513327055857933 1.0 0.0 0.0 0.0 0.0 0.0 0.0 0.0 1.0 0.0 0.0 1:0.6324555320336759 2:0.0 3:0.0 4:0.19480519480519481 5:0.7142857142857143 6:0.0 7:0.29019050004400465 8:0.5 9:0.20711497662908307 10:0.25 11:0.25 12:0.0 13:0.5773502691896258 14:0.41935483870967744 15:0.65 16:0.5666666666666667 
1.0 0.0 0.12581016301729886 1.0 1.0 0.0 0.0 1.0 0.0 0.0 0.0 0.0 0.0 0.0 1:0.40824829046386296 2:0.0 3:0.0 4:0.1783783783783784 5:0.6481481481481481 6:1.0 7:0.40824829046386296 8:0.5 9:0.40115234841189473 10:0.0 11:0.0 12:0.0 13:0.33333333333333337 14:0.3333333333333333 15:0.47368421052631576 16:0.3973597071195131 
0.0 0.0 0.0 0.0 1.0 0.0 1.0 0.3587678141417843 0.0 0.0 0.0 0.0 0.0 0.0 1:0.5773502691896258 2:0.0 3:0.0 4:0.04864864864864865 5:0.8148148148148149 6:1.0 7:0.9013878188659974 8:0.0 9:0.38089226456541864 10:0.5 11:0.0 12:0.0 13:0.0 14:0.18518518518518517 15:0.5 16:0.30429030972509225 
0.0 0.0 0.0 0.0 1.0 0.0 0.0 0.0 0.0 0.0 0.0 0.0 0.0 0.0 1:0.8164965809277259 2:0.0 3:0.0 4:0.12432432432432433 5:0.7962962962962963 6:1.0 7:0.9354143466934853 8:0.0 9:0.3969708096636155 10:0.5 11:0.5 12:0.0 13:0.0 14:0.25925925925925924 15:0.6363636363636364 16:0.4061811972299616 
1.0 0.0 0.0 0.0 1.0 0.0 1.0 0.0 0.0 0.0 1.0 1.0 0.0 1.0 1:0.0 2:0.0 3:0.0 4:0.04864864864864865 5:0.6666666666666666 6:0.0 7:0.5303300858899106 8:0.0 9:0.40555438635127977 10:0.5 11:0.0 12:0.0 13:0.0 14:0.2222222222222222 15:0.3333333333333333 16:0.2721655269759087 
0.0 0.0 0.0 1.0 1.0 0.0 0.0 0.0 0.0 0.0 0.0 0.0 0.0 0.0 1:0.40824829046386296 2:0.0 3:0.0 4:0.1783783783783784 5:0.7592592592592593 6:1.0 7:0.4364357804719848 8:0.5 9:0.4125146825034253 10:0.0 11:0.0 12:0.0 13:0.40824829046386296 14:0.25925925925925924 15:0.5384615384615384 16:0.3736323588785367 
0.20196115170684792 0.0 0.0 1.0 1.0 0.0 1.0 1.0 0.557576948120527 0.0 0.0 1.0 0.0 0.0 1:0.0 2:0.0 3:0.0 4:0.0918918918918919 5:0.7407407407407407 6:1.0 7:0.3273268353539886 8:0.5 9:0.42199178229811224 10:0.0 11:0.0 12:0.0 13:0.0 14:0.18518518518518517 15:0.35714285714285715 16:0.25717224993681986 
0.0 0.0 0.0 1.0 1.0 0.0 0.0 0.0 0.0 0.0 0.0 0.0 0.0 0.0 1:0.5773502691896258 2:0.0 3:0.0 4:0.1783783783783784 5:0.7037037037037037 6:1.0 7:0.4364357804719848 8:0.5 9:0.4009825520369726 10:0.0 11:0.0 12:0.0 13:0.33333333333333337 14:0.3333333333333333 15:0.5625 16:0.4330127018922193 
0.0 0.0 0.0 0.0 1.0 0.0 1.0 1.0 0.0 0.0 0.0 0.0 0.0 0.0 1:0.5773502691896258 2:0.0 3:0.0 4:0.04864864864864865 5:0.8148148148148149 6:1.0 7:0.9013878188659974 8:0.0 9:0.38089226456541864 10:0.5 11:0.0 12:0.0 13:0.0 14:0.18518518518518517 15:0.5 16:0.30429030972509225 
0.0 0.0 0.0 0.0 1.0 0.0 0.0 0.0 0.0 0.0 0.0 0.0 0.0 0.0 1:0.8164965809277259 2:0.0 3:0.0 4:0.12432432432432433 5:0.7962962962962963 6:1.0 7:0.9354143466934853 8:0.0 9:0.3969708096636155 10:0.5 11:0.5 12:0.0 13:0.0 14:0.25925925925925924 15:0.6363636363636364 16:0.4061811972299616 
0.0 0.0 0.0 0.0 1.0 0.0 1.0 1.0 0.0 0.0 0.0 0.0 0.0 0.0 1:0.5773502691896258 2:0.0 3:0.0 4:0.04864864864864865 5:0.8148148148148149 6:1.0 7:0.9013878188659974 8:0.0 9:0.38089226456541864 10:0.5 11:0.0 12:0.0 13:0.0 14:0.18518518518518517 15:0.5 16:0.30429030972509225 
0.0 0.0 0.0 1.0 1.0 0.0 1.0 0.0 0.0 0.0 0.0 1.0 0.0 0.0 1:0.40824829046386296 2:0.0 3:0.0 4:0.10270270270270271 5:0.7407407407407407 6:0.0 7:0.5855400437691198 8:0.0 9:0.41172160841394584 10:0.5 11:0.0 12:0.0 13:0.0 14:0.2222222222222222 15:0.42857142857142855 16:0.3086066999241838 
0.0 0.0 0.0 0.0 0.0 0.0 1.0 0.0 0.0 0.0 0.0 0.0 0.0 0.0 1:0.5773502691896258 2:0.0 3:0.0 4:0.2185430463576159 5:0.8958333333333333 6:1.0 7:0.4714045207910316 8:0.0 9:0.35024428052393336 10:1.0 11:0.5 12:0.0 13:0.0 14:0.22727272727272727 15:1.0 16:0.40824829046386296 
0.330611635785182 0.0 0.0 1.0 1.0 0.0 1.0 0.0 0.0 0.0 1.0 1.0 0.0 1.0 1:0.0 2:0.0 3:0.0 4:0.14049586776859505 5:0.825 6:0.0 7:0.1386750490563073 8:0.0 9:0.49448516269060283 10:0.3333333333333333 11:0.3333333333333333 12:0.0 13:0.4999999999999999 14:0.16666666666666666 15:0.42857142857142855 16:0.23145502494313785 
0.0 0.0 0.0 0.0 1.0 0.0 1.0 0.0 0.0 0.0 1.0 1.0 0.0 0.0 1:0.0 2:0.0 3:0.0 4:0.08264462809917356 5:0.875 6:1.0 7:0.4008918628686366 8:0.0 9:0.380028039070306 10:0.3333333333333333 11:0.0 12:0.0 13:0.0 14:0.16666666666666666 15:0.6 16:0.27386127875258304 
0.0 0.0 0.0 0.0 0.0 0.841824245914777 0.0 0.0 0.0 0.0 0.0 0.0 0.0 0.0 1:1.0 2:0.0 3:0.0 4:0.3105263157894737 5:0.5666666666666667 6:1.0 7:0.9718253158075502 8:1.0 9:0.18884290786088878 10:1.0 11:0.5 12:0.0 13:0.8660254037844387 14:0.7 15:0.8076923076923077 16:0.7519206177414045 
0.22500926172642263 0.0 0.34359383770446966 0.0 1.0 0.0 0.0 0.0 0.0 0.0 1.0 1.0 0.0 0.0 1:0.0 2:0.0 3:0.0 4:0.4180327868852459 5:0.5263157894736842 6:0.3333333333333333 7:0.7826237921249264 8:0.0 9:0.17547516585978132 10:1.0 11:1.0 12:0.0 13:0.8660254037844387 14:0.8333333333333334 15:0.8333333333333334 16:0.8229511997978236 
0.0 0.0 0.0 0.011979148090785072 1.0 0.0 1.0 0.0 0.0 0.0 1.0 1.0 0.0 0.0 1:0.0 2:0.0 3:0.0 4:0.062111801242236024 5:0.8478260869565217 6:1.0 7:0.0 8:0.0 9:0.32302995733470896 10:0.0 11:0.0 12:0.0 13:0.0 14:0.18181818181818182 15:0.5714285714285714 16:0.30237157840738177 
0.7484577955037927 1.0 0.0 0.0 0.0 0.0 0.0 0.0 0.0 0.0 0.0 0.0 0.0 0.0 1:0.9128709291752769 2:0.0 3:0.0 4:0.7453416149068323 5:0.5652173913043478 6:1.0 7:0.8432740427115678 8:0.0 9:0.33666596153715084 10:0.0 11:0.0 12:0.0 13:0.0 14:0.8181818181818182 15:1.0 16:0.8981462390204986 
0.0 0.0 0.0 0.0 1.0 0.0 1.0 0.9059705511260028 0.0 0.0 1.0 1.0 0.0 0.0 1:0.0 2:0.0 3:0.0 4:0.07453416149068323 5:0.8478260869565217 6:1.0 7:0.19245008972987526 8:0.0 9:0.23353836653069385 10:0.0 11:0.0 12:0.0 13:0.0 14:0.09090909090909091 15:0.2857142857142857 16:0.15118578920369088 
0.0 0.0 0.0 0.0 1.0 0.0 1.0 1.0 0.0 0.0 1.0 1.0 0.0 0.0 1:0.0 2:0.0 3:0.0 4:0.24444444444444444 5:0.5555555555555556 6:1.0 7:0.7089175569585667 8:0.0 9:0.3240014963688376 10:0.0 11:0.0 12:0.0 13:0.0 14:0.2916666666666667 15:0.30434782608695654 16:0.34139437099945946 
0.0 0.0 0.0 0.495687862691098 1.0 0.0 1.0 1.0 0.0 0.0 1.0 1.0 0.0 0.0 1:0.0 2:0.0 3:0.0 4:0.24444444444444444 5:0.5555555555555556 6:1.0 7:0.7089175569585667 8:0.0 9:0.3240014963688376 10:0.0 11:0.0 12:0.0 13:0.0 14:0.2916666666666667 15:0.30434782608695654 16:0.34139437099945946 
0.0 1.0 0.0 0.0 0.0 0.0 0.0 0.0 0.0 0.0 0.0 0.0 0.0 0.0 1:1.0 2:0.0 3:0.0 4:0.5684210526315789 5:0.5666666666666667 6:0.0 7:1.0000000000000002 8:1.0 9:0.2861319966583124 10:1.0 11:1.0 12:0.0 13:0.8164965809277259 14:0.8666666666666667 15:1.0 16:0.9309493362512627 
0.0 1.0 0.0 0.0 0.0 0.0 0.0 0.0 0.0 0.0 0.0 0.0 0.0 0.0 1:1.0 2:0.0 3:0.0 4:0.5684210526315789 5:0.5666666666666667 6:0.0 7:1.0000000000000002 8:1.0 9:0.2861319966583124 10:1.0 11:1.0 12:0.0 13:0.8164965809277259 14:0.8666666666666667 15:1.0 16:0.9309493362512627 
0.0 1.0 0.0 0.0 0.0 0.0 0.0 0.0 0.0 0.0 0.0 0.0 0.0 0.0 1:1.0 2:0.0 3:0.0 4:0.5684210526315789 5:0.5666666666666667 6:0.0 7:1.0000000000000002 8:1.0 9:0.2861319966583124 10:1.0 11:1.0 12:0.0 13:0.8164965809277259 14:0.8666666666666667 15:1.0 16:0.9309493362512627 
0.0 1.0 0.19475729822312732 0.0 0.0 0.0 0.0 0.0 0.0 0.0 0.0 0.0 0.0 0.0 1:1.0 2:0.0 3:0.0 4:0.5684210526315789 5:0.5666666666666667 6:0.0 7:1.0000000000000002 8:1.0 9:0.2861319966583124 10:1.0 11:1.0 12:0.0 13:0.8164965809277259 14:0.8666666666666667 15:1.0 16:0.9309493362512627 
0.0 1.0 0.0 0.0 0.0 0.0 0.0 0.0 0.0 0.0 0.0 1.0 0.0 0.0 1:0.0 2:0.0 3:0.0 4:0.3148148148148148 5:0.8125 6:0.0 7:0.4472135954999579 8:0.0 9:0.11372549019607844 10:0.0 11:0.0 12:0.0 13:0.0 14:0.375 15:1.0 16:0.6123724356957945 
0.0 0.0 0.0 0.0 1.0 0.0 1.0 1.0 0.011880413232607448 0.0 1.0 1.0 0.0 1.0 1:0.0 2:0.0 3:0.0 4:0.06666666666666667 5:0.8571428571428572 6:0.5 7:0.23570226039551587 8:0.0 9:0.31868620151425575 10:0.0 11:0.0 12:0.0 13:0.0 14:0.07142857142857142 15:0.25 16:0.1336306209562122 
1.0 0.0 0.8965062416222095 0.39535659985839683 0.0 0.0 0.0 0.0 0.0 0.0 0.0 0.0 0.0 0.0 1:1.0000000000000002 2:0.0 3:0.0 4:0.90625 5:0.5 6:1.0 7:0.4999999999999999 8:1.0 9:0.26333333333333336 10:0.0 11:0.0 12:0.0 13:1.0 14:0.8888888888888888 15:0.8888888888888888 16:0.8888888888888888 
0.0 0.0 0.0 0.025757695586928822 1.0 0.040648544163354325 0.0 1.0 0.08595977358266253 0.0 0.0 1.0 0.0 0.0 1:0.4999999999999999 2:0.0 3:1.0 4:0.05439330543933055 5:0.8088235294117647 6:0.0 7:0.25 8:0.0 9:0.3306863197418662 10:0.5 11:0.0 12:0.0 13:0.0 14:0.25806451612903225 15:0.6666666666666666 16:0.40824829046386296 
1.0 0.0 0.0 0.0 0.0 0.17719823875194615 0.0 0.0 0.0 0.0 0.0 0.0 0.0 0.0 1:1.0 2:0.0 3:0.0 4:0.2777777777777778 5:0.625 6:1.0 7:1.0 8:0.0 9:0.32058494762363227 10:1.0 11:0.0 12:0.0 13:1.0 14:0.75 15:1.0 16:0.8660254037844387 
0.0 0.0 0.0 0.0 0.0 1.0 0.0 0.0 0.0 0.0 0.0 0.0 0.0 0.0 1:0.9999999999999998 2:0.0 3:0.0 4:0.11282051282051282 5:0.6935483870967742 6:1.0 7:0.6139406135149205 8:0.0 9:0.19169677830398588 10:0.6666666666666666 11:0.3333333333333333 12:0.0 13:0.40824829046386296 14:0.36666666666666664 15:0.6470588235294118 16:0.5444655064804709 
0.0 0.0 0.0 0.0 1.0 0.0 0.0 0.0 0.0 0.0 0.0 0.0 0.0 0.0 1:0.5773502691896258 2:0.0 3:0.0 4:0.13286713286713286 5:0.6944444444444444 6:1.0 7:0.5070925528371099 8:0.0 9:0.2543710566663488 10:0.5 11:0.0 12:0.0 13:0.35355339059327373 14:0.3333333333333333 15:0.5454545454545454 16:0.42640143271122094 
0.0 0.0 0.0 0.1758248796423173 0.0 0.0 0.0 0.0 0.0 0.0 0.0 0.0 0.0 0.0 1:0.4999999999999999 2:0.0 3:0.0 4:0.18181818181818182 5:0.5833333333333334 6:1.0 7:0.8040302522073697 8:1.0 9:0.18486818115598785 10:0.5 11:0.5 12:0.0 13:0.6666666666666666 14:0.6666666666666666 15:0.8 16:0.7302967433402215 
1.0 0.0 0.027691208175727677 1.0 1.0 0.0 1.0 1.0 0.0 0.12448694364046556 1.0 1.0 0.3731167510934703 0.0 1:0.0 2:0.0 3:0.0 4:0.11764705882352941 5:0.47619047619047616 6:1.0 7:0.7399400733959438 8:0.0 9:0.35542697470420015 10:0.5 11:0.5 12:0.0 13:0.0 14:0.3888888888888889 15:0.3684210526315789 16:0.408248290463863 
0.0 0.0 0.021899136249089755 0.0 0.0 0.9492895906045893 0.0 0.0 0.0 0.0 0.0 1.0 0.0 0.0 1:0.0 2:0.0 3:0.0 4:0.13793103448275862 5:0.6875 6:1.0 7:0.8616404368553293 8:0.0 9:0.15792863050927566 10:1.0 11:1.0 12:0.0 13:0.7071067811865475 14:0.6190476190476191 15:0.9285714285714286 16:0.7970533969860858 
0.0 0.0 0.0 0.0 1.0 0.0 1.0 1.0 0.0 0.0 1.0 1.0 0.0 0.0 1:0.0 2:0.0 3:0.0 4:0.10900473933649289 5:0.6896551724137931 6:0.6363636363636364 7:0.6831300510639732 8:0.0 9:0.28541770120988574 10:0.5 11:0.0 12:0.0 13:0.31622776601683794 14:0.2857142857142857 15:0.47058823529411764 16:0.4016096644512494 
0.0 0.0 0.0 0.0 1.0 0.0 1.0 0.0 0.0 0.0 0.0 1.0 0.0 0.0 1:0.0 2:0.0 3:0.0 4:0.0763888888888889 5:0.6956521739130435 6:0.0 7:0.5976143046671968 8:0.0 9:0.08840905683010947 10:0.5 11:0.5 12:0.0 13:0.0 14:0.18181818181818182 15:0.3076923076923077 16:0.25 
0.0 0.0 0.0 0.0 1.0 0.966574899567837 1.0 0.0 0.0 0.0 0.3127710613869891 1.0 0.0 0.0 1:0.0 2:0.0 3:0.0 4:0.0763888888888889 5:0.6956521739130435 6:0.0 7:0.5976143046671968 8:0.0 9:0.08840905683010947 10:0.5 11:0.5 12:0.0 13:0.0 14:0.18181818181818182 15:0.3076923076923077 16:0.25 
0.0 0.0 0.3611799344401248 0.0 1.0 1.0 1.0 1.0 0.0 0.0 1.0 1.0 0.0 0.0 1:0.0 2:0.0 3:0.0 4:0.08108108108108109 5:0.6666666666666666 6:1.0 7:0.3344968040028363 8:0.0 9:0.12418848818756345 10:0.3333333333333333 11:0.3333333333333333 12:0.0 13:0.0 14:0.2413793103448276 15:0.3684210526315789 16:0.3015113445777636 
0.0 0.0 0.0 0.0 1.0 0.0 1.0 0.0 0.0 0.0 1.0 1.0 0.0 0.0 1:0.0 2:0.0 3:0.0 4:0.057971014492753624 5:0.7903225806451613 6:1.0 7:0.3952847075210474 8:0.0 9:0.3356777855615239 10:1.0 11:0.5 12:0.0 13:0.0 14:0.3103448275862069 15:0.75 16:0.4800793585191832 
0.8742020332942348 1.0 0.0 0.0 0.0 0.0 0.0 0.0 0.0 0.0 0.0 0.0 0.0 0.0 1:0.0 2:0.0 3:0.0 4:0.6857142857142857 5:0.6086956521739131 6:0.0 7:0.9296696802013682 8:1.0 9:0.23253145734348724 10:1.0 11:1.0 12:0.0 13:0.7745966692414834 14:0.8181818181818182 15:1.0 16:0.8956685895029604 
0.0 0.0 0.05430223770718486 0.0 0.0 0.0 0.0 0.0 0.0 0.0 1.0 1.0 0.0 0.0 1:0.0 2:0.0 3:0.0 4:0.13805970149253732 5:0.7794117647058824 6:0.0 7:0.5051814855409226 8:0.0 9:0.19268917227942525 10:0.0 11:0.0 12:0.0 13:1.0 14:0.4 15:0.8571428571428571 16:0.6362090102803518 
0.0 0.0 0.0 0.0 1.0 0.0 1.0 0.0 0.0 0.0 0.0 1.0 0.0 0.0 1:0.0 2:0.0 3:0.0 4:0.13805970149253732 5:0.7647058823529411 6:0.0 7:0.6 8:0.0 9:0.17851632537277443 10:1.0 11:1.0 12:0.0 13:0.0 14:0.36666666666666664 15:0.6875 16:0.5400617248673216 
0.0 0.0 0.0 0.0 1.0 0.0 0.0 0.0 0.0 0.0 0.0 0.0 0.0 0.0 1:0.5 2:0.0 3:0.0 4:0.11801242236024845 5:0.7380952380952381 6:1.0 7:0.4743416490252569 8:0.0 9:0.22353820131285196 10:0.5 11:0.0 12:0.0 13:0.35355339059327373 14:0.3 15:0.5454545454545454 16:0.3772167680771589 
0.0 0.0 0.0426650864046388 0.0 0.0 0.0 0.0 0.0 0.0 0.0 0.0 0.0 0.0 0.0 1:0.6666666666666667 2:0.0 3:0.0 4:0.16149068322981366 5:0.6428571428571428 6:1.0 7:0.8451542547285166 8:1.0 9:0.16919421094059375 10:0.5 11:0.5 12:0.0 13:0.6666666666666666 14:0.65 15:0.8666666666666667 16:0.6998964726756152 
1.0 0.0 0.013214702585038752 0.0 0.0 0.0 0.0 0.0 0.0 0.0 0.0 0.0 0.0 0.0 1:0.8164965809277259 2:0.0 3:0.0 4:0.40611353711790393 5:0.6029411764705882 6:0.6 7:0.846809798439941 8:0.0 9:0.31629300271666766 10:0.0 11:0.0 12:0.0 13:0.9999999999999998 14:0.7666666666666667 15:0.92 16:0.8738847831984206 
0.0 0.0 0.0 0.07672484116458742 0.0 0.22458369324871616 0.0 0.0 0.0 0.0 0.0 0.0 0.0 0.0 1:0.0 2:0.0 3:0.0 4:0.5538461538461539 5:0.55 6:1.0 7:0.9999999999999998 8:1.0 9:0.251525922941279 10:1.0 11:0.5 12:0.0 13:0.8660254037844387 14:0.8421052631578947 15:1.0 16:0.9090909090909091 
1.0 0.0 0.0 0.0 1.0 0.0 0.0 0.0 0.0 0.0 0.0 0.0 0.0 0.0 1:0.5773502691896258 2:0.0 3:0.0 4:0.2982456140350877 5:0.6363636363636364 6:1.0 7:0.9035624609139907 8:0.0 9:0.32531161851790047 10:1.0 11:0.6666666666666666 12:0.0 13:0.0 14:0.5238095238095238 15:0.6875 16:0.6123724356957946 
0.0 0.0 0.0 0.0 1.0 0.0 1.0 0.0 0.0 0.0 0.0 0.0 0.0 0.0 1:0.40824829046386296 2:0.0 3:0.0 4:0.2046783625730994 5:0.7272727272727273 6:1.0 7:0.8090398349558905 8:0.0 9:0.3003364471985772 10:1.0 11:0.0 12:0.0 13:0.0 14:0.5238095238095238 15:0.9166666666666666 16:0.7071067811865476 
0.0 0.0 0.0 0.0 1.0 0.0 1.0 0.0 0.0 0.0 0.0 0.0 0.0 0.0 1:0.5773502691896258 2:0.0 3:0.0 4:0.1286549707602339 5:0.8181818181818181 6:1.0 7:0.5222329678670935 8:0.0 9:0.3272106722863891 10:1.0 11:0.0 12:0.0 13:0.0 14:0.23809523809523808 15:0.625 16:0.43301270189221935 
0.0 0.0 0.0 0.0 1.0 0.0 1.0 0.9665400903478361 0.0 0.0 1.0 1.0 0.0 0.0 1:0.0 2:0.0 3:0.0 4:0.07111111111111111 5:0.8285714285714285 6:1.0 7:0.2051956704170308 8:0.0 9:0.3853300649826112 10:0.2 11:0.2 12:0.0 13:0.40824829046386296 14:0.15625 15:0.45454545454545453 16:0.20869596778242056 
0.0 0.0 0.0 1.0 1.0 0.0 0.0 1.0 0.0 0.0 1.0 1.0 0.0 0.0 1:0.0 2:0.0 3:0.0 4:0.10666666666666667 5:0.7142857142857143 6:1.0 7:0.6055300708194984 8:0.0 9:0.37010914231908204 10:0.5 11:0.25 12:0.0 13:0.33333333333333337 14:0.375 15:0.631578947368421 16:0.43285265283781743 
0.0 0.0 0.24501055411566555 0.0 1.0 0.0 1.0 0.0 0.0 0.0 1.0 1.0 0.0 0.0 1:0.0 2:0.0 3:0.0 4:0.07111111111111111 5:0.8285714285714285 6:1.0 7:0.2051956704170308 8:0.0 9:0.3853300649826112 10:0.2 11:0.2 12:0.0 13:0.40824829046386296 14:0.15625 15:0.45454545454545453 16:0.20869596778242056 
1.0 1.0 0.324781977149573 0.0 1.0 0.0 1.0 0.0 0.0 0.12488556139965422 1.0 1.0 0.0 0.0 1:0.0 2:0.0 3:0.0 4:0.15584415584415584 5:0.5 6:0.0 7:0.6708203932499369 8:0.0 9:0.25685087859000905 10:1.0 11:1.0 12:0.0 13:0.0 14:0.6 15:0.6 16:0.5999999999999999 
0.0 0.0 0.0 0.23883593356994923 1.0 0.0 1.0 1.0 0.0 0.0 1.0 1.0 0.0 1.0 1:0.0 2:0.0 3:0.0 4:0.11688311688311688 5:0.65 6:0.0 7:0.25 8:0.0 9:0.21463755542702911 10:0.0 11:0.0 12:0.0 13:0.0 14:0.3 15:0.42857142857142855 16:0.35856858280031806 
1.0 0.0 0.22576612132435492 0.0 1.0 0.43856773794248066 1.0 0.0 0.0 0.0 1.0 1.0 0.0 0.0 1:0.0 2:0.0 3:0.0 4:0.15584415584415584 5:0.45454545454545453 6:0.0 7:0.7216878364870323 8:0.0 9:0.19493605809395284 10:1.0 11:1.0 12:0.0 13:0.0 14:0.6 15:0.5454545454545454 16:0.5720775535473553 
0.0 0.0 0.0 0.10482095426743665 0.0 0.005130478601802049 0.0 1.0 0.0 0.0 0.0 0.2776590395830627 0.02577228428166349 0.0 1:0.4082482904638631 2:0.0 3:1.0 4:0.5333333333333333 5:0.7380952380952381 6:1.0 7:0.7302967433402213 8:0.0 9:0.21774133324581293 10:0.5 11:0.5 12:0.0 13:0.4999999999999999 14:0.55 15:1.0 16:0.7544335361543179 
1.0 1.0 0.0 0.0 1.0 0.0 0.0 0.0 0.0 0.0 0.0 0.0 0.01468995124235761 0.0 1:1.0000000000000002 2:0.0 3:0.0 4:0.8679245283018868 5:0.5 6:1.0 7:0.8749999999999998 8:0.0 9:0.2664843416817101 10:0.0 11:0.0 12:0.0 13:0.0 14:0.9333333333333333 15:0.9333333333333333 16:0.9333333333333332 
0.0 0.0 0.39757720737868596 0.0 1.0 0.0 0.0 1.0 0.0 0.0 1.0 1.0 0.0 0.0 1:0.0 2:0.0 3:0.0 4:0.16744186046511628 5:0.640625 6:1.0 7:0.5144957554275266 8:0.0 9:0.16956270568180865 10:0.0 11:0.0 12:0.0 13:0.5 14:0.3870967741935484 15:0.5454545454545454 16:0.48019603839902475 
0.0 0.0 0.0 0.31178468236551093 0.0 0.0 0.0 0.0 0.0 0.0 0.0 0.0 0.0 0.0 1:0.5773502691896258 2:0.0 3:0.0 4:0.2049469964664311 5:0.6666666666666666 6:1.0 7:0.17407765595569785 8:0.4 9:0.17585033898193816 10:0.5 11:0.0 12:0.0 13:0.43301270189221935 14:0.38461538461538464 15:0.5555555555555556 16:0.4479893351905204 
0.0 0.0 0.0 0.0 1.0 0.0 1.0 0.0 0.0 0.0 1.0 1.0 0.0 0.0 1:0.0 2:0.0 3:0.0 4:0.05116279069767442 5:0.625 6:1.0 7:0.15075567228888181 8:0.0 9:0.15267127942213987 10:0.3333333333333333 11:0.0 12:0.0 13:0.2886751345948129 14:0.1935483870967742 15:0.2608695652173913 16:0.3027027572983406 
1.0 1.0 0.0 0.0 1.0 0.0 0.0 0.0 0.0 0.0 0.0 1.0 0.0 0.0 1:0.0 2:0.0 3:0.0 4:0.553030303030303 5:0.375 6:0.0 7:0.9045340337332909 8:1.0 9:0.23527726659305603 10:1.0 11:0.5 12:0.0 13:0.0 14:0.9411764705882353 15:0.6956521739130435 16:0.8332051183416778 
0.0 0.0 0.0 0.0 1.0 0.0 0.0 0.5976181018753705 0.0 0.0 1.0 1.0 0.0 0.0 1:0.0 2:0.0 3:0.0 4:0.04697986577181208 5:0.5 6:1.0 7:0.08333333333333333 8:0.0 9:0.1743855944127908 10:0.0 11:0.0 12:0.0 13:0.5773502691896258 14:0.18181818181818182 15:0.18181818181818182 16:0.2 
0.0 0.0 0.04781347975571612 0.0 1.0 0.0 1.0 1.0 0.0 0.0 1.0 1.0 0.0 0.0 1:0.0 2:0.0 3:0.0 4:0.053691275167785234 5:0.5434782608695652 6:0.42857142857142855 7:0.5229763603684908 8:0.0 9:0.28533536752376165 10:0.0 11:0.0 12:0.0 13:0.40824829046386296 14:0.18181818181818182 15:0.19047619047619047 16:0.1745743121887939 
0.0 0.0 0.0 0.0 1.0 0.0 1.0 1.0 0.0 0.0 1.0 1.0 0.0 1.0 1:0.0 2:0.0 3:0.0 4:0.06040268456375839 5:0.4107142857142857 6:1.0 7:0.31980107453341566 8:0.0 9:0.24599881057354386 10:0.0 11:0.0 12:0.0 13:0.0 14:0.09090909090909091 15:0.07692307692307693 16:0.07071067811865475 
0.0 0.0 0.0 0.0 1.0 0.0 1.0 0.0 0.0 0.0 1.0 1.0 0.0 1.0 1:0.0 2:0.0 3:0.0 4:0.06870229007633588 5:0.375 6:1.0 7:0.10050378152592121 8:0.0 9:0.20412312676612346 10:0.0 11:0.0 12:0.0 13:0.0 14:0.058823529411764705 15:0.043478260869565216 16:0.043852900965351466 
0.0 0.0 0.0 0.0 1.0 0.0 1.0 1.0 0.36695858733890013 0.0 1.0 1.0 0.0 0.0 1:0.0 2:0.0 3:0.0 4:0.0670391061452514 5:0.7884615384615384 6:1.0 7:0.35355339059327373 8:0.0 9:0.12734132490055225 10:0.0 11:0.0 12:0.0 13:0.0 14:0.13636363636363635 15:0.2727272727272727 16:0.30151134457776363 
0.0 0.0 0.30464377086793376 0.0 1.0 0.0 0.0 1.0 0.0 0.0 1.0 1.0 0.0 0.0 1:0.0 2:0.0 3:0.0 4:0.07913669064748201 5:0.725 6:1.0 7:0.24999999999999994 8:0.0 9:0.14453781512605043 10:0.0 11:0.0 12:0.0 13:0.7071067811865475 14:0.2222222222222222 15:0.36363636363636365 16:0.3077287274483319 
1.0 0.0 0.44159257056978485 1.0 1.0 0.7818213327972797 0.0 1.0 0.0 0.0 1.0 1.0 0.0 0.0 1:0.0 2:0.0 3:0.0 4:0.22784810126582278 5:0.359375 6:0.125 7:0.5443310539518174 8:0.0 9:0.1310127594168323 10:0.0 11:0.0 12:0.0 13:0.5 14:0.5454545454545454 15:0.3870967741935484 16:0.48019603839902475 
0.0 0.0 0.0 0.0 1.0 0.0 1.0 1.0 0.0 0.0 1.0 1.0 0.0 1.0 1:0.0 2:0.0 3:0.0 4:0.06962025316455696 5:0.359375 6:0.5 7:0.3402069087198859 8:0.0 9:0.12420054082057295 10:0.0 11:0.0 12:0.0 13:0.0 14:0.18181818181818182 15:0.13793103448275862 16:0.16222142113076254 
0.0 0.0 0.0 0.0 1.0 0.027663062827563333 0.0 0.0 0.0 0.0 0.0 0.0 0.0 0.0 1:0.8164965809277259 2:0.0 3:0.0 4:0.4148936170212766 5:0.234375 6:0.75 7:0.7001400420140049 8:1.0 9:0.17987609910102004 10:1.0 11:0.0 12:0.0 13:0.5773502691896258 14:0.7857142857142857 15:0.3548387096774194 16:0.5407287150250069 
0.6599258466833877 0.0 0.0 0.0 1.0 0.0 1.0 1.0 0.42109905261911523 0.0 1.0 1.0 0.0 0.0 1:0.0 2:0.0 3:0.0 4:0.09574468085106383 5:0.17857142857142855 6:1.0 7:0.6085806194501845 8:0.0 9:0.21984124107895814 10:1.0 11:0.5 12:0.0 13:0.0 14:0.35714285714285715 15:0.1282051282051282 16:0.280056016805602 
0.0 0.0 0.0 0.0 1.0 0.0 1.0 1.0 0.0 0.0 1.0 1.0 0.0 1.0 1:0.0 2:0.0 3:0.0 4:0.046632124352331605 5:0.5892857142857143 6:1.0 7:0.21320071635561041 8:0.0 9:0.2531344755319212 10:0.0 11:0.0 12:0.0 13:0.0 14:0.07692307692307693 15:0.09090909090909091 16:0.07071067811865475 
0.0 0.0 0.2179358614771912 1.0 1.0 0.0 0.0 0.0 0.0 1.0 0.0 0.0 0.0 0.0 1:0.5773502691896258 2:0.0 3:0.0 4:0.3020833333333333 5:0.33333333333333337 6:1.0 7:0.17407765595569785 8:0.6666666666666666 9:0.17585033898193836 10:0.0 11:0.0 12:0.0 13:0.43301270189221935 14:0.5555555555555556 15:0.38461538461538464 16:0.4479893351905204 
0.0 0.0 0.0 0.0 1.0 0.0 1.0 1.0 0.0 0.0 1.0 1.0 0.0 0.0 1:0.0 2:0.0 3:0.0 4:0.046875 5:0.5892857142857143 6:1.0 7:0.1421338109037403 8:0.0 9:0.13454932433480413 10:0.0 11:0.0 12:0.0 13:0.0 14:0.18518518518518517 15:0.22727272727272727 16:0.21908902300206642 
0.0 0.0 0.0 0.0 1.0 0.0 1.0 0.0 0.0 0.0 1.0 1.0 0.0 1.0 1:0.0 2:0.0 3:0.0 4:0.05421686746987952 5:0.625 6:0.5 7:0.10050378152592121 8:0.0 9:0.20412312676612346 10:0.0 11:0.0 12:0.0 13:0.0 14:0.043478260869565216 15:0.058823529411764705 16:0.043852900965351466 
0.0 0.0 0.0 0.0 1.0 0.0 1.0 1.0 0.0 0.0 1.0 1.0 0.0 1.0 1:0.0 2:0.0 3:0.0 4:0.06626506024096386 5:0.5208333333333334 6:0.4 7:0.2461829819586655 8:0.0 9:0.1659665668945314 10:0.0 11:0.0 12:0.0 13:0.0 14:0.17391304347826086 15:0.17391304347826086 16:0.20446520502738272 
0.0 0.0 0.0 0.0 1.0 0.45852872240701853 1.0 0.0 0.0 0.0 1.0 1.0 0.0 0.0 1:0.0 2:0.0 3:0.0 4:0.2033898305084746 5:0.21153846153846156 6:0.0 7:0.7115124735378853 8:0.0 9:0.14636215375748024 10:1.0 11:0.0 12:0.0 13:0.6666666666666667 14:0.2727272727272727 15:0.13636363636363635 16:0.30151134457776363 
0.0 0.0 0.0 0.0 1.0 0.0 1.0 0.13989743774046434 0.0 0.0 1.0 1.0 0.0 1.0 1:0.0 2:0.0 3:0.0 4:0.13559322033898305 5:0.22916666666666669 6:0.0 7:0.30151134457776363 8:0.0 9:0.22417641460194654 10:1.0 11:1.0 12:0.0 13:0.31622776601683794 14:0.09090909090909091 15:0.043478260869565216 16:0.11826247919781652 
1.0 1.0 0.0 0.7066026225947386 1.0 0.0 0.0 0.0 0.0 0.0 0.0 0.0 0.0 0.0 1:0.0 2:0.0 3:0.0 4:0.4397590361445783 5:0.625 6:1.0 7:0.9045340337332909 8:0.5 9:0.23527726659305603 10:0.6666666666666666 11:0.3333333333333333 12:0.0 13:0.0 14:0.6956521739130435 15:0.9411764705882353 16:0.8332051183416778 
0.0 0.0 0.0 0.0 1.0 0.0 1.0 0.0 0.0 0.0 0.0 1.0 0.0 0.0 1:0.5669467095138409 2:0.0 3:0.0 4:0.5746268656716418 5:0.296875 6:0.14285714285714285 7:0.43301270189221935 8:0.0 9:0.09579900993928142 10:1.0 11:1.0 12:0.0 13:0.2886751345948129 14:0.631578947368421 15:0.41379310344827586 16:0.5210260492953508 
0.0 0.0 0.0 0.0 1.0 0.0 1.0 0.0 0.0 0.0 1.0 1.0 0.0 1.0 1:0.0 2:0.0 3:0.0 4:0.04477611940298507 5:0.3958333333333333 6:0.5 7:0.0 8:0.0 9:0.15180733302442603 10:0.0 11:0.0 12:0.0 13:0.0 14:0.05263157894736842 15:0.043478260869565216 16:0.04499212706658475 
0.0 0.0 0.0 0.0 1.0 0.0 0.0 0.0 0.0 0.0 0.0 0.0 0.0 0.0 1:0.8249579113843053 2:0.0 3:0.0 4:0.37398373983739835 5:0.265625 6:1.0 7:0.686406472983644 8:0.0 9:0.1594682068886505 10:1.0 11:1.0 12:0.0 13:0.4472135954999579 14:0.7647058823529411 15:0.4482758620689655 16:0.5901671065234753 
0.0 0.0 0.0 0.0 1.0 0.0 0.0 1.0 0.0 0.0 1.0 1.0 0.0 0.0 1:0.35355339059327373 2:0.0 3:0.0 4:0.06584362139917696 5:0.4605263157894737 6:1.0 7:0.4103913408340616 8:0.0 9:0.17216680336475376 10:0.25 11:0.25 12:0.0 13:0.3872983346207417 14:0.3125 15:0.30303030303030304 16:0.4548054859154205 
1.0 0.0 0.0 0.0 0.19174164875321498 0.0 0.0 0.0 0.0 0.0 0.0 0.0 0.0 0.0 1:0.2886751345948129 2:0.0 3:0.0 4:0.18518518518518517 5:0.5571428571428572 6:0.9285714285714286 7:0.778498944161523 8:1.0 9:0.1811541714893269 10:0.5 11:0.25 12:0.0 13:0.47140452079103173 14:0.625 15:0.6896551724137931 16:0.7127509644204137 
0.0 0.0 0.0 0.0 1.0 0.0 1.0 0.6672547164952731 0.0 0.0 1.0 1.0 0.0 0.0 1:0.4472135954999579 2:0.0 3:0.0 4:0.07142857142857142 5:0.2763157894736842 6:1.0 7:0.31814238148788887 8:0.0 9:0.13347257792548195 10:1.0 11:1.0 12:0.0 13:0.42426406871192845 14:0.3333333333333333 15:0.21212121212121213 16:0.30261376633440124 
0.0 0.0 0.0 0.0 1.0 0.0 1.0 0.0 0.0 0.0 1.0 1.0 0.0 0.0 1:0.0 2:0.0 3:0.0 4:0.06944444444444445 5:0.32857142857142857 6:0.36363636363636365 7:0.21320071635561044 8:0.0 9:0.13208577222719084 10:1.0 11:0.0 12:0.0 13:0.0 14:0.21739130434782608 15:0.15625 16:0.19538688270775087 
0.0 0.0 0.0 0.0 1.0 0.0 1.0 0.0 0.0 0.0 1.0 1.0 0.0 1.0 1:0.19999999999999996 2:0.0 3:0.0 4:0.09722222222222222 5:0.3026315789473684 6:0.8 7:0.07273929674533079 8:0.0 9:0.13616298477475244 10:0.0 11:0.0 12:0.0 13:0.0 14:0.21739130434782608 15:0.15151515151515152 16:0.20241022618818413 
0.0 0.0 0.0 0.0 0.0 0.0 0.0 1.0 0.0 0.0 0.0 0.0 0.0 0.0 1:0.7071067811865475 2:0.0 3:0.0 4:0.05027932960893855 5:0.78 6:1.0 7:0.5735393346764044 8:0.3333333333333333 9:0.16944565079197246 10:0.0 11:0.0 12:0.0 13:0.6963106238227914 14:0.15 15:0.2727272727272727 16:0.30578831486257535 
0.0 0.0 0.0680725909486145 0.0 0.0 0.044614878107752234 0.0 1.0 0.0 0.0 0.0 0.4699045179853117 0.0 0.0 1:0.0 2:0.0 3:0.0 4:0.11734693877551021 5:0.6666666666666666 6:1.0 7:0.7108186533109108 8:1.0 9:0.08323797001839849 10:0.6666666666666666 11:0.6666666666666666 12:0.0 13:0.8164965809277259 14:0.3333333333333333 15:0.47368421052631576 16:0.46193488543715594 
0.0 0.0 0.0 0.0 1.0 0.0 0.0 0.0 0.0 0.0 1.0 1.0 0.0 0.0 1:0.4472135954999579 2:0.0 3:0.0 4:0.061224489795918366 5:0.35526315789473684 6:1.0 7:0.05292561240249631 8:0.0 9:0.19521367385877664 10:0.0 11:0.0 12:0.0 13:0.5477225575051661 14:0.23076923076923078 15:0.18181818181818182 16:0.28326441144353265 
1.0 0.0 0.0 0.06244907342761239 1.0 0.0 0.0 1.0 0.5075182111218893 0.0 1.0 1.0 0.0 1.0 1:0.0 2:0.0 3:0.0 4:0.10465116279069768 5:0.21999999999999997 6:0.0 7:0.24806946917841693 8:1.0 9:0.0976833207096365 10:0.0 11:0.0 12:0.0 13:0.3849001794597505 14:0.2727272727272727 15:0.15 16:0.30578831486257535 
0.0 0.0 0.0 0.0 1.0 0.10837821973142263 1.0 0.0 0.0 0.0 1.0 0.0 0.0 0.0 1:0.6708203932499369 2:0.0 3:0.0 4:0.1111111111111111 5:0.28260869565217395 6:1.0 7:0.769800358919501 8:0.0 9:0.17536704546977547 10:1.0 11:0.0 12:0.0 13:0.0 14:0.38461538461538464 15:0.21739130434782608 16:0.2891574659831202 
0.0 0.0 0.0 1.0 1.0 0.0 1.0 1.0 0.0 0.0 1.0 1.0 0.0 0.0 1:0.0 2:0.0 3:0.0 4:0.1891891891891892 5:0.38095238095238093 6:0.8333333333333334 7:0.12909944487358058 8:0.0 9:0.3305770184407953 10:0.0 11:0.0 12:0.0 13:0.4999999999999999 14:0.3333333333333333 15:0.25 16:0.3440312310280934 
0.0 0.0 0.0 0.0 1.0 0.0 0.0 0.0 0.0 0.0 0.0 1.0 0.0 0.0 1:0.0 2:0.0 3:0.0 4:0.19827586206896552 5:0.33333333333333337 6:0.8571428571428571 7:0.7108186533109108 8:1.0 9:0.08323797001839849 10:1.0 11:1.0 12:0.0 13:0.8164965809277259 14:0.47368421052631576 15:0.3333333333333333 16:0.46193488543715594 
0.16641319311021294 0.0 0.005269233278083269 0.0 1.0 0.0 0.0 0.0 0.0 0.0 1.0 1.0 0.0 0.0 1:0.0 2:0.0 3:0.0 4:0.2037037037037037 5:0.13333333333333336 6:0.2857142857142857 7:0.669438681395203 8:1.0 9:0.0976349621429553 10:1.0 11:1.0 12:0.0 13:0.5773502691896258 14:0.75 15:0.2222222222222222 16:0.41247895569215265 
0.0 0.0 0.0 0.0 1.0 0.0 1.0 0.0 0.0 0.0 1.0 1.0 0.0 1.0 1:0.0 2:0.0 3:0.0 4:0.0784313725490196 5:0.36363636363636365 6:1.0 7:0.0 8:0.0 9:0.03812636165577342 10:0.0 11:0.0 12:0.0 13:0.0 14:0.0 15:0.0 16:0.0 
1.0 0.0 0.4613295370290464 1.0 1.0 0.0 1.0 1.0 0.0 0.0 1.0 1.0 0.0 0.0 1:0.0 2:0.0 3:0.0 4:0.19047619047619047 5:0.3666666666666667 6:0.5 7:0.6123724356957946 8:0.0 9:0.1938443805220121 10:0.0 11:0.0 12:0.0 13:0.0 14:0.5454545454545454 15:0.42857142857142855 16:0.43876345447627835 
0.0 0.0 0.0 0.0 1.0 0.0 1.0 0.0 0.0 0.0 1.0 1.0 0.0 1.0 1:0.0 2:0.0 3:0.0 4:0.05405405405405406 5:0.6363636363636364 6:1.0 7:0.0 8:0.0 9:0.03812636165577342 10:0.0 11:0.0 12:0.0 13:0.0 14:0.0 15:0.0 16:0.0 
0.0 0.0 0.0 0.0 1.0 0.0 0.0 0.0 0.0 0.0 0.0 0.0 0.0 0.0 1:0.2886751345948129 2:0.0 3:0.0 4:0.21844660194174756 5:0.44285714285714284 6:1.0 7:0.7370434740955019 8:1.0 9:0.13654901425799762 10:1.0 11:1.0 12:0.0 13:0.47140452079103173 14:0.6896551724137931 15:0.625 16:0.7127509644204137 
0.0 0.0 0.0 0.0 1.0 0.0 0.0 1.0 0.0 0.0 1.0 1.0 0.0 0.0 1:0.5070925528371099 2:0.0 3:0.0 4:0.0970873786407767 5:0.40789473684210525 6:1.0 7:0.44574249416020933 8:0.0 9:0.1738259489021487 10:0.0 11:0.0 12:0.0 13:0.5477225575051661 14:0.41379310344827586 15:0.36363636363636365 16:0.5156879540323449 
0.0 0.0 0.0 0.5389283577388705 1.0 0.0 0.0 1.0 0.0 0.0 1.0 1.0 0.0 0.0 1:0.0 2:0.0 3:0.0 4:0.15217391304347827 5:0.6190476190476191 6:1.0 7:0.12909944487358058 8:0.0 9:0.33057701844079557 10:0.0 11:0.0 12:0.0 13:0.4999999999999999 14:0.25 15:0.3333333333333333 16:0.3440312310280934 
0.0 0.0 0.0 0.0 0.44607470434022395 0.0 0.0 0.0 0.0 0.0 0.0 0.0 0.0 0.0 1:1.0 2:0.0 3:0.0 4:0.9186991869918699 5:0.25 6:0.8571428571428571 7:0.8366600265340756 8:1.0 9:0.1680842763478322 10:1.0 11:1.0 12:0.0 13:0.8728715609439696 14:0.9444444444444444 15:0.53125 16:0.7867957924694432 
0.0 0.0 0.0 1.0 1.0 0.0 1.0 0.33202976285887353 0.0 0.0 1.0 1.0 0.0 1.0 1:0.5 2:0.0 3:0.0 4:0.06030150753768844 5:0.3783783783783784 6:0.5 7:0.12573892269238632 8:0.0 9:0.18439149970184707 10:0.0 11:0.0 12:0.0 13:0.0 14:0.25925925925925924 15:0.20588235294117646 16:0.25058072087536704 
0.0 0.0 0.0 0.0 1.0 0.0 1.0 0.0 0.0 0.0 1.0 1.0 0.0 1.0 1:0.0 2:0.0 3:0.0 4:0.06779661016949153 5:0.2962962962962963 6:0.0 7:0.12403473458920847 8:0.0 9:0.2108811050894077 10:0.5 11:0.0 12:0.0 13:0.0 14:0.1875 15:0.11538461538461539 16:0.1392715036327889 
0.0 0.0 0.0 0.0 1.0 0.0 1.0 0.0 0.39768997701215686 0.0 0.0 1.0 0.0 0.0 1:0.0 2:0.0 3:0.0 4:0.1864406779661017 5:0.84375 6:0.0 7:0.4472135954999579 8:0.0 9:0.10933510933510934 10:0.5 11:0.5 12:0.0 13:0.0 14:0.125 15:0.4 16:0.22360679774997896 
0.0 0.0 0.0 0.0 1.0 1.0 1.0 0.0 0.0 0.0 1.0 1.0 0.0 0.0 1:0.7071067811865475 2:0.0 3:0.0 4:0.08290155440414508 5:0.375 6:0.6666666666666666 7:0.6454972243679028 8:0.0 9:0.1984016712428574 10:1.0 11:0.5 12:0.0 13:0.23570226039551587 14:0.36 15:0.3103448275862069 16:0.30658330991377586 
0.0 0.0 0.0 0.0 1.0 0.9877646035704308 1.0 1.0 0.0 0.0 1.0 1.0 0.0 1.0 1:0.0 2:0.0 3:0.0 4:0.08290155440414508 5:0.5 6:0.0 7:0.25087260300212727 8:0.0 9:0.2346478187027947 10:0.3333333333333333 11:0.3333333333333333 12:0.0 13:0.22360679774997896 14:0.24 15:0.2222222222222222 16:0.20739033894608505 
0.0 0.0 0.04060208133194351 1.0 1.0 0.0 1.0 1.0 0.0 0.7002386786207402 1.0 1.0 0.0 1.0 1:0.0 2:0.0 3:0.0 4:0.1348314606741573 5:0.24074074074074076 6:1.0 7:0.294174202707276 8:0.0 9:0.30483924859471684 10:0.0 11:0.0 12:0.0 13:0.0 14:0.23076923076923078 15:0.12 16:0.1494406444160154 
0.0 0.0 0.0 0.0 1.0 0.0 1.0 1.0 0.0 0.0 0.0 1.0 0.0 1.0 1:0.0 2:1.0 3:1.0 4:0.05319148936170213 5:0.26785714285714285 6:1.0 7:0.0 8:0.0 9:0.1457402178957906 10:0.0 11:0.0 12:0.0 13:0.0 14:0.06666666666666667 15:0.037037037037037035 16:0.09428090415820634 
0.7273850829764134 0.0 0.0 0.6931365290598062 1.0 0.005966702332396261 1.0 1.0 0.0 0.0 0.9348887614685075 1.0 0.0 1.0 1:0.0 2:1.0 3:1.0 4:0.09574468085106383 5:0.3 6:0.6 7:0.14433756729740646 8:0.0 9:0.2103963483103375 10:0.3333333333333333 11:0.3333333333333333 12:0.0 13:0.2886751345948129 14:0.13333333333333333 15:0.08 16:0.10327955589886445 
0.0 0.0 0.0 1.0 1.0 1.0 1.0 0.0 0.0 0.0 1.0 1.0 0.0 0.0 1:0.5773502691896258 2:0.0 3:0.0 4:0.14393939393939395 5:0.36 6:1.0 7:0.2727272727272727 8:0.0 9:0.25656755919853674 10:0.5 11:0.5 12:0.0 13:0.47140452079103173 14:0.3888888888888889 15:0.2916666666666667 16:0.3175264481385601 
0.0 0.0 0.0 0.0 1.0 0.0 0.0 1.0 0.0 0.0 1.0 1.0 0.0 0.0 1:0.2886751345948129 2:0.0 3:0.0 4:0.175 5:0.3148148148148148 6:1.0 7:0.09805806756909201 8:0.0 9:0.20167238430376222 10:0.0 11:0.0 12:0.0 13:0.6666666666666667 14:0.5625 15:0.34615384615384615 16:0.426014322842305 
0.0 0.0 0.0 0.0 1.0 0.0 0.9522654761309336 0.8574012902480685 0.0 0.0 1.0 1.0 0.0 0.0 1:0.0 2:0.0 3:0.0 4:0.1 5:0.3888888888888889 6:1.0 7:0.3223291856101521 8:1.0 9:0.22202511601295316 10:0.6666666666666666 11:0.3333333333333333 12:0.0 13:0.6708203932499369 14:0.3 15:0.2222222222222222 16:0.2809003238667948 
0.0 0.0 0.0 1.0 1.0 1.0 0.0 0.0 0.0 0.0 0.0 1.0 0.0 0.0 1:0.8017837257372731 2:0.0 3:0.0 4:0.09361702127659574 5:0.5606060606060606 6:0.625 7:0.5406205059012896 8:0.0 9:0.21742121105230505 10:0.6666666666666666 11:0.6666666666666666 12:0.0 13:0.0 14:0.4482758620689655 15:0.52 16:0.5264828210920953 
0.0 0.0 0.0 1.0 1.0 0.0 1.0 0.1182145870005482 0.0 1.0 1.0 1.0 0.0 0.0 1:0.5 2:0.0 3:0.0 4:0.12790697674418605 5:0.1607142857142857 6:1.0 7:0.13483997249264842 8:0.0 9:0.20888331482758718 10:1.0 11:1.0 12:0.0 13:0.0 14:0.3333333333333333 15:0.1111111111111111 16:0.18257418583505539 
1.0 0.0 0.0 1.0 1.0 0.8952052311526076 1.0 0.8286857767005525 0.0 0.0 1.0 1.0 0.0 0.0 1:0.0 2:0.0 3:0.0 4:0.26744186046511625 5:0.16666666666666669 6:0.5 7:0.49613893835683387 8:0.0 9:0.32192848841893745 10:1.0 11:0.0 12:0.0 13:0.0 14:0.6666666666666666 15:0.23076923076923078 16:0.3713906763541038 
0.0 0.0 0.0 0.6080662211685545 1.0 0.0 1.0 1.0 0.0 0.0 1.0 1.0 0.0 0.0 1:0.0 2:0.0 3:0.0 4:0.18421052631578946 5:0.17857142857142855 6:1.0 7:0.30151134457776363 8:0.0 9:0.1349727264643231 10:0.0 11:0.0 12:0.0 13:0.0 14:0.4 15:0.14814814814814814 16:0.23094010767585027 
0.0 0.0 0.0 1.0 1.0 1.0 1.0 1.0 0.0 0.0 0.0 1.0 0.0 0.9521172608652687 1:0.7071067811865475 2:0.0 3:0.0 4:0.06896551724137931 5:0.5 6:0.0 7:0.24174688920761409 8:0.0 9:0.29924485717854005 10:0.5 11:0.5 12:0.0 13:0.0 14:0.19047619047619047 15:0.2 16:0.22750787759664506 
0.0 0.0 0.0 1.0 1.0 0.0 1.0 0.0 0.0 0.0 1.0 1.0 0.0 0.0 1:0.0 2:0.0 3:0.0 4:0.13513513513513514 5:0.2142857142857143 6:0.4 7:0.3273268353539886 8:0.0 9:0.3925717521734304 10:1.0 11:0.0 12:0.0 13:0.0 14:0.36363636363636365 15:0.14814814814814814 16:0.2439750182371333 
0.0 0.0 0.0 1.0 1.0 0.0 1.0 0.0 0.0 0.0 0.5139510799445342 1.0 0.0 0.0 1:0.5 2:0.0 3:0.0 4:0.04897959183673469 5:0.6216216216216216 6:1.0 7:0.12573892269238632 8:0.0 9:0.18439149970184693 10:0.25 11:0.0 12:0.0 13:0.0 14:0.20588235294117646 15:0.25925925925925924 16:0.25058072087536704 
0.0 0.0 0.0 0.3820388294568597 1.0 0.0 0.0 0.3488250754109917 0.0 0.0 0.0 0.0 0.0 0.0 1:0.7071067811865475 2:0.0 3:0.0 4:0.07766990291262135 5:0.625 6:1.0 7:0.6875 8:0.0 9:0.20982967317911216 10:0.5 11:0.16666666666666666 12:0.0 13:0.23570226039551587 14:0.3103448275862069 15:0.36 16:0.30658330991377586 
0.0 0.0 0.0 0.0 1.0 0.0 0.0 0.0 0.0 0.0 1.0 1.0 0.0 0.0 1:0.2886751345948129 2:0.0 3:0.0 4:0.09170305676855896 5:0.6851851851851851 6:1.0 7:0.09805806756909201 8:0.0 9:0.20167238430376222 10:0.3333333333333333 11:0.0 12:0.0 13:0.6666666666666667 14:0.34615384615384615 15:0.5625 16:0.426014322842305 
0.0 0.0 0.0 0.0 1.0 0.0 1.0 0.0 0.0 0.0 1.0 1.0 0.0 1.0 1:0.0 2:0.0 3:0.0 4:0.07526881720430108 5:0.43333333333333335 6:0.3333333333333333 7:0.0 8:0.0 9:0.20482309072621172 10:0.0 11:0.0 12:0.0 13:0.40824829046386296 14:0.07692307692307693 15:0.06666666666666667 16:0.0716114874039433 
0.0 0.0 0.0 1.0 1.0 0.40256017351949913 1.0 0.0 0.0 0.0 1.0 1.0 0.0 0.0 1:0.5345224838248487 2:0.0 3:0.0 4:0.1116751269035533 5:0.4393939393939394 6:1.0 7:0.45226701686664544 8:0.0 9:0.209005010140427 10:0.6666666666666666 11:0.6666666666666666 12:0.0 13:0.0 14:0.52 15:0.4482758620689655 16:0.5264828210920953 
0.0 0.0 0.39644073189679796 0.0 1.0 1.0 0.0 0.0 0.0 0.0 1.0 1.0 0.0 0.0 1:0.0 2:0.0 3:0.0 4:0.08121827411167512 5:0.7758620689655172 6:1.0 7:0.09622504486493764 8:0.0 9:0.18197317937779306 10:0.3333333333333333 11:0.3333333333333333 12:0.0 13:0.7071067811865475 14:0.16 15:0.3076923076923077 16:0.22798037629377663 
0.0 0.0 0.0 0.009149820287234456 1.0 0.0 1.0 0.0 0.0 0.0 1.0 1.0 0.0 0.0 1:0.0 2:0.0 3:0.0 4:0.5641025641025641 5:0.15625 6:0.0 7:0.4472135954999579 8:0.0 9:0.10933510933510934 10:1.0 11:1.0 12:0.0 13:0.0 14:0.4 15:0.125 16:0.22360679774997896 
0.0 0.0 0.3553415779325999 0.0 0.0 0.0 0.0 0.0 0.0 0.0 0.0 0.0 0.0 0.0 1:0.5773502691896258 2:0.0 3:0.0 4:0.32142857142857145 5:0.5 6:0.0 7:1.0 8:0.0 9:0.19310809672255455 10:1.0 11:1.0 12:0.0 13:0.8660254037844387 14:0.85 15:0.8947368421052632 16:0.858116330321033 
1.0 1.0 0.13563509106834581 0.0 0.0 0.0 0.0 0.0 0.0 0.0 0.0 0.0 0.0 0.0 1:0.8944271909999159 2:0.0 3:0.0 4:0.7142857142857143 5:0.4722222222222222 6:0.0 7:0.9999999999999998 8:1.0 9:0.3707411310151036 10:1.0 11:1.0 12:0.0 13:0.9999999999999998 14:1.0 15:0.9444444444444444 16:0.9718253158075502 
0.0 0.0 0.0 0.0 1.0 0.0 1.0 0.0 0.0 0.0 1.0 1.0 0.0 1.0 1:0.0 2:0.0 3:0.0 4:0.0625 5:0.3035714285714286 6:0.0 7:0.24806946917841693 8:0.0 9:0.2501689129626124 10:0.5 11:0.0 12:0.0 13:0.31622776601683794 14:0.17647058823529413 15:0.1111111111111111 16:0.1328422328310143 
0.0 0.0 0.0 0.0 1.0 0.0 1.0 0.25605105929744904 0.0 0.0 1.0 1.0 0.0 1.0 1:0.0 2:0.0 3:0.0 4:0.022900763358778626 5:0.7567567567567568 6:1.0 7:0.0 8:0.0 9:0.2973950243242363 10:0.0 11:0.0 12:0.0 13:0.0 14:0.05714285714285714 15:0.1111111111111111 16:0.11043152607484655 
0.0 1.0 0.0 0.0 0.0 0.0 0.0 0.0 0.0 0.0 0.0 0.0 0.0 0.0 1:1.0 2:0.0 3:0.0 4:1.0 5:0.5 6:1.0 7:1.0000000000000002 8:1.0 9:0.3494940040716307 10:1.0 11:1.0 12:0.0 13:0.9999999999999998 14:1.0 15:1.0 16:1.0 
0.0 1.0 0.0 0.0 0.0 0.0 0.0 0.0 0.0 0.0 0.0 0.0 0.0 0.0 1:1.0 2:0.0 3:0.0 4:1.0 5:0.5 6:1.0 7:0.9999999999999999 8:1.0 9:0.32315990704522574 10:1.0 11:1.0 12:0.0 13:1.0000000000000002 14:1.0 15:1.0 16:0.9999999999999999 
0.31570153872424117 0.0 0.0 1.0 1.0 0.7457625164381724 0.0 1.0 0.0 0.43986236740914014 1.0 0.0 0.26916480697379697 0.0 1:0.9999999999999998 2:0.0 3:0.0 4:0.06542056074766354 5:0.3125 6:1.0 7:0.5477225575051661 8:0.0 9:0.3893340078844883 10:0.0 11:0.0 12:0.0 13:0.25 14:0.2 15:0.125 16:0.15811388300841897 
0.0 1.0 0.0 0.0 0.0 0.0 0.0 0.0 0.0 0.0 0.0 0.0 0.0 0.0 1:1.0 2:0.0 3:0.0 4:1.0 5:0.5 6:0.0 7:0.9999999999999999 8:0.0 9:0.19476200338400232 10:1.0 11:1.0 12:0.0 13:1.0000000000000002 14:1.0 15:1.0 16:1.0000000000000002 
0.0 1.0 0.0 0.0 0.0 0.0 0.0 0.0 0.0 0.0 0.0 0.0 0.0 0.0 1:0.0 2:0.0 3:0.0 4:1.0 5:0.5 6:1.0 7:1.0 8:1.0 9:0.3526927437641721 10:1.0 11:1.0 12:0.0 13:0.9999999999999998 14:1.0 15:1.0 16:1.0000000000000002 
0.0 1.0 0.0 0.0 0.0 0.0 0.0 0.0 0.0 0.0 0.0 0.0 0.0 0.0 1:1.0000000000000002 2:0.0 3:0.0 4:1.0 5:0.5 6:0.0 7:0.9999999999999998 8:1.0 9:0.25033333333333335 10:1.0 11:1.0 12:0.0 13:1.0000000000000002 14:1.0 15:1.0 16:1.0 
0.0 1.0 0.0 0.0 0.0 0.0 0.0 0.0 0.0 0.0 0.0 0.0 0.0 0.0 1:0.0 2:0.0 3:0.0 4:1.0 5:0.5 6:1.0 7:1.0 8:1.0 9:0.18747553816046963 10:1.0 11:1.0 12:0.0 13:1.0 14:1.0 15:1.0 16:0.9999999999999998 
1.0 0.3379302039246182 0.0 0.0 0.0 0.0 0.0 0.0 0.0 0.0 0.0 0.0 0.0 0.0 1:1.0000000000000002 2:0.0 3:0.0 4:0.7379679144385026 5:0.5 6:1.0 7:1.0000000000000002 8:0.0 9:0.4779777645568704 10:1.0 11:1.0 12:0.0 13:0.9999999999999998 14:0.9615384615384616 15:0.9615384615384616 16:0.9615384615384617 
0.0 1.0 0.0 0.0 0.0 0.0 0.0 0.0 0.0 0.0 0.0 0.0 0.0 0.0 1:0.0 2:0.0 3:0.0 4:1.0 5:0.5 6:1.0 7:0.9999999999999998 8:1.0 9:0.13931837785048798 10:1.0 11:1.0 12:0.0 13:1.0 14:1.0 15:1.0 16:0.9999999999999998 
0.0 1.0 0.0 0.0 0.0 0.0 0.0 0.0 0.0 0.0 0.0 0.0 0.0 0.0 1:1.0 2:0.0 3:0.0 4:1.0 5:0.5 6:0.0 7:0.9999999999999998 8:1.0 9:0.204210281139569 10:1.0 11:1.0 12:0.0 13:0.9999999999999998 14:1.0 15:1.0 16:1.0000000000000002 
0.0 0.0 0.0 0.0 1.0 0.0 0.0 0.0 0.0 0.0 0.0 0.0 0.0 0.0 1:0.7745966692414834 2:0.0 3:0.0 4:0.23222748815165878 5:0.6818181818181819 6:1.0 7:0.7337993857053429 8:0.0 9:0.2150404649164886 10:1.0 11:1.0 12:0.0 13:0.33333333333333337 14:0.5 15:0.7142857142857143 16:0.5590852462516898 
0.0 0.0 0.0 0.0 1.0 0.0 1.0 0.0 0.0 0.0 0.0 1.0 0.0 0.0 1:0.6324555320336759 2:0.0 3:0.0 4:0.05687203791469194 5:0.6666666666666666 6:1.0 7:0.09245003270420486 8:0.0 9:0.12147991125556341 10:0.0 11:0.0 12:0.0 13:0.0 14:0.06666666666666667 15:0.1111111111111111 16:0.08770580193070292 
0.0 1.0 0.0 0.0 0.0 0.0 0.0 0.0 0.0 0.0 0.0 0.0 0.0 0.0 1:1.0 2:0.0 3:0.0 4:1.0 5:0.5 6:0.0 7:0.9296696802013682 8:0.0 9:0.3810296984290793 10:0.5 11:0.5 12:0.0 13:0.9999999999999998 14:1.0 15:1.0 16:1.0000000000000002 
0.0 1.0 0.0 0.0 0.0 0.0 0.0 0.0 0.0 0.0 0.0 0.0 0.0 0.0 1:0.9999999999999998 2:0.0 3:0.0 4:1.0 5:0.5 6:1.0 7:0.9999999999999999 8:0.0 9:0.3602673835047221 10:1.0 11:1.0 12:0.0 13:0.9999999999999998 14:1.0 15:1.0 16:1.0 
1.0 0.0 0.0 1.0 0.0 0.0 0.0 0.0 0.0 0.0 0.0 0.0 0.0 0.0 1:0.7071067811865475 2:0.0 3:0.0 4:0.628140703517588 5:0.48333333333333334 6:1.0 7:0.9636241116594316 8:1.0 9:0.20160706581886642 10:0.5 11:0.75 12:0.0 13:0.8164965809277259 14:0.9230769230769231 15:0.9230769230769231 16:0.9322944450820391 
0.0 1.0 0.0 0.0 0.0 0.0 0.0 0.0 0.0 0.0 0.0 0.0 0.0 0.0 1:1.0000000000000002 2:0.0 3:0.0 4:1.0 5:0.5 6:0.0 7:0.9999999999999998 8:0.0 9:0.21333333333333337 10:1.0 11:1.0 12:0.0 13:0.9999999999999998 14:1.0 15:1.0 16:1.0 
0.0 0.0 0.0 0.0 1.0 0.0 1.0 0.0 0.0 0.0 1.0 1.0 0.0 1.0 1:0.40824829046386296 2:0.0 3:0.0 4:0.09876543209876543 5:0.3529411764705882 6:1.0 7:0.0 8:0.0 9:0.11069603933123025 10:0.0 11:0.0 12:0.0 13:0.0 14:0.08333333333333333 15:0.058823529411764705 16:0.0700140042014005 
0.0 1.0 0.0 0.0 0.0 0.0 0.0 0.0 0.0 0.0 0.0 0.0 0.0 0.0 1:0.9999999999999998 2:0.0 3:0.0 4:1.0 5:0.5 6:1.0 7:0.9999999999999998 8:0.0 9:0.21823529411764706 10:1.0 11:1.0 12:0.0 13:1.0 14:1.0 15:1.0 16:1.0000000000000002 
0.0 0.0 0.0 0.0 1.0 0.0 1.0 0.0 0.0 0.0 1.0 1.0 0.0 1.0 1:0.0 2:0.0 3:0.0 4:0.13580246913580246 5:0.2608695652173913 6:1.0 7:0.15811388300841897 8:0.0 9:0.11721827801984733 10:0.0 11:0.0 12:0.0 13:0.0 14:0.16666666666666666 15:0.09090909090909091 16:0.17320508075688776 
0.0 0.0 0.0 0.0 1.0 0.0 1.0 0.0 0.0 0.0 1.0 1.0 0.0 1.0 1:0.0 2:0.0 3:0.0 4:0.07006369426751592 5:0.7391304347826086 6:0.5 7:0.15811388300841897 8:0.0 9:0.11721827801984734 10:0.5 11:0.0 12:0.0 13:0.0 14:0.09090909090909091 15:0.16666666666666666 16:0.17320508075688776 
0.0 0.0 0.0 0.0 1.0 0.0 1.0 0.0 0.0 0.0 1.0 1.0 0.0 1.0 1:0.0 2:0.0 3:0.0 4:0.024752475247524754 5:0.6290322580645161 6:1.0 7:0.0 8:0.0 9:0.16501669265831367 10:0.0 11:0.0 12:0.0 13:0.0 14:0.10714285714285714 15:0.13636363636363635 16:0.16012815380508713 
0.0 1.0 0.0 0.0 1.0 0.0 0.0 0.0 0.0 0.0 0.0 0.0 0.0 0.0 1:0.6324555320336759 2:0.0 3:0.0 4:0.9941176470588236 5:0.2391304347826087 6:0.5 7:0.8240419241993677 8:1.0 9:0.23655929600539202 10:1.0 11:1.0 12:0.0 13:0.7071067811865476 14:1.0 15:0.525 16:0.7258661863112977 
0.0 0.0 0.0 0.0 1.0 0.0 0.0 0.0 0.0 0.0 0.0 0.0 0.0 0.0 1:0.5999999999999999 2:0.0 3:0.0 4:0.36 5:0.3695652173913043 6:1.0 7:0.7656414934887765 8:0.6666666666666666 9:0.2643922940918538 10:1.0 11:0.5 12:0.0 13:0.5477225575051661 14:0.7096774193548387 15:0.55 16:0.725072166544399 
0.0 0.0 0.0 1.0 1.0 0.0 1.0 0.0 0.0 0.0 1.0 1.0 0.0 1.0 1:0.2886751345948129 2:0.0 3:0.0 4:0.0851063829787234 5:0.3225806451612903 6:0.0 7:0.23570226039551587 8:0.0 9:0.2563348592434333 10:0.3333333333333333 11:0.0 12:0.0 13:0.0 14:0.15789473684210525 15:0.1 16:0.11134044285378082 
1.0 1.0 0.0 0.0 0.0 0.0 0.0 0.0 0.0 0.0 0.0 0.0 0.0 0.0 1:0.7071067811865475 2:0.0 3:0.0 4:0.7897727272727273 5:0.33783783783783783 6:0.0 7:0.8696263565463043 8:1.0 9:0.20814677600566456 10:1.0 11:1.0 12:0.0 13:0.9128709291752769 14:1.0 15:0.7142857142857143 16:0.8433383141984728 
0.0 0.0 0.0 0.2535465669302605 1.0 0.0 0.0 1.0 0.0 0.0 0.0 0.8737399142927201 0.0 0.0 1:0.7071067811865475 2:0.0 3:1.0 4:0.6470588235294118 5:0.16216216216216217 6:1.0 7:0.420084025208403 8:1.0 9:0.13135964192751273 10:0.5 11:0.0 12:0.0 13:0.2886751345948129 14:0.75 15:0.2571428571428571 16:0.49591829906708784 
0.9691306382350563 0.0 0.0 0.0 0.0 0.0 0.0 0.0 0.0 0.0 0.0 0.0 0.0 0.0 1:0.9999999999999998 2:0.0 3:0.0 4:0.6866666666666666 5:0.5 6:1.0 7:0.9999999999999999 8:1.0 9:0.23103057528480944 10:0.6666666666666666 11:1.0 12:0.0 13:0.6666666666666667 14:0.95 15:0.95 16:0.9499999999999998 
1.0 1.0 0.0 0.0 0.0 0.0 0.0 0.0 0.0 0.0 0.0 0.0 0.0 0.0 1:0.8944271909999159 2:0.0 3:0.0 4:0.6779661016949152 5:0.5277777777777778 6:0.0 7:0.9999999999999998 8:1.0 9:0.3707411310151036 10:1.0 11:1.0 12:0.0 13:0.9999999999999998 14:0.9444444444444444 15:1.0 16:0.9718253158075502 
