svm_type c_svc
kernel_type rbf
gamma 0.0625
nr_class 15
total_sv 2383
rho -0.9817155552888055 0.2858784195512383 -1.025091922881766 -1.05901040102583 -2.2335626074798087 -1.004077863713499 -0.8339822536426833 -0.8392045238124526 -1.020848530200237 -0.9613181490788961 -1.9707403382956106 -0.5387609930917593 -1.0515901729932202 -1.0157667612424794 0.6404556204746921 -1.0168550332823518 -0.8043137029318665 -0.6591860162314362 -0.7814506234457073 -0.25643097725964176 -0.13930980614115115 -1.0190690011387198 -0.9485781681149886 -0.8650647244217033 -0.040922164882992614 -0.9915211348717929 -0.43641982402504714 -0.5110050905592454 -0.6584157240127853 -0.5656633436095387 -0.5051609666563673 -0.24682455822459332 -0.26023453121563517 -0.3000750714662563 -0.32331244747251947 -0.4140175998795591 -0.39963025094890736 -0.8001647788999957 -0.21100566949840058 0.958019625356466 0.985044151687371 0.9630897299549125 0.7352907388048806 0.8754426855995405 -0.8368578553199768 -0.6646083517243753 0.8048635797575979 1.0332543723810543 -0.8835105222247109 0.013840049505233744 0.9418784629779384 -0.7674140449206034 0.6734261623096287 0.7956559531625202 -1.0196584962131248 -0.835861927877508 0.028895109918672692 1.1896121225091925 -0.9676438232585007 -0.3093509831974364 -0.9527290369559596 -0.046401478121544035 -0.4442918333743511 -1.0362466002832385 -0.9793602350860027 -0.7871614900847878 1.1080552294392114 -0.9544799937695898 -0.9038929672954844 0.3596579565705072 0.7328270303504851 -0.9982276921333398 -0.8657793269323872 -0.09403432775025397 1.021532715936354 -0.9572861587612903 -0.1136437577132247 0.24384054507876357 -1.052996965080016 -0.9389054345881584 -1.0065858327504766 0.3566332835315378 -0.9383199215050788 -0.8510676963522001 -1.0206712126775102 -0.9392496990226515 -1.5604512602255476 0.9395704785132308 -0.9961542822392958 -0.9089919704454804 0.36613675951957697 0.9764616067550083 1.0128441579194418 -0.7121840922905539 0.8618241574114529 0.8483109843311712 1.0167810978645566 -0.8884145876445257 0.16094966369487004 1.0725893144196734 -0.8832732346461992 -0.46337842567705895 -0.9841613649255472 -0.9990100457872448 0.713483554179583
label 4 2 1 8 9 18 5 15 11 14 10 6 13 12 0
probA -58.5502740007155 -2.740596075266678 -276.63373978126407 -128.36680235097427 -1.5372512852410511 -149.1342437203786 -1.9439983292635064 -6.89785774837412 -215.41349303249876 -169.19783966976664 -1.8122383380618985 -1.19519571351833 -56.15579775126509 -30.517967696779092 -5.039469933449978 -34.49005304352495 -1.4566209092421813 -2.710955721280468 -2.8840740764968067 -3.3304383687236623 -2.52063793963374 -18.832487313197966 -33.37525266318021 -2.923305027815973 -2.4171008831506557 24.35424660666584 -3.410816820099642 -4.761935962207903 -4.528398249774492 -4.356224622738899 -4.974447109767145 -4.224362321703603 -4.216086659049198 -3.805677971032199 -4.801020293267172 -4.263107159148363 -4.276511097763755 -28.751887467293763 -3.793153530274001 -28.02324655508649 -118.62915880924372 -0.8677712810684801 -9.311969197481975 -18.84248404409478 0.8746310953309165 -6.5793501249246065 -16.880908897902085 -39.901765423406445 3.398511036499805 -4.809094269586546 -17.046951942796426 -4.026903570128394 -2.4115194056630402 -1.4098228257966772 -47.63995897224971 -51.35813043568202 -2.3788178800869186 -1.8152979850316306 12.967253550549422 -3.512583148731125 -164.2033020551997 -1.9335535711459646 -13.690701056111484 -125.04663553891454 -157.11646237307156 -1.9102841469934844 -1.3979848917086375 -74.82409390291777 -14.566932958162388 -4.707093737966143 -6.77851828678567 -16.002526408543243 -21.50429998453261 -3.879123597105942 -21.045632907778504 21.281532704532992 -3.9751389046895826 -2.2896736873058567 -57.13376283647122 -28.93256304867382 -1.4540044382252157 -1.6591349225560066 -37.21392698357061 -22.83819694174839 -35.61267406496098 -32.91930385805325 -2.0084377422096535 -1.4033949405044153 -7.191080541406693 -6.37957825742447 0.24045723003620986 -68.18489211897567 -301.92414196127487 -17.63856453809249 -16.82858991496819 -33.31730602779865 -35.395793833281495 -0.28481170344543666 -6.283756532099876 -1.1786605953843143 -90.45438005959575 -8.646560193338942 12.4645881021571 -22.382798571662033 -21.36715530890684
probB 56.86806165615822 0.6326492629912128 273.6479791776634 126.87125387988023 -0.11838883386893279 146.91465880319782 0.34992587061517977 5.567614917603997 212.41708747584266 166.71046774685846 -4.439715604320918E-4 -0.020114616934197763 52.15596203495835 28.775587258959145 -1.9916236785828456 32.832020995116444 -0.061890059880133554 -0.7122037618726508 1.6507345899652979 -0.6838851883734989 -0.5190027370335993 16.976508034122038 31.18795964726969 -0.39136874498616453 -0.4062632504858162 -27.902473045399944 -0.49420221670359665 1.4276501860608815 1.1987338778149867 0.3584768905181243 1.7479602652692192 0.3292760002294959 0.00872976595690138 -0.3734573153433134 0.8503627734583885 0.16697547931053755 1.2364686752706024 25.306103857865434 -0.3830240009906566 -26.088293345926136 -115.93612932335742 0.1657491433400639 -6.787331690776834 -16.69268605028562 -1.184689164811889 4.812746320486335 -14.559923676684669 -37.15460694633987 -4.801352347424042 -2.226276390807003 -15.76406312663334 2.9568606151781753 -0.7107153198325461 -0.1893559529087672 45.63430518421109 49.38192728532867 -0.6253839170321894 -0.36781452578893764 -16.694704776710935 0.902433238384489 162.20953704897747 0.8983170824663349 12.494042145328708 121.9498596945412 154.29193586504374 0.48125749052874256 0.22196083785709292 70.9638767641704 12.693881718177852 -2.8262287094485337 -5.408809356838952 14.408136087857482 19.907538249248727 -1.7565068385968339 -19.148596579272173 -24.000594927399188 -0.7528879717110653 0.7840301124298591 54.06675638430636 26.348583651851303 0.06256577192043287 -0.3846502354914077 34.14163815220367 21.103869661023914 32.98364969855292 30.644723266226826 -0.6614012355131623 -0.6599007247536652 3.7160457400214675 4.653193769216753 0.1303983260075116 -65.18258278383885 -298.8003765875647 15.47828898108482 -15.009763354278912 -30.709685842480646 -32.89353067425354 -0.6752535777738341 -3.5574582145131393 0.3927289803294782 87.64125941081653 6.81645694240788 -17.16303157041913 20.70889927444646 -18.379776011098727
nr_sv 521 101 98 17 135 429 48 244 159 10 11 244 314 4 48
SV
0.0 0.0 0.0 0.0 1.0 0.0 1.0 0.0 0.0 0.0 0.0 0.0 0.0 0.0 1:0.0 2:0.0 3:0.0 4:0.19298245614035087 5:0.5625 6:1.0 7:0.5999999999999999 8:1.0 9:0.4504780243910679 10:1.0 11:0.0 12:0.0 13:0.0 14:0.5 15:0.5714285714285714 16:0.5345224838248487 
0.0 0.0 0.0 0.0 0.0 0.0 0.0 0.0 0.0 0.0 0.0 1.0 0.0 0.0 1:0.4472135954999579 2:0.0 3:0.0 4:0.08860759493670886 5:0.7727272727272727 6:0.5 7:0.42426406871192845 8:0.0 9:0.46705450813675325 10:0.5 11:0.0 12:0.0 13:0.5773502691896258 14:0.2727272727272727 15:0.6 16:0.4045199174779452 
0.0 0.0 0.0 1.0 1.0 0.5712674318045758 1.0 0.0 0.0 0.0 0.0 1.0 0.0 0.0 1:0.4472135954999579 2:0.0 3:0.0 4:0.0949367088607595 5:0.5681818181818181 6:0.5 7:0.3508232077228117 8:0.0 9:0.5508663696498529 10:0.5 11:0.5 12:0.0 13:0.0 14:0.2727272727272727 15:0.35294117647058826 16:0.35564337957950964 
0.0 0.0 0.0 0.0 1.0 0.0 0.0 0.0 0.0 0.0 0.0 0.0 0.0 0.0 1:0.5163977794943222 2:0.0 3:0.0 4:0.06329113924050633 5:0.7954545454545454 6:1.0 7:0.6666666666666666 8:0.0 9:0.7100235369637222 10:0.5 11:0.5 12:0.0 13:0.0 14:0.22727272727272727 15:0.5555555555555556 16:0.3553345272593507 
0.0 0.0 0.0 0.0 0.0 0.0 0.0 0.0 0.0 0.0 0.0 1.0 0.0 0.0 1:0.4472135954999579 2:0.0 3:0.0 4:0.08860759493670886 5:0.7727272727272727 6:0.5 7:0.42426406871192845 8:0.0 9:0.46705450813675325 10:0.5 11:0.0 12:0.0 13:0.5773502691896258 14:0.2727272727272727 15:0.6 16:0.4045199174779452 
0.0 0.0 0.0 1.0 1.0 0.0 1.0 0.0 0.0 0.0 1.0 1.0 0.0 0.0 1:0.31622776601683794 2:0.0 3:0.0 4:0.10759493670886076 5:0.6818181818181819 6:1.0 7:0.35856858280031806 8:0.0 9:0.5364594707897609 10:0.5 11:0.0 12:0.0 13:0.0 14:0.3181818181818182 15:0.5 16:0.3988620176087328 
0.0 0.0 0.0 0.7981189984502791 1.0 0.0 0.0 0.0 0.0 0.0 0.0 0.0 0.0 0.0 1:0.5163977794943222 2:0.0 3:0.0 4:0.06329113924050633 5:0.7954545454545454 6:1.0 7:0.6666666666666666 8:0.0 9:0.7100235369637222 10:0.5 11:0.5 12:0.0 13:0.0 14:0.22727272727272727 15:0.5555555555555556 16:0.3553345272593507 
0.0 0.0 0.0 1.0 1.0 0.0 0.0 1.0 0.0 0.0 1.0 0.0 0.0 0.0 1:0.5773502691896258 2:0.0 3:0.0 4:0.07352941176470588 5:0.6578947368421053 6:1.0 7:0.6153846153846154 8:0.0 9:0.7195822173613353 10:0.5 11:0.5 12:0.0 13:0.4999999999999999 14:0.21052631578947367 15:0.3076923076923077 16:0.2545139051903111 
0.0 0.0 0.0 0.6994602097403999 1.0 0.30470390822650545 0.0 1.0 0.0 0.0 0.0 0.0 0.0 0.0 1:1.0 2:0.0 3:0.0 4:0.08088235294117647 5:0.7105263157894737 6:1.0 7:0.7302967433402213 8:0.0 9:0.5806315201446663 10:0.0 11:0.0 12:0.0 13:0.0 14:0.21052631578947367 15:0.36363636363636365 16:0.27668578554642986 
0.0 0.0 0.0 0.0 1.0 0.0 0.29150874301487173 0.0 0.0 0.0 1.0 1.0 0.0 0.0 1:0.4999999999999999 2:0.0 3:0.0 4:0.11029411764705882 5:0.763157894736842 6:1.0 7:0.31622776601683794 8:0.0 9:0.5755010661340944 10:0.0 11:0.0 12:0.0 13:0.0 14:0.15789473684210525 15:0.3333333333333333 16:0.22941573387056172 
0.0 0.0 0.0 1.0 1.0 0.0 1.0 0.6324346627248182 0.0 0.0 0.0 0.0 0.0 0.0 1:0.7071067811865475 2:0.0 3:0.0 4:0.07352941176470588 5:0.763157894736842 6:1.0 7:0.6689936080056726 8:0.0 9:0.6957975416598243 10:0.5 11:0.5 12:0.0 13:0.0 14:0.15789473684210525 15:0.3333333333333333 16:0.22941573387056172 
0.0 0.0 0.0 0.0 1.0 0.0 1.0 0.0 0.0 0.0 1.0 1.0 0.0 0.0 1:0.4999999999999999 2:0.0 3:0.0 4:0.11029411764705882 5:0.763157894736842 6:1.0 7:0.31622776601683794 8:0.0 9:0.5755010661340944 10:0.0 11:0.0 12:0.0 13:0.0 14:0.15789473684210525 15:0.3333333333333333 16:0.22941573387056172 
1.0 0.47607145483223356 0.0 0.10376541955532176 1.0 0.0 1.0 1.0 0.0 0.0 0.0 1.0 0.0 0.0 1:0.0 2:0.0 3:0.0 4:0.22988505747126436 5:0.7307692307692308 6:0.0 7:0.5669467095138409 8:0.0 9:0.7561323733737527 10:0.0 11:0.0 12:0.0 13:0.0 14:0.3076923076923077 15:0.5714285714285714 16:0.4193139346887673 
0.0 0.0 0.0 1.0 1.0 0.0 1.0 1.0 0.0 0.0 1.0 1.0 0.0 1.0 1:0.0 2:0.0 3:0.0 4:0.20689655172413793 5:0.5769230769230769 6:0.0 7:0.40089186286863654 8:0.0 9:0.7601414903670543 10:0.0 11:0.0 12:0.0 13:0.0 14:0.23076923076923078 15:0.3 16:0.2307692307692308 
1.0 0.0 0.0 1.0 0.0 0.0 0.0 0.0 0.0 0.0 0.0 0.0 0.0 0.0 1:0.9999999999999998 2:0.0 3:0.0 4:0.5121951219512195 5:0.6578947368421053 6:1.0 7:0.6681531047810609 8:1.0 9:0.8777613116158001 10:0.3333333333333333 11:0.3333333333333333 12:0.0 13:0.40824829046386296 14:0.5263157894736842 15:0.7692307692307693 16:0.6362847629757777 
0.0 0.0 0.0 1.0 1.0 0.0 1.0 1.0 0.0 0.0 1.0 1.0 0.0 0.0 1:0.0 2:0.0 3:0.0 4:0.14634146341463414 5:0.8157894736842105 6:1.0 7:0.35355339059327373 8:0.0 9:0.7229064254978715 10:0.3333333333333333 11:0.3333333333333333 12:0.0 13:0.0 14:0.15789473684210525 15:0.42857142857142855 16:0.26013299085723596 
1.0 0.0 0.0 1.0 1.0 0.0 0.0 0.0 0.0 0.0 0.0 0.0 0.0 0.0 1:0.7071067811865475 2:0.0 3:0.0 4:0.21138211382113822 5:0.631578947368421 6:1.0 7:0.8017837257372731 8:1.0 9:0.9280140794304876 10:0.6666666666666666 11:0.6666666666666666 12:0.0 13:0.40824829046386296 14:0.5789473684210527 15:0.7857142857142857 16:0.6744532734334623 
0.0 0.0 0.0 0.0 1.0 0.0 1.0 0.0 0.0 0.0 1.0 1.0 0.0 0.0 1:0.0 2:0.0 3:0.0 4:0.17073170731707318 5:0.868421052631579 6:1.0 7:0.5303300858899106 8:0.0 9:0.6877915356630528 10:0.3333333333333333 11:0.0 12:0.0 13:0.0 14:0.21052631578947367 15:0.8 16:0.4103913408340616 
0.0 0.0 0.0 0.8595899515554898 0.0 0.0 0.0 0.0 0.0 0.0 0.0 0.0 0.0 0.0 1:0.7071067811865475 2:0.0 3:0.0 4:0.5040650406504065 5:0.763157894736842 6:1.0 7:0.7905694150420948 8:1.0 9:0.8873974104202079 10:0.3333333333333333 11:0.3333333333333333 12:0.0 13:0.5773502691896258 14:0.47368421052631576 15:1.0 16:0.6882472016116852 
0.0 0.0 0.0 1.0 1.0 0.041394035232805076 1.0 1.0 0.0 0.0 0.0 1.0 0.108845333394316 1.0 1:0.4999999999999999 2:0.0 3:0.0 4:0.15447154471544716 5:0.631578947368421 6:0.0 7:0.5039526306789696 8:0.0 9:0.8220987049255682 10:0.0 11:0.0 12:0.0 13:0.0 14:0.21052631578947367 15:0.2857142857142857 16:0.2452557357939863 
0.0 0.0 0.0 0.0 1.0 0.0 1.0 1.0 0.6890626384248149 0.0 1.0 1.0 0.0 0.0 1:0.0 2:0.0 3:0.0 4:0.17073170731707318 5:0.6842105263157895 6:0.3333333333333333 7:0.5103103630798287 8:0.0 9:0.7102548336794585 10:0.3333333333333333 11:0.0 12:0.0 13:0.0 14:0.21052631578947367 15:0.3333333333333333 16:0.26490647141300877 
0.05748533522419004 0.0 0.0 0.0 1.0 0.0 1.0 0.0 0.0 0.0 0.0 1.0 0.0 0.0 1:0.0 2:0.0 3:0.0 4:0.15384615384615385 5:0.7692307692307692 6:0.0 7:0.8660254037844387 8:0.0 9:0.5548387096774193 10:1.0 11:1.0 12:0.0 13:0.0 14:0.3333333333333333 15:0.6666666666666666 16:0.4216370213557839 
0.0 0.0 0.0 0.0 1.0 0.0 1.0 0.0 0.0 0.0 0.0 1.0 0.0 0.0 1:0.0 2:0.0 3:0.0 4:0.10256410256410256 5:0.6538461538461539 6:0.0 7:0.5 8:0.0 9:0.6182203905006123 10:0.5 11:0.5 12:0.0 13:0.0 14:0.16666666666666666 15:0.2222222222222222 16:0.17213259316477406 
0.0 0.0 0.0 0.0 1.0 0.0 0.0 0.0 0.0 0.0 0.0 0.0 0.0 0.0 1:0.8164965809277259 2:0.0 3:0.0 4:0.06993006993006994 5:0.7368421052631579 6:1.0 7:0.3779644730092272 8:0.0 9:0.5126901183977479 10:0.0 11:0.0 12:0.0 13:0.0 14:0.2631578947368421 15:0.5 16:0.3627381250550058 
0.0 0.0 0.0 0.0 1.0 0.0 0.0 0.0 0.0 0.0 0.0 0.0 0.0 0.0 1:0.5773502691896258 2:0.0 3:0.0 4:0.08391608391608392 5:0.868421052631579 6:1.0 7:0.5773502691896257 8:0.0 9:0.6905290409126724 10:1.0 11:1.0 12:0.0 13:0.0 14:0.21052631578947367 15:0.8 16:0.4103913408340616 
0.0 0.0 0.0 0.0 1.0 0.0 0.0 0.0 0.0 0.0 0.0 0.0 0.0 0.0 1:0.8164965809277259 2:0.0 3:0.0 4:0.06993006993006994 5:0.7368421052631579 6:1.0 7:0.3779644730092272 8:0.0 9:0.5126901183977479 10:0.0 11:0.0 12:0.0 13:0.0 14:0.2631578947368421 15:0.5 16:0.3627381250550058 
0.0 0.0 0.0 0.0 1.0 0.0 0.0 0.0 0.0 0.0 0.0 0.0 0.0 0.0 1:0.5773502691896258 2:0.0 3:0.0 4:0.09090909090909091 5:0.7894736842105263 6:1.0 7:0.5 8:0.0 9:0.5765567684957663 10:1.0 11:1.0 12:0.0 13:0.0 14:0.3157894736842105 15:0.75 16:0.4866642633922875 
0.0 0.0 0.0 0.0 1.0 0.0 0.0 1.0 0.0 0.0 1.0 0.0 0.0 0.0 1:0.7745966692414834 2:0.0 3:0.0 4:0.1958041958041958 5:0.6842105263157895 6:1.0 7:0.4811252243246881 8:0.0 9:0.7678559084855718 10:0.0 11:0.0 12:0.0 13:0.7071067811865475 14:0.2631578947368421 15:0.4166666666666667 16:0.33113308926626095 
1.0 0.0 0.0 1.0 1.0 0.0 1.0 0.0 0.0 0.0 1.0 1.0 0.0 0.0 1:0.0 2:0.0 3:0.0 4:0.1125 5:0.7727272727272727 6:1.0 7:0.7071067811865476 8:0.0 9:0.8681007210418973 10:1.0 11:1.0 12:0.0 13:0.0 14:0.2727272727272727 15:0.6 16:0.40451991747794525 
0.0 0.0 0.0 0.0 1.0 0.0 1.0 0.0 0.0 0.0 0.0 0.0 0.0 0.0 1:0.7071067811865475 2:0.0 3:0.0 4:0.3 5:0.5454545454545454 6:0.5 7:0.7302967433402214 8:0.0 9:0.6759583666277375 10:1.0 11:0.0 12:0.0 13:0.0 14:0.45454545454545453 15:0.5 16:0.4767312946227962 
1.0 0.0 0.0 1.0 1.0 0.0 0.0 0.0 0.0 0.0 0.0 0.0 0.0 0.0 1:1.0 2:0.0 3:0.0 4:0.4875 5:0.5909090909090909 6:1.0 7:0.9058216273156767 8:0.0 9:0.7219620116109395 10:1.0 11:1.0 12:0.0 13:0.0 14:0.5454545454545454 15:0.6666666666666666 16:0.6030226891555273 
0.0 0.0 0.0 0.39608978206227546 1.0 0.22077560430708432 1.0 0.0 0.0 0.0 0.0 0.0 0.0 0.0 1:0.7071067811865475 2:0.0 3:0.0 4:0.3 5:0.5454545454545454 6:0.5 7:0.7302967433402214 8:0.0 9:0.6759583666277375 10:1.0 11:0.0 12:0.0 13:0.0 14:0.45454545454545453 15:0.5 16:0.4767312946227962 
0.3462090132177681 0.0 0.0 0.0 1.0 0.4663055358360672 0.0 0.0603960770234664 0.0 0.0 0.0 0.0 0.0 0.0 1:0.9486832980505138 2:0.0 3:0.0 4:0.3 5:0.5909090909090909 6:1.0 7:0.8999999999999998 8:0.0 9:0.8871761946372391 10:1.0 11:1.0 12:0.0 13:1.0 14:0.5454545454545454 15:0.6666666666666666 16:0.6030226891555273 
1.0 1.0 0.0 0.0 1.0 0.0 0.0 0.0 0.0 0.0 0.0 0.0 0.0 0.0 1:1.0 2:0.0 3:0.0 4:0.7021276595744681 5:0.6428571428571428 6:1.0 7:0.8164965809277259 8:0.0 9:1.0 10:1.0 11:1.0 12:0.0 13:0.0 14:0.7142857142857143 15:1.0 16:0.8451542547285165 
1.0 0.0 0.0 0.0 1.0 0.0 1.0 0.0 0.0 0.0 0.0 1.0 0.0 0.0 1:0.0 2:0.0 3:0.0 4:0.2972972972972973 5:0.7272727272727273 6:0.0 7:0.5163977794943222 8:0.0 9:0.6683595973918556 10:0.6666666666666666 11:0.6666666666666666 12:0.0 13:0.0 14:0.2727272727272727 15:0.5 16:0.36927447293799825 
0.0 0.0 0.0 1.0 1.0 0.0 0.0 0.0 0.0 0.0 0.0 1.0 0.0 0.0 1:0.0 2:0.0 3:0.0 4:0.3918918918918919 5:0.6818181818181819 6:0.0 7:0.4472135954999579 8:0.0 9:0.6937467294610151 10:0.3333333333333333 11:0.3333333333333333 12:0.0 13:0.4999999999999999 14:0.36363636363636365 15:0.5714285714285714 16:0.4558423058385518 
1.0 0.0 0.0 1.0 1.0 0.0 0.8294251089373974 0.0 0.0 0.0 0.0 1.0 0.0 0.0 1:0.0 2:0.0 3:0.0 4:0.4864864864864865 5:0.5909090909090909 6:0.0 7:0.3999999999999999 8:0.0 9:0.6761414715458832 10:0.6666666666666666 11:0.6666666666666666 12:0.0 13:0.7071067811865475 14:0.45454545454545453 15:0.5555555555555556 16:0.502518907629606 
1.0 0.0 0.0 0.0 1.0 0.0 1.0 0.0 0.0 0.0 0.0 1.0 0.0 0.0 1:0.0 2:0.0 3:0.0 4:0.2972972972972973 5:0.7272727272727273 6:0.0 7:0.5163977794943222 8:0.0 9:0.6683595973918556 10:0.6666666666666666 11:0.6666666666666666 12:0.0 13:0.0 14:0.2727272727272727 15:0.5 16:0.36927447293799825 
0.0 1.0 0.0 0.0 1.0 0.0 0.0 0.0 0.0 0.0 0.0 1.0 0.0 0.0 1:0.0 2:0.0 3:0.0 4:0.4864864864864865 5:0.7272727272727273 6:0.0 7:0.5163977794943222 8:0.0 9:0.7660259095742967 10:0.6666666666666666 11:0.6666666666666666 12:0.0 13:0.7071067811865475 14:0.45454545454545453 15:0.8333333333333334 16:0.6154574548966638 
1.0 0.0 0.0 0.636425549490821 0.0 0.0 0.0 0.0 0.0 0.0 0.0 0.0 0.0 0.0 1:0.7001400420140049 2:0.0 3:0.0 4:0.27040816326530615 5:0.6666666666666666 6:1.0 7:0.8838834764831843 8:0.0 9:0.5172773340502349 10:1.0 11:1.0 12:1.0 13:0.8164965809277259 14:0.5416666666666666 15:0.7222222222222222 16:0.6154574548966637 
1.0 0.0 0.0 0.18029550520267457 0.0 0.0 0.0 0.0 0.0 0.0 0.0 0.0 0.0 0.0 1:0.31622776601683794 2:0.0 3:0.0 4:0.27040816326530615 5:0.6851851851851851 6:1.0 7:0.8782753106899461 8:0.0 9:0.4380342577078588 10:1.0 11:0.5 12:1.0 13:0.8164965809277259 14:0.5833333333333334 15:0.8235294117647058 16:0.6755205294731985 
0.0 0.0 0.1810941843440011 0.0 1.0 0.0 1.0 1.0 0.4885632555539848 0.0 1.0 1.0 0.0 0.0 1:0.0 2:0.0 3:0.0 4:0.10204081632653061 5:0.6111111111111112 6:1.0 7:0.7570332986102252 8:0.0 9:0.4156801026338708 10:0.6666666666666666 11:0.3333333333333333 12:0.0 13:0.2886751345948129 14:0.3333333333333333 15:0.38095238095238093 16:0.3038948705590345 
1.0 0.0 0.0 0.0 0.0 0.0 0.0 0.4749087396622039 0.0 0.0 0.0 0.0 0.26191807310100584 0.0 1:0.8574929257125441 2:0.0 3:0.0 4:0.27040816326530615 5:0.6851851851851851 6:1.0 7:0.8838834764831843 8:0.0 9:0.5172773340502349 10:1.0 11:1.0 12:1.0 13:0.8164965809277259 14:0.5416666666666666 15:0.7647058823529411 16:0.6333004963811236 
0.0 0.0 0.08720077654112728 0.0 1.0 0.0 1.0 1.0 0.0 0.0 1.0 1.0 0.0 0.0 1:0.0 2:0.0 3:0.0 4:0.061224489795918366 5:0.5740740740740741 6:1.0 7:0.6350528962771202 8:0.0 9:0.37754780735558363 10:0.6666666666666666 11:0.3333333333333333 12:0.0 13:0.2886751345948129 14:0.3333333333333333 15:0.34782608695652173 16:0.2903816034562511 
0.0 0.0 0.0 0.21135546709751202 1.0 0.34098758005315377 1.0 1.0 0.28770769297318965 0.0 1.0 1.0 0.0 0.0 1:0.0 2:0.0 3:0.0 4:0.08673469387755102 5:0.5740740740740741 6:1.0 7:0.8703882797784892 8:0.0 9:0.5283467120056888 10:0.6666666666666666 11:0.3333333333333333 12:0.0 13:0.2886751345948129 14:0.375 15:0.391304347826087 16:0.3266793038882825 
0.344558362512094 0.0 0.0 0.0 0.0 0.0 0.0 0.4419635884120591 0.0 0.0 0.5216292069861393 1.0 0.0 0.0 1:0.0 2:0.0 3:0.0 4:0.10204081632653061 5:0.8333333333333333 6:1.0 7:0.7144345083117604 8:0.0 9:0.41446028233740095 10:0.5 11:0.5 12:1.0 13:0.40824829046386296 14:0.2916666666666667 15:0.7777777777777778 16:0.5222329678670935 
1.0 0.0 0.0 0.0 1.0 0.0 0.0 0.0 0.0 0.0 0.0 0.0 0.0 0.0 1:0.7071067811865475 2:0.0 3:0.0 4:0.3208955223880597 5:0.6388888888888888 6:1.0 7:0.7559289460184544 8:0.0 9:0.661740207499233 10:0.0 11:0.0 12:0.0 13:0.0 14:0.6111111111111112 15:0.8461538461538461 16:0.7190924955066749 
0.0 0.0 0.0 0.0 1.0 0.0 1.0 1.0 0.0 0.0 1.0 1.0 0.0 0.0 1:0.0 2:0.0 3:0.0 4:0.15671641791044777 5:0.8055555555555556 6:1.0 7:0.3333333333333333 8:0.0 9:0.5737970137580274 10:0.0 11:0.0 12:0.0 13:0.0 14:0.16666666666666666 15:0.42857142857142855 16:0.2672612419124244 
0.0 0.0 0.0 1.0 1.0 0.0 0.0 1.0 0.0 0.0 1.0 1.0 0.0 0.0 1:0.5 2:0.0 3:0.0 4:0.15671641791044777 5:0.6944444444444444 6:1.0 7:0.5039526306789696 8:0.0 9:0.6669882468179681 10:0.0 11:0.0 12:0.0 13:0.0 14:0.2777777777777778 15:0.5 16:0.39223227027636814 
0.0 0.0 0.0 1.0 1.0 0.0 1.0 0.0 0.0 0.0 0.0 1.0 0.0 0.0 1:0.5773502691896258 2:0.0 3:0.0 4:0.10236220472440945 5:0.7222222222222222 6:0.0 7:0.31622776601683794 8:0.0 9:0.5872463766961372 10:0.0 11:0.0 12:0.0 13:0.0 14:0.2222222222222222 15:0.4 16:0.29814239699997197 
0.0 0.0 0.0 1.0 1.0 0.0 1.0 0.0 0.0 0.0 0.0 1.0 0.0 0.0 1:0.5773502691896258 2:0.0 3:0.0 4:0.10236220472440945 5:0.7222222222222222 6:0.0 7:0.31622776601683794 8:0.0 9:0.5872463766961372 10:0.0 11:0.0 12:0.0 13:0.0 14:0.2222222222222222 15:0.4 16:0.29814239699997197 
0.0 0.0 0.0 1.0 1.0 0.0 0.0 0.0 0.0 0.0 0.0 1.0 0.0 0.0 1:0.5773502691896258 2:0.0 3:0.0 4:0.14960629921259844 5:0.75 6:0.0 7:0.5773502691896258 8:0.0 9:0.8308846159463064 10:0.0 11:0.0 12:0.0 13:0.5773502691896258 14:0.3333333333333333 15:0.6666666666666666 16:0.4714045207910317 
0.0 0.0 0.0 1.0 1.0 0.9402196439458206 0.7896620902585358 0.0030306036644884705 0.0 0.0 0.0 1.0 0.0 0.0 1:0.5773502691896258 2:0.0 3:0.0 4:0.10236220472440945 5:0.7222222222222222 6:0.0 7:0.31622776601683794 8:0.0 9:0.5872463766961372 10:0.0 11:0.0 12:0.0 13:0.0 14:0.2222222222222222 15:0.4 16:0.29814239699997197 
0.0 0.0 0.2721550267842808 1.0 1.0 0.0 0.0 0.0 0.0 0.0 0.0 1.0 0.05992037302609306 0.0 1:0.5773502691896258 2:0.0 3:0.0 4:0.14960629921259844 5:0.75 6:0.0 7:0.5773502691896258 8:0.0 9:0.8308846159463064 10:0.0 11:0.0 12:0.0 13:0.5773502691896258 14:0.3333333333333333 15:0.6666666666666666 16:0.4714045207910317 
0.0 0.0 0.0 0.0 1.0 0.0 1.0 1.0 0.0 0.0 0.0 1.0 0.0 1.0 1:0.0 2:0.0 3:0.0 4:0.09448818897637795 5:0.6944444444444444 6:0.0 7:0.24999999999999994 8:0.0 9:0.7274981297090434 10:0.0 11:0.0 12:0.0 13:0.0 14:0.16666666666666666 15:0.3 16:0.2614881801842454 
0.0 0.0 0.0 0.0 0.0 0.0 0.0 0.0 0.0 0.0 0.0 1.0 0.0 0.0 1:0.0 2:0.0 3:0.0 4:0.112 5:0.8157894736842105 6:0.0 7:0.26726124191242434 8:0.0 9:0.31671842650103516 10:0.0 11:0.0 12:0.0 13:0.0 14:0.21052631578947367 15:0.5714285714285714 16:0.3468439878096479 
0.0 0.0 0.0 0.0 0.0 0.0 0.0 0.0 0.0 0.0 0.0 1.0 0.0 0.0 1:0.0 2:0.0 3:0.0 4:0.112 5:0.8157894736842105 6:0.0 7:0.26726124191242434 8:0.0 9:0.31671842650103516 10:0.0 11:0.0 12:0.0 13:0.0 14:0.21052631578947367 15:0.5714285714285714 16:0.3468439878096479 
0.0 0.0 0.0 0.0 1.0 0.0 0.0 0.0 0.0 0.0 0.0 0.0 0.0 0.0 1:0.5773502691896258 2:0.0 3:0.0 4:0.12121212121212122 5:0.75 6:1.0 7:0.5976143046671968 8:0.0 9:0.7003358931679925 10:0.5 11:0.0 12:0.0 13:0.0 14:0.4230769230769231 15:0.8461538461538461 16:0.5983211225424633 
0.0 0.0 0.0 0.0 1.0 0.0 0.0 0.0 0.0 0.0 0.0 0.0 0.0 0.0 1:0.5773502691896258 2:0.0 3:0.0 4:0.12121212121212122 5:0.75 6:1.0 7:0.5976143046671968 8:0.0 9:0.7003358931679925 10:0.5 11:0.0 12:0.0 13:0.0 14:0.4230769230769231 15:0.8461538461538461 16:0.5983211225424633 
0.0 0.0 0.0 1.0 1.0 1.0 0.0 0.0 0.0 0.0 0.0 0.0 0.0 0.0 1:0.8164965809277261 2:0.0 3:0.0 4:0.4494949494949495 5:0.5769230769230769 6:0.5 7:0.6674238124719146 8:0.0 9:0.5209316296209999 10:0.5 11:0.0 12:0.0 13:0.4472135954999579 14:0.6538461538461539 15:0.7727272727272727 16:0.7108057085060271 
0.0 0.0 0.0 1.0 1.0 0.0 1.0 0.0 0.0 0.0 1.0 0.0 0.0 0.0 1:0.4082482904638631 2:0.0 3:0.0 4:0.08585858585858586 5:0.7884615384615384 6:1.0 7:0.47809144373375745 8:0.0 9:0.7315952871553192 10:0.5 11:0.0 12:0.0 13:0.0 14:0.23076923076923078 15:0.6 16:0.38074980525429486 
0.0 0.0 0.0 1.0 1.0 0.0 1.0 1.0 0.0 0.0 1.0 1.0 0.0 0.0 1:0.0 2:0.0 3:0.0 4:0.21505376344086022 5:0.6153846153846154 6:1.0 7:0.5962847939999439 8:0.0 9:0.6871569288009871 10:0.0 11:0.0 12:0.0 13:0.0 14:0.23076923076923078 15:0.3 16:0.2631174057921088 
0.0 1.0 0.0 0.0 0.0 0.0 0.0 0.0 0.0 0.0 0.0 0.0 0.0 0.0 1:0.0 2:0.0 3:0.0 4:0.6984126984126984 5:0.6666666666666666 6:0.0 7:0.7745966692414834 8:0.0 9:0.6729596749880725 10:1.0 11:1.0 12:0.0 13:1.0 14:0.6666666666666666 15:1.0 16:0.8164965809277261 
0.0 0.0 0.0 0.0 1.0 0.0 1.0 0.0 0.0 0.0 0.37696378701422717 0.0 0.0 0.0 1:0.0 2:0.0 3:0.0 4:0.19298245614035087 5:0.5625 6:1.0 7:0.5999999999999999 8:1.0 9:0.4504780243910679 10:1.0 11:0.0 12:0.0 13:0.0 14:0.5 15:0.5714285714285714 16:0.5345224838248487 
1.0 0.0 0.0 0.9285541933212592 1.0 0.0 0.0 0.0 0.0 0.0 1.0 0.9557389122709837 0.0 0.0 1:0.0 2:0.0 3:0.0 4:0.21052631578947367 5:0.6875 6:1.0 7:0.5163977794943222 8:0.0 9:0.8061795202768833 10:1.0 11:1.0 12:0.0 13:1.0 14:0.375 15:0.6 16:0.4743416490252569 
0.0 0.0 0.0 0.0 0.0 0.0 0.0 0.0 0.0 0.0 0.0 1.0 0.0 0.0 1:0.4472135954999579 2:0.0 3:0.0 4:0.08860759493670886 5:0.7727272727272727 6:0.5 7:0.42426406871192845 8:0.0 9:0.46705450813675325 10:0.5 11:0.0 12:0.0 13:0.5773502691896258 14:0.2727272727272727 15:0.6 16:0.4045199174779452 
0.0 0.0 0.0 0.0 0.6498528914470936 0.0 0.0 0.0 0.0 0.0 0.0 1.0 0.0 0.0 1:0.4472135954999579 2:0.0 3:0.0 4:0.08860759493670886 5:0.7727272727272727 6:0.5 7:0.42426406871192845 8:0.0 9:0.46705450813675325 10:0.5 11:0.0 12:0.0 13:0.5773502691896258 14:0.2727272727272727 15:0.6 16:0.4045199174779452 
0.0 0.0 0.0 1.0 1.0 0.0 0.0 0.0 0.0 0.0 0.0 0.0 0.0 0.0 1:0.5163977794943222 2:0.0 3:0.0 4:0.06329113924050633 5:0.7954545454545454 6:1.0 7:0.6666666666666666 8:0.0 9:0.7100235369637222 10:0.5 11:0.5 12:0.0 13:0.0 14:0.22727272727272727 15:0.5555555555555556 16:0.3553345272593507 
0.0 0.0 0.0 0.0 1.0 0.0 0.0 0.0 0.0 0.0 0.0 1.0 0.0 0.0 1:0.4472135954999579 2:0.0 3:0.0 4:0.08860759493670886 5:0.7727272727272727 6:0.5 7:0.42426406871192845 8:0.0 9:0.46705450813675325 10:0.5 11:0.0 12:0.0 13:0.5773502691896258 14:0.2727272727272727 15:0.6 16:0.4045199174779452 
0.0 0.0 0.0 1.0 1.0 0.0 0.0 0.0 0.0 0.0 0.0 0.0 0.0 0.0 1:0.5163977794943222 2:0.0 3:0.0 4:0.06329113924050633 5:0.7954545454545454 6:1.0 7:0.6666666666666666 8:0.0 9:0.7100235369637222 10:0.5 11:0.5 12:0.0 13:0.0 14:0.22727272727272727 15:0.5555555555555556 16:0.3553345272593507 
0.0 0.0 0.6708896162348285 0.5628468172927934 1.0 0.0 0.0 1.0 0.0 0.0 0.0 0.0 0.0 0.0 1:0.7453559924999299 2:0.0 3:0.0 4:0.0949367088607595 5:0.7272727272727273 6:0.3333333333333333 7:0.6363961030678926 8:0.3333333333333333 9:0.5820644296205801 10:1.0 11:1.0 12:0.0 13:0.5163977794943222 14:0.13636363636363635 15:0.25 16:0.1846372364689991 
0.0 0.0 0.0 1.0 1.0 0.7290945092651986 0.0 1.0 0.0 0.0 1.0 0.0 0.0 0.0 1:0.5773502691896258 2:0.0 3:0.0 4:0.07352941176470588 5:0.6578947368421053 6:1.0 7:0.6153846153846154 8:0.0 9:0.7195822173613353 10:0.5 11:0.5 12:0.0 13:0.4999999999999999 14:0.21052631578947367 15:0.3076923076923077 16:0.2545139051903111 
0.19394342655189944 0.0 0.0 0.7961322444062423 1.0 0.9628528502722673 0.0 1.0 0.0 0.0 0.0 0.0 0.0 0.0 1:1.0 2:0.0 3:0.0 4:0.08088235294117647 5:0.7105263157894737 6:1.0 7:0.7302967433402213 8:0.0 9:0.5806315201446663 10:0.0 11:0.0 12:0.0 13:0.0 14:0.21052631578947367 15:0.36363636363636365 16:0.27668578554642986 
0.0 0.0 0.0 0.3813362724648237 1.0 0.0 1.0 0.0 0.0 0.0 1.0 1.0 0.0 0.0 1:0.4999999999999999 2:0.0 3:0.0 4:0.11029411764705882 5:0.763157894736842 6:1.0 7:0.31622776601683794 8:0.0 9:0.5755010661340944 10:0.0 11:0.0 12:0.0 13:0.0 14:0.15789473684210525 15:0.3333333333333333 16:0.22941573387056172 
0.0 0.0 0.0 1.0 1.0 0.015063111025928163 1.0 1.0 0.0 0.0 0.0 0.0 0.0 0.0 1:0.7071067811865475 2:0.0 3:0.0 4:0.07352941176470588 5:0.763157894736842 6:1.0 7:0.6689936080056726 8:0.0 9:0.6957975416598243 10:0.5 11:0.5 12:0.0 13:0.0 14:0.15789473684210525 15:0.3333333333333333 16:0.22941573387056172 
0.0 0.0 0.0 0.9620636940805778 1.0 0.0 0.7953428176317617 0.0 0.0 0.0 1.0 1.0 0.0 0.0 1:0.4999999999999999 2:0.0 3:0.0 4:0.11029411764705882 5:0.763157894736842 6:1.0 7:0.31622776601683794 8:0.0 9:0.5755010661340944 10:0.0 11:0.0 12:0.0 13:0.0 14:0.15789473684210525 15:0.3333333333333333 16:0.22941573387056172 
1.0 0.9844849412165536 0.0 0.8913752397265561 1.0 0.0 1.0 1.0 0.0 0.0 0.0 1.0 0.0 0.0 1:0.0 2:0.0 3:0.0 4:0.22988505747126436 5:0.7307692307692308 6:0.0 7:0.5669467095138409 8:0.0 9:0.7561323733737527 10:0.0 11:0.0 12:0.0 13:0.0 14:0.3076923076923077 15:0.5714285714285714 16:0.4193139346887673 
0.29869181348461077 0.0 0.0 1.0 1.0 0.0 1.0 1.0 0.0 0.0 1.0 1.0 0.0 1.0 1:0.0 2:0.0 3:0.0 4:0.20689655172413793 5:0.5769230769230769 6:0.0 7:0.40089186286863654 8:0.0 9:0.7601414903670543 10:0.0 11:0.0 12:0.0 13:0.0 14:0.23076923076923078 15:0.3 16:0.2307692307692308 
0.0 0.0 0.0 1.0 1.0 0.0 1.0 1.0 0.0 0.0 1.0 1.0 0.0 0.0 1:0.0 2:0.0 3:0.0 4:0.18556701030927836 5:0.75 6:1.0 7:0.3779644730092272 8:0.0 9:0.8076324668975535 10:0.5 11:0.5 12:0.0 13:0.0 14:0.21428571428571427 15:0.42857142857142855 16:0.30304576336566325 
0.0 0.0 0.0 0.0 1.0 0.0 1.0 0.0 0.0 0.0 1.0 1.0 0.0 0.0 1:0.0 2:0.0 3:0.0 4:0.21649484536082475 5:0.8214285714285714 6:1.0 7:0.5669467095138409 8:0.0 9:0.7291053116130516 10:0.5 11:0.0 12:0.0 13:0.0 14:0.2857142857142857 15:0.8 16:0.47809144373375745 
1.0 0.0 0.0 0.0 0.0 0.0 0.0 0.0 0.0 0.0 1.0 0.1793456746244778 0.0 0.0 1:0.0 2:0.0 3:0.0 4:0.20491803278688525 5:0.75 6:1.0 7:0.7559289460184544 8:0.0 9:0.3658362292285334 10:0.5 11:0.5 12:1.0 13:0.4999999999999999 14:0.3888888888888889 15:0.7777777777777778 16:0.5499719409228703 
0.0 0.0 0.5443757515145333 0.0 1.0 0.0 1.0 0.0 0.0 0.0 0.0 1.0 0.0 0.0 1:0.0 2:0.0 3:0.0 4:0.15384615384615385 5:0.7692307692307692 6:0.0 7:0.8660254037844387 8:0.0 9:0.5548387096774193 10:1.0 11:1.0 12:0.0 13:0.0 14:0.3333333333333333 15:0.6666666666666666 16:0.4216370213557839 
0.0 0.0 0.0 0.0 1.0 0.377073694707134 1.0 0.0 0.0 0.0 0.0 1.0 0.0 0.0 1:0.0 2:0.0 3:0.0 4:0.10256410256410256 5:0.6538461538461539 6:0.0 7:0.5 8:0.0 9:0.6182203905006123 10:0.5 11:0.5 12:0.0 13:0.0 14:0.16666666666666666 15:0.2222222222222222 16:0.17213259316477406 
0.6549543278763065 0.0 0.6108687872388472 0.0 1.0 0.4341046647052742 0.0 0.7597072698953868 0.0 0.0 1.0 1.0 0.0 0.0 1:0.0 2:0.0 3:0.0 4:0.1484375 5:0.7105263157894737 6:1.0 7:0.45291081365783836 8:0.0 9:0.7098508730528343 10:1.0 11:1.0 12:0.0 13:1.0 14:0.35294117647058826 15:0.5454545454545454 16:0.44008622942335207 
0.0 0.0 0.8669897231420819 0.0 1.0 0.0 1.0 1.0 0.0 0.0 1.0 1.0 0.0 0.0 1:0.0 2:0.0 3:0.0 4:0.125 5:0.7894736842105263 6:1.0 7:0.2773500981126146 8:0.0 9:0.6447973593441431 10:0.0 11:0.0 12:0.0 13:0.0 14:0.23529411764705882 15:0.5 16:0.3686048903872428 
0.0 0.0 0.0 0.0 1.0 0.0 0.0 0.0 0.0 0.0 0.0 0.0 0.0 0.0 1:0.7071067811865475 2:0.0 3:0.0 4:0.109375 5:0.763157894736842 6:1.0 7:0.41602514716892186 8:0.0 9:0.7686436756446684 10:1.0 11:1.0 12:0.0 13:1.0 14:0.35294117647058826 15:0.6666666666666666 16:0.48653363279984113 
0.0 0.0 0.0 0.0 1.0 0.0 1.0 0.0 0.41432012990118083 0.0 1.0 1.0 0.0 0.0 1:0.0 2:0.0 3:0.0 4:0.1171875 5:0.763157894736842 6:1.0 7:0.3721042037676254 8:0.0 9:0.70990800194908 10:1.0 11:0.0 12:0.0 13:0.0 14:0.29411764705882354 15:0.5555555555555556 16:0.41702882811414954 
0.0 0.0 0.0 0.0 1.0 0.0 0.0 0.0 0.0 0.0 0.0 0.0 0.0 0.0 1:0.7071067811865475 2:0.0 3:0.0 4:0.109375 5:0.763157894736842 6:1.0 7:0.41602514716892186 8:0.0 9:0.7686436756446684 10:1.0 11:1.0 12:0.0 13:1.0 14:0.35294117647058826 15:0.6666666666666666 16:0.48653363279984113 
0.0 0.0 0.0 0.0 1.0 0.0 0.0 1.0 0.0 0.0 0.0 0.0 0.0 0.0 1:1.0 2:0.0 3:0.0 4:0.1171875 5:0.6842105263157895 6:0.6666666666666666 7:0.16012815380508716 8:0.0 9:0.5801362708978445 10:1.0 11:1.0 12:0.0 13:1.0 14:0.29411764705882354 15:0.4166666666666667 16:0.3009646327144231 
0.0 0.0 0.0 0.05637058304324418 0.0 1.0 0.0 0.0 0.0 0.0 0.0 0.0 0.0 0.0 1:0.0 2:0.0 3:0.0 4:0.3072289156626506 5:0.5769230769230769 6:1.0 7:0.8058229640253802 8:1.0 9:0.5877727911838767 10:1.0 11:1.0 12:0.0 13:0.35355339059327373 14:0.6923076923076923 15:0.8181818181818182 16:0.7526178090063816 
1.0 0.0 0.012794492197125619 0.0 0.0 0.0 0.0 0.014274158432579946 0.0 0.0 0.0 0.0 0.0 0.0 1:0.0 2:0.0 3:0.0 4:0.22123893805309736 5:0.7352941176470589 6:1.0 7:0.9999999999999999 8:0.0 9:0.39419371056733055 10:1.0 11:1.0 12:1.0 13:0.4999999999999999 14:0.35294117647058826 15:0.6666666666666666 16:0.485071250072666 
0.5596812173975405 0.0 0.0 1.0 1.0 0.0 0.0 0.0 0.0 0.0 0.0 0.0 0.0 0.0 1:0.7071067811865475 2:0.0 3:0.0 4:0.5740740740740741 5:0.59375 6:1.0 7:0.7142857142857142 8:1.0 9:0.8681538250029395 10:0.5 11:0.5 12:0.0 13:0.40824829046386296 14:0.5625 15:0.6923076923076923 16:0.6240377207533828 
0.0 0.0 0.4168386273603765 1.0 1.0 0.7757897616015526 1.0 1.0 0.7794411054990911 0.0 1.0 1.0 0.0 0.0 1:0.0 2:0.0 3:0.0 4:0.16666666666666666 5:0.78125 6:1.0 7:0.3779644730092272 8:0.0 9:0.7114089502811308 10:0.5 11:0.5 12:0.0 13:0.0 14:0.1875 15:0.42857142857142855 16:0.2834733547569204 
0.0 0.0 0.0 0.0 1.0 0.0 1.0 1.0 0.0 0.0 1.0 1.0 0.0 0.0 1:0.0 2:0.0 3:0.0 4:0.18518518518518517 5:0.6875 6:1.0 7:0.5962847939999439 8:0.0 9:0.6783116971299692 10:0.0 11:0.0 12:0.0 13:0.0 14:0.25 15:0.4 16:0.31622776601683794 
0.0 0.0 0.0 1.0 0.0 0.0 0.0 0.0 0.0 0.0 0.0 0.0 0.0 0.0 1:1.0 2:0.0 3:0.0 4:0.5740740740740741 5:0.71875 6:1.0 7:0.8451542547285165 8:1.0 9:0.8892621075446561 10:0.5 11:0.5 12:0.0 13:0.5773502691896258 14:0.5625 15:1.0 16:0.75 
0.0 0.0 0.0 0.0 1.0 0.0 1.0 1.0 0.0 0.0 1.0 1.0 0.0 0.0 1:0.0 2:0.0 3:0.0 4:0.18518518518518517 5:0.6875 6:1.0 7:0.5962847939999439 8:0.0 9:0.6783116971299692 10:0.0 11:0.0 12:0.0 13:0.0 14:0.25 15:0.4 16:0.31622776601683794 
0.0 0.0 0.0 0.0 1.0 0.0 1.0 0.3905816521030111 0.029461209303956834 0.0 1.0 1.0 0.0 0.0 1:0.0 2:0.0 3:0.0 4:0.19444444444444445 5:0.625 6:0.3333333333333333 7:0.545544725589981 8:0.0 9:0.7006971945510108 10:0.5 11:0.0 12:0.0 13:0.0 14:0.25 15:0.3333333333333333 16:0.2886751345948129 
0.0 0.0 0.1477881559698483 1.0 1.0 0.0 1.0 1.0 0.0 0.0 1.0 1.0 0.0 1.0 1:0.0 2:0.0 3:0.0 4:0.07042253521126761 5:0.825 6:1.0 7:0.0 8:0.0 9:0.7328654101553643 10:0.0 11:0.0 12:0.0 13:0.0 14:0.2222222222222222 15:0.5714285714285714 16:0.3086066999241838 
1.0 0.0 0.0 0.0 1.0 0.0 0.0 1.0 0.0 0.2806328922916082 1.0 1.0 0.0 0.0 1:0.0 2:0.0 3:0.0 4:0.19626168224299065 5:0.34090909090909094 6:1.0 7:0.6689936080056726 8:1.0 9:0.5766707569225633 10:0.0 11:0.0 12:0.0 13:0.7071067811865475 14:0.5 15:0.3333333333333333 16:0.4950737714883372 
0.0 0.0 0.0 0.0 1.0 0.0 1.0 1.0 0.0 0.0 1.0 1.0 0.0 0.0 1:0.0 2:0.0 3:0.0 4:0.09345794392523364 5:0.7 6:1.0 7:0.4193139346887673 8:0.0 9:0.6710357701837874 10:0.0 11:0.0 12:0.0 13:0.0 14:0.21428571428571427 15:0.3333333333333333 16:0.3233808333817773 
0.0 0.0 0.061329351341627626 0.0 1.0 0.0 1.0 1.0 0.0 0.0 1.0 1.0 0.0 0.0 1:0.0 2:0.0 3:0.0 4:0.11214953271028037 5:0.7666666666666666 6:1.0 7:0.2773500981126146 8:0.0 9:0.6114229552000446 10:0.0 11:0.0 12:0.0 13:0.0 14:0.14285714285714285 15:0.2857142857142857 16:0.18333969940564224 
0.0 0.0 0.0 0.0 1.0 0.0 1.0 0.31323552173320307 0.0 0.0 1.0 1.0 0.0 1.0 1:0.0 2:0.0 3:0.0 4:0.06666666666666667 5:0.8571428571428572 6:0.5 7:0.23570226039551587 8:0.0 9:0.6373724030285115 10:0.0 11:0.0 12:0.0 13:0.0 14:0.07142857142857142 15:0.25 16:0.1336306209562122 
0.0 0.0 0.0 0.0 1.0 0.0 0.0 0.0 0.0 0.0 0.0 1.0 0.0 0.0 1:0.40824829046386296 2:0.0 3:0.0 4:0.19745222929936307 5:0.7391304347826086 6:0.0 7:0.3779644730092272 8:0.0 9:0.5513618167093159 10:0.5 11:0.5 12:0.0 13:0.4999999999999999 14:0.30434782608695654 15:0.5833333333333334 16:0.4213504858001923 
0.0 0.0 0.0 0.0 1.0 0.0 0.0 0.0 0.0 0.0 0.0 0.0 0.0 0.0 1:0.8164965809277259 2:0.0 3:0.0 4:0.06993006993006994 5:0.7368421052631579 6:1.0 7:0.3779644730092272 8:0.0 9:0.5126901183977479 10:0.0 11:0.0 12:0.0 13:0.0 14:0.2631578947368421 15:0.5 16:0.3627381250550058 
0.0 0.0 0.0 0.0 1.0 0.0 0.0 0.0 0.0 0.0 0.0 0.0 0.0 0.0 1:0.5773502691896258 2:0.0 3:0.0 4:0.08391608391608392 5:0.868421052631579 6:1.0 7:0.5773502691896257 8:0.0 9:0.6905290409126724 10:1.0 11:1.0 12:0.0 13:0.0 14:0.21052631578947367 15:0.8 16:0.4103913408340616 
0.0 0.0 0.0 0.0 1.0 0.0 0.0 0.0 0.0 0.0 0.0 0.0 0.0 0.0 1:0.8164965809277259 2:0.0 3:0.0 4:0.06993006993006994 5:0.7368421052631579 6:1.0 7:0.3779644730092272 8:0.0 9:0.5126901183977479 10:0.0 11:0.0 12:0.0 13:0.0 14:0.2631578947368421 15:0.5 16:0.3627381250550058 
0.0 0.0 0.0 0.0 1.0 0.0 0.0 0.0 0.0 0.0 0.0 0.0 0.0 0.0 1:0.5773502691896258 2:0.0 3:0.0 4:0.09090909090909091 5:0.7894736842105263 6:1.0 7:0.5 8:0.0 9:0.5765567684957663 10:1.0 11:1.0 12:0.0 13:0.0 14:0.3157894736842105 15:0.75 16:0.4866642633922875 
0.0 0.0 0.0 0.0 1.0 0.0 0.0 1.0 0.0 0.0 1.0 0.0 0.0 0.0 1:0.7745966692414834 2:0.0 3:0.0 4:0.1958041958041958 5:0.6842105263157895 6:1.0 7:0.4811252243246881 8:0.0 9:0.7678559084855718 10:0.0 11:0.0 12:0.0 13:0.7071067811865475 14:0.2631578947368421 15:0.4166666666666667 16:0.33113308926626095 
0.0 0.0 0.0 1.0 1.0 1.0 1.0 0.0 0.0 0.0 0.0 0.0 0.0 0.0 1:0.7071067811865475 2:0.0 3:0.0 4:0.3 5:0.5454545454545454 6:0.5 7:0.7302967433402214 8:0.0 9:0.6759583666277375 10:1.0 11:0.0 12:0.0 13:0.0 14:0.45454545454545453 15:0.5 16:0.4767312946227962 
0.6727349455302324 0.0 0.47609418581939594 0.02736904854788715 1.0 0.0 1.0 0.0 0.2892043282168227 0.0 1.0 1.0 0.0 0.0 1:0.0 2:0.0 3:0.0 4:0.1125 5:0.7727272727272727 6:1.0 7:0.7071067811865476 8:0.0 9:0.8681007210418973 10:1.0 11:1.0 12:0.0 13:0.0 14:0.2727272727272727 15:0.6 16:0.40451991747794525 
0.2754187537639659 0.0 0.0 1.0 1.0 1.0 1.0 0.0 0.0 0.0 0.0 0.0 0.0 0.0 1:0.7071067811865475 2:0.0 3:0.0 4:0.3 5:0.5454545454545454 6:0.5 7:0.7302967433402214 8:0.0 9:0.6759583666277375 10:1.0 11:0.0 12:0.0 13:0.0 14:0.45454545454545453 15:0.5 16:0.4767312946227962 
0.0 0.0 0.006824069102042037 0.0 1.0 0.0 0.0 1.0 0.0 0.0 0.0 0.0 0.0 0.0 1:0.7071067811865475 2:0.0 3:0.0 4:0.275 5:0.4583333333333333 6:0.3333333333333333 7:0.8215838362577491 8:0.0 9:0.6254070571247199 10:1.0 11:1.0 12:0.0 13:1.0 14:0.45454545454545453 15:0.4166666666666667 16:0.4351941398892446 
1.0 1.0 0.0 0.0 1.0 0.0 0.0 0.0 0.0 0.0 0.0 0.0 0.0 0.0 1:1.0 2:0.0 3:0.0 4:0.7021276595744681 5:0.6428571428571428 6:1.0 7:0.8164965809277259 8:0.0 9:1.0 10:1.0 11:1.0 12:0.0 13:0.0 14:0.7142857142857143 15:1.0 16:0.8451542547285165 
0.8001812854927751 0.0 0.8247010610603508 1.0 1.0 0.0 0.0 0.0 0.0 0.0 0.0 1.0 0.0 0.0 1:0.0 2:0.0 3:0.0 4:0.3918918918918919 5:0.6818181818181819 6:0.0 7:0.4472135954999579 8:0.0 9:0.6937467294610151 10:0.3333333333333333 11:0.3333333333333333 12:0.0 13:0.4999999999999999 14:0.36363636363636365 15:0.5714285714285714 16:0.4558423058385518 
1.0 0.0 0.0 1.0 1.0 0.0 1.0 0.0 0.0 0.0 0.0 1.0 0.0 0.0 1:0.0 2:0.0 3:0.0 4:0.4864864864864865 5:0.5909090909090909 6:0.0 7:0.3999999999999999 8:0.0 9:0.6761414715458832 10:0.6666666666666666 11:0.6666666666666666 12:0.0 13:0.7071067811865475 14:0.45454545454545453 15:0.5555555555555556 16:0.502518907629606 
0.0 1.0 0.01842157930006724 0.0 1.0 0.0 0.0 0.0 0.0 0.0 0.0 1.0 0.0 0.0 1:0.0 2:0.0 3:0.0 4:0.4864864864864865 5:0.7272727272727273 6:0.0 7:0.5163977794943222 8:0.0 9:0.7660259095742967 10:0.6666666666666666 11:0.6666666666666666 12:0.0 13:0.7071067811865475 14:0.45454545454545453 15:0.8333333333333334 16:0.6154574548966638 
0.0 0.0 0.0 1.0 1.0 1.0 1.0 0.0 0.0 0.0 1.0 1.0 0.0 0.0 1:0.2886751345948129 2:0.0 3:0.0 4:0.10606060606060606 5:0.35714285714285715 6:0.5 7:0.5499719409228703 8:0.0 9:0.39166861050919016 10:0.6666666666666666 11:0.6666666666666666 12:0.0 13:0.0 14:0.35 15:0.25925925925925924 16:0.3265986323710904 
0.0 0.0 0.0 0.0 1.0 0.0 1.0 0.0 0.0 0.0 0.0 1.0 0.0 0.0 1:0.0 2:0.0 3:0.0 4:0.08823529411764706 5:0.675 6:0.0 7:0.31622776601683794 8:0.0 9:0.6176058989376745 10:0.5 11:0.5 12:0.0 13:0.35355339059327373 14:0.2 15:0.3076923076923077 16:0.24806946917841693 
0.0 0.0 0.0 0.0 1.0 0.0 1.0 0.0 0.0 0.0 0.38236181005667363 1.0 0.0 0.0 1:0.0 2:0.0 3:0.0 4:0.08823529411764706 5:0.675 6:0.0 7:0.31622776601683794 8:0.0 9:0.6176058989376745 10:0.5 11:0.5 12:0.0 13:0.35355339059327373 14:0.2 15:0.3076923076923077 16:0.24806946917841693 
1.0 1.0 0.19987059385965358 1.0 1.0 0.0 0.0 0.0 0.01108576781139115 0.0 0.0 1.0 0.0 0.0 1:0.0 2:0.0 3:0.0 4:0.5588235294117647 5:0.47619047619047616 6:0.0 7:0.7882407813680822 8:1.0 9:0.6972698366110134 10:0.5 11:0.5 12:0.0 13:0.6708203932499369 14:0.6 15:0.631578947368421 16:0.6260990336999411 
0.0 0.0 0.0 0.8771806036823001 0.0 0.0 0.0 0.0 0.0 0.0 0.0 0.0 0.0 0.0 1:0.9999999999999998 2:0.0 3:0.0 4:0.25 5:0.775 6:0.0 7:0.375 8:0.0 9:0.6242674900579661 10:0.5 11:0.5 12:0.0 13:0.7071067811865475 14:0.4 15:0.8888888888888888 16:0.5962847939999439 
0.0 0.0 0.0 0.0 1.0 0.0 1.0 0.0 0.0 0.0 0.0 1.0 0.0 0.0 1:0.0 2:0.0 3:0.0 4:0.08823529411764706 5:0.7 6:0.0 7:0.3572172541558802 8:0.0 9:0.6052632984689792 10:0.5 11:0.5 12:0.0 13:0.2886751345948129 14:0.15 15:0.25 16:0.19364916731037085 
1.0 0.0 0.0 0.0 1.0 0.0 0.0 0.0 0.0 0.0 0.0 0.0 0.0 0.0 1:0.7071067811865475 2:0.0 3:0.0 4:0.13846153846153847 5:0.7222222222222222 6:0.0 7:0.8660254037844387 8:0.0 9:1.0 10:1.0 11:1.0 12:0.0 13:0.0 14:0.4444444444444444 15:0.8 16:0.5962847939999439 
0.0 0.0 0.0 0.0 1.0 0.0 0.0 1.0 0.0 0.0 1.0 1.0 0.0 0.0 1:0.0 2:0.0 3:0.0 4:0.125 5:0.8409090909090908 6:1.0 7:0.30151134457776363 8:0.0 9:0.4303477603185205 10:0.0 11:0.0 12:0.0 13:0.0 14:0.13636363636363635 15:0.42857142857142855 16:0.24174688920761409 
0.0 0.0 0.0 0.0 1.0 0.0 0.0 0.0 0.0 0.0 1.0 1.0 0.0 0.0 1:0.5 2:0.0 3:0.0 4:0.125 5:0.75 6:1.0 7:0.4558423058385518 8:0.0 9:0.523128036719975 10:0.0 11:0.0 12:0.0 13:0.0 14:0.22727272727272727 15:0.5 16:0.35478743759344955 
1.0 0.0 0.0 0.0 1.0 0.0 0.0 0.0 0.0 0.0 0.0 0.0 0.0 0.0 1:0.0 2:0.0 3:0.0 4:0.4235294117647059 5:0.6458333333333334 6:0.7368421052631579 7:0.9531759751869954 8:0.0 9:0.6207470168239376 10:1.0 11:1.0 12:0.0 13:0.4999999999999999 14:0.6086956521739131 15:0.8235294117647058 16:0.7134772412317412 
0.0 0.0 0.0 0.5294623007682103 0.0 0.0 0.0 0.0 0.0 0.0 0.0 0.0 0.0 0.0 1:0.0 2:0.0 3:0.0 4:0.6181818181818182 5:0.6176470588235294 6:1.0 7:0.8660254037844387 8:1.0 9:0.2720617332805698 10:0.3333333333333333 11:0.6666666666666666 12:0.0 13:0.7071067811865475 14:0.7647058823529411 15:1.0 16:0.8744746321952063 
0.0 0.0 0.0 0.0 1.0 0.0 1.0 0.0 0.0 0.0 1.0 1.0 0.0 0.0 1:0.4472135954999579 2:0.0 3:0.0 4:0.10240963855421686 5:0.7826086956521738 6:1.0 7:0.5393598899705937 8:0.0 9:0.5505931362367004 10:1.0 11:1.0 12:0.0 13:0.0 14:0.25 15:0.5 16:0.35233213170882205 
0.0 0.0 0.0 0.30186626226860885 1.0 0.0 1.0 0.0 0.0 0.0 1.0 1.0 0.0 0.0 1:0.4472135954999579 2:0.0 3:0.0 4:0.10240963855421686 5:0.7826086956521738 6:1.0 7:0.5393598899705937 8:0.0 9:0.5505931362367004 10:1.0 11:1.0 12:0.0 13:0.0 14:0.25 15:0.5 16:0.35233213170882205 
0.0 1.0 0.0 0.0 0.0 0.0 0.0 0.0 0.0 0.0 0.0 0.0 0.0 0.0 1:0.8944271909999159 2:0.0 3:0.0 4:0.8253012048192772 5:0.5217391304347826 6:0.8 7:1.0 8:0.0 9:0.6226273726273724 10:1.0 11:1.0 12:0.0 13:1.0 14:0.95 15:1.0 16:0.9826073688810351 
0.0 0.0 0.0 1.0 1.0 0.0 0.20968661403296446 0.0 0.0 0.0 0.0 0.0 0.0 0.0 1:0.7071067811865475 2:0.0 3:0.0 4:0.10077519379844961 5:0.7941176470588236 6:1.0 7:0.5669467095138409 8:0.0 9:0.37268813058286737 10:1.0 11:1.0 12:0.0 13:0.0 14:0.17647058823529413 15:0.42857142857142855 16:0.27500954910846337 
0.0 0.0 0.0 0.0 1.0 1.0 0.0 0.0 0.0 0.0 0.0 0.0 0.0 0.0 1:0.9128709291752769 2:0.0 3:0.0 4:0.17391304347826086 5:0.7391304347826086 6:1.0 7:0.867527617235709 8:0.0 9:0.6953958289476374 10:1.0 11:0.5 12:0.0 13:0.5773502691896258 14:0.3333333333333333 15:0.5833333333333334 16:0.3888888888888889 
0.0 0.0 0.0 0.0 0.0 0.0 0.0 0.0 0.0 0.0 0.0 1.0 0.0 0.0 1:0.0 2:0.0 3:0.0 4:0.08 5:0.8571428571428572 6:0.0 7:0.35355339059327373 8:0.0 9:0.29117562004558906 10:0.0 11:0.0 12:0.0 13:0.4472135954999579 14:0.2222222222222222 15:0.6666666666666666 16:0.3928371006591931 
0.0 0.0 0.0 0.0 0.0 0.0 0.0 0.0 0.0 0.0 0.0 1.0 0.0 0.0 1:0.0 2:0.0 3:0.0 4:0.216 5:0.7380952380952381 6:0.0 7:0.6123724356957945 8:0.0 9:0.28349357913971157 10:0.5 11:0.5 12:0.0 13:0.5163977794943222 14:0.4444444444444444 15:0.8 16:0.5337605126836238 
0.0 0.0 0.0 0.0 0.0 0.0 0.0 0.8230925012171062 0.0 0.0 0.0 1.0 0.0 0.0 1:0.0 2:0.0 3:0.0 4:0.08 5:0.7857142857142857 6:0.0 7:0.20412414523193148 8:0.0 9:0.2908133389102247 10:0.0 11:0.0 12:0.0 13:0.6324555320336759 14:0.2777777777777778 15:0.5555555555555556 16:0.3849001794597505 
0.0 0.0 0.0 0.0 1.0 0.225056883042835 1.0 0.0 0.0 0.0 0.0 1.0 0.0 0.0 1:0.0 2:0.0 3:0.0 4:0.2127659574468085 5:0.7142857142857143 6:0.0 7:0.25 8:0.0 9:0.43943161680256515 10:0.3333333333333333 11:0.3333333333333333 12:0.0 13:0.0 14:0.21428571428571427 15:0.375 16:0.2834733547569204 
0.0 0.0 0.0 0.0 1.0 0.0 1.0 0.0 0.0 0.0 0.0 1.0 0.0 0.14202341967321291 1:0.0 2:0.0 3:0.0 4:0.20212765957446807 5:0.6785714285714286 6:0.0 7:0.22360679774997896 8:0.0 9:0.541724615254027 10:0.3333333333333333 11:0.3333333333333333 12:0.0 13:0.0 14:0.21428571428571427 15:0.3333333333333333 16:0.2672612419124244 
1.0 1.0 0.0 0.0 1.0 0.0 0.0 0.0 0.0 0.0 0.0 0.0 0.0 0.0 1:1.0 2:0.0 3:0.0 4:0.7021276595744681 5:0.6428571428571428 6:1.0 7:0.8164965809277259 8:0.0 9:1.0 10:1.0 11:1.0 12:0.0 13:0.0 14:0.7142857142857143 15:1.0 16:0.8451542547285165 
0.0 0.0 0.0 1.0 0.0 0.0 0.0 0.0 0.0 0.0 0.0 0.0 0.0 0.0 1:0.0 2:0.0 3:0.0 4:0.5117647058823529 5:0.5925925925925926 6:1.0 7:0.8058229640253802 8:1.0 9:0.5830169134670442 10:1.0 11:1.0 12:0.0 13:0.5773502691896258 14:0.7037037037037037 15:0.8636363636363636 16:0.7795794428691073 
1.0 0.0 0.0 0.004458188503320692 0.0 0.0 0.0 0.0 0.0 0.0 1.0 1.0 0.35228681005651374 0.0 1:0.0 2:0.0 3:0.0 4:0.21739130434782608 5:0.7352941176470589 6:1.0 7:0.7559289460184544 8:0.0 9:0.3658362292285334 10:0.5 11:0.5 12:1.0 13:0.4999999999999999 14:0.4117647058823529 15:0.7777777777777778 16:0.5659164584181103 
0.0 0.0 0.0 1.0 1.0 0.0 1.0 1.0 0.0 0.0 1.0 1.0 0.0 0.0 1:0.0 2:0.0 3:0.0 4:0.31746031746031744 5:0.45 6:1.0 7:0.6761234037828131 8:0.0 9:0.6805410031954652 10:0.0 11:0.0 12:0.0 13:0.0 14:0.3333333333333333 15:0.3 16:0.31622776601683794 
0.26849026435137757 0.0 0.419622343430866 1.0 1.0 0.0 1.0 1.0 0.0 0.0 1.0 1.0 0.0 0.0 1:0.0 2:0.0 3:0.0 4:0.31746031746031744 5:0.45 6:1.0 7:0.6761234037828131 8:0.0 9:0.6805410031954652 10:0.0 11:0.0 12:0.0 13:0.0 14:0.3333333333333333 15:0.3 16:0.31622776601683794 
0.0 1.0 0.0 0.0 0.0 0.0 0.0 0.0 0.0 0.0 0.0 0.0 0.0 0.0 1:0.9128709291752769 2:0.0 3:0.0 4:0.8765432098765432 5:0.5652173913043478 6:1.0 7:0.9534625892455924 8:0.0 9:0.6621919085637419 10:1.0 11:1.0 12:0.0 13:0.0 14:0.8571428571428571 15:1.0 16:0.9428090415820634 
0.0 0.0 0.0 1.0 1.0 0.0 0.0 0.0 0.0 0.0 1.0 1.0 0.0 0.0 1:0.47140452079103173 2:0.0 3:0.0 4:0.2839506172839506 5:0.6521739130434783 6:1.0 7:0.26967994498529685 8:0.0 9:0.4483353636537107 10:0.0 11:0.0 12:0.0 13:0.0 14:0.42857142857142855 15:0.6923076923076923 16:0.510688230856951 
0.0 0.0 0.08232943589226091 0.0 1.0 0.0 1.0 0.0 0.0 0.0 1.0 1.0 0.0 0.0 1:0.0 2:0.0 3:0.0 4:0.07407407407407407 5:0.8478260869565217 6:1.0 7:0.17407765595569785 8:0.0 9:0.4544331864024958 10:0.0 11:0.0 12:0.0 13:0.0 14:0.09523809523809523 15:0.2857142857142857 16:0.14547859349066158 
0.0 0.0 0.0 0.3315625467222812 0.0 0.0 0.0 0.0 0.0 0.0 1.0 0.0 0.0 0.0 1:0.0 2:0.0 3:0.0 4:0.6260869565217392 5:0.7058823529411764 6:1.0 7:0.6761234037828132 8:0.0 9:0.6212971294601136 10:1.0 11:1.0 12:0.0 13:0.7071067811865475 14:0.5882352941176471 15:1.0 16:0.7669649888473704 
1.0 1.0 0.3423037505634052 0.0 0.0 0.0 0.0 0.0 0.0 0.0 0.0 0.24899633327537224 0.0 0.0 1:0.0 2:0.0 3:0.0 4:0.6601941747572816 5:0.6176470588235294 6:0.0 7:0.8660254037844387 8:1.0 9:0.2720617332805698 10:0.3333333333333333 11:0.6666666666666666 12:0.0 13:0.7071067811865475 14:0.7647058823529411 15:1.0 16:0.8744746321952063 
0.18079646081057624 0.0 0.0 0.0 0.0 0.0 0.0 0.0 0.0 0.0 0.0 0.0 0.0 0.0 1:0.9486832980505138 2:0.0 3:0.0 4:0.4418604651162791 5:0.625 6:1.0 7:0.7637626158259734 8:1.0 9:0.5772377848711063 10:1.0 11:0.5 12:0.0 13:1.0 14:0.75 15:1.0 16:0.8660254037844386 
0.4868689712864949 0.0 0.0 0.0 1.0 0.4527684591723877 0.0 1.0 0.051343889307076444 0.0 1.0 1.0 0.0 0.0 1:0.0 2:0.0 3:1.0 4:0.08275862068965517 5:0.8409090909090908 6:1.0 7:0.31622776601683794 8:0.0 9:0.486179257416737 10:0.0 11:0.0 12:0.0 13:0.5 14:0.19047619047619047 15:0.5714285714285714 16:0.3086066999241838 
0.06736123595169913 0.0 0.0 0.0 1.0 0.0 1.0 0.0 0.0 0.0 1.0 1.0 0.0 0.0 1:0.0 2:0.0 3:0.0 4:0.07526881720430108 5:0.4642857142857143 6:0.0 7:0.16666666666666669 8:0.0 9:0.35957370503742836 10:1.0 11:1.0 12:0.0 13:0.0 14:0.15384615384615385 15:0.15384615384615385 16:0.20801257358446093 
0.0 0.0 0.0 0.39758100761850307 1.0 0.0 1.0 1.0 0.0 0.0 1.0 1.0 0.0 0.0 1:0.0 2:0.0 3:0.0 4:0.10303030303030303 5:0.6 6:0.4 7:0.3344968040028363 8:0.0 9:0.5521622374032042 10:0.0 11:0.0 12:0.0 13:0.0 14:0.30434782608695654 15:0.35 16:0.3321819194149599 
0.7044411796233802 0.0 0.0 0.0 1.0 0.0 0.0 1.0 0.0 0.0 0.0 1.0 0.0 0.0 1:0.0 2:0.0 3:0.0 4:0.14423076923076922 5:0.7142857142857143 6:0.2 7:0.5070925528371099 8:0.0 9:0.62669893271298 10:0.0 11:0.0 12:0.0 13:0.0 14:0.35714285714285715 15:0.625 16:0.472455591261534 
1.0 0.0 0.0 0.0 1.0 0.0 0.0 1.0 0.0 0.0 0.0 1.0 0.0 0.0 1:0.0 2:0.0 3:0.0 4:0.14423076923076922 5:0.7142857142857143 6:0.2 7:0.5070925528371099 8:0.0 9:0.62669893271298 10:0.0 11:0.0 12:0.0 13:0.0 14:0.35714285714285715 15:0.625 16:0.472455591261534 
0.0 0.0 0.0 0.0 1.0 0.0 0.0 0.0 0.0 0.0 0.0 0.0 0.0 0.0 1:0.7071067811865475 2:0.0 3:0.0 4:0.125 5:0.7142857142857143 6:1.0 7:0.5669467095138409 8:0.0 9:0.6531825434136359 10:0.0 11:0.0 12:0.0 13:0.0 14:0.42857142857142855 15:0.75 16:0.5669467095138409 
0.24733924128483703 0.0 0.09414648729522275 0.0 1.0 0.0 0.0 0.7014033087610472 0.0 0.0 1.0 0.0 0.0 0.0 1:0.4999999999999999 2:0.0 3:0.0 4:0.23076923076923078 5:0.6785714285714286 6:1.0 7:0.5070925528371099 8:0.0 9:0.8361001820292058 10:0.0 11:0.0 12:0.0 13:1.0 14:0.42857142857142855 15:0.6666666666666666 16:0.5345224838248488 
0.4324537165324714 1.0 0.0 0.0 1.0 0.0 0.0 0.0 0.0 0.0 0.0 0.0 0.0 0.0 1:1.0 2:0.0 3:0.0 4:0.7021276595744681 5:0.6428571428571428 6:1.0 7:0.8164965809277259 8:0.0 9:1.0 10:1.0 11:1.0 12:0.0 13:0.0 14:0.7142857142857143 15:1.0 16:0.8451542547285165 
1.0 0.0 0.4606941130816587 0.0 0.0 0.8639515205005159 0.0 0.0 0.0 0.0 0.0 1.0 0.0 0.0 1:0.0 2:0.0 3:0.0 4:0.2692307692307692 5:0.6904761904761905 6:0.0 7:0.9101820546182064 8:1.0 9:0.8072782988818272 10:0.6666666666666666 11:0.6666666666666666 12:0.0 13:0.6324555320336759 14:0.5263157894736842 15:0.7692307692307693 16:0.665640235470275 
1.0 0.0 0.0 0.0 1.0 0.0 0.0 0.5104367883264436 0.0 0.0 0.0 0.0 0.0 0.0 1:0.7071067811865475 2:0.0 3:0.0 4:0.3208955223880597 5:0.6388888888888888 6:1.0 7:0.7559289460184544 8:0.0 9:0.661740207499233 10:0.0 11:0.0 12:0.0 13:0.0 14:0.6111111111111112 15:0.8461538461538461 16:0.7190924955066749 
1.0 0.0 0.0 0.0 1.0 0.0 0.0 0.9996108706219795 0.0 0.0 0.0 0.0 0.0 0.0 1:0.7071067811865475 2:0.0 3:0.0 4:0.3208955223880597 5:0.6388888888888888 6:1.0 7:0.7559289460184544 8:0.0 9:0.661740207499233 10:0.0 11:0.0 12:0.0 13:0.0 14:0.6111111111111112 15:0.8461538461538461 16:0.7190924955066749 
0.0 0.0 0.0 0.0 1.0 0.0 1.0 1.0 0.0 0.0 1.0 1.0 0.0 0.0 1:0.0 2:0.0 3:0.0 4:0.15671641791044777 5:0.8055555555555556 6:1.0 7:0.3333333333333333 8:0.0 9:0.5737970137580274 10:0.0 11:0.0 12:0.0 13:0.0 14:0.16666666666666666 15:0.42857142857142855 16:0.2672612419124244 
0.3892863376434387 0.5201224398127566 0.0 0.0 1.0 0.0 0.0 0.0 0.0 0.4686302042865368 0.0 0.8022787229271847 0.055337097898635834 0.0 1:0.7071067811865475 2:0.0 3:0.0 4:0.13846153846153847 5:0.7222222222222222 6:0.0 7:0.8660254037844387 8:0.0 9:1.0 10:1.0 11:1.0 12:0.0 13:0.0 14:0.4444444444444444 15:0.8 16:0.5962847939999439 
0.45976541704750307 0.0 0.0 0.0 1.0 0.0 0.0 0.0 0.0 0.0 0.0 0.0 0.0 0.0 1:0.0 2:0.0 3:0.0 4:0.4235294117647059 5:0.6458333333333334 6:0.7368421052631579 7:0.9531759751869954 8:0.0 9:0.6207470168239376 10:1.0 11:1.0 12:0.0 13:0.4999999999999999 14:0.6086956521739131 15:0.8235294117647058 16:0.7134772412317412 
0.0 0.0 0.0 0.7552406418180156 0.0 0.3229846392337628 0.0 0.0 0.0 0.0 0.0 0.0 0.0 0.0 1:0.0 2:0.0 3:0.0 4:0.6181818181818182 5:0.6176470588235294 6:1.0 7:0.8660254037844387 8:1.0 9:0.2720617332805698 10:0.3333333333333333 11:0.6666666666666666 12:0.0 13:0.7071067811865475 14:0.7647058823529411 15:1.0 16:0.8744746321952063 
0.0 0.0 0.0 1.0 1.0 0.0 1.0 0.0 0.0 0.0 1.0 0.0 0.0 0.0 1:0.5 2:0.0 3:0.0 4:0.12738853503184713 5:0.7727272727272727 6:1.0 7:0.5393598899705937 8:0.0 9:0.5505931362367004 10:1.0 11:1.0 12:0.0 13:0.0 14:0.2631578947368421 15:0.5 16:0.35856858280031806 
0.0 0.0 0.0 1.0 1.0 0.0 1.0 0.0 0.0 0.0 0.22690892845390953 0.0 0.0 0.0 1:0.5 2:0.0 3:0.0 4:0.12738853503184713 5:0.7727272727272727 6:1.0 7:0.5393598899705937 8:0.0 9:0.5505931362367004 10:1.0 11:1.0 12:0.0 13:0.0 14:0.2631578947368421 15:0.5 16:0.35856858280031806 
0.0 0.0 0.0 0.026622871300956037 1.0 0.0 1.0 0.0 0.0 0.0 1.0 0.0 0.0 0.0 1:0.35355339059327373 2:0.0 3:0.0 4:0.1337579617834395 5:0.7954545454545454 6:1.0 7:0.40451991747794525 8:0.0 9:0.6867317887393849 10:1.0 11:0.0 12:0.0 13:0.0 14:0.15789473684210525 15:0.3333333333333333 16:0.2519763153394848 
0.0 1.0 0.0 0.0 0.0 0.0 0.0 0.0 0.0 0.0 0.0 0.0 0.0 0.0 1:0.7071067811865475 2:0.0 3:0.0 4:0.8805970149253731 5:0.5277777777777778 6:0.5 7:0.9354143466934852 8:0.0 9:0.49419521024784197 10:1.0 11:1.0 12:0.0 13:1.0000000000000002 14:0.9444444444444444 15:1.0 16:0.9718253158075502 
0.0 1.0 0.0 0.974420521536073 1.0 0.0 0.0 0.0 0.0 0.0 1.0 0.1628641615862674 0.0 0.0 1:0.0 2:0.0 3:0.0 4:0.48091603053435117 5:0.7272727272727273 6:1.0 7:0.8528028654224417 8:0.0 9:0.599631349359117 10:0.5 11:0.5 12:0.0 13:0.0 14:0.6 15:1.0 16:0.7359800721939873 
0.0 0.0 0.0 0.0 1.0 0.0 1.0 1.0 0.0 0.0 1.0 1.0 0.0 0.0 1:0.0 2:0.0 3:0.0 4:0.12790697674418605 5:0.7916666666666667 6:1.0 7:0.16666666666666669 8:0.0 9:0.5648556536465648 10:0.0 11:0.0 12:0.0 13:0.0 14:0.16666666666666666 15:0.4 16:0.2581988897471611 
0.0 1.0 0.0 0.0 0.0 0.0 0.0 1.0 0.0 0.0 0.40395417180704607 1.0 0.0 0.0 1:0.0 2:0.0 3:0.0 4:0.45348837209302323 5:0.7916666666666667 6:1.0 7:0.8660254037844387 8:0.0 9:0.5432327476445123 10:0.0 11:0.0 12:0.0 13:0.0 14:0.4166666666666667 15:1.0 16:0.6454972243679028 
0.0 0.0 0.0 1.0 1.0 0.0 1.0 1.0 0.0 0.0 1.0 1.0 0.0 0.8480181611069731 1:0.35355339059327373 2:0.0 3:0.0 4:0.05952380952380952 5:0.7083333333333334 6:1.0 7:0.4193139346887673 8:0.0 9:0.7769439332175558 10:0.5 11:0.5 12:0.0 13:0.0 14:0.18181818181818182 15:0.2857142857142857 16:0.2525381361380527 
0.0 0.0 0.0 0.0 1.0 0.0 0.0 0.0 0.0 0.0 0.0 0.0 0.0 0.0 1:0.7071067811865475 2:0.0 3:0.0 4:0.23809523809523808 5:0.8125 6:1.0 7:0.5547001962252291 8:0.0 9:0.7018575351392686 10:0.5 11:0.5 12:0.0 13:0.0 14:0.3181818181818182 15:0.7777777777777778 16:0.5039526306789696 
0.0 0.0 0.0 0.0 1.0 0.0 0.0 0.0 0.0 0.0 0.0 0.0 0.0 0.0 1:0.7071067811865475 2:0.0 3:0.0 4:0.23809523809523808 5:0.8125 6:1.0 7:0.5547001962252291 8:0.0 9:0.7018575351392686 10:0.5 11:0.5 12:0.0 13:0.0 14:0.3181818181818182 15:0.7777777777777778 16:0.5039526306789696 
0.0 0.0 0.0 0.0 1.0 0.0 0.0 0.0 0.0 0.0 1.0 1.0 0.0 0.0 1:0.31622776601683794 2:0.0 3:0.0 4:0.08225108225108226 5:0.7428571428571429 6:1.0 7:0.07647191129018724 8:0.0 9:0.3822351110845207 10:0.0 11:0.0 12:0.0 13:0.8164965809277259 14:0.1935483870967742 15:0.3333333333333333 16:0.24595492912420727 
0.0 0.0 0.0 0.0 1.0 0.0 0.0 0.0 0.0 0.0 1.0 1.0 0.0 0.0 1:0.2581988897471611 2:0.0 3:0.0 4:0.1471861471861472 5:0.7142857142857143 6:1.0 7:0.48666426339228763 8:0.0 9:0.36077294538486826 10:0.75 11:0.75 12:0.0 13:0.0 14:0.4838709677419355 15:0.75 16:0.6333333333333333 
0.0 0.0 0.0 0.3511606440838912 0.0 0.0 0.0 0.0 0.0 0.0 0.0 0.0 0.0 0.0 1:0.6324555320336759 2:0.0 3:0.0 4:0.19480519480519481 5:0.6857142857142857 6:1.0 7:0.6722139969935249 8:0.5 9:0.4109976214741417 10:0.75 11:0.5 12:0.0 13:0.40824829046386296 14:0.5161290322580645 15:0.7272727272727273 16:0.6356417261637282 
1.0 0.0 0.014564399764168373 1.0 1.0 0.0 0.0 1.0 0.0 0.0 1.0 0.8637075825676526 0.0 0.0 1:0.40824829046386296 2:0.0 3:0.0 4:0.1783783783783784 5:0.6481481481481481 6:1.0 7:0.40824829046386296 8:0.5 9:0.8023046968237895 10:0.0 11:0.0 12:0.0 13:0.33333333333333337 14:0.3333333333333333 15:0.47368421052631576 16:0.3973597071195131 
0.0 0.0 0.0 0.0 1.0 0.0 1.0 1.0 0.0 0.0 0.0 0.0 0.0 0.0 1:0.5773502691896258 2:0.0 3:0.0 4:0.04864864864864865 5:0.8148148148148149 6:1.0 7:0.9013878188659974 8:0.0 9:0.7617845291308373 10:0.5 11:0.0 12:0.0 13:0.0 14:0.18518518518518517 15:0.5 16:0.30429030972509225 
0.0 0.0 0.0 0.0 1.0 0.0 0.0 0.0 0.0 0.0 0.0 0.0 0.0 0.0 1:0.8164965809277259 2:0.0 3:0.0 4:0.12432432432432433 5:0.7962962962962963 6:1.0 7:0.9354143466934853 8:0.0 9:0.793941619327231 10:0.5 11:0.5 12:0.0 13:0.0 14:0.25925925925925924 15:0.6363636363636364 16:0.4061811972299616 
1.0 0.0 0.0 0.0 1.0 0.0 1.0 0.4827793646483969 0.0 0.0 0.0 1.0 0.0 0.3632721292592098 1:0.0 2:0.0 3:0.0 4:0.04864864864864865 5:0.6666666666666666 6:0.0 7:0.5303300858899106 8:0.0 9:0.8111087727025595 10:0.5 11:0.0 12:0.0 13:0.0 14:0.2222222222222222 15:0.3333333333333333 16:0.2721655269759087 
0.0 0.0 0.0 1.0 1.0 0.0 0.0 0.0 0.0 0.0 1.0 0.0 0.0 0.0 1:0.40824829046386296 2:0.0 3:0.0 4:0.1783783783783784 5:0.7592592592592593 6:1.0 7:0.4364357804719848 8:0.5 9:0.8250293650068506 10:0.0 11:0.0 12:0.0 13:0.40824829046386296 14:0.25925925925925924 15:0.5384615384615384 16:0.3736323588785367 
0.0 0.0 0.0 1.0 1.0 0.0 1.0 1.0 0.19744187551237916 0.0 1.0 1.0 0.0 0.152753436457854 1:0.0 2:0.0 3:0.0 4:0.0918918918918919 5:0.7407407407407407 6:1.0 7:0.3273268353539886 8:0.5 9:0.8439835645962245 10:0.0 11:0.0 12:0.0 13:0.0 14:0.18518518518518517 15:0.35714285714285715 16:0.25717224993681986 
0.15457963850836876 0.0 0.0 1.0 1.0 0.0 0.0 0.0 0.0 0.0 0.0 0.0 0.0 0.0 1:0.5773502691896258 2:0.0 3:0.0 4:0.1783783783783784 5:0.7037037037037037 6:1.0 7:0.4364357804719848 8:0.5 9:0.8019651040739452 10:0.0 11:0.0 12:0.0 13:0.33333333333333337 14:0.3333333333333333 15:0.5625 16:0.4330127018922193 
0.0 0.0 0.0 0.0 1.0 0.0 1.0 0.7522831300839861 0.0 0.0 0.0 0.0 0.0 0.0 1:0.5773502691896258 2:0.0 3:0.0 4:0.04864864864864865 5:0.8148148148148149 6:1.0 7:0.9013878188659974 8:0.0 9:0.7617845291308373 10:0.5 11:0.0 12:0.0 13:0.0 14:0.18518518518518517 15:0.5 16:0.30429030972509225 
0.0 0.0 0.0 0.0 1.0 0.0 0.0 0.0 0.0 0.0 0.0 0.0 0.0 0.0 1:0.8164965809277259 2:0.0 3:0.0 4:0.12432432432432433 5:0.7962962962962963 6:1.0 7:0.9354143466934853 8:0.0 9:0.793941619327231 10:0.5 11:0.5 12:0.0 13:0.0 14:0.25925925925925924 15:0.6363636363636364 16:0.4061811972299616 
0.0 0.0 0.0 0.0 1.0 0.0 1.0 0.0 0.0 0.0 0.0 0.0 0.0 0.0 1:0.5773502691896258 2:0.0 3:0.0 4:0.04864864864864865 5:0.8148148148148149 6:1.0 7:0.9013878188659974 8:0.0 9:0.7617845291308373 10:0.5 11:0.0 12:0.0 13:0.0 14:0.18518518518518517 15:0.5 16:0.30429030972509225 
0.0 0.0 0.0 0.5742015838356157 1.0 0.0 1.0 0.0 0.0 0.0 0.0 1.0 0.0 0.0 1:0.40824829046386296 2:0.0 3:0.0 4:0.10270270270270271 5:0.7407407407407407 6:0.0 7:0.5855400437691198 8:0.0 9:0.8234432168278917 10:0.5 11:0.0 12:0.0 13:0.0 14:0.2222222222222222 15:0.42857142857142855 16:0.3086066999241838 
0.0 0.0 0.0 0.0 0.0 0.0 1.0 0.0 0.0 0.0 0.0 0.0 0.0 0.0 1:0.5773502691896258 2:0.0 3:0.0 4:0.2185430463576159 5:0.8958333333333333 6:1.0 7:0.4714045207910316 8:0.0 9:0.7004885610478667 10:1.0 11:0.5 12:0.0 13:0.0 14:0.22727272727272727 15:1.0 16:0.40824829046386296 
0.049826136118828274 0.0 0.0 0.7919036137913738 1.0 0.0 1.0 0.0 0.0 0.0 1.0 1.0 0.0 1.0 1:0.0 2:0.0 3:0.0 4:0.14049586776859505 5:0.825 6:0.0 7:0.1386750490563073 8:0.0 9:0.9889703253812057 10:0.3333333333333333 11:0.3333333333333333 12:0.0 13:0.4999999999999999 14:0.16666666666666666 15:0.42857142857142855 16:0.23145502494313785 
0.0 0.0 0.0 0.0 1.0 0.0 1.0 0.0 0.0 0.0 1.0 1.0 0.0 0.0 1:0.0 2:0.0 3:0.0 4:0.08264462809917356 5:0.875 6:1.0 7:0.4008918628686366 8:0.0 9:0.760056078140612 10:0.3333333333333333 11:0.0 12:0.0 13:0.0 14:0.16666666666666666 15:0.6 16:0.27386127875258304 
0.0 0.0 0.0 0.0 0.0 1.0 0.0 0.0 0.0 0.0 0.0 0.0 0.0 0.0 1:1.0 2:0.0 3:0.0 4:0.3105263157894737 5:0.5666666666666667 6:1.0 7:1.0 8:1.0 9:0.4461401595447098 10:1.0 11:0.5 12:0.0 13:0.8660254037844387 14:0.7 15:0.8076923076923077 16:0.7519206177414045 
0.5041893100407302 0.9874413379569298 0.3756720152071688 0.0 1.0 0.0 0.0 0.0 0.0 0.0 0.0 1.0 0.0 0.0 1:0.0 2:0.0 3:0.0 4:0.4180327868852459 5:0.5263157894736842 6:0.3333333333333333 7:0.7826237921249264 8:0.0 9:0.35095033171956264 10:1.0 11:1.0 12:0.0 13:0.8660254037844387 14:0.8333333333333334 15:0.8333333333333334 16:0.8229511997978236 
0.0 0.0 0.0 0.0 1.0 0.053588260787467784 1.0 0.0 0.0 0.0 1.0 1.0 0.0 0.0 1:0.0 2:0.0 3:0.0 4:0.062111801242236024 5:0.8478260869565217 6:1.0 7:0.0 8:0.0 9:0.6460599146694179 10:0.0 11:0.0 12:0.0 13:0.0 14:0.18181818181818182 15:0.5714285714285714 16:0.30237157840738177 
0.7445164080897919 1.0 0.0 0.0 1.0 0.0 0.0 0.0 0.0 0.0 0.0 0.0 0.19603343462359915 0.0 1:0.9128709291752769 2:0.0 3:0.0 4:0.7453416149068323 5:0.5652173913043478 6:1.0 7:0.8432740427115678 8:0.0 9:0.6733319230743017 10:0.0 11:0.0 12:0.0 13:0.0 14:0.8181818181818182 15:1.0 16:0.8981462390204986 
0.0 0.0 0.0 0.0 1.0 0.0 1.0 0.0 0.0 0.0 1.0 1.0 0.0 0.0 1:0.0 2:0.0 3:0.0 4:0.07453416149068323 5:0.8478260869565217 6:1.0 7:0.19245008972987526 8:0.0 9:0.4670767330613877 10:0.0 11:0.0 12:0.0 13:0.0 14:0.09090909090909091 15:0.2857142857142857 16:0.15118578920369088 
0.247677227056276 0.0 0.0 0.0 1.0 0.0 1.0 1.0 0.0 0.0 1.0 1.0 0.0 0.0 1:0.0 2:0.0 3:0.0 4:0.24444444444444444 5:0.5555555555555556 6:0.9333333333333333 7:0.8575894485643643 8:0.0 9:0.7175591690824538 10:0.0 11:0.0 12:0.0 13:0.0 14:0.2916666666666667 15:0.30434782608695654 16:0.34139437099945946 
1.0 0.0 0.0 0.48995450822395425 1.0 0.0 1.0 1.0 0.24012862722792552 0.0 1.0 1.0 0.5970413540050565 0.0 1:0.0 2:0.0 3:0.0 4:0.24444444444444444 5:0.5555555555555556 6:0.9333333333333333 7:0.8575894485643643 8:0.0 9:0.7175591690824538 10:0.0 11:0.0 12:0.0 13:0.0 14:0.2916666666666667 15:0.30434782608695654 16:0.34139437099945946 
0.0 0.0 0.0 0.0 0.0 0.0 0.0 0.0 0.0 0.0 1.0 1.0 0.0 0.0 1:0.0 2:0.0 3:0.0 4:0.3148148148148148 5:0.8125 6:1.0 7:0.4472135954999579 8:0.0 9:0.2274509803921569 10:0.0 11:0.0 12:0.0 13:0.0 14:0.375 15:1.0 16:0.6123724356957945 
0.0 0.0 0.0 0.0 1.0 0.0 1.0 1.0 0.5878289496837795 0.0 1.0 1.0 0.0 1.0 1:0.0 2:0.0 3:0.0 4:0.06666666666666667 5:0.8571428571428572 6:0.5 7:0.23570226039551587 8:0.0 9:0.6373724030285115 10:0.0 11:0.0 12:0.0 13:0.0 14:0.07142857142857142 15:0.25 16:0.1336306209562122 
1.0 0.0 0.9786690676183627 0.7713027215570255 0.0 0.0 0.0 0.0 0.0 0.0 0.0 0.0 0.0 0.0 1:1.0000000000000002 2:0.0 3:0.0 4:0.90625 5:0.5 6:1.0 7:0.4999999999999999 8:1.0 9:0.5266666666666667 10:0.0 11:0.0 12:0.0 13:1.0 14:0.8888888888888888 15:0.8888888888888888 16:0.8888888888888888 
0.0 0.0 0.0 0.1901361050530478 1.0 0.0 0.0 1.0 0.0 0.0 0.0 1.0 0.08628010411496656 0.8828623684818488 1:0.7071067811865475 2:0.0 3:1.0 4:0.05439330543933055 5:0.8088235294117647 6:0.0 7:0.2300894966542111 8:0.0 9:0.6580272891101214 10:0.5 11:0.0 12:0.0 13:0.0 14:0.25806451612903225 15:0.6666666666666666 16:0.40824829046386296 
1.0 0.0 0.0 0.0 0.0 0.0 0.0 0.0 0.0 0.0 0.0 0.0 0.0 0.0 1:1.0 2:0.0 3:0.0 4:0.2777777777777778 5:0.625 6:1.0 7:1.0 8:0.0 9:0.6411698952472645 10:1.0 11:0.0 12:0.0 13:1.0 14:0.75 15:1.0 16:0.8660254037844387 
0.0 0.0 0.0 0.0 1.0 0.0 0.0 0.0 0.0 0.0 1.0 0.0 0.0 0.0 1:0.4999999999999999 2:0.0 3:0.0 4:0.11282051282051282 5:0.6935483870967742 6:1.0 7:0.5262348115842176 8:0.0 9:0.3510612237627649 10:0.6666666666666666 11:0.3333333333333333 12:0.0 13:0.40824829046386296 14:0.36666666666666664 15:0.6470588235294118 16:0.5444655064804709 
0.0 0.0 0.0 0.0 1.0 0.0 0.0 0.0 0.0 0.0 1.0 0.0 0.0 0.0 1:0.5773502691896258 2:0.0 3:0.0 4:0.13286713286713286 5:0.6944444444444444 6:1.0 7:0.4743416490252569 8:0.0 9:0.48184092617470764 10:0.3333333333333333 11:0.0 12:0.0 13:0.35355339059327373 14:0.3333333333333333 15:0.5454545454545454 16:0.42640143271122094 
1.0 0.0 0.0 0.9035261177083317 0.0 0.0 0.0 0.0 0.0 0.0 0.0 0.0 0.0 0.0 1:0.5773502691896258 2:0.0 3:0.0 4:0.18181818181818182 5:0.5833333333333334 6:1.0 7:0.8017837257372731 8:1.0 9:0.3711707049400549 10:0.3333333333333333 11:0.3333333333333333 12:0.0 13:0.75 14:0.6666666666666666 15:0.8 16:0.7302967433402215 
1.0 0.0 0.007956699925645341 1.0 1.0 0.0810644696917967 1.0 1.0 0.3606133916344852 0.18678129090806275 1.0 1.0 0.0 0.0 1:0.0 2:0.0 3:0.0 4:0.11764705882352941 5:0.47619047619047616 6:1.0 7:0.7399400733959438 8:0.0 9:0.7108539494084003 10:0.5 11:0.5 12:0.0 13:0.0 14:0.3888888888888889 15:0.3684210526315789 16:0.408248290463863 
0.0 0.0 0.23749384951149713 1.0 0.0 0.1319286582401536 0.0 0.0 0.0 0.0 1.0 0.0 0.0 0.0 1:0.0 2:0.0 3:0.0 4:0.13793103448275862 5:0.6875 6:1.0 7:0.8616404368553293 8:0.0 9:0.3158572610185513 10:1.0 11:1.0 12:0.0 13:0.7071067811865475 14:0.6190476190476191 15:0.9285714285714286 16:0.7970533969860858 
0.0 0.0 0.0 0.0 1.0 0.0 1.0 1.0 0.0 0.0 1.0 1.0 0.0 0.0 1:0.0 2:0.0 3:0.0 4:0.10900473933649289 5:0.6896551724137931 6:0.6363636363636364 7:0.6831300510639732 8:0.0 9:0.5708354024197715 10:0.5 11:0.0 12:0.0 13:0.31622776601683794 14:0.2857142857142857 15:0.47058823529411764 16:0.4016096644512494 
0.0 0.0 0.0 0.0 0.0 0.0 0.0 1.0 0.0 0.0 0.0 1.0 0.0 0.0 1:0.0 2:0.0 3:0.0 4:0.0763888888888889 5:0.6956521739130435 6:0.0 7:0.5976143046671968 8:0.0 9:0.17681811366021893 10:0.0 11:0.0 12:0.0 13:0.0 14:0.18181818181818182 15:0.3076923076923077 16:0.25 
0.0 0.0 0.0 0.0 0.0 0.0 0.0 1.0 0.09173930175252264 0.0 0.0 1.0 0.0 0.0 1:0.0 2:0.0 3:0.0 4:0.0763888888888889 5:0.6956521739130435 6:0.0 7:0.5976143046671968 8:0.0 9:0.17681811366021893 10:0.0 11:0.0 12:0.0 13:0.0 14:0.18181818181818182 15:0.3076923076923077 16:0.25 
0.0 0.0 1.0 0.8523307533708624 1.0 1.0 1.0 0.7605693051590886 0.0 0.0 1.0 1.0 0.0 0.0 1:0.0 2:0.0 3:0.0 4:0.08108108108108109 5:0.6666666666666666 6:1.0 7:0.3076923076923077 8:0.0 9:0.27897038521558554 10:0.3333333333333333 11:0.3333333333333333 12:0.0 13:0.0 14:0.2413793103448276 15:0.3684210526315789 16:0.3015113445777636 
0.0 0.0 0.0 0.0 1.0 0.0 0.0 0.0 0.0 0.0 0.0 0.0 0.0 0.0 1:0.6708203932499369 2:0.0 3:0.0 4:0.29056603773584905 5:0.6951219512195121 6:1.0 7:0.5921565254637922 8:0.0 9:0.5679261052861483 10:0.3333333333333333 11:0.0 12:0.0 13:0.4472135954999579 14:0.43902439024390244 15:0.75 16:0.5710574352893738 
0.0 0.0 0.0 0.09237466420153699 1.0 0.0 1.0 0.0 0.0 0.0 1.0 1.0 0.0 0.0 1:0.0 2:0.0 3:0.0 4:0.057971014492753624 5:0.7903225806451613 6:1.0 7:0.45226701686664544 8:0.0 9:0.6734405720095333 10:0.6666666666666666 11:0.3333333333333333 12:0.0 13:0.0 14:0.3103448275862069 15:0.75 16:0.4800793585191832 
0.0 1.0 0.0 0.0 0.0 0.0 0.0 0.0 0.0 0.0 0.0 0.0 0.0 0.0 1:0.0 2:0.0 3:0.0 4:0.6857142857142857 5:0.6086956521739131 6:0.0 7:0.9296696802013682 8:0.5 9:0.46506291468697447 10:1.0 11:1.0 12:0.0 13:0.7745966692414834 14:0.8181818181818182 15:1.0 16:0.8956685895029604 
0.0 0.0 0.21597605521378035 0.0 0.0 0.0 0.0 0.0 0.0 0.0 0.0 1.0 0.0 0.0 1:0.0 2:0.0 3:0.0 4:0.13805970149253732 5:0.7794117647058824 6:0.0 7:0.5051814855409226 8:0.0 9:0.3853783445588505 10:0.0 11:0.0 12:0.0 13:1.0 14:0.4 15:0.8571428571428571 16:0.6362090102803518 
0.0 0.0 0.0 0.0 1.0 0.0 0.0 0.0 0.0 0.0 0.0 1.0 0.0 0.0 1:0.0 2:0.0 3:0.0 4:0.13805970149253732 5:0.7647058823529411 6:0.0 7:0.6 8:0.0 9:0.35703265074554885 10:1.0 11:1.0 12:0.0 13:0.0 14:0.36666666666666664 15:0.6875 16:0.5400617248673216 
0.0 0.0 0.0 0.0 1.0 0.0 0.0 0.0 0.0 0.0 1.0 0.0 0.0 0.0 1:0.5 2:0.0 3:0.0 4:0.11801242236024845 5:0.7380952380952381 6:1.0 7:0.4472135954999579 8:0.0 9:0.42920284180268076 10:0.3333333333333333 11:0.0 12:0.0 13:0.35355339059327373 14:0.3 15:0.5454545454545454 16:0.3772167680771589 
0.0 0.0 0.039124583601848166 0.0 0.0 0.0 0.0 0.0 0.0 0.0 0.0 0.0 0.0 0.0 1:0.5 2:0.0 3:0.0 4:0.16149068322981366 5:0.6428571428571428 6:1.0 7:0.8819171036881969 8:1.0 9:0.3507846445166216 10:0.3333333333333333 11:0.3333333333333333 12:0.0 13:0.75 14:0.65 15:0.8666666666666667 16:0.6998964726756152 
0.7431353806485702 0.0 0.12326775106983162 0.0 0.0 0.0 0.0 0.0 0.0 0.0 0.0 0.0 0.0 0.0 1:0.8164965809277259 2:0.0 3:0.0 4:0.40611353711790393 5:0.6029411764705882 6:0.8 7:0.846809798439941 8:0.0 9:0.6550712747936045 10:0.0 11:0.0 12:0.0 13:0.9999999999999998 14:0.7666666666666667 15:0.92 16:0.8738847831984206 
0.599393839219803 0.5415474651040433 0.0 0.03475922743992528 0.0 0.030440055310830848 0.0 0.0 0.0 0.0 0.0 0.0 0.0 0.0 1:0.0 2:0.0 3:0.0 4:0.5538461538461539 5:0.55 6:1.0 7:0.9999999999999998 8:1.0 9:0.503051845882558 10:1.0 11:0.5 12:0.0 13:0.8660254037844387 14:0.8421052631578947 15:1.0 16:0.9090909090909091 
1.0 0.0 0.0 0.0 1.0 0.0 0.0 0.0 0.0 0.0 0.0 0.0 0.0 0.0 1:0.5773502691896258 2:0.0 3:0.0 4:0.2982456140350877 5:0.6363636363636364 6:1.0 7:0.9035624609139907 8:0.0 9:0.6506232370358009 10:1.0 11:0.6666666666666666 12:0.0 13:0.0 14:0.5238095238095238 15:0.6875 16:0.6123724356957946 
0.0 0.0 0.0 0.0 1.0 0.0 1.0 0.0 0.0 0.0 0.0 0.0 0.0 0.0 1:0.40824829046386296 2:0.0 3:0.0 4:0.2046783625730994 5:0.7272727272727273 6:1.0 7:0.8090398349558905 8:0.0 9:0.6006728943971544 10:1.0 11:0.0 12:0.0 13:0.0 14:0.5238095238095238 15:0.9166666666666666 16:0.7071067811865476 
0.0 0.0 0.0 0.0 1.0 0.0 1.0 0.0 0.0 0.0 0.0 0.0 0.0 0.0 1:0.5773502691896258 2:0.0 3:0.0 4:0.1286549707602339 5:0.8181818181818181 6:1.0 7:0.5222329678670935 8:0.0 9:0.6544213445727782 10:1.0 11:0.0 12:0.0 13:0.0 14:0.23809523809523808 15:0.625 16:0.43301270189221935 
0.0 0.0 0.0 0.0 1.0 0.0 1.0 0.10234766309626585 0.0 0.0 1.0 1.0 0.0 0.0 1:0.0 2:0.0 3:0.0 4:0.07111111111111111 5:0.8285714285714285 6:1.0 7:0.2051956704170308 8:0.0 9:0.7706601299652224 10:0.2 11:0.2 12:0.0 13:0.40824829046386296 14:0.15625 15:0.45454545454545453 16:0.20869596778242056 
0.01130336963294249 0.0 0.0 1.0 1.0 0.0 1.0 1.0 0.0 0.0 1.0 1.0 0.0 0.0 1:0.0 2:0.0 3:0.0 4:0.10666666666666667 5:0.7142857142857143 6:1.0 7:0.6055300708194984 8:0.0 9:0.7402182846381641 10:0.5 11:0.25 12:0.0 13:0.33333333333333337 14:0.375 15:0.631578947368421 16:0.43285265283781743 
0.0 0.0 0.12405517593444614 0.0 1.0 0.0 1.0 1.0 0.0 0.0 1.0 1.0 0.0 0.0 1:0.0 2:0.0 3:0.0 4:0.07111111111111111 5:0.8285714285714285 6:1.0 7:0.2051956704170308 8:0.0 9:0.7706601299652224 10:0.2 11:0.2 12:0.0 13:0.40824829046386296 14:0.15625 15:0.45454545454545453 16:0.20869596778242056 
1.0 0.0 0.33349060624496674 0.0 1.0 0.0 1.0 0.0 0.0 0.13775747600686497 0.0 1.0 0.0 0.0 1:0.0 2:0.0 3:0.0 4:0.15584415584415584 5:0.5 6:0.0 7:0.6708203932499369 8:0.0 9:0.5137017571800181 10:1.0 11:1.0 12:0.0 13:0.0 14:0.6 15:0.6 16:0.5999999999999999 
0.0 0.0 0.0 0.0 1.0 1.0 1.0 1.0 0.0 0.0 0.0 1.0 0.0 0.0 1:0.0 2:0.0 3:0.0 4:0.11688311688311688 5:0.65 6:0.0 7:0.25 8:0.0 9:0.42927511085405823 10:0.0 11:0.0 12:0.0 13:0.0 14:0.3 15:0.42857142857142855 16:0.35856858280031806 
1.0 0.0 0.0 0.0 1.0 0.0 1.0 0.0 0.0 0.0 0.0 1.0 0.0 0.0 1:0.0 2:0.0 3:0.0 4:0.15584415584415584 5:0.45454545454545453 6:0.0 7:0.7216878364870323 8:0.0 9:0.3898721161879057 10:1.0 11:1.0 12:0.0 13:0.0 14:0.6 15:0.5454545454545454 16:0.5720775535473553 
0.3851129877495395 0.0 0.0 0.025280322873538874 0.0 0.0 0.0 1.0 0.0 0.0 0.0 1.0 0.0 0.0 1:0.4082482904638631 2:0.0 3:1.0 4:0.5333333333333333 5:0.7380952380952381 6:1.0 7:0.7302967433402213 8:0.0 9:0.43548266649162587 10:0.5 11:0.5 12:0.0 13:0.4999999999999999 14:0.55 15:1.0 16:0.7544335361543179 
1.0 1.0 0.0 0.6617589749557388 0.0 0.05678484315097498 0.0 0.0 0.0 0.0 0.0 0.0 0.17852745294267836 0.0 1:1.0000000000000002 2:0.0 3:0.0 4:0.8679245283018868 5:0.5 6:1.0 7:0.8749999999999998 8:0.0 9:0.5329686833634202 10:0.0 11:0.0 12:0.0 13:0.0 14:0.9333333333333333 15:0.9333333333333333 16:0.9333333333333332 
0.0 0.0 0.15233747110093124 0.0 1.0 0.0 0.0 1.0 0.0 0.0 1.0 1.0 0.0 0.0 1:0.0 2:0.0 3:0.0 4:0.16744186046511628 5:0.640625 6:1.0 7:0.5294117647058824 8:0.0 9:0.38146666689499925 10:0.0 11:0.0 12:0.0 13:0.5 14:0.3870967741935484 15:0.5454545454545454 16:0.48019603839902475 
0.0 0.0 0.0027714845332937736 0.0 0.0 0.0 0.0 0.0 0.0 0.0 0.0 0.0 0.0 0.0 1:0.6546536707079772 2:0.0 3:0.0 4:0.2049469964664311 5:0.6666666666666666 6:1.0 7:0.17407765595569785 8:0.4 9:0.396771829471175 10:0.0 11:0.0 12:0.0 13:0.4629100498862757 14:0.38461538461538464 15:0.5555555555555556 16:0.4479893351905204 
0.0 0.0 0.0 0.0 1.0 0.14116336229432935 1.0 0.5258249609784728 0.0 0.0 1.0 1.0 0.0 0.0 1:0.0 2:0.0 3:0.0 4:0.05116279069767442 5:0.625 6:1.0 7:0.14625448482542613 8:0.0 9:0.2841969522761163 10:0.3333333333333333 11:0.0 12:0.0 13:0.2886751345948129 14:0.1935483870967742 15:0.2608695652173913 16:0.3027027572983406 
1.0 1.0 0.0 0.0 1.0 0.3033817675179976 0.0 0.0 0.0 0.0 0.0 1.0 0.0 0.0 1:0.0 2:0.0 3:0.0 4:0.553030303030303 5:0.375 6:0.0 7:0.9045340337332909 8:1.0 9:0.47055453318611207 10:1.0 11:0.5 12:0.0 13:0.0 14:0.9411764705882353 15:0.6956521739130435 16:0.8332051183416778 
0.0 0.0 0.0 0.0 1.0 0.0 1.0 1.0 0.0 0.0 1.0 1.0 0.0 1.0 1:0.0 2:0.0 3:0.0 4:0.04697986577181208 5:0.5 6:0.2857142857142857 7:0.08574929257125441 8:0.0 9:0.4926894315997081 10:0.0 11:0.0 12:0.0 13:0.0 14:0.18181818181818182 15:0.18181818181818182 16:0.2 
0.0 0.0 0.0 0.0 1.0 0.0 1.0 1.0 0.0 0.0 1.0 1.0 0.0 0.0 1:0.0 2:0.0 3:0.0 4:0.053691275167785234 5:0.5434782608695652 6:0.2857142857142857 7:0.3333333333333333 8:0.0 9:0.5514818761842971 10:0.0 11:0.0 12:0.0 13:0.40824829046386296 14:0.18181818181818182 15:0.19047619047619047 16:0.1745743121887939 
0.0 0.0 0.0 0.0 1.0 0.0 1.0 0.4208269952529447 0.0 0.0 1.0 1.0 0.0 0.0 1:0.0 2:0.0 3:0.0 4:0.06040268456375839 5:0.4107142857142857 6:1.0 7:0.21320071635561041 8:0.0 9:0.5062689510638424 10:0.0 11:0.0 12:0.0 13:0.0 14:0.09090909090909091 15:0.07692307692307693 16:0.07071067811865475 
0.0 0.0 0.0 0.0 1.0 0.0 1.0 0.0 0.0 0.0 1.0 1.0 0.0 0.9905749139208715 1:0.0 2:0.0 3:0.0 4:0.06870229007633588 5:0.375 6:1.0 7:0.10050378152592121 8:0.0 9:0.4082462535322469 10:0.0 11:0.0 12:0.0 13:0.0 14:0.058823529411764705 15:0.043478260869565216 16:0.043852900965351466 
0.0 0.0 0.0 0.0 1.0 0.0 0.0 1.0 0.0 0.0 1.0 1.0 0.0 0.0 1:0.0 2:0.0 3:0.0 4:0.0670391061452514 5:0.7884615384615384 6:1.0 7:0.35355339059327373 8:0.0 9:0.2546826498011045 10:0.0 11:0.0 12:0.0 13:0.0 14:0.13636363636363635 15:0.2727272727272727 16:0.30151134457776363 
0.0 0.0 0.08398893428917825 0.0 1.0 0.0 0.0 1.0 0.0 0.0 1.0 1.0 0.0 0.0 1:0.0 2:0.0 3:0.0 4:0.07913669064748201 5:0.725 6:1.0 7:0.24999999999999994 8:0.0 9:0.28907563025210087 10:0.0 11:0.0 12:0.0 13:0.7071067811865475 14:0.2222222222222222 15:0.36363636363636365 16:0.3077287274483319 
1.0 0.0 0.879930857483675 1.0 1.0 0.9586532581797594 0.0 1.0 0.0 0.0 1.0 1.0 0.0 0.0 1:0.0 2:0.0 3:0.0 4:0.22784810126582278 5:0.359375 6:0.5384615384615384 7:0.609849578616645 8:0.0 9:0.4086286155832061 10:0.0 11:0.0 12:0.0 13:0.5 14:0.5454545454545454 15:0.3870967741935484 16:0.48019603839902475 
0.0 0.0 0.0 0.0 1.0 0.0 1.0 1.0 0.0 0.0 1.0 1.0 0.0 0.0 1:0.0 2:0.0 3:0.0 4:0.06962025316455696 5:0.359375 6:1.0 7:0.4824506406770077 8:0.0 9:0.3232204520134598 10:0.0 11:0.0 12:0.0 13:0.0 14:0.18181818181818182 15:0.13793103448275862 16:0.16222142113076254 
0.5353136154233964 0.0 0.0 0.0 1.0 0.3374891561094996 0.0 0.0 0.0 0.0 0.0 0.0 0.0 0.0 1:0.9999999999999998 2:0.0 3:0.0 4:0.4148936170212766 5:0.234375 6:0.7692307692307693 7:0.8453639444116164 8:1.0 9:0.44757228441050356 10:1.0 11:0.0 12:0.0 13:0.5773502691896258 14:0.7857142857142857 15:0.3548387096774194 16:0.5407287150250069 
0.0 0.0 0.0 0.0 1.0 0.0 1.0 1.0 0.0 0.21358214912849202 1.0 1.0 0.0 0.0 1:0.0 2:0.0 3:0.0 4:0.09574468085106383 5:0.17857142857142855 6:0.6666666666666666 7:0.6085806194501845 8:0.0 9:0.4968485594667029 10:1.0 11:0.5 12:0.0 13:0.0 14:0.35714285714285715 15:0.1282051282051282 16:0.280056016805602 
0.0 0.0 0.0 0.0 1.0 0.0 1.0 1.0 0.0 0.0 1.0 1.0 0.0 1.0 1:0.0 2:0.0 3:0.0 4:0.046632124352331605 5:0.5892857142857143 6:1.0 7:0.21320071635561041 8:0.0 9:0.5062689510638424 10:0.0 11:0.0 12:0.0 13:0.0 14:0.07692307692307693 15:0.09090909090909091 16:0.07071067811865475 
0.16365949354711773 0.0 0.2377720571609282 1.0 1.0 0.0 0.0 0.0 0.0 0.8315703922795773 1.0 0.0 0.0 0.0 1:0.6546536707079772 2:0.0 3:0.0 4:0.3020833333333333 5:0.33333333333333337 6:1.0 7:0.17407765595569785 8:0.6666666666666666 9:0.3967718294711753 10:0.0 11:0.0 12:0.0 13:0.4629100498862757 14:0.5555555555555556 15:0.38461538461538464 16:0.4479893351905204 
0.0 0.0 0.0 0.0 1.0 0.0 1.0 0.0 0.32519562322260287 0.0 1.0 1.0 0.0 0.0 1:0.0 2:0.0 3:0.0 4:0.046875 5:0.5892857142857143 6:0.8571428571428571 7:0.21938172723813917 8:0.0 9:0.36881942848469884 10:1.0 11:0.0 12:0.0 13:0.0 14:0.18518518518518517 15:0.22727272727272727 16:0.21908902300206642 
0.0 0.0 0.0 0.0 1.0 0.0 1.0 0.0 0.0 0.0 1.0 1.0 0.0 1.0 1:0.0 2:0.0 3:0.0 4:0.05421686746987952 5:0.625 6:0.5 7:0.10050378152592121 8:0.0 9:0.4082462535322469 10:0.0 11:0.0 12:0.0 13:0.0 14:0.043478260869565216 15:0.058823529411764705 16:0.043852900965351466 
0.0 0.0 0.0 0.0 1.0 0.0 1.0 1.0 0.0 0.0 1.0 1.0 0.0 0.0 1:0.0 2:0.0 3:0.0 4:0.06626506024096386 5:0.5208333333333334 6:0.4 7:0.2461829819586655 8:0.0 9:0.3319331337890628 10:0.0 11:0.0 12:0.0 13:0.0 14:0.17391304347826086 15:0.17391304347826086 16:0.20446520502738272 
0.0 0.0 0.0 0.0 1.0 0.13215325227241026 1.0 0.0 0.0 0.0 1.0 1.0 0.0 0.0 1:0.0 2:0.0 3:0.0 4:0.2033898305084746 5:0.21153846153846156 6:0.0 7:0.7115124735378853 8:0.0 9:0.2927243075149605 10:1.0 11:0.0 12:0.0 13:0.6666666666666667 14:0.2727272727272727 15:0.13636363636363635 16:0.30151134457776363 
0.0 0.0 0.0 0.0 1.0 0.0 1.0 0.0 0.0 0.010829794034557904 1.0 1.0 0.0 0.0 1:0.0 2:0.0 3:0.0 4:0.13559322033898305 5:0.22916666666666669 6:0.0 7:0.30151134457776363 8:0.0 9:0.4483528292038931 10:1.0 11:1.0 12:0.0 13:0.31622776601683794 14:0.09090909090909091 15:0.043478260869565216 16:0.11826247919781652 
1.0 1.0 0.0 0.5906501090552304 0.0 0.0 0.0 0.0 0.0 0.0 0.0 0.0 0.0 0.0 1:0.0 2:0.0 3:0.0 4:0.4397590361445783 5:0.625 6:1.0 7:0.9045340337332909 8:0.5 9:0.47055453318611207 10:0.6666666666666666 11:0.3333333333333333 12:0.0 13:0.0 14:0.6956521739130435 15:0.9411764705882353 16:0.8332051183416778 
0.0 0.0 0.0 0.0 1.0 0.0 0.02386995956306899 0.0 0.0 0.0 0.0 1.0 0.0 0.0 1:0.5303300858899106 2:0.0 3:0.0 4:0.5746268656716418 5:0.296875 6:0.16666666666666666 7:0.43301270189221935 8:0.0 9:0.26271239896193055 10:1.0 11:1.0 12:0.0 13:0.31622776601683794 14:0.631578947368421 15:0.41379310344827586 16:0.5210260492953508 
0.0 0.0 0.0 0.0 1.0 0.0 1.0 0.0 0.0 0.0 1.0 1.0 0.0 1.0 1:0.0 2:0.0 3:0.0 4:0.04477611940298507 5:0.3958333333333333 6:0.5 7:0.0 8:0.0 9:0.30361466604885207 10:0.0 11:0.0 12:0.0 13:0.0 14:0.05263157894736842 15:0.043478260869565216 16:0.04499212706658475 
0.0 0.0 0.0 0.0 1.0 0.0 0.0 0.0 0.0 0.0 0.0 0.0 0.0 0.0 1:0.8249579113843053 2:0.0 3:0.0 4:0.37398373983739835 5:0.265625 6:1.0 7:0.686406472983644 8:0.0 9:0.318936413777301 10:1.0 11:1.0 12:0.0 13:0.4472135954999579 14:0.7647058823529411 15:0.4482758620689655 16:0.5901671065234753 
0.0 0.0 0.0 0.0 1.0 0.0 0.0 1.0 0.0 0.0 1.0 1.0 0.0 0.0 1:0.35355339059327373 2:0.0 3:0.0 4:0.06584362139917696 5:0.4605263157894737 6:1.0 7:0.43259045634870014 8:0.0 9:0.40277963510063813 10:0.0 11:0.0 12:0.0 13:0.3872983346207417 14:0.3125 15:0.30303030303030304 16:0.4548054859154205 
1.0 0.0 0.0 1.0 0.0 0.0 0.0 0.0 0.0 0.0 0.0 0.0 0.0 0.0 1:0.2886751345948129 2:0.0 3:0.0 4:0.18518518518518517 5:0.5571428571428572 6:0.9333333333333333 7:0.8104408984731079 8:1.0 9:0.43711247742499576 10:0.3333333333333333 11:0.3333333333333333 12:0.0 13:0.47140452079103173 14:0.625 15:0.6896551724137931 16:0.7127509644204137 
0.0 0.0 0.40956667036946426 1.0 1.0 0.0 0.0 1.0 0.0 0.9873545013494678 1.0 1.0 0.0 0.0 1:0.4472135954999579 2:0.0 3:0.0 4:0.07142857142857142 5:0.2763157894736842 6:1.0 7:0.4338609156373123 8:0.5 9:0.38957016728783106 10:0.5 11:1.0 12:0.0 13:0.42426406871192845 14:0.3333333333333333 15:0.21212121212121213 16:0.30261376633440124 
0.0 0.0 0.0 0.0 1.0 0.0 1.0 0.0 0.0 0.0 1.0 1.0 0.0 0.0 1:0.0 2:0.0 3:0.0 4:0.06944444444444445 5:0.32857142857142857 6:0.3333333333333333 7:0.21821789023599236 8:0.0 9:0.30551140770857454 10:1.0 11:0.0 12:0.0 13:0.0 14:0.21739130434782608 15:0.15625 16:0.19538688270775087 
0.0 0.0 0.0 0.0 1.0 0.0 1.0 0.0 0.0 0.0 1.0 1.0 0.0 0.0 1:0.19999999999999996 2:0.0 3:0.0 4:0.09722222222222222 5:0.3026315789473684 6:0.5714285714285714 7:0.07453559924999299 8:0.0 9:0.33535638627292536 10:0.0 11:0.0 12:0.0 13:0.0 14:0.21739130434782608 15:0.15151515151515152 16:0.20241022618818413 
0.0 0.0 0.04418424679481413 0.0 0.0 0.0 0.0 1.0 0.0 0.0 0.0 0.0 0.0 0.0 1:0.7071067811865475 2:0.0 3:0.0 4:0.05027932960893855 5:0.78 6:1.0 7:0.5892556509887896 8:0.4 9:0.37175348840420624 10:0.0 11:0.0 12:0.0 13:0.6963106238227914 14:0.15 15:0.2727272727272727 16:0.30578831486257535 
0.0 0.0 0.0 0.0 0.0 0.21931072384149175 0.0 1.0 0.0 0.0 0.0 0.0 0.0 0.0 1:0.0 2:0.0 3:0.0 4:0.11734693877551021 5:0.6666666666666666 6:1.0 7:0.6669729688499156 8:1.0 9:0.23802168573067167 10:1.0 11:1.0 12:0.0 13:0.8164965809277259 14:0.3333333333333333 15:0.47368421052631576 16:0.46193488543715594 
0.0 0.0 0.0 0.0 1.0 0.0 0.0 0.0 0.0 0.0 1.0 1.0 0.0 0.0 1:0.4472135954999579 2:0.0 3:0.0 4:0.061224489795918366 5:0.35526315789473684 6:1.0 7:0.05423261445466404 8:0.0 9:0.448749007179232 10:0.0 11:0.0 12:0.0 13:0.5477225575051661 14:0.23076923076923078 15:0.18181818181818182 16:0.28326441144353265 
0.7238513516765874 0.0 0.0 0.0 1.0 0.0 1.0 1.0 0.12233773465983608 0.0 1.0 1.0 0.0 0.0 1:0.0 2:0.0 3:0.0 4:0.10465116279069768 5:0.21999999999999997 6:0.0 7:0.2886751345948129 8:0.3333333333333333 9:0.29702388132286406 10:0.0 11:0.0 12:0.0 13:0.3849001794597505 14:0.2727272727272727 15:0.15 16:0.30578831486257535 
0.0 0.0 0.0 0.08423659241161653 1.0 0.0 1.0 0.8887658449257635 0.0 0.0 1.0 0.5464135967127188 0.0 0.0 1:0.5163977794943222 2:0.0 3:0.0 4:0.1111111111111111 5:0.28260869565217395 6:1.0 7:0.8040302522073697 8:0.0 9:0.403577741487958 10:1.0 11:0.0 12:0.0 13:0.0 14:0.38461538461538464 15:0.21739130434782608 16:0.2891574659831202 
0.0 0.0 0.0 1.0 1.0 0.0 1.0 1.0 0.0 0.0 1.0 1.0 0.0 0.0 1:0.0 2:0.0 3:0.0 4:0.1891891891891892 5:0.38095238095238093 6:0.8333333333333334 7:0.12909944487358058 8:0.0 9:0.6611540368815906 10:0.0 11:0.0 12:0.0 13:0.4999999999999999 14:0.3333333333333333 15:0.25 16:0.3440312310280934 
0.0 0.0 0.0 0.0 1.0 0.0 0.0 0.0 0.0 0.0 0.0 1.0 0.0 0.0 1:0.0 2:0.0 3:0.0 4:0.19827586206896552 5:0.33333333333333337 6:0.625 7:0.6669729688499156 8:1.0 9:0.23802168573067162 10:1.0 11:1.0 12:0.0 13:0.8164965809277259 14:0.47368421052631576 15:0.3333333333333333 16:0.46193488543715594 
0.0 0.0 0.0 0.0 1.0 0.0 0.0 0.0 0.0 0.0 0.0 1.0 0.0 0.0 1:0.0 2:0.0 3:0.0 4:0.2037037037037037 5:0.13333333333333336 6:0.25 7:0.6481812160876687 8:1.0 9:0.23500590610239 10:1.0 11:1.0 12:0.0 13:0.5773502691896258 14:0.75 15:0.2222222222222222 16:0.41247895569215265 
0.0 0.0 0.0 0.0 1.0 0.0 1.0 0.0 0.0 0.0 1.0 1.0 0.0 0.0 1:0.0 2:0.0 3:0.0 4:0.0784313725490196 5:0.36363636363636365 6:1.0 7:0.0 8:0.0 9:0.07625272331154684 10:0.0 11:0.0 12:0.0 13:0.0 14:0.0 15:0.0 16:0.0 
1.0 0.0 0.0 0.0 1.0 0.0 1.0 0.0 0.0 0.0 0.0 1.0 0.0 0.0 1:0.0 2:0.0 3:0.0 4:0.19047619047619047 5:0.3666666666666667 6:0.5 7:0.8164965809277261 8:0.6666666666666666 9:0.5346625625263396 10:1.0 11:1.0 12:0.0 13:0.0 14:0.5454545454545454 15:0.42857142857142855 16:0.43876345447627835 
0.0 0.0 0.0 0.0 1.0 0.0 1.0 0.0 0.0 0.0 1.0 1.0 0.0 0.0 1:0.0 2:0.0 3:0.0 4:0.05405405405405406 5:0.6363636363636364 6:0.4 7:0.0 8:0.0 9:0.07625272331154684 10:0.0 11:0.0 12:0.0 13:0.0 14:0.0 15:0.0 16:0.0 
0.0 0.0 0.0 0.0 1.0 0.0 0.0 0.0 0.0 0.0 0.0 0.0 0.0 0.0 1:0.2886751345948129 2:0.0 3:0.0 4:0.21844660194174756 5:0.44285714285714284 6:1.0 7:0.7711356597650746 8:0.6666666666666666 9:0.33519936378156184 10:1.0 11:1.0 12:0.0 13:0.47140452079103173 14:0.6896551724137931 15:0.625 16:0.7127509644204137 
0.0 0.0 0.0 0.0 1.0 0.0 0.0 0.9805763544916807 0.0 0.0 1.0 1.0 0.0 0.0 1:0.3651483716701107 2:0.0 3:0.0 4:0.0970873786407767 5:0.40789473684210525 6:1.0 7:0.3803194146278324 8:0.5 9:0.39007913025711494 10:0.0 11:0.0 12:0.0 13:0.5477225575051661 14:0.41379310344827586 15:0.36363636363636365 16:0.5156879540323449 
0.0 0.0 0.0 0.9103681057854385 1.0 0.0 1.0 1.0 0.0 0.0 1.0 1.0 0.0 0.0 1:0.0 2:0.0 3:0.0 4:0.15217391304347827 5:0.6190476190476191 6:1.0 7:0.12909944487358058 8:0.0 9:0.6611540368815911 10:0.0 11:0.0 12:0.0 13:0.4999999999999999 14:0.25 15:0.3333333333333333 16:0.3440312310280934 
0.0 1.0 0.0 0.0 0.0 0.0 0.0 0.0 0.0 0.0 0.0 0.0 0.0 0.0 1:0.6324555320336759 2:0.0 3:0.0 4:0.888 5:0.43478260869565216 6:1.0 7:1.0 8:0.0 9:0.36506532437536404 10:1.0 11:1.0 12:0.0 13:1.0 14:1.0 15:0.8695652173913043 16:0.9325048082403138 
0.0 0.0 0.0 1.0 1.0 0.24878357990955918 1.0 1.0 0.0 0.0 0.0 1.0 0.0 0.3689409332039663 1:0.5 2:0.0 3:0.0 4:0.06030150753768844 5:0.3783783783783784 6:0.2857142857142857 7:0.25712973861328997 8:0.0 9:0.5443574147936899 10:0.0 11:0.0 12:0.0 13:0.0 14:0.25925925925925924 15:0.20588235294117646 16:0.25058072087536704 
0.0 0.0 0.0 0.0 1.0 0.0 1.0 0.0 0.0 0.0 1.0 1.0 0.0 0.8231789767977948 1:0.0 2:0.0 3:0.0 4:0.06779661016949153 5:0.2962962962962963 6:0.0 7:0.12403473458920847 8:0.0 9:0.4217622101788154 10:0.5 11:0.0 12:0.0 13:0.0 14:0.1875 15:0.11538461538461539 16:0.1392715036327889 
0.0 0.0 0.0 0.0 0.0 0.0 0.5164697121268415 0.0 0.3101314608373875 0.0 0.0 1.0 0.0 0.0 1:0.0 2:0.0 3:0.0 4:0.1864406779661017 5:0.84375 6:0.0 7:0.4472135954999579 8:0.0 9:0.21867021867021869 10:0.5 11:0.5 12:0.0 13:0.0 14:0.125 15:0.4 16:0.22360679774997896 
0.0 0.0 0.0 0.0 1.0 1.0 1.0 0.0 0.0 0.0 0.0 0.0 0.0 0.0 1:0.7071067811865475 2:0.0 3:0.0 4:0.08290155440414508 5:0.375 6:0.6666666666666666 7:0.6708203932499369 8:0.0 9:0.45457212384194456 10:1.0 11:0.5 12:0.0 13:0.23570226039551587 14:0.36 15:0.3103448275862069 16:0.30658330991377586 
0.0 0.0 0.0 0.0 1.0 0.0 1.0 1.0 0.0 0.0 1.0 1.0 0.0 0.0 1:0.0 2:0.0 3:0.0 4:0.08290155440414508 5:0.5 6:0.0 7:0.25087260300212727 8:0.0 9:0.4692956374055894 10:0.3333333333333333 11:0.3333333333333333 12:0.0 13:0.22360679774997896 14:0.24 15:0.2222222222222222 16:0.20739033894608505 
0.0 0.0 0.0 1.0 1.0 0.0 1.0 1.0 0.0 0.49826539455400554 1.0 1.0 0.0 0.0 1:0.0 2:0.0 3:0.0 4:0.1348314606741573 5:0.24074074074074076 6:1.0 7:0.294174202707276 8:0.0 9:0.6096784971894337 10:0.0 11:0.0 12:0.0 13:0.0 14:0.23076923076923078 15:0.12 16:0.1494406444160154 
0.0 0.0 0.0 0.0 1.0 0.0 1.0 1.0 0.0 0.0 1.0 1.0 0.0 0.7277722485764433 1:0.0 2:1.0 3:1.0 4:0.05319148936170213 5:0.26785714285714285 6:1.0 7:0.0 8:0.0 9:0.3248049941161395 10:0.0 11:0.0 12:0.0 13:0.0 14:0.06666666666666667 15:0.037037037037037035 16:0.09428090415820634 
0.7497308346897719 0.0 0.0 0.7640376912954944 1.0 0.017055360619478294 1.0 1.0 0.01133127219855459 0.0 1.0 1.0 0.0 0.6682574627116527 1:0.0 2:1.0 3:1.0 4:0.09574468085106383 5:0.3 6:0.6 7:0.14433756729740646 8:0.0 9:0.420792696620675 10:0.3333333333333333 11:0.3333333333333333 12:0.0 13:0.2886751345948129 14:0.13333333333333333 15:0.08 16:0.10327955589886445 
0.0 0.0 0.0 1.0 1.0 1.0 1.0 0.0 0.0 0.0 1.0 1.0 0.0 0.0 1:0.5773502691896258 2:0.0 3:0.0 4:0.14393939393939395 5:0.36 6:1.0 7:0.25087260300212727 8:0.0 9:0.4920199513692525 10:0.5 11:0.5 12:0.0 13:0.47140452079103173 14:0.3888888888888889 15:0.2916666666666667 16:0.3175264481385601 
0.2885994304274819 0.0 0.0 0.0 1.0 0.0 0.0 1.0 0.0 0.0 1.0 1.0 0.0 0.0 1:0.2886751345948129 2:0.0 3:0.0 4:0.175 5:0.3148148148148148 6:1.0 7:0.2182178902359924 8:0.0 9:0.4956908413975945 10:0.0 11:0.0 12:0.0 13:0.6666666666666667 14:0.5625 15:0.34615384615384615 16:0.426014322842305 
0.0 0.0 0.0 0.0 1.0 0.0 0.0 1.0 0.0 0.0 1.0 1.0 0.0 0.0 1:0.0 2:0.0 3:0.0 4:0.1 5:0.3888888888888889 6:1.0 7:0.3223291856101521 8:1.0 9:0.4440502320259063 10:0.6666666666666666 11:0.3333333333333333 12:0.0 13:0.6708203932499369 14:0.3 15:0.2222222222222222 16:0.2809003238667948 
0.0 0.0 0.0 1.0 1.0 1.0 0.0 0.0 0.0 0.0 0.0 1.0 0.0 0.0 1:0.6546536707079772 2:0.0 3:0.0 4:0.09361702127659574 5:0.5606060606060606 6:0.625 7:0.5562939111665911 8:0.0 9:0.46256146096386813 10:0.6666666666666666 11:0.6666666666666666 12:0.0 13:0.0 14:0.4482758620689655 15:0.52 16:0.5264828210920953 
0.0 0.0 0.0 1.0 1.0 0.0 1.0 1.0 0.0 1.0 1.0 1.0 0.0 0.0 1:0.5 2:0.0 3:0.0 4:0.12790697674418605 5:0.1607142857142857 6:0.5 7:0.26967994498529685 8:0.0 9:0.47166359688547493 10:1.0 11:1.0 12:0.0 13:0.0 14:0.3333333333333333 15:0.1111111111111111 16:0.18257418583505539 
1.0 0.0 0.0 1.0 1.0 0.6901435110123131 1.0 1.0 0.0 0.0 1.0 1.0 0.0 0.0 1:0.0 2:0.0 3:0.0 4:0.26744186046511625 5:0.16666666666666669 6:0.5 7:0.49613893835683387 8:0.0 9:0.6438569768378749 10:1.0 11:0.0 12:0.0 13:0.0 14:0.6666666666666666 15:0.23076923076923078 16:0.3713906763541038 
0.0 0.0 0.0 1.0 1.0 0.0 1.0 1.0 0.0 0.08408483895753188 1.0 1.0 0.0 0.0 1:0.0 2:0.0 3:0.0 4:0.18421052631578946 5:0.17857142857142855 6:1.0 7:0.30151134457776363 8:0.0 9:0.30179341096708034 10:0.0 11:0.0 12:0.0 13:0.0 14:0.4 15:0.14814814814814814 16:0.23094010767585027 
0.12383464512187925 0.0 0.0 0.0 1.0 0.45580471614902934 1.0 0.45273709682321034 0.0 0.0 0.0 1.0 0.0 0.0 1:0.7071067811865475 2:0.0 3:0.0 4:0.06896551724137931 5:0.5 6:0.0 7:0.22613350843332272 8:0.0 9:0.4893900268440707 10:1.0 11:1.0 12:0.0 13:0.0 14:0.19047619047619047 15:0.2 16:0.22750787759664506 
0.46096628543444035 0.0 0.0 1.0 1.0 0.0 1.0 0.0 0.0 0.0 1.0 1.0 0.0 0.0 1:0.0 2:0.0 3:0.0 4:0.13513513513513514 5:0.2142857142857143 6:0.4 7:0.3273268353539886 8:0.0 9:0.7851435043468608 10:1.0 11:0.0 12:0.0 13:0.0 14:0.36363636363636365 15:0.14814814814814814 16:0.2439750182371333 
0.0 0.0 0.0 1.0 1.0 0.0 1.0 0.0 0.0 0.0 1.0 1.0 0.0 0.0 1:0.5 2:0.0 3:0.0 4:0.04897959183673469 5:0.6216216216216216 6:1.0 7:0.25712973861328997 8:0.0 9:0.5443574147936903 10:0.25 11:0.0 12:0.0 13:0.0 14:0.20588235294117646 15:0.25925925925925924 16:0.25058072087536704 
0.0 0.0 0.0 1.0 1.0 0.38137371672709813 0.0 0.0 0.0 0.0 0.0 0.0 0.0 0.0 1:0.7071067811865475 2:0.0 3:0.0 4:0.07766990291262135 5:0.625 6:1.0 7:0.625 8:0.0 9:0.415518559608742 10:0.5 11:0.16666666666666666 12:0.0 13:0.23570226039551587 14:0.3103448275862069 15:0.36 16:0.30658330991377586 
0.0 0.0 0.0 0.0 1.0 0.0 0.0 0.0 0.0 0.0 1.0 1.0 0.0 0.0 1:0.2886751345948129 2:0.0 3:0.0 4:0.09170305676855896 5:0.6851851851851851 6:1.0 7:0.2182178902359924 8:0.0 9:0.4956908413975945 10:0.3333333333333333 11:0.0 12:0.0 13:0.6666666666666667 14:0.34615384615384615 15:0.5625 16:0.426014322842305 
0.0 0.0 0.0 0.0 1.0 0.0 1.0 0.0 0.0 0.0 1.0 1.0 0.0 1.0 1:0.0 2:0.0 3:0.0 4:0.07526881720430108 5:0.43333333333333335 6:0.3333333333333333 7:0.0 8:0.0 9:0.40964618145242343 10:0.0 11:0.0 12:0.0 13:0.40824829046386296 14:0.07692307692307693 15:0.06666666666666667 16:0.0716114874039433 
0.950823233533657 0.0 0.0 1.0 1.0 0.048050659246514776 1.0 0.0 0.0 0.0 1.0 1.0 0.0 0.0 1:0.4364357804719848 2:0.0 3:0.0 4:0.1116751269035533 5:0.4393939393939394 6:1.0 7:0.46537892099551725 8:0.0 9:0.4455223570721628 10:0.6666666666666666 11:0.6666666666666666 12:0.0 13:0.0 14:0.52 15:0.4482758620689655 16:0.5264828210920953 
0.0 0.0 1.0 0.0 1.0 1.0 0.0 0.0 0.0 0.0 1.0 1.0 0.0 0.0 1:0.0 2:0.0 3:0.0 4:0.08121827411167512 5:0.7758620689655172 6:1.0 7:0.09901475429766744 8:0.0 9:0.4021506726581062 10:0.3333333333333333 11:0.3333333333333333 12:0.0 13:0.7071067811865475 14:0.16 15:0.3076923076923077 16:0.22798037629377663 
0.0 0.0 0.0 0.0 1.0 0.0 1.0 0.0 0.0 0.0 0.38088044875819915 1.0 0.0 0.0 1:0.0 2:0.0 3:0.0 4:0.5641025641025641 5:0.15625 6:0.0 7:0.4472135954999579 8:0.0 9:0.21867021867021869 10:1.0 11:1.0 12:0.0 13:0.0 14:0.4 15:0.125 16:0.22360679774997896 
0.0 0.0 0.41874981138504297 0.0 0.0 0.0 0.0 0.0 0.0 0.0 0.0 0.0 0.0 0.0 1:0.5773502691896258 2:0.0 3:0.0 4:0.32142857142857145 5:0.5 6:0.0 7:1.0 8:0.0 9:0.3862161934451091 10:1.0 11:1.0 12:0.0 13:0.8660254037844387 14:0.85 15:0.8947368421052632 16:0.858116330321033 
0.2380521015730934 1.0 0.0 0.0 0.0 0.0 0.0 0.0 0.0 0.0 0.0 0.0 0.0 0.0 1:0.8944271909999159 2:0.0 3:0.0 4:0.7142857142857143 5:0.4722222222222222 6:0.0 7:0.9999999999999998 8:1.0 9:0.7414822620302072 10:1.0 11:1.0 12:0.0 13:0.9999999999999998 14:1.0 15:0.9444444444444444 16:0.9718253158075502 
0.0 0.0 0.0 0.0 1.0 0.0 1.0 0.0 0.0 0.0 1.0 1.0 0.0 0.0 1:0.0 2:0.0 3:0.0 4:0.0625 5:0.3035714285714286 6:0.0 7:0.24806946917841693 8:0.0 9:0.5003378259252248 10:0.5 11:0.0 12:0.0 13:0.31622776601683794 14:0.17647058823529413 15:0.1111111111111111 16:0.1328422328310143 
0.0 0.0 0.0 0.4392620133718297 0.0 0.0 0.0 0.0 0.0 0.0 0.0 0.0 0.0 0.0 1:1.0000000000000002 2:0.0 3:0.0 4:0.6477987421383647 5:0.40384615384615385 6:0.2727272727272727 7:0.8366600265340756 8:1.0 9:0.6286644783764803 10:1.0 11:1.0 12:0.0 13:1.0000000000000002 14:0.9523809523809523 15:0.8 16:0.8247860988423226 
0.0 0.0 0.0 0.0 1.0 0.0 1.0 1.0 0.0 0.0 1.0 1.0 0.0 1.0 1:0.0 2:0.0 3:0.0 4:0.022900763358778626 5:0.7567567567567568 6:1.0 7:0.0 8:0.0 9:0.5947900486484726 10:0.0 11:0.0 12:0.0 13:0.0 14:0.05714285714285714 15:0.1111111111111111 16:0.11043152607484655 
0.0 1.0 0.0 0.0 0.0 0.0 0.0 0.0 0.0 0.0 0.0 0.0 0.0 0.0 1:1.0 2:0.0 3:0.0 4:1.0 5:0.5 6:1.0 7:1.0000000000000002 8:1.0 9:0.6989880081432615 10:1.0 11:1.0 12:0.0 13:0.9999999999999998 14:1.0 15:1.0 16:1.0 
0.0 1.0 0.0 0.0 0.0 0.0 0.0 0.0 0.0 0.0 0.0 0.0 0.0 0.0 1:1.0 2:0.0 3:0.0 4:1.0 5:0.5 6:1.0 7:0.9999999999999999 8:1.0 9:0.6463198140904515 10:1.0 11:1.0 12:0.0 13:1.0000000000000002 14:1.0 15:1.0 16:0.9999999999999999 
0.0 0.0 0.0 1.0 1.0 0.8665891050691695 1.0 1.0 0.0 0.3971624901758025 1.0 0.0 0.256355674335353 0.0 1:0.9999999999999998 2:0.0 3:0.0 4:0.06542056074766354 5:0.3125 6:1.0 7:0.5477225575051661 8:0.0 9:0.7786680157689766 10:0.0 11:0.0 12:0.0 13:0.25 14:0.2 15:0.125 16:0.15811388300841897 
0.0 1.0 0.0 0.0 0.0 0.0 0.0 0.0 0.0 0.0 0.0 0.0 0.0 0.0 1:1.0 2:0.0 3:0.0 4:1.0 5:0.5 6:0.0 7:0.9999999999999999 8:1.0 9:0.49832903821454544 10:1.0 11:1.0 12:0.0 13:1.0000000000000002 14:1.0 15:1.0 16:1.0000000000000002 
0.0 1.0 0.0 0.0 0.0 0.0 0.0 0.0 0.0 0.0 0.0 0.0 0.0 0.0 1:0.0 2:0.0 3:0.0 4:1.0 5:0.5 6:1.0 7:1.0 8:1.0 9:0.7053854875283442 10:1.0 11:1.0 12:0.0 13:0.9999999999999998 14:1.0 15:1.0 16:1.0000000000000002 
0.0 1.0 0.0 0.0 0.0 0.0 0.0 0.0 0.0 0.0 0.0 0.0 0.0 0.0 1:1.0000000000000002 2:0.0 3:0.0 4:1.0 5:0.5 6:0.0 7:0.9999999999999998 8:1.0 9:0.5006666666666667 10:1.0 11:1.0 12:0.0 13:1.0000000000000002 14:1.0 15:1.0 16:1.0 
0.0 1.0 0.0 0.0 0.0 0.0 0.0 0.0 0.0 0.0 0.0 0.0 0.0 0.0 1:0.0 2:0.0 3:0.0 4:1.0 5:0.5 6:1.0 7:1.0 8:1.0 9:0.37495107632093927 10:1.0 11:1.0 12:0.0 13:1.0 14:1.0 15:1.0 16:0.9999999999999998 
0.0 1.0 0.0 0.0 0.0 0.0 0.0 0.0 0.0 0.0 0.0 0.0 0.0 0.0 1:1.0000000000000002 2:0.0 3:0.0 4:0.7379679144385026 5:0.5 6:1.0 7:0.9460998335825321 8:0.0 9:0.9799127100499493 10:1.0 11:1.0 12:0.0 13:0.9999999999999998 14:0.9615384615384616 15:0.9615384615384616 16:0.9615384615384617 
0.0 1.0 0.0 0.0 0.0 0.0 0.0 0.0 0.0 0.0 0.0 0.0 0.0 0.0 1:0.0 2:0.0 3:0.0 4:1.0 5:0.5 6:1.0 7:0.9999999999999998 8:1.0 9:0.27863675570097596 10:1.0 11:1.0 12:0.0 13:1.0 14:1.0 15:1.0 16:0.9999999999999998 
0.0 1.0 0.0 0.0 0.0 0.0 0.0 0.0 0.0 0.0 0.0 0.0 0.0 0.0 1:1.0 2:0.0 3:0.0 4:1.0 5:0.5 6:0.0 7:1.0000000000000002 8:1.0 9:0.502888938347514 10:1.0 11:1.0 12:0.0 13:0.9999999999999998 14:1.0 15:1.0 16:1.0000000000000002 
0.0 0.0 0.0 0.0 0.7146620013311373 0.0 0.0 0.0 0.0 0.0 1.0 1.0 0.0 0.0 1:0.6324555320336759 2:0.0 3:0.0 4:0.05687203791469194 5:0.6666666666666666 6:1.0 7:0.09245003270420486 8:0.0 9:0.24295982251112683 10:0.0 11:0.0 12:0.0 13:0.0 14:0.06666666666666667 15:0.1111111111111111 16:0.08770580193070292 
0.0 1.0 0.0 0.0 0.0 0.0 0.0 0.0 0.0 0.0 0.0 0.0 0.0 0.0 1:1.0 2:0.0 3:0.0 4:1.0 5:0.5 6:0.0 7:0.8451542547285166 8:0.0 9:0.6541015938539161 10:0.5 11:0.5 12:0.0 13:0.9999999999999998 14:1.0 15:1.0 16:1.0000000000000002 
0.0 1.0 0.0 0.0 0.0 0.0 0.0 0.0 0.0 0.0 0.0 0.0 0.0 0.0 1:0.9999999999999998 2:0.0 3:0.0 4:1.0 5:0.5 6:1.0 7:0.9999999999999999 8:0.0 9:0.7205347670094442 10:1.0 11:1.0 12:0.0 13:0.9999999999999998 14:1.0 15:1.0 16:1.0 
0.0 1.0 0.0 0.0 0.0 0.0 0.0 0.0 0.0 0.0 0.0 0.0 0.0 0.0 1:0.9999999999999998 2:0.0 3:0.0 4:1.0 5:0.5 6:1.0 7:1.0 8:1.0 9:0.5166973245687355 10:0.6666666666666666 11:1.0 12:0.0 13:1.0000000000000002 14:1.0 15:1.0 16:1.0000000000000002 
0.0 1.0 0.0 0.0 0.0 0.0 0.0 0.0 0.0 0.0 0.0 0.0 0.0 0.0 1:1.0000000000000002 2:0.0 3:0.0 4:1.0 5:0.5 6:0.0 7:0.9999999999999998 8:0.0 9:0.42666666666666675 10:1.0 11:1.0 12:0.0 13:0.9999999999999998 14:1.0 15:1.0 16:1.0 
0.0 0.0 0.0 0.0 1.0 0.0 1.0 0.0 0.0 0.0 1.0 1.0 0.0 0.0 1:0.40824829046386296 2:0.0 3:0.0 4:0.09876543209876543 5:0.3529411764705882 6:1.0 7:0.0 8:0.0 9:0.2213920786624605 10:0.0 11:0.0 12:0.0 13:0.0 14:0.08333333333333333 15:0.058823529411764705 16:0.0700140042014005 
0.0 1.0 0.0 0.0 0.0 0.0 0.0 0.0 0.0 0.0 0.0 0.0 0.0 0.0 1:0.9999999999999998 2:0.0 3:0.0 4:1.0 5:0.5 6:1.0 7:0.9999999999999998 8:0.0 9:0.4364705882352941 10:1.0 11:1.0 12:0.0 13:1.0 14:1.0 15:1.0 16:1.0000000000000002 
0.0 0.0 0.0 0.0 1.0 0.0 1.0 0.0 0.0 0.0 1.0 1.0 0.0 0.0 1:0.0 2:0.0 3:0.0 4:0.13580246913580246 5:0.2608695652173913 6:1.0 7:0.15811388300841897 8:0.0 9:0.23443655603969465 10:0.0 11:0.0 12:0.0 13:0.0 14:0.16666666666666666 15:0.09090909090909091 16:0.17320508075688776 
0.0 0.0 0.0 0.0 1.0 0.0 1.0 0.0 0.0 0.0 1.0 1.0 0.0 0.0 1:0.0 2:0.0 3:0.0 4:0.07006369426751592 5:0.7391304347826086 6:0.5 7:0.15811388300841897 8:0.0 9:0.23443655603969468 10:0.5 11:0.0 12:0.0 13:0.0 14:0.09090909090909091 15:0.16666666666666666 16:0.17320508075688776 
0.0 0.0 0.0 0.0 1.0 0.0 1.0 0.0 0.0 0.0 1.0 1.0 0.0 0.0 1:0.0 2:0.0 3:0.0 4:0.024752475247524754 5:0.6290322580645161 6:1.0 7:0.0 8:0.0 9:0.33003338531662735 10:0.0 11:0.0 12:0.0 13:0.0 14:0.10714285714285714 15:0.13636363636363635 16:0.16012815380508713 
0.7622049643895745 0.0 0.0 0.0 0.0 0.0 0.0 0.0 0.0 0.0 0.0 0.0 0.0 0.0 1:0.8682431421244593 2:0.0 3:0.0 4:0.7475247524752475 5:0.5 6:1.0 7:0.8682431421244593 8:0.6666666666666666 9:0.5596663113650241 10:1.0 11:0.5 12:0.0 13:1.0000000000000002 14:1.0 15:1.0 16:0.9740215340114143 
0.0 1.0 0.0 0.0 1.0 0.0 0.0 0.0 0.0 0.0 0.0 0.0 0.0 0.0 1:0.6324555320336759 2:0.0 3:0.0 4:0.9941176470588236 5:0.2391304347826087 6:0.6 7:0.8183170883849714 8:1.0 9:0.5279353963223307 10:1.0 11:1.0 12:0.0 13:0.7071067811865476 14:1.0 15:0.525 16:0.7258661863112977 
1.0 0.0 0.0 0.44299153800506974 1.0 0.0 0.0 0.0 0.0 0.0 0.0 0.0 0.0 0.0 1:0.5999999999999999 2:0.0 3:0.0 4:0.36 5:0.3695652173913043 6:0.6 7:0.8295150620062531 8:0.6666666666666666 9:0.559745299199059 10:1.0 11:0.5 12:0.0 13:0.5477225575051661 14:0.7096774193548387 15:0.55 16:0.725072166544399 
0.0 0.0 0.0 1.0 1.0 0.0 1.0 0.0 0.0 0.0 0.7990527403081215 1.0 0.0 1.0 1:0.2886751345948129 2:0.0 3:0.0 4:0.0851063829787234 5:0.3225806451612903 6:0.0 7:0.24253562503633297 8:0.0 9:0.6093086745988822 10:0.3333333333333333 11:0.0 12:0.0 13:0.0 14:0.15789473684210525 15:0.1 16:0.11134044285378082 
0.0 1.0 0.0 0.0 0.0 0.0 0.0 0.0 0.0 0.0 0.0 0.0 0.0 0.0 1:0.7071067811865475 2:0.0 3:0.0 4:0.7897727272727273 5:0.33783783783783783 6:0.0 7:0.8696263565463043 8:1.0 9:0.4162935520113291 10:1.0 11:1.0 12:0.0 13:0.9128709291752769 14:1.0 15:0.7142857142857143 16:0.8433383141984728 
0.34224618188533334 0.0 0.0 0.3665874034268213 1.0 0.0 0.0 1.0 0.0 0.0 0.0 1.0 0.06278727335691738 0.0 1:0.7071067811865475 2:0.0 3:1.0 4:0.6470588235294118 5:0.16216216216216217 6:1.0 7:0.43301270189221935 8:1.0 9:0.2873945757088124 10:0.5 11:0.0 12:0.0 13:0.2886751345948129 14:0.75 15:0.2571428571428571 16:0.49591829906708784 
0.0 1.0 0.0 0.0 0.0 0.0 0.0 0.0 0.0 0.0 0.0 0.0 0.0 0.0 1:0.8944271909999159 2:0.0 3:0.0 4:0.6779661016949152 5:0.5277777777777778 6:0.0 7:0.9999999999999998 8:1.0 9:0.7414822620302072 10:1.0 11:1.0 12:0.0 13:0.9999999999999998 14:0.9444444444444444 15:1.0 16:0.9718253158075502 
0.0 0.0 0.0 0.3020767358956988 0.0 0.0 0.0 0.0 0.0 0.0 0.0 0.0 0.0 0.0 1:1.0000000000000002 2:0.0 3:0.0 4:0.5478723404255319 5:0.5961538461538461 6:1.0 7:0.8366600265340756 8:1.0 9:0.6286644783764803 10:1.0 11:1.0 12:0.0 13:1.0000000000000002 14:0.8 15:0.9523809523809523 16:0.8247860988423226 
