svm_type c_svc
kernel_type rbf
gamma 0.0625
nr_class 15
total_sv 2378
rho -0.9765155156978187 0.2564956172560347 -1.0244582318920477 -1.0532934439771384 -1.7057407950765546 -1.000786142259159 -0.8642901825076456 -0.8364735339628375 -1.0227465072422437 -0.9687614562532926 -1.9070367041507643 -0.5386416464299776 -1.0534735803530448 -1.0147493687160427 0.617537234267983 -1.0186673447645518 -0.8330368743416359 -0.6663669402523164 -0.7605340321311349 -0.3259163783953191 -0.17135917394720923 -1.0230146744076116 -0.9782288764342502 -0.8688810988879423 -0.064236726088418 -0.9956743947982556 -0.45378498298320363 -0.5103515263401704 -0.6459677932994914 -0.5300085960203561 -0.4826722341980564 -0.25017448029466427 -0.25882142352600773 -0.29525525745275727 -0.3226259116215002 -0.4036645525067653 -0.37527480223564896 -0.797943557555119 -0.21181244676234456 0.9612872714892732 0.9896629409565748 0.9675135999282976 0.7239638765551596 0.8651691430081626 -0.8324729800224304 -0.6730532749976462 0.7968931066282718 1.0280925808320855 -0.8864290597556511 0.014781653881073047 0.9301348980877949 -0.7796786162393232 0.6076976196701972 0.8121107979263823 -1.0213938433795464 -0.8309661779082678 0.080313389565155 1.1328935980990886 -0.9679745623947923 -0.3220463307555017 -0.9564930863668953 -0.13357043129159935 -0.5805746097711793 -1.0384777138458212 -0.9832289302678091 -0.9454100645171144 0.7402011728793252 -0.9578967234792746 -0.9200952185176655 0.2982516351450951 0.7111182524255676 -0.9993997277095796 -0.8824993103351975 -0.09970896267805218 1.0054747006698457 -0.9626531398596376 -0.09671616497866882 0.3363276895672374 -1.0499334552055604 -0.9464582653349812 -0.8522079268127691 0.44910008326656553 -0.9444660963884961 -0.8656907353045779 -1.0213044601592942 -0.9463481482496571 -1.5264078893138129 0.9445847774881448 -0.998610364721904 -0.9001532164747161 0.3657393753528595 0.9764254531342706 1.0145305390319428 -0.7307664031963513 0.86593714916461 0.8570966676520558 1.0191025389673416 -0.883947439495047 0.16748709663736194 1.0486458817155382 -0.883705779625271 -0.4874462238742323 -0.9841205253750174 -1.003675164736285 0.7112808939523426
label 4 2 1 8 9 18 5 15 11 14 10 6 13 12 0
probA -32.43294767034595 -3.0172578133556556 -241.145528703591 -138.42796898478093 -1.2899507421145975 -270.5937792399969 -1.872785627549817 -11.11941100590924 -153.53226176012748 -161.97144341168163 -1.7933571056208129 -1.3071113521336302 -71.36393766109066 -66.85014214270538 -5.131096643871145 -26.732961828119485 -1.4659432082013024 -2.7959217106872436 -2.7768466943599517 -3.295696610322074 -2.691324875182916 -23.037235122415066 -37.071320618608425 -2.9364612903783693 -2.3789316023930036 24.833723760984284 -3.7462310151898355 -4.758561537301316 -4.5123616149126775 -4.339268657446616 -5.129465855733873 -4.2301285356535026 -4.257280224755586 -3.676210176799715 -4.755018823902182 -4.2585179942977796 -4.353305100035499 -22.70015241926904 -3.7965407244027167 -55.9446527412248 -49.59666933492241 -6.4545396308576555 -9.178297173976546 -22.748193618443214 -3.8259881927709998 -3.5901217903101577 -15.20831581261959 -74.95410058771266 1.7025845662671262 -4.631742900537968 -26.053586244710473 -7.039391046245636 -2.450558324919669 -1.3914497708319475 -67.23259296496805 -54.79284613988487 -2.430787308142512 -1.7949960470712827 -5.205997709918863 -3.6358982113489153 -131.7135773298291 -2.0412132791281814 -16.03117452238664 -116.60592078996577 -61.64042670488656 -1.7396551809751393 -1.1534144195079346 -72.55792052531108 -15.130009273981639 -4.684343109681652 -2.386530292471391 -16.74806594994532 -12.310524894904486 -3.925798200833903 -40.969002976826374 1.8009533316345403 -3.9342698912024265 -2.3899730985149024 -20.33481049818881 -48.476105652244655 -1.3552074886974694 -1.4051095982463093 -25.566131207233838 -19.063153269563 -50.18930787277624 -14.367617507444669 -2.080754114419644 -3.682540017275672 48.98292797989528 -8.753501307404289 1.3768626531481911 -185.36023992058813 -236.31808540926102 -6.941903430812136 -11.106128434838306 -40.71463606676963 -59.09193442226636 1.3546793642519566 -5.687040300428476 -1.1528396715636577 -70.88672525685608 -8.043140338358624 18.77404306242262 -12.987046393502853 -23.28046515944013
probB 30.722411763855842 0.8926780499150058 238.07114869370037 136.92321441650753 -0.13850424693762517 268.41010422275855 0.35775632657598416 9.825601867832908 150.3134144856691 159.23488596904173 -0.07457940370425399 -0.04675327916579112 67.34508536128808 65.13769753182241 -1.980019011146826 25.023367401146402 -0.032968290792718256 -0.7996005093583878 1.5997908654267754 -0.6396640288265365 -0.5902720231053017 21.112408194846047 34.65752073706068 -0.37681512743308965 -0.36684786452020196 -28.62405909795264 -0.6059087880531339 1.456483171987605 1.1780686618110432 0.4070537325461245 1.8508079254187255 0.33655072974889116 0.06201082486604012 -0.5386649956702698 0.7485969530199892 0.20615748469911443 1.3517794070396314 19.275975238637336 -0.3634077386820446 -54.071539163189136 -46.64838218012146 -5.388129865917736 -6.713802225481459 -20.6942955092396 2.715511097459424 2.590537533537212 -12.884489580446152 -72.26792102731154 -3.0773986518451784 -1.9869837553662453 -24.715211396855423 5.963253268502462 -0.7279438523211903 -0.20367375748121733 65.31220573271479 52.910945501943324 -0.6789748620762011 -0.33881577703324645 1.8219487657238964 1.0021037833537905 129.6856891631095 0.9499868802375785 14.8881473186432 113.42709928143965 58.49166058353411 0.4902803037440984 0.18613149240914045 68.65754590567853 13.28541514973717 -2.8082200375550417 -1.1246359302048854 15.388825752279624 10.852065663943064 -1.9270492975036853 -38.99051876921844 -4.214710258999233 -0.7307704261134687 0.8873314693660694 17.219367214252 46.10650774803062 0.054261508036435244 -0.35188047515235005 22.233703398041786 17.414751786470035 47.57927792966605 11.944594685724761 -0.714429640502761 -2.8719060918947763 -53.82927632518872 6.761579565294861 0.30913818462775455 -182.3328873363565 -233.1478710496171 5.862017986372672 -9.23918347215103 -38.09632611049223 -56.725111984059716 -2.259286089020888 -3.185320932330837 0.3689413059948127 67.7722766627146 6.174763386224488 -23.751776280107226 11.241152524763303 -20.67050324901396
nr_sv 521 101 95 17 135 428 48 244 159 10 11 244 313 4 48
SV
0.0 0.0 0.0 0.0 1.0 0.0 1.0 0.0 0.0 0.0 0.0 0.0 0.0 0.0 1:0.0 2:0.0 3:0.0 4:0.19298245614035087 5:0.5625 6:1.0 7:0.5999999999999999 8:1.0 9:0.22523901219553394 10:1.0 11:0.0 12:0.0 13:0.0 14:0.5 15:0.5714285714285714 16:0.5345224838248487 
0.0 0.0 0.0 0.0 1.0 0.0 0.0 0.0 0.0 0.0 0.0 1.0 0.0 0.0 1:0.4472135954999579 2:0.0 3:0.0 4:0.08860759493670886 5:0.7727272727272727 6:0.5 7:0.42426406871192845 8:0.0 9:0.23352725406837663 10:0.5 11:0.0 12:0.0 13:0.5773502691896258 14:0.2727272727272727 15:0.6 16:0.4045199174779452 
0.0 0.0 0.0 1.0 1.0 0.7590340182870465 1.0 0.0 0.0 0.0 0.0 1.0 0.0 0.0 1:0.4472135954999579 2:0.0 3:0.0 4:0.0949367088607595 5:0.5681818181818181 6:0.5 7:0.3508232077228117 8:0.0 9:0.27543318482492646 10:0.5 11:0.5 12:0.0 13:0.0 14:0.2727272727272727 15:0.35294117647058826 16:0.35564337957950964 
0.0 0.0 0.0 0.0 1.0 0.0 0.0 0.0 0.0 0.0 0.0 0.0 0.0 0.0 1:0.5163977794943222 2:0.0 3:0.0 4:0.06329113924050633 5:0.7954545454545454 6:1.0 7:0.6666666666666666 8:0.0 9:0.3550117684818611 10:0.5 11:0.5 12:0.0 13:0.0 14:0.22727272727272727 15:0.5555555555555556 16:0.3553345272593507 
0.0 0.0 0.0 0.0 1.0 0.0 0.0 0.0 0.0 0.0 0.0 1.0 0.0 0.0 1:0.4472135954999579 2:0.0 3:0.0 4:0.08860759493670886 5:0.7727272727272727 6:0.5 7:0.42426406871192845 8:0.0 9:0.23352725406837663 10:0.5 11:0.0 12:0.0 13:0.5773502691896258 14:0.2727272727272727 15:0.6 16:0.4045199174779452 
0.0 0.0 0.0 1.0 1.0 0.0 1.0 0.0 0.0 0.0 1.0 1.0 0.0 0.0 1:0.31622776601683794 2:0.0 3:0.0 4:0.10759493670886076 5:0.6818181818181819 6:1.0 7:0.35856858280031806 8:0.0 9:0.26822973539488043 10:0.5 11:0.0 12:0.0 13:0.0 14:0.3181818181818182 15:0.5 16:0.3988620176087328 
0.0 0.0 0.0 0.0 1.0 0.0 0.0 0.0 0.0 0.0 0.0 0.0 0.0 0.0 1:0.5163977794943222 2:0.0 3:0.0 4:0.06329113924050633 5:0.7954545454545454 6:1.0 7:0.6666666666666666 8:0.0 9:0.3550117684818611 10:0.5 11:0.5 12:0.0 13:0.0 14:0.22727272727272727 15:0.5555555555555556 16:0.3553345272593507 
0.0 0.0 0.0 1.0 1.0 0.0 0.0 1.0 0.0 0.0 1.0 0.0 0.0 0.0 1:0.5773502691896258 2:0.0 3:0.0 4:0.07352941176470588 5:0.6578947368421053 6:1.0 7:0.6153846153846154 8:0.0 9:0.35979110868066766 10:0.5 11:0.5 12:0.0 13:0.4999999999999999 14:0.21052631578947367 15:0.3076923076923077 16:0.2545139051903111 
0.0 0.0 0.0 0.5303404332426491 1.0 1.0 0.0 1.0 0.0 0.0 0.0 0.0 0.0 0.0 1:1.0 2:0.0 3:0.0 4:0.08088235294117647 5:0.7105263157894737 6:1.0 7:0.7302967433402213 8:0.0 9:0.2903157600723332 10:0.0 11:0.0 12:0.0 13:0.0 14:0.21052631578947367 15:0.36363636363636365 16:0.27668578554642986 
0.0 0.0 0.0 0.0 1.0 0.0 0.0 0.0 0.0 0.0 1.0 1.0 0.0 0.0 1:0.4999999999999999 2:0.0 3:0.0 4:0.11029411764705882 5:0.763157894736842 6:1.0 7:0.31622776601683794 8:0.0 9:0.2877505330670472 10:0.0 11:0.0 12:0.0 13:0.0 14:0.15789473684210525 15:0.3333333333333333 16:0.22941573387056172 
0.0 0.0 0.0 1.0 1.0 0.0 0.0 0.540375157619896 0.0 0.0 0.0 0.0 0.0 0.0 1:0.7071067811865475 2:0.0 3:0.0 4:0.07352941176470588 5:0.763157894736842 6:1.0 7:0.6689936080056726 8:0.0 9:0.34789877082991216 10:0.5 11:0.5 12:0.0 13:0.0 14:0.15789473684210525 15:0.3333333333333333 16:0.22941573387056172 
0.0 0.0 0.0 1.0 1.0 0.0 0.0 0.0 0.0 0.0 1.0 1.0 0.0 0.0 1:0.4999999999999999 2:0.0 3:0.0 4:0.11029411764705882 5:0.763157894736842 6:1.0 7:0.31622776601683794 8:0.0 9:0.2877505330670472 10:0.0 11:0.0 12:0.0 13:0.0 14:0.15789473684210525 15:0.3333333333333333 16:0.22941573387056172 
1.0 1.0 0.0 0.0 1.0 0.0 0.0 1.0 0.0 0.0 0.0 1.0 0.0 0.0 1:0.0 2:0.0 3:0.0 4:0.22988505747126436 5:0.7307692307692308 6:0.0 7:0.5669467095138409 8:0.0 9:0.37806618668687636 10:0.0 11:0.0 12:0.0 13:0.0 14:0.3076923076923077 15:0.5714285714285714 16:0.4193139346887673 
0.0 0.0 0.0 1.0 1.0 0.0 1.0 1.0 0.0 0.0 0.0 1.0 0.0 1.0 1:0.0 2:0.0 3:0.0 4:0.20689655172413793 5:0.5769230769230769 6:0.0 7:0.40089186286863654 8:0.0 9:0.3800707451835271 10:0.0 11:0.0 12:0.0 13:0.0 14:0.23076923076923078 15:0.3 16:0.2307692307692308 
1.0 0.0 0.0 1.0 0.0 0.0 0.0 0.0 0.0 0.0 0.0 0.0 0.0 0.0 1:0.9999999999999998 2:0.0 3:0.0 4:0.5121951219512195 5:0.6578947368421053 6:1.0 7:0.6681531047810609 8:1.0 9:0.43888065580790003 10:0.3333333333333333 11:0.3333333333333333 12:0.0 13:0.40824829046386296 14:0.5263157894736842 15:0.7692307692307693 16:0.6362847629757777 
0.0 0.0 0.056743878876821446 1.0 1.0 0.0 1.0 1.0 0.0 0.0 1.0 1.0 0.0 0.0 1:0.0 2:0.0 3:0.0 4:0.14634146341463414 5:0.8157894736842105 6:1.0 7:0.35355339059327373 8:0.0 9:0.36145321274893577 10:0.3333333333333333 11:0.3333333333333333 12:0.0 13:0.0 14:0.15789473684210525 15:0.42857142857142855 16:0.26013299085723596 
1.0 0.0 0.0 1.0 0.0 0.0 0.0 0.0 0.0 0.0 0.0 0.0 0.0 0.0 1:0.7071067811865475 2:0.0 3:0.0 4:0.21138211382113822 5:0.631578947368421 6:1.0 7:0.8017837257372731 8:1.0 9:0.4640070397152438 10:0.6666666666666666 11:0.6666666666666666 12:0.0 13:0.40824829046386296 14:0.5789473684210527 15:0.7857142857142857 16:0.6744532734334623 
0.0 0.0 0.0 0.0 1.0 0.0 0.605426070135124 0.0 0.0 0.0 1.0 1.0 0.0 0.0 1:0.0 2:0.0 3:0.0 4:0.17073170731707318 5:0.868421052631579 6:1.0 7:0.5303300858899106 8:0.0 9:0.3438957678315264 10:0.3333333333333333 11:0.0 12:0.0 13:0.0 14:0.21052631578947367 15:0.8 16:0.4103913408340616 
0.0 0.0 0.0 0.8307103409199641 0.0 0.0 0.0 0.0 0.0 0.0 0.0 0.0 0.0 0.0 1:0.7071067811865475 2:0.0 3:0.0 4:0.5040650406504065 5:0.763157894736842 6:1.0 7:0.7905694150420948 8:1.0 9:0.44369870521010396 10:0.3333333333333333 11:0.3333333333333333 12:0.0 13:0.5773502691896258 14:0.47368421052631576 15:1.0 16:0.6882472016116852 
0.0 0.0 0.0 1.0 1.0 0.7497052792733369 1.0 1.0 0.0 0.0 0.0 1.0 0.1723323815321209 1.0 1:0.4999999999999999 2:0.0 3:0.0 4:0.15447154471544716 5:0.631578947368421 6:0.0 7:0.5039526306789696 8:0.0 9:0.4110493524627841 10:0.0 11:0.0 12:0.0 13:0.0 14:0.21052631578947367 15:0.2857142857142857 16:0.2452557357939863 
0.0 0.0 0.0 0.0 1.0 0.0 1.0 1.0 0.38218323078708805 0.0 1.0 1.0 0.0 0.0 1:0.0 2:0.0 3:0.0 4:0.17073170731707318 5:0.6842105263157895 6:0.3333333333333333 7:0.5103103630798287 8:0.0 9:0.35512741683972926 10:0.3333333333333333 11:0.0 12:0.0 13:0.0 14:0.21052631578947367 15:0.3333333333333333 16:0.26490647141300877 
0.0 0.0 0.0 0.0 1.0 0.0 1.0 0.0 0.0 0.0 0.0 1.0 0.0 0.0 1:0.0 2:0.0 3:0.0 4:0.15384615384615385 5:0.7692307692307692 6:0.0 7:0.8660254037844387 8:0.0 9:0.27741935483870966 10:1.0 11:1.0 12:0.0 13:0.0 14:0.3333333333333333 15:0.6666666666666666 16:0.4216370213557839 
0.0 0.0 0.0 0.0 1.0 0.0 1.0 0.0 0.0 0.0 0.0 1.0 0.0 0.0 1:0.0 2:0.0 3:0.0 4:0.10256410256410256 5:0.6538461538461539 6:0.0 7:0.5 8:0.0 9:0.30911019525030614 10:0.5 11:0.5 12:0.0 13:0.0 14:0.16666666666666666 15:0.2222222222222222 16:0.17213259316477406 
0.0 0.0 0.0 0.0 1.0 0.0 0.0 0.0 0.0 0.0 0.0 0.0 0.0 0.0 1:0.8164965809277259 2:0.0 3:0.0 4:0.06993006993006994 5:0.7368421052631579 6:1.0 7:0.3779644730092272 8:0.0 9:0.25634505919887396 10:0.0 11:0.0 12:0.0 13:0.0 14:0.2631578947368421 15:0.5 16:0.3627381250550058 
0.0 0.0 0.0 0.0 0.823844753523907 0.0 0.0 0.0 0.0 0.0 0.0 0.0 0.0 0.0 1:0.5773502691896258 2:0.0 3:0.0 4:0.08391608391608392 5:0.868421052631579 6:1.0 7:0.5773502691896257 8:0.0 9:0.3452645204563362 10:1.0 11:1.0 12:0.0 13:0.0 14:0.21052631578947367 15:0.8 16:0.4103913408340616 
0.0 0.0 0.0 0.0 1.0 0.0 0.0 0.0 0.0 0.0 0.0 0.0 0.0 0.0 1:0.8164965809277259 2:0.0 3:0.0 4:0.06993006993006994 5:0.7368421052631579 6:1.0 7:0.3779644730092272 8:0.0 9:0.25634505919887396 10:0.0 11:0.0 12:0.0 13:0.0 14:0.2631578947368421 15:0.5 16:0.3627381250550058 
0.0 0.0 0.0 0.0 1.0 0.0 0.0 0.0 0.0 0.0 0.0 0.0 0.0 0.0 1:0.5773502691896258 2:0.0 3:0.0 4:0.09090909090909091 5:0.7894736842105263 6:1.0 7:0.5 8:0.0 9:0.28827838424788316 10:1.0 11:1.0 12:0.0 13:0.0 14:0.3157894736842105 15:0.75 16:0.4866642633922875 
0.0 0.0 0.0 0.0 1.0 0.0 0.0 1.0 0.0 0.0 1.0 0.0 0.0 0.0 1:0.7745966692414834 2:0.0 3:0.0 4:0.1958041958041958 5:0.6842105263157895 6:1.0 7:0.4811252243246881 8:0.0 9:0.3839279542427859 10:0.0 11:0.0 12:0.0 13:0.7071067811865475 14:0.2631578947368421 15:0.4166666666666667 16:0.33113308926626095 
0.41088312271494043 0.0 0.0 0.9939021105536618 1.0 0.0 1.0 0.0 0.0 0.0 1.0 1.0 0.0 0.0 1:0.0 2:0.0 3:0.0 4:0.1125 5:0.7727272727272727 6:1.0 7:0.7071067811865476 8:0.0 9:0.43405036052094864 10:1.0 11:1.0 12:0.0 13:0.0 14:0.2727272727272727 15:0.6 16:0.40451991747794525 
0.0 0.0 0.0 0.0 1.0 0.0 1.0 0.0 0.0 0.0 0.0 0.0 0.0 0.0 1:0.7071067811865475 2:0.0 3:0.0 4:0.3 5:0.5454545454545454 6:0.5 7:0.7302967433402214 8:0.0 9:0.3379791833138687 10:1.0 11:0.0 12:0.0 13:0.0 14:0.45454545454545453 15:0.5 16:0.4767312946227962 
1.0 0.0 0.0 1.0 1.0 0.0 0.0 0.0 0.0 0.0 0.0 0.0 0.0 0.0 1:1.0 2:0.0 3:0.0 4:0.4875 5:0.5909090909090909 6:1.0 7:0.9058216273156767 8:0.0 9:0.36098100580546977 10:1.0 11:1.0 12:0.0 13:0.0 14:0.5454545454545454 15:0.6666666666666666 16:0.6030226891555273 
0.0 0.0 0.0 0.0 1.0 0.2529930527702704 1.0 0.0 0.0 0.0 0.0 0.0 0.0 0.0 1:0.7071067811865475 2:0.0 3:0.0 4:0.3 5:0.5454545454545454 6:0.5 7:0.7302967433402214 8:0.0 9:0.3379791833138687 10:1.0 11:0.0 12:0.0 13:0.0 14:0.45454545454545453 15:0.5 16:0.4767312946227962 
1.0 0.0 0.0 0.0 1.0 0.4866184896886665 0.0 0.39289077910830583 0.0 0.0 0.0 0.0 0.0 0.0 1:0.9486832980505138 2:0.0 3:0.0 4:0.3 5:0.5909090909090909 6:1.0 7:0.8999999999999998 8:0.0 9:0.44358809731861953 10:1.0 11:1.0 12:0.0 13:1.0 14:0.5454545454545454 15:0.6666666666666666 16:0.6030226891555273 
1.0 1.0 0.0 0.0 0.6589857932231772 0.0 0.0 0.0 0.0 0.0 0.0 0.0 0.0 0.0 1:1.0 2:0.0 3:0.0 4:0.7021276595744681 5:0.6428571428571428 6:1.0 7:0.8164965809277259 8:0.0 9:0.5675324675324674 10:1.0 11:1.0 12:0.0 13:0.0 14:0.7142857142857143 15:1.0 16:0.8451542547285165 
1.0 0.0 0.0 0.0 1.0 0.0 1.0 0.0 0.0 0.0 0.0 1.0 0.0 0.0 1:0.0 2:0.0 3:0.0 4:0.2972972972972973 5:0.7272727272727273 6:0.0 7:0.5163977794943222 8:0.0 9:0.3341797986959278 10:0.6666666666666666 11:0.6666666666666666 12:0.0 13:0.0 14:0.2727272727272727 15:0.5 16:0.36927447293799825 
0.0 0.0 0.0 1.0 1.0 0.0 0.0 0.0 0.0 0.0 0.0 1.0 0.0 0.0 1:0.0 2:0.0 3:0.0 4:0.3918918918918919 5:0.6818181818181819 6:0.0 7:0.4472135954999579 8:0.0 9:0.34687336473050756 10:0.3333333333333333 11:0.3333333333333333 12:0.0 13:0.4999999999999999 14:0.36363636363636365 15:0.5714285714285714 16:0.4558423058385518 
1.0 0.0 0.0 1.0 1.0 0.0 0.0 0.0 0.0 0.0 0.0 1.0 0.0 0.0 1:0.0 2:0.0 3:0.0 4:0.4864864864864865 5:0.5909090909090909 6:0.0 7:0.3999999999999999 8:0.0 9:0.3380707357729416 10:0.6666666666666666 11:0.6666666666666666 12:0.0 13:0.7071067811865475 14:0.45454545454545453 15:0.5555555555555556 16:0.502518907629606 
1.0 0.0 0.0 0.0 1.0 0.0 1.0 0.0 0.0 0.0 0.0 1.0 0.0 0.0 1:0.0 2:0.0 3:0.0 4:0.2972972972972973 5:0.7272727272727273 6:0.0 7:0.5163977794943222 8:0.0 9:0.3341797986959278 10:0.6666666666666666 11:0.6666666666666666 12:0.0 13:0.0 14:0.2727272727272727 15:0.5 16:0.36927447293799825 
0.0 0.0 0.0 0.0 1.0 0.0 0.0 0.0 0.0 0.0 0.0 1.0 0.0 0.0 1:0.0 2:0.0 3:0.0 4:0.4864864864864865 5:0.7272727272727273 6:0.0 7:0.5163977794943222 8:0.0 9:0.38301295478714836 10:0.6666666666666666 11:0.6666666666666666 12:0.0 13:0.7071067811865475 14:0.45454545454545453 15:0.8333333333333334 16:0.6154574548966638 
1.0 0.0 0.0 0.7115804098793406 0.0 0.0 0.0 0.0 0.0 0.0 0.0 0.0 0.0 0.0 1:0.7001400420140049 2:0.0 3:0.0 4:0.27040816326530615 5:0.6666666666666666 6:1.0 7:0.8838834764831843 8:0.0 9:0.25863866702511745 10:1.0 11:1.0 12:1.0 13:0.8164965809277259 14:0.5416666666666666 15:0.7222222222222222 16:0.6154574548966637 
1.0 0.0 0.0 0.11746310739440252 0.0 0.0 0.0 0.0 0.0 0.0 0.0 0.0 0.0 0.0 1:0.31622776601683794 2:0.0 3:0.0 4:0.27040816326530615 5:0.6851851851851851 6:1.0 7:0.8782753106899461 8:0.0 9:0.2190171288539294 10:1.0 11:0.5 12:1.0 13:0.8164965809277259 14:0.5833333333333334 15:0.8235294117647058 16:0.6755205294731985 
0.0 0.0 0.19425106844603715 0.0 1.0 0.0 1.0 1.0 0.729997273095144 0.0 1.0 1.0 0.0 0.0 1:0.0 2:0.0 3:0.0 4:0.10204081632653061 5:0.6111111111111112 6:1.0 7:0.7570332986102252 8:0.0 9:0.2078400513169354 10:0.6666666666666666 11:0.3333333333333333 12:0.0 13:0.2886751345948129 14:0.3333333333333333 15:0.38095238095238093 16:0.3038948705590345 
1.0 0.0 0.0 0.0 0.0 0.0 0.0 0.3737848305996796 0.0 0.0 0.0 0.0 0.13533738031375642 0.0 1:0.8574929257125441 2:0.0 3:0.0 4:0.27040816326530615 5:0.6851851851851851 6:1.0 7:0.8838834764831843 8:0.0 9:0.25863866702511745 10:1.0 11:1.0 12:1.0 13:0.8164965809277259 14:0.5416666666666666 15:0.7647058823529411 16:0.6333004963811236 
0.0 0.0 0.0 0.0 1.0 0.0 1.0 1.0 0.0 0.0 1.0 1.0 0.0 0.0 1:0.0 2:0.0 3:0.0 4:0.061224489795918366 5:0.5740740740740741 6:1.0 7:0.6350528962771202 8:0.0 9:0.18877390367779182 10:0.6666666666666666 11:0.3333333333333333 12:0.0 13:0.2886751345948129 14:0.3333333333333333 15:0.34782608695652173 16:0.2903816034562511 
0.12772952307138008 0.0 0.0 0.409865268981185 1.0 0.0 1.0 1.0 0.10414596282382087 0.0 1.0 1.0 0.0 0.0 1:0.0 2:0.0 3:0.0 4:0.08673469387755102 5:0.5740740740740741 6:1.0 7:0.8703882797784892 8:0.0 9:0.2641733560028444 10:0.6666666666666666 11:0.3333333333333333 12:0.0 13:0.2886751345948129 14:0.375 15:0.391304347826087 16:0.3266793038882825 
0.3769696278205462 0.0 0.0 0.0 0.0 0.0 0.0 0.548915131102414 0.0 0.0 1.0 1.0 0.0 0.0 1:0.0 2:0.0 3:0.0 4:0.10204081632653061 5:0.8333333333333333 6:1.0 7:0.7144345083117604 8:0.0 9:0.20723014116870048 10:0.5 11:0.5 12:1.0 13:0.40824829046386296 14:0.2916666666666667 15:0.7777777777777778 16:0.5222329678670935 
1.0 0.0 0.0 0.0 1.0 0.0 0.0 0.16135581854580966 0.0 0.0 0.0 0.0 0.0 0.0 1:0.7071067811865475 2:0.0 3:0.0 4:0.3208955223880597 5:0.6388888888888888 6:1.0 7:0.7559289460184544 8:0.0 9:0.3308701037496165 10:0.0 11:0.0 12:0.0 13:0.0 14:0.6111111111111112 15:0.8461538461538461 16:0.7190924955066749 
0.0 0.0 0.0 0.0 1.0 0.0 1.0 1.0 0.0 0.0 1.0 1.0 0.0 0.0 1:0.0 2:0.0 3:0.0 4:0.15671641791044777 5:0.8055555555555556 6:1.0 7:0.3333333333333333 8:0.0 9:0.2868985068790137 10:0.0 11:0.0 12:0.0 13:0.0 14:0.16666666666666666 15:0.42857142857142855 16:0.2672612419124244 
0.0 0.0 0.0 1.0 1.0 0.0 0.0 1.0 0.0 0.0 1.0 1.0 0.0 0.0 1:0.5 2:0.0 3:0.0 4:0.15671641791044777 5:0.6944444444444444 6:1.0 7:0.5039526306789696 8:0.0 9:0.33349412340898404 10:0.0 11:0.0 12:0.0 13:0.0 14:0.2777777777777778 15:0.5 16:0.39223227027636814 
0.0 0.0 0.0 1.0 1.0 0.0 0.5535047179441571 0.0 0.0 0.0 0.0 1.0 0.0 0.0 1:0.5773502691896258 2:0.0 3:0.0 4:0.10236220472440945 5:0.7222222222222222 6:0.0 7:0.31622776601683794 8:0.0 9:0.2936231883480686 10:0.0 11:0.0 12:0.0 13:0.0 14:0.2222222222222222 15:0.4 16:0.29814239699997197 
0.0 0.0 0.0 1.0 1.0 0.0 1.0 0.0 0.0 0.0 0.0 1.0 0.0 0.0 1:0.5773502691896258 2:0.0 3:0.0 4:0.10236220472440945 5:0.7222222222222222 6:0.0 7:0.31622776601683794 8:0.0 9:0.2936231883480686 10:0.0 11:0.0 12:0.0 13:0.0 14:0.2222222222222222 15:0.4 16:0.29814239699997197 
0.0 0.0 0.0 1.0 0.0 0.0 0.0 0.0 0.0 0.0 0.0 1.0 0.0 0.0 1:0.5773502691896258 2:0.0 3:0.0 4:0.14960629921259844 5:0.75 6:0.0 7:0.5773502691896258 8:0.0 9:0.4154423079731532 10:0.0 11:0.0 12:0.0 13:0.5773502691896258 14:0.3333333333333333 15:0.6666666666666666 16:0.4714045207910317 
0.0 0.0 0.0 1.0 1.0 0.4745575892045624 1.0 0.10651588672910547 0.0 0.0 0.0 1.0 0.0 0.0 1:0.5773502691896258 2:0.0 3:0.0 4:0.10236220472440945 5:0.7222222222222222 6:0.0 7:0.31622776601683794 8:0.0 9:0.2936231883480686 10:0.0 11:0.0 12:0.0 13:0.0 14:0.2222222222222222 15:0.4 16:0.29814239699997197 
0.0 0.0 0.14779993395402297 1.0 0.0 0.0 0.0 0.0 0.0 0.0 0.0 1.0 0.05446131078159734 0.0 1:0.5773502691896258 2:0.0 3:0.0 4:0.14960629921259844 5:0.75 6:0.0 7:0.5773502691896258 8:0.0 9:0.4154423079731532 10:0.0 11:0.0 12:0.0 13:0.5773502691896258 14:0.3333333333333333 15:0.6666666666666666 16:0.4714045207910317 
0.0 0.0 0.0 0.0 1.0 0.0 1.0 1.0 0.0 0.0 0.0 1.0 0.0 1.0 1:0.0 2:0.0 3:0.0 4:0.09448818897637795 5:0.6944444444444444 6:0.0 7:0.24999999999999994 8:0.0 9:0.3637490648545217 10:0.0 11:0.0 12:0.0 13:0.0 14:0.16666666666666666 15:0.3 16:0.2614881801842454 
0.0 0.0 0.0 0.0 1.0 0.0 0.0 0.0 0.0 0.0 0.0 1.0 0.0 0.0 1:0.0 2:0.0 3:0.0 4:0.112 5:0.8157894736842105 6:0.0 7:0.26726124191242434 8:0.0 9:0.15835921325051758 10:0.0 11:0.0 12:0.0 13:0.0 14:0.21052631578947367 15:0.5714285714285714 16:0.3468439878096479 
0.0 0.0 0.0 0.0 1.0 0.0 0.0 0.0 0.0 0.0 0.0 1.0 0.0 0.0 1:0.0 2:0.0 3:0.0 4:0.112 5:0.8157894736842105 6:0.0 7:0.26726124191242434 8:0.0 9:0.15835921325051758 10:0.0 11:0.0 12:0.0 13:0.0 14:0.21052631578947367 15:0.5714285714285714 16:0.3468439878096479 
0.0 0.0 0.0 0.0 1.0 0.0 0.0 0.0 0.0 0.0 0.0 0.0 0.0 0.0 1:0.5773502691896258 2:0.0 3:0.0 4:0.12121212121212122 5:0.75 6:1.0 7:0.5976143046671968 8:0.0 9:0.35016794658399625 10:0.5 11:0.0 12:0.0 13:0.0 14:0.4230769230769231 15:0.8461538461538461 16:0.5983211225424633 
0.0 0.0 0.0 0.0 1.0 0.0 0.0 0.0 0.0 0.0 0.0 0.0 0.0 0.0 1:0.5773502691896258 2:0.0 3:0.0 4:0.12121212121212122 5:0.75 6:1.0 7:0.5976143046671968 8:0.0 9:0.35016794658399625 10:0.5 11:0.0 12:0.0 13:0.0 14:0.4230769230769231 15:0.8461538461538461 16:0.5983211225424633 
0.0 0.0 0.0 1.0 1.0 0.8724752274976674 0.0 0.0 0.0 0.0 0.0 0.0 0.0 0.0 1:0.8164965809277261 2:0.0 3:0.0 4:0.4494949494949495 5:0.5769230769230769 6:0.5 7:0.6674238124719146 8:0.0 9:0.26046581481049996 10:0.5 11:0.0 12:0.0 13:0.4472135954999579 14:0.6538461538461539 15:0.7727272727272727 16:0.7108057085060271 
0.0 0.09817965950565011 0.0 0.07106688738196122 0.0 0.0 0.0 0.0 0.0 0.0 0.0 0.0 0.0 0.0 1:0.8164965809277261 2:0.0 3:0.0 4:0.4494949494949495 5:0.6538461538461539 6:0.5 7:0.7378647873726218 8:0.0 9:0.31507961469012097 10:0.5 11:0.0 12:0.0 13:0.4472135954999579 14:0.6538461538461539 15:0.9444444444444444 16:0.7858252779857413 
0.0 0.0 0.0 1.0 1.0 0.0 1.0 0.0 0.0 0.0 1.0 0.0 0.0 0.0 1:0.4082482904638631 2:0.0 3:0.0 4:0.08585858585858586 5:0.7884615384615384 6:1.0 7:0.47809144373375745 8:0.0 9:0.3657976435776596 10:0.5 11:0.0 12:0.0 13:0.0 14:0.23076923076923078 15:0.6 16:0.38074980525429486 
0.0 0.0 0.0 1.0 1.0 0.0 1.0 1.0 0.0 0.0 1.0 1.0 0.0 0.0 1:0.0 2:0.0 3:0.0 4:0.21505376344086022 5:0.6153846153846154 6:1.0 7:0.5962847939999439 8:0.0 9:0.34357846440049356 10:0.0 11:0.0 12:0.0 13:0.0 14:0.23076923076923078 15:0.3 16:0.2631174057921088 
0.0 1.0 0.0 0.0 0.0 0.0 0.0 0.0 0.0 0.0 0.0 0.0 0.0 0.0 1:0.0 2:0.0 3:0.0 4:0.6984126984126984 5:0.6666666666666666 6:0.0 7:0.7745966692414834 8:0.0 9:0.33647983749403626 10:1.0 11:1.0 12:0.0 13:1.0 14:0.6666666666666666 15:1.0 16:0.8164965809277261 
0.0 0.0 0.0 0.0 1.0 0.0 1.0 0.0 0.024935521341161757 0.0 0.9810175196687 0.0 0.0 0.0 1:0.0 2:0.0 3:0.0 4:0.19298245614035087 5:0.5625 6:1.0 7:0.5999999999999999 8:1.0 9:0.22523901219553394 10:1.0 11:0.0 12:0.0 13:0.0 14:0.5 15:0.5714285714285714 16:0.5345224838248487 
1.0 0.0 0.14973536290732464 1.0 1.0 0.0 0.0 0.0 0.0 0.0 1.0 1.0 0.0 0.0 1:0.0 2:0.0 3:0.0 4:0.21052631578947367 5:0.6875 6:1.0 7:0.5163977794943222 8:0.0 9:0.40308976013844167 10:1.0 11:1.0 12:0.0 13:1.0 14:0.375 15:0.6 16:0.4743416490252569 
0.0 0.0 0.0 0.0 1.0 0.0 0.0 0.0 0.0 0.0 0.0 1.0 0.0 0.0 1:0.4472135954999579 2:0.0 3:0.0 4:0.08860759493670886 5:0.7727272727272727 6:0.5 7:0.42426406871192845 8:0.0 9:0.23352725406837663 10:0.5 11:0.0 12:0.0 13:0.5773502691896258 14:0.2727272727272727 15:0.6 16:0.4045199174779452 
0.0 0.0 0.0 0.0 1.0 0.0 0.0 0.0 0.0 0.0 0.0 1.0 0.0 0.0 1:0.4472135954999579 2:0.0 3:0.0 4:0.08860759493670886 5:0.7727272727272727 6:0.5 7:0.42426406871192845 8:0.0 9:0.23352725406837663 10:0.5 11:0.0 12:0.0 13:0.5773502691896258 14:0.2727272727272727 15:0.6 16:0.4045199174779452 
0.0 0.0 0.0 0.0 1.0 0.0 0.0 0.0 0.0 0.0 0.0 0.0 0.0 0.0 1:0.5163977794943222 2:0.0 3:0.0 4:0.06329113924050633 5:0.7954545454545454 6:1.0 7:0.6666666666666666 8:0.0 9:0.3550117684818611 10:0.5 11:0.5 12:0.0 13:0.0 14:0.22727272727272727 15:0.5555555555555556 16:0.3553345272593507 
0.0 0.0 0.0 0.0 1.0 0.0 0.0 0.0 0.0 0.0 0.0 1.0 0.0 0.0 1:0.4472135954999579 2:0.0 3:0.0 4:0.08860759493670886 5:0.7727272727272727 6:0.5 7:0.42426406871192845 8:0.0 9:0.23352725406837663 10:0.5 11:0.0 12:0.0 13:0.5773502691896258 14:0.2727272727272727 15:0.6 16:0.4045199174779452 
0.0 0.0 0.0 0.8746208162355196 1.0 0.0 0.0 0.0 0.0 0.0 0.0 0.0 0.0 0.0 1:0.5163977794943222 2:0.0 3:0.0 4:0.06329113924050633 5:0.7954545454545454 6:1.0 7:0.6666666666666666 8:0.0 9:0.3550117684818611 10:0.5 11:0.5 12:0.0 13:0.0 14:0.22727272727272727 15:0.5555555555555556 16:0.3553345272593507 
0.0 0.0 0.7340778942449151 0.8414617535907223 1.0 0.0 0.0 1.0 0.0 0.0 0.0 0.0 0.0 0.0 1:0.7453559924999299 2:0.0 3:0.0 4:0.0949367088607595 5:0.7272727272727273 6:0.3333333333333333 7:0.6363961030678926 8:0.3333333333333333 9:0.29103221481029007 10:1.0 11:1.0 12:0.0 13:0.5163977794943222 14:0.13636363636363635 15:0.25 16:0.1846372364689991 
0.0 0.0 0.0 1.0 1.0 0.7422755279486362 0.0 1.0 0.0 0.0 1.0 0.0 0.0 0.0 1:0.5773502691896258 2:0.0 3:0.0 4:0.07352941176470588 5:0.6578947368421053 6:1.0 7:0.6153846153846154 8:0.0 9:0.35979110868066766 10:0.5 11:0.5 12:0.0 13:0.4999999999999999 14:0.21052631578947367 15:0.3076923076923077 16:0.2545139051903111 
0.09852766128958776 0.0 0.0 0.5281105805911961 1.0 0.0 0.0 1.0 0.0 0.0 0.0 0.0 0.0 0.0 1:1.0 2:0.0 3:0.0 4:0.08088235294117647 5:0.7105263157894737 6:1.0 7:0.7302967433402213 8:0.0 9:0.2903157600723332 10:0.0 11:0.0 12:0.0 13:0.0 14:0.21052631578947367 15:0.36363636363636365 16:0.27668578554642986 
0.0 0.0 0.0 0.7657841673500991 1.0 0.0 0.0 0.0 0.0 0.0 1.0 1.0 0.0 0.0 1:0.4999999999999999 2:0.0 3:0.0 4:0.11029411764705882 5:0.763157894736842 6:1.0 7:0.31622776601683794 8:0.0 9:0.2877505330670472 10:0.0 11:0.0 12:0.0 13:0.0 14:0.15789473684210525 15:0.3333333333333333 16:0.22941573387056172 
0.0 0.0 0.0 1.0 1.0 0.1786113828178207 0.7650864674167392 1.0 0.0 0.0 0.0 0.0 0.0 0.0 1:0.7071067811865475 2:0.0 3:0.0 4:0.07352941176470588 5:0.763157894736842 6:1.0 7:0.6689936080056726 8:0.0 9:0.34789877082991216 10:0.5 11:0.5 12:0.0 13:0.0 14:0.15789473684210525 15:0.3333333333333333 16:0.22941573387056172 
0.0 0.0 0.0 0.0 1.0 0.0 0.0 0.0 0.0 0.0 1.0 1.0 0.0 0.0 1:0.4999999999999999 2:0.0 3:0.0 4:0.11029411764705882 5:0.763157894736842 6:1.0 7:0.31622776601683794 8:0.0 9:0.2877505330670472 10:0.0 11:0.0 12:0.0 13:0.0 14:0.15789473684210525 15:0.3333333333333333 16:0.22941573387056172 
1.0 1.0 0.16509032904715729 0.4781127019859227 1.0 0.0 0.0 1.0 0.0 0.0 0.0 1.0 0.0 0.0 1:0.0 2:0.0 3:0.0 4:0.22988505747126436 5:0.7307692307692308 6:0.0 7:0.5669467095138409 8:0.0 9:0.37806618668687636 10:0.0 11:0.0 12:0.0 13:0.0 14:0.3076923076923077 15:0.5714285714285714 16:0.4193139346887673 
0.6949745597696261 0.0 0.0 1.0 1.0 0.0 1.0 1.0 0.0 0.0 -0.0 1.0 0.0 1.0 1:0.0 2:0.0 3:0.0 4:0.20689655172413793 5:0.5769230769230769 6:0.0 7:0.40089186286863654 8:0.0 9:0.3800707451835271 10:0.0 11:0.0 12:0.0 13:0.0 14:0.23076923076923078 15:0.3 16:0.2307692307692308 
0.0 0.0 0.0 1.0 1.0 0.0 1.0 1.0 0.0 0.0 1.0 1.0 0.0 0.0 1:0.0 2:0.0 3:0.0 4:0.18556701030927836 5:0.75 6:1.0 7:0.3779644730092272 8:0.0 9:0.40381623344877676 10:0.5 11:0.5 12:0.0 13:0.0 14:0.21428571428571427 15:0.42857142857142855 16:0.30304576336566325 
0.0 0.0 0.0 0.3649205016641822 1.0 0.0 1.0 0.0 0.0 0.0 1.0 1.0 0.0 0.0 1:0.0 2:0.0 3:0.0 4:0.21649484536082475 5:0.8214285714285714 6:1.0 7:0.5669467095138409 8:0.0 9:0.3645526558065258 10:0.5 11:0.0 12:0.0 13:0.0 14:0.2857142857142857 15:0.8 16:0.47809144373375745 
1.0 0.0 0.0 0.0 0.0 0.0 0.0 0.0 0.0 0.0 1.0 0.14640273439208937 0.0 0.0 1:0.0 2:0.0 3:0.0 4:0.20491803278688525 5:0.75 6:1.0 7:0.7559289460184544 8:0.0 9:0.1829181146142667 10:0.5 11:0.5 12:1.0 13:0.4999999999999999 14:0.3888888888888889 15:0.7777777777777778 16:0.5499719409228703 
0.0 0.0 0.6154250312752043 0.0 1.0 0.0 1.0 0.0 0.0 0.0 0.0 1.0 0.0 0.0 1:0.0 2:0.0 3:0.0 4:0.15384615384615385 5:0.7692307692307692 6:0.0 7:0.8660254037844387 8:0.0 9:0.27741935483870966 10:1.0 11:1.0 12:0.0 13:0.0 14:0.3333333333333333 15:0.6666666666666666 16:0.4216370213557839 
0.0 0.0 0.0 0.0 1.0 0.13892485837414453 1.0 0.011898766754333205 0.1459303900651434 0.0 0.0 1.0 0.0 0.0 1:0.0 2:0.0 3:0.0 4:0.10256410256410256 5:0.6538461538461539 6:0.0 7:0.5 8:0.0 9:0.30911019525030614 10:0.5 11:0.5 12:0.0 13:0.0 14:0.16666666666666666 15:0.2222222222222222 16:0.17213259316477406 
0.7128128829000518 0.0 0.8502646370926753 0.31032990588002785 1.0 0.19495110856948522 0.0 0.5876709755128429 0.0 0.0 1.0 1.0 0.0 0.0 1:0.0 2:0.0 3:0.0 4:0.1484375 5:0.7105263157894737 6:1.0 7:0.45291081365783836 8:0.0 9:0.35492543652641717 10:1.0 11:1.0 12:0.0 13:1.0 14:0.35294117647058826 15:0.5454545454545454 16:0.44008622942335207 
0.0 0.0 0.0 0.0 1.0 0.0 1.0 1.0 0.0 0.0 1.0 1.0 0.0 0.0 1:0.0 2:0.0 3:0.0 4:0.125 5:0.7894736842105263 6:1.0 7:0.2773500981126146 8:0.0 9:0.32239867967207153 10:0.0 11:0.0 12:0.0 13:0.0 14:0.23529411764705882 15:0.5 16:0.3686048903872428 
0.0 0.0 0.0 0.0 1.0 0.0 0.0 0.0 0.0 0.0 0.0 0.0 0.0 0.0 1:0.7071067811865475 2:0.0 3:0.0 4:0.109375 5:0.763157894736842 6:1.0 7:0.41602514716892186 8:0.0 9:0.3843218378223342 10:1.0 11:1.0 12:0.0 13:1.0 14:0.35294117647058826 15:0.6666666666666666 16:0.48653363279984113 
0.007940848131506998 0.0 0.0 0.15340220289658735 1.0 0.0 1.0 0.0 0.3637265946884112 0.0 1.0 1.0 0.0 0.0 1:0.0 2:0.0 3:0.0 4:0.1171875 5:0.763157894736842 6:1.0 7:0.3721042037676254 8:0.0 9:0.35495400097454 10:1.0 11:0.0 12:0.0 13:0.0 14:0.29411764705882354 15:0.5555555555555556 16:0.41702882811414954 
0.0 0.0 0.0 0.0 1.0 0.0 0.0 0.0 0.0 0.0 0.0 0.0 0.0 0.0 1:0.7071067811865475 2:0.0 3:0.0 4:0.109375 5:0.763157894736842 6:1.0 7:0.41602514716892186 8:0.0 9:0.3843218378223342 10:1.0 11:1.0 12:0.0 13:1.0 14:0.35294117647058826 15:0.6666666666666666 16:0.48653363279984113 
0.0 0.0 0.0 0.0 1.0 0.041551013026999234 0.0 1.0 0.0 0.0 0.0 0.0 0.0 0.0 1:1.0 2:0.0 3:0.0 4:0.1171875 5:0.6842105263157895 6:0.6666666666666666 7:0.16012815380508716 8:0.0 9:0.29006813544892224 10:1.0 11:1.0 12:0.0 13:1.0 14:0.29411764705882354 15:0.4166666666666667 16:0.3009646327144231 
0.0 0.0 0.0 0.0 0.0 1.0 0.0 0.0 0.0 0.0 0.0 0.0 0.0 0.0 1:0.0 2:0.0 3:0.0 4:0.3072289156626506 5:0.5769230769230769 6:1.0 7:0.8058229640253802 8:1.0 9:0.29388639559193835 10:1.0 11:1.0 12:0.0 13:0.35355339059327373 14:0.6923076923076923 15:0.8181818181818182 16:0.7526178090063816 
1.0 0.0 0.003139933236454579 0.0 0.28828765923273264 0.0 0.0 0.0 0.0 0.0 0.0 0.0 0.0 0.0 1:0.0 2:0.0 3:0.0 4:0.22123893805309736 5:0.7352941176470589 6:1.0 7:0.9999999999999999 8:0.0 9:0.19709685528366527 10:1.0 11:1.0 12:1.0 13:0.4999999999999999 14:0.35294117647058826 15:0.6666666666666666 16:0.485071250072666 
0.3903747769892544 0.0 0.0 1.0 0.0 0.0 0.0 0.0 0.0 0.0 0.0 0.0 0.0 0.0 1:0.7071067811865475 2:0.0 3:0.0 4:0.5740740740740741 5:0.59375 6:1.0 7:0.7142857142857142 8:1.0 9:0.43407691250146974 10:0.5 11:0.5 12:0.0 13:0.40824829046386296 14:0.5625 15:0.6923076923076923 16:0.6240377207533828 
0.0 0.0 0.6602414015677166 1.0 1.0 0.4257178075292005 1.0 1.0 0.7574125479925895 0.0 1.0 1.0 0.0 0.0 1:0.0 2:0.0 3:0.0 4:0.16666666666666666 5:0.78125 6:1.0 7:0.3779644730092272 8:0.0 9:0.3557044751405654 10:0.5 11:0.5 12:0.0 13:0.0 14:0.1875 15:0.42857142857142855 16:0.2834733547569204 
0.0 0.0 0.0 0.0 1.0 0.0 1.0 1.0 0.0 0.0 1.0 1.0 0.0 0.0 1:0.0 2:0.0 3:0.0 4:0.18518518518518517 5:0.6875 6:1.0 7:0.5962847939999439 8:0.0 9:0.3391558485649846 10:0.0 11:0.0 12:0.0 13:0.0 14:0.25 15:0.4 16:0.31622776601683794 
0.0 0.0 0.0 1.0 0.0 0.0 0.0 0.0 0.0 0.0 0.0 0.0 0.0 0.0 1:1.0 2:0.0 3:0.0 4:0.5740740740740741 5:0.71875 6:1.0 7:0.8451542547285165 8:1.0 9:0.44463105377232803 10:0.5 11:0.5 12:0.0 13:0.5773502691896258 14:0.5625 15:1.0 16:0.75 
0.0 0.0 0.0 0.0 1.0 0.0 1.0 1.0 0.0 0.0 1.0 1.0 0.0 0.0 1:0.0 2:0.0 3:0.0 4:0.18518518518518517 5:0.6875 6:1.0 7:0.5962847939999439 8:0.0 9:0.3391558485649846 10:0.0 11:0.0 12:0.0 13:0.0 14:0.25 15:0.4 16:0.31622776601683794 
0.0 0.0 0.0 0.0 1.0 0.0 1.0 0.35763672804864866 0.05954474769166677 0.0 1.0 1.0 0.0 0.0 1:0.0 2:0.0 3:0.0 4:0.19444444444444445 5:0.625 6:0.3333333333333333 7:0.545544725589981 8:0.0 9:0.3503485972755054 10:0.5 11:0.0 12:0.0 13:0.0 14:0.25 15:0.3333333333333333 16:0.2886751345948129 
0.0 0.0 0.36388614934769603 1.0 1.0 0.06483643358787528 1.0 0.8835900852005879 0.0 0.0 1.0 1.0 0.0 0.4062395547114893 1:0.0 2:0.0 3:0.0 4:0.07042253521126761 5:0.825 6:1.0 7:0.0 8:0.0 9:0.36643270507768216 10:0.0 11:0.0 12:0.0 13:0.0 14:0.2222222222222222 15:0.5714285714285714 16:0.3086066999241838 
1.0 0.0 0.0 0.03403505672121964 1.0 0.0 0.0 1.0 0.0 0.1144530642105135 1.0 1.0 0.0 0.0 1:0.0 2:0.0 3:0.0 4:0.19626168224299065 5:0.34090909090909094 6:1.0 7:0.6689936080056726 8:1.0 9:0.28833537846128166 10:0.0 11:0.0 12:0.0 13:0.7071067811865475 14:0.5 15:0.3333333333333333 16:0.4950737714883372 
0.0 0.0 0.0 0.0 1.0 0.0 1.0 1.0 0.0 0.0 1.0 1.0 0.0 0.0 1:0.0 2:0.0 3:0.0 4:0.09345794392523364 5:0.7 6:1.0 7:0.4193139346887673 8:0.0 9:0.3355178850918937 10:0.0 11:0.0 12:0.0 13:0.0 14:0.21428571428571427 15:0.3333333333333333 16:0.3233808333817773 
0.0 0.0 0.1115481852693817 0.0 1.0 0.0 1.0 1.0 0.0 0.0 1.0 1.0 0.0 0.0 1:0.0 2:0.0 3:0.0 4:0.11214953271028037 5:0.7666666666666666 6:1.0 7:0.2773500981126146 8:0.0 9:0.3057114776000223 10:0.0 11:0.0 12:0.0 13:0.0 14:0.14285714285714285 15:0.2857142857142857 16:0.18333969940564224 
0.0 0.0 0.0 0.0 1.0 0.0 1.0 0.21936076909128105 0.0 0.0 1.0 1.0 0.0 1.0 1:0.0 2:0.0 3:0.0 4:0.06666666666666667 5:0.8571428571428572 6:0.5 7:0.23570226039551587 8:0.0 9:0.31868620151425575 10:0.0 11:0.0 12:0.0 13:0.0 14:0.07142857142857142 15:0.25 16:0.1336306209562122 
0.0 0.0 0.0 0.0 1.0 0.0 0.0 0.0 0.0 0.0 0.0 1.0 0.0 0.0 1:0.40824829046386296 2:0.0 3:0.0 4:0.19745222929936307 5:0.7391304347826086 6:0.0 7:0.3779644730092272 8:0.0 9:0.27568090835465797 10:0.5 11:0.5 12:0.0 13:0.4999999999999999 14:0.30434782608695654 15:0.5833333333333334 16:0.4213504858001923 
0.0 0.0 0.0 0.0 1.0 0.0 0.0 0.0 0.0 0.0 0.0 0.0 0.0 0.0 1:0.8164965809277259 2:0.0 3:0.0 4:0.06993006993006994 5:0.7368421052631579 6:1.0 7:0.3779644730092272 8:0.0 9:0.25634505919887396 10:0.0 11:0.0 12:0.0 13:0.0 14:0.2631578947368421 15:0.5 16:0.3627381250550058 
0.0 0.0 0.0 0.0 1.0 0.0 0.0 0.0 0.0 0.0 0.0 0.0 0.0 0.0 1:0.8164965809277259 2:0.0 3:0.0 4:0.06993006993006994 5:0.7368421052631579 6:1.0 7:0.3779644730092272 8:0.0 9:0.25634505919887396 10:0.0 11:0.0 12:0.0 13:0.0 14:0.2631578947368421 15:0.5 16:0.3627381250550058 
0.0 0.0 0.0 0.0 1.0 0.0 0.0 0.0 0.0 0.0 0.0 0.0 0.0 0.0 1:0.5773502691896258 2:0.0 3:0.0 4:0.09090909090909091 5:0.7894736842105263 6:1.0 7:0.5 8:0.0 9:0.28827838424788316 10:1.0 11:1.0 12:0.0 13:0.0 14:0.3157894736842105 15:0.75 16:0.4866642633922875 
0.0 0.0 0.0 0.0 1.0 0.0 0.0 1.0 0.0 0.0 1.0 0.0 0.0 0.0 1:0.7745966692414834 2:0.0 3:0.0 4:0.1958041958041958 5:0.6842105263157895 6:1.0 7:0.4811252243246881 8:0.0 9:0.3839279542427859 10:0.0 11:0.0 12:0.0 13:0.7071067811865475 14:0.2631578947368421 15:0.4166666666666667 16:0.33113308926626095 
0.0 0.0 0.0 0.9794054899781354 1.0 1.0 1.0 0.0 0.0 0.0 0.0 0.0 0.0 0.0 1:0.7071067811865475 2:0.0 3:0.0 4:0.3 5:0.5454545454545454 6:0.5 7:0.7302967433402214 8:0.0 9:0.3379791833138687 10:1.0 11:0.0 12:0.0 13:0.0 14:0.45454545454545453 15:0.5 16:0.4767312946227962 
1.0 0.0 0.4031509746581959 1.0 1.0 0.0 1.0 0.0 0.37013011602728185 0.0 1.0 1.0 0.0 0.0 1:0.0 2:0.0 3:0.0 4:0.1125 5:0.7727272727272727 6:1.0 7:0.7071067811865476 8:0.0 9:0.43405036052094864 10:1.0 11:1.0 12:0.0 13:0.0 14:0.2727272727272727 15:0.6 16:0.40451991747794525 
0.686925093143389 0.0 0.0 1.0 1.0 1.0 1.0 0.0 0.0 0.0 0.0 0.0 0.0 0.0 1:0.7071067811865475 2:0.0 3:0.0 4:0.3 5:0.5454545454545454 6:0.5 7:0.7302967433402214 8:0.0 9:0.3379791833138687 10:1.0 11:0.0 12:0.0 13:0.0 14:0.45454545454545453 15:0.5 16:0.4767312946227962 
0.0 0.0 0.0 0.0 1.0 0.0 0.0 1.0 0.0 0.0 0.0 0.0 0.0 0.0 1:0.7071067811865475 2:0.0 3:0.0 4:0.275 5:0.4583333333333333 6:0.3333333333333333 7:0.8215838362577491 8:0.0 9:0.31270352856235994 10:1.0 11:1.0 12:0.0 13:1.0 14:0.45454545454545453 15:0.4166666666666667 16:0.4351941398892446 
1.0 1.0 0.0 0.0 1.0 0.0 0.0 0.0 0.0 0.0 0.0 0.0 0.0 0.0 1:1.0 2:0.0 3:0.0 4:0.7021276595744681 5:0.6428571428571428 6:1.0 7:0.8164965809277259 8:0.0 9:0.5675324675324674 10:1.0 11:1.0 12:0.0 13:0.0 14:0.7142857142857143 15:1.0 16:0.8451542547285165 
0.04245041414603143 0.0 0.3598746135795269 1.0 1.0 0.0 0.0 0.0 0.0 0.0 0.0 1.0 0.0 0.0 1:0.0 2:0.0 3:0.0 4:0.3918918918918919 5:0.6818181818181819 6:0.0 7:0.4472135954999579 8:0.0 9:0.34687336473050756 10:0.3333333333333333 11:0.3333333333333333 12:0.0 13:0.4999999999999999 14:0.36363636363636365 15:0.5714285714285714 16:0.4558423058385518 
1.0 0.0 0.0 0.8501289455714562 1.0 0.0 0.0 0.0 0.0 0.0 0.0 1.0 0.0 0.0 1:0.0 2:0.0 3:0.0 4:0.4864864864864865 5:0.5909090909090909 6:0.0 7:0.3999999999999999 8:0.0 9:0.3380707357729416 10:0.6666666666666666 11:0.6666666666666666 12:0.0 13:0.7071067811865475 14:0.45454545454545453 15:0.5555555555555556 16:0.502518907629606 
0.0 0.6853817404524013 0.0 0.0 1.0 0.0 0.0 0.0 0.0 0.0 0.0 1.0 0.0 0.0 1:0.0 2:0.0 3:0.0 4:0.4864864864864865 5:0.7272727272727273 6:0.0 7:0.5163977794943222 8:0.0 9:0.38301295478714836 10:0.6666666666666666 11:0.6666666666666666 12:0.0 13:0.7071067811865475 14:0.45454545454545453 15:0.8333333333333334 16:0.6154574548966638 
0.0 0.0 0.0 1.0 1.0 1.0 1.0 0.0 0.0 0.0 1.0 1.0 0.0 0.0 1:0.2886751345948129 2:0.0 3:0.0 4:0.10606060606060606 5:0.35714285714285715 6:0.5 7:0.5499719409228703 8:0.0 9:0.19583430525459508 10:0.6666666666666666 11:0.6666666666666666 12:0.0 13:0.0 14:0.35 15:0.25925925925925924 16:0.3265986323710904 
0.0 0.0 0.0 0.0 1.0 0.0 1.0 0.0 0.0 0.0 0.0 1.0 0.0 0.0 1:0.0 2:0.0 3:0.0 4:0.08823529411764706 5:0.675 6:0.0 7:0.31622776601683794 8:0.0 9:0.30880294946883724 10:0.5 11:0.5 12:0.0 13:0.35355339059327373 14:0.2 15:0.3076923076923077 16:0.24806946917841693 
0.0 0.0 0.0 0.0 1.0 0.0 1.0 0.0 0.0 0.0 0.0 1.0 0.0 0.0 1:0.0 2:0.0 3:0.0 4:0.08823529411764706 5:0.675 6:0.0 7:0.31622776601683794 8:0.0 9:0.30880294946883724 10:0.5 11:0.5 12:0.0 13:0.35355339059327373 14:0.2 15:0.3076923076923077 16:0.24806946917841693 
1.0 1.0 0.0 1.0 0.6994851985717946 0.0 0.0 0.0 0.05479574796681052 0.0 0.0 1.0 0.0 0.0 1:0.0 2:0.0 3:0.0 4:0.5588235294117647 5:0.47619047619047616 6:0.0 7:0.7882407813680822 8:1.0 9:0.3486349183055067 10:0.5 11:0.5 12:0.0 13:0.6708203932499369 14:0.6 15:0.631578947368421 16:0.6260990336999411 
0.0 0.0 0.0 0.7224494940496403 0.0 0.0 0.0 0.0 0.0 0.0 0.0 0.0 0.0 0.0 1:0.9999999999999998 2:0.0 3:0.0 4:0.25 5:0.775 6:0.0 7:0.375 8:0.0 9:0.31213374502898306 10:0.5 11:0.5 12:0.0 13:0.7071067811865475 14:0.4 15:0.8888888888888888 16:0.5962847939999439 
0.0 0.0 0.0 0.0 1.0 0.0 1.0 0.0 0.0 0.0 0.0 1.0 0.0 0.0 1:0.0 2:0.0 3:0.0 4:0.08823529411764706 5:0.7 6:0.0 7:0.3572172541558802 8:0.0 9:0.3026316492344896 10:0.5 11:0.5 12:0.0 13:0.2886751345948129 14:0.15 15:0.25 16:0.19364916731037085 
1.0 0.0 0.0 0.0 1.0 0.0 0.0 0.0 0.0 0.0 0.0 1.0 0.0 0.0 1:0.7071067811865475 2:0.0 3:0.0 4:0.13846153846153847 5:0.7222222222222222 6:0.0 7:0.8660254037844387 8:0.0 9:0.5497835497835498 10:1.0 11:1.0 12:0.0 13:0.0 14:0.4444444444444444 15:0.8 16:0.5962847939999439 
0.0 0.0 0.0 0.0 1.0 0.0 0.0 1.0 0.0 0.0 1.0 1.0 0.0 0.0 1:0.0 2:0.0 3:0.0 4:0.125 5:0.8409090909090908 6:1.0 7:0.30151134457776363 8:0.0 9:0.21517388015926026 10:0.0 11:0.0 12:0.0 13:0.0 14:0.13636363636363635 15:0.42857142857142855 16:0.24174688920761409 
0.0 0.0 0.0 0.0 1.0 0.0 0.0 0.0 0.0 0.0 1.0 1.0 0.0 0.0 1:0.5 2:0.0 3:0.0 4:0.125 5:0.75 6:1.0 7:0.4558423058385518 8:0.0 9:0.2615640183599875 10:0.0 11:0.0 12:0.0 13:0.0 14:0.22727272727272727 15:0.5 16:0.35478743759344955 
0.0 0.0 0.0 0.0 1.0 0.0 0.0 0.0 0.0 0.0 0.0 0.0 0.0 0.0 1:0.0 2:0.0 3:0.0 4:0.4235294117647059 5:0.6458333333333334 6:0.7368421052631579 7:0.9531759751869954 8:0.0 9:0.3103735084119688 10:1.0 11:1.0 12:0.0 13:0.4999999999999999 14:0.6086956521739131 15:0.8235294117647058 16:0.7134772412317412 
0.0 0.0 0.0 0.4452783736646072 0.0 0.0 0.0 0.0 0.0 0.0 0.0 0.0 0.0 0.0 1:0.0 2:0.0 3:0.0 4:0.6181818181818182 5:0.6176470588235294 6:1.0 7:0.8660254037844387 8:1.0 9:0.1360308666402849 10:0.3333333333333333 11:0.6666666666666666 12:0.0 13:0.7071067811865475 14:0.7647058823529411 15:1.0 16:0.8744746321952063 
0.0 0.0 0.0 0.0 1.0 0.0 1.0 0.0 0.0 0.0 1.0 1.0 0.0 0.0 1:0.4472135954999579 2:0.0 3:0.0 4:0.10240963855421686 5:0.7826086956521738 6:1.0 7:0.5393598899705937 8:0.0 9:0.2752965681183502 10:1.0 11:1.0 12:0.0 13:0.0 14:0.25 15:0.5 16:0.35233213170882205 
0.0 0.0 0.0 0.0 1.0 0.0 1.0 0.0 0.0 0.0 1.0 1.0 0.0 0.0 1:0.4472135954999579 2:0.0 3:0.0 4:0.10240963855421686 5:0.7826086956521738 6:1.0 7:0.5393598899705937 8:0.0 9:0.2752965681183502 10:1.0 11:1.0 12:0.0 13:0.0 14:0.25 15:0.5 16:0.35233213170882205 
0.0 1.0 0.0 0.0 0.0 0.0 0.0 0.0 0.0 0.0 0.0 0.0 0.0 0.0 1:0.8944271909999159 2:0.0 3:0.0 4:0.8253012048192772 5:0.5217391304347826 6:0.8 7:1.0 8:0.0 9:0.3113136863136862 10:1.0 11:1.0 12:0.0 13:1.0 14:0.95 15:1.0 16:0.9826073688810351 
0.0 0.0 0.0 1.0 1.0 0.0 1.0 0.0 0.0 0.0 0.0 0.0 0.0 0.0 1:0.7071067811865475 2:0.0 3:0.0 4:0.10077519379844961 5:0.7941176470588236 6:1.0 7:0.5669467095138409 8:0.0 9:0.18634406529143369 10:1.0 11:1.0 12:0.0 13:0.0 14:0.17647058823529413 15:0.42857142857142855 16:0.27500954910846337 
0.0 0.0 0.0 0.0 1.0 1.0 0.0 0.0 0.0 0.0 0.0 0.0 0.0 0.0 1:0.9128709291752769 2:0.0 3:0.0 4:0.17391304347826086 5:0.7391304347826086 6:1.0 7:0.867527617235709 8:0.0 9:0.3476979144738187 10:1.0 11:0.5 12:0.0 13:0.5773502691896258 14:0.3333333333333333 15:0.5833333333333334 16:0.3888888888888889 
0.0 0.0 0.0 0.0 0.0 0.0 0.0 0.0 0.0 0.0 0.0 1.0 0.0 0.0 1:0.0 2:0.0 3:0.0 4:0.08 5:0.8571428571428572 6:0.0 7:0.35355339059327373 8:0.0 9:0.14558781002279453 10:0.0 11:0.0 12:0.0 13:0.4472135954999579 14:0.2222222222222222 15:0.6666666666666666 16:0.3928371006591931 
0.0 0.0 0.0 0.0 0.0 0.0 0.0 0.0 0.0 0.0 0.0 1.0 0.0 0.0 1:0.0 2:0.0 3:0.0 4:0.216 5:0.7380952380952381 6:0.0 7:0.6123724356957945 8:0.0 9:0.14174678956985579 10:0.5 11:0.5 12:0.0 13:0.5163977794943222 14:0.4444444444444444 15:0.8 16:0.5337605126836238 
0.0 0.0 0.0 0.0 0.0 0.0 0.0 0.8976157433391867 0.0 0.0 0.0 1.0 0.0 0.0 1:0.0 2:0.0 3:0.0 4:0.08 5:0.7857142857142857 6:0.0 7:0.20412414523193148 8:0.0 9:0.14540666945511235 10:0.0 11:0.0 12:0.0 13:0.6324555320336759 14:0.2777777777777778 15:0.5555555555555556 16:0.3849001794597505 
0.0 0.0 0.0 0.0 1.0 0.4179731774870078 1.0 0.0 0.0 0.0 0.0 1.0 0.0 0.0 1:0.0 2:0.0 3:0.0 4:0.2127659574468085 5:0.7142857142857143 6:0.0 7:0.25 8:0.0 9:0.21971580840128258 10:0.3333333333333333 11:0.3333333333333333 12:0.0 13:0.0 14:0.21428571428571427 15:0.375 16:0.2834733547569204 
0.0 0.0 0.0 0.0 1.0 0.0 1.0 0.0 0.0 0.0 0.0 1.0 0.0 0.0 1:0.0 2:0.0 3:0.0 4:0.20212765957446807 5:0.6785714285714286 6:0.0 7:0.22360679774997896 8:0.0 9:0.2708623076270135 10:0.3333333333333333 11:0.3333333333333333 12:0.0 13:0.0 14:0.21428571428571427 15:0.3333333333333333 16:0.2672612419124244 
1.0 1.0 0.0 0.0 1.0 0.0 0.0 0.0 0.0 0.0 0.0 0.0 0.0 0.0 1:1.0 2:0.0 3:0.0 4:0.7021276595744681 5:0.6428571428571428 6:1.0 7:0.8164965809277259 8:0.0 9:0.5675324675324674 10:1.0 11:1.0 12:0.0 13:0.0 14:0.7142857142857143 15:1.0 16:0.8451542547285165 
0.0 0.0 0.0 0.779687468485151 0.0 0.0 0.0 0.0 0.0 0.0 0.0 0.0 0.0 0.0 1:0.0 2:0.0 3:0.0 4:0.5117647058823529 5:0.5925925925925926 6:1.0 7:0.8058229640253802 8:1.0 9:0.2915084567335221 10:1.0 11:1.0 12:0.0 13:0.5773502691896258 14:0.7037037037037037 15:0.8636363636363636 16:0.7795794428691073 
1.0 0.0 0.0 0.0 0.0 0.0 0.0 0.0 0.0 0.0 1.0 1.0 0.5223927125565252 0.0 1:0.0 2:0.0 3:0.0 4:0.21739130434782608 5:0.7352941176470589 6:1.0 7:0.7559289460184544 8:0.0 9:0.1829181146142667 10:0.5 11:0.5 12:1.0 13:0.4999999999999999 14:0.4117647058823529 15:0.7777777777777778 16:0.5659164584181103 
0.0 0.0 0.0 1.0 1.0 0.0 1.0 1.0 0.0 0.0 1.0 1.0 0.0 0.0 1:0.0 2:0.0 3:0.0 4:0.31746031746031744 5:0.45 6:1.0 7:0.6761234037828131 8:0.0 9:0.3402705015977326 10:0.0 11:0.0 12:0.0 13:0.0 14:0.3333333333333333 15:0.3 16:0.31622776601683794 
0.3078048655419068 0.0 0.2995369183810356 1.0 1.0 0.0 1.0 1.0 0.0 0.0 1.0 1.0 0.0 0.0 1:0.0 2:0.0 3:0.0 4:0.31746031746031744 5:0.45 6:1.0 7:0.6761234037828131 8:0.0 9:0.3402705015977326 10:0.0 11:0.0 12:0.0 13:0.0 14:0.3333333333333333 15:0.3 16:0.31622776601683794 
0.0 1.0 0.0 0.0 0.0 0.0 0.0 0.0 0.0 0.0 0.0 0.0 0.0 0.0 1:0.9128709291752769 2:0.0 3:0.0 4:0.8765432098765432 5:0.5652173913043478 6:1.0 7:0.9534625892455924 8:0.0 9:0.33109595428187094 10:1.0 11:1.0 12:0.0 13:0.0 14:0.8571428571428571 15:1.0 16:0.9428090415820634 
0.0 0.0 0.05690155756195715 1.0 1.0 0.0 0.0 0.0 0.0 0.0 1.0 1.0 0.0 0.0 1:0.47140452079103173 2:0.0 3:0.0 4:0.2839506172839506 5:0.6521739130434783 6:1.0 7:0.26967994498529685 8:0.0 9:0.22416768182685534 10:0.0 11:0.0 12:0.0 13:0.0 14:0.42857142857142855 15:0.6923076923076923 16:0.510688230856951 
0.0 0.0 0.0 0.0 1.0 0.0 1.0 0.0 0.0 0.0 1.0 1.0 0.0 0.0 1:0.0 2:0.0 3:0.0 4:0.07407407407407407 5:0.8478260869565217 6:1.0 7:0.17407765595569785 8:0.0 9:0.2272165932012479 10:0.0 11:0.0 12:0.0 13:0.0 14:0.09523809523809523 15:0.2857142857142857 16:0.14547859349066158 
0.0 0.0 0.0 0.4055825695495454 0.0 0.0 0.0 0.0 0.0 0.0 1.0 0.0 0.0 0.0 1:0.0 2:0.0 3:0.0 4:0.6260869565217392 5:0.7058823529411764 6:1.0 7:0.6761234037828132 8:0.0 9:0.3106485647300568 10:1.0 11:1.0 12:0.0 13:0.7071067811865475 14:0.5882352941176471 15:1.0 16:0.7669649888473704 
1.0 1.0 0.5312721957344018 0.0 0.0 0.0 0.0 0.0 0.0 0.0 0.0 0.11377697374185329 0.0 0.0 1:0.0 2:0.0 3:0.0 4:0.6601941747572816 5:0.6176470588235294 6:0.0 7:0.8660254037844387 8:1.0 9:0.1360308666402849 10:0.3333333333333333 11:0.6666666666666666 12:0.0 13:0.7071067811865475 14:0.7647058823529411 15:1.0 16:0.8744746321952063 
0.5618014139482175 0.0 0.0 0.0 1.0 0.36247267370224917 0.0 1.0 0.07401938265143701 0.0 1.0 1.0 0.0 0.0 1:0.0 2:0.0 3:1.0 4:0.08275862068965517 5:0.8409090909090908 6:1.0 7:0.31622776601683794 8:0.0 9:0.2430896287083685 10:0.0 11:0.0 12:0.0 13:0.5 14:0.19047619047619047 15:0.5714285714285714 16:0.3086066999241838 
0.0 0.0 0.0 0.0 1.0 0.0 1.0 0.0 0.0 0.0 1.0 1.0 0.0 0.0 1:0.0 2:0.0 3:0.0 4:0.07526881720430108 5:0.4642857142857143 6:0.0 7:0.16666666666666669 8:0.0 9:0.17978685251871418 10:1.0 11:1.0 12:0.0 13:0.0 14:0.15384615384615385 15:0.15384615384615385 16:0.20801257358446093 
0.0 0.0 0.0 0.24913050156457892 1.0 0.0 1.0 1.0 0.0 0.0 1.0 1.0 0.0 0.0 1:0.0 2:0.0 3:0.0 4:0.10303030303030303 5:0.6 6:0.4 7:0.3344968040028363 8:0.0 9:0.2760811187016021 10:0.0 11:0.0 12:0.0 13:0.0 14:0.30434782608695654 15:0.35 16:0.3321819194149599 
0.5608497676147931 0.0 0.0 0.0 1.0 0.0 0.0 1.0 0.0 0.0 0.0 1.0 0.0 0.0 1:0.0 2:0.0 3:0.0 4:0.14423076923076922 5:0.7142857142857143 6:0.2 7:0.5070925528371099 8:0.0 9:0.31334946635649 10:0.0 11:0.0 12:0.0 13:0.0 14:0.35714285714285715 15:0.625 16:0.472455591261534 
1.0 0.0 0.04685256803422643 0.0 1.0 0.0 0.0 1.0 0.0 0.0 0.0 1.0 0.0 0.0 1:0.0 2:0.0 3:0.0 4:0.14423076923076922 5:0.7142857142857143 6:0.2 7:0.5070925528371099 8:0.0 9:0.31334946635649 10:0.0 11:0.0 12:0.0 13:0.0 14:0.35714285714285715 15:0.625 16:0.472455591261534 
0.0 0.0 0.0 0.0 1.0 0.0 0.0 0.0 0.0 0.0 0.0 0.0 0.0 0.0 1:0.7071067811865475 2:0.0 3:0.0 4:0.125 5:0.7142857142857143 6:1.0 7:0.5669467095138409 8:0.0 9:0.32659127170681795 10:0.0 11:0.0 12:0.0 13:0.0 14:0.42857142857142855 15:0.75 16:0.5669467095138409 
7.548444980029576E-4 0.0 0.23361183071375408 0.0 1.0 0.0 0.0 0.5037876412800946 0.0 0.0 1.0 0.0 0.0 0.0 1:0.4999999999999999 2:0.0 3:0.0 4:0.23076923076923078 5:0.6785714285714286 6:1.0 7:0.5070925528371099 8:0.0 9:0.4180500910146029 10:0.0 11:0.0 12:0.0 13:1.0 14:0.42857142857142855 15:0.6666666666666666 16:0.5345224838248488 
0.827311684341781 1.0 0.0 0.0 1.0 0.0 0.0 0.0 0.0 0.0 0.0 0.0 0.0 0.0 1:1.0 2:0.0 3:0.0 4:0.7021276595744681 5:0.6428571428571428 6:1.0 7:0.8164965809277259 8:0.0 9:0.5675324675324674 10:1.0 11:1.0 12:0.0 13:0.0 14:0.7142857142857143 15:1.0 16:0.8451542547285165 
1.0 0.0 0.4738992124216165 0.0 0.0 0.6478083952311449 0.0 0.0 0.0 0.0 0.0 1.0 0.0 0.0 1:0.0 2:0.0 3:0.0 4:0.2692307692307692 5:0.6904761904761905 6:0.0 7:0.9101820546182064 8:1.0 9:0.4036391494409136 10:0.6666666666666666 11:0.6666666666666666 12:0.0 13:0.6324555320336759 14:0.5263157894736842 15:0.7692307692307693 16:0.665640235470275 
1.0 0.0 0.0 0.0 1.0 0.0 0.0 1.0 0.0 0.0 0.0 0.0 0.0 0.0 1:0.7071067811865475 2:0.0 3:0.0 4:0.3208955223880597 5:0.6388888888888888 6:1.0 7:0.7559289460184544 8:0.0 9:0.3308701037496165 10:0.0 11:0.0 12:0.0 13:0.0 14:0.6111111111111112 15:0.8461538461538461 16:0.7190924955066749 
1.0 0.6722036991697072 0.0 0.0 1.0 0.0 0.0 0.46204702938989245 0.0 0.0 0.0 0.0 0.0 0.0 1:0.7071067811865475 2:0.0 3:0.0 4:0.3208955223880597 5:0.6388888888888888 6:1.0 7:0.7559289460184544 8:0.0 9:0.3308701037496165 10:0.0 11:0.0 12:0.0 13:0.0 14:0.6111111111111112 15:0.8461538461538461 16:0.7190924955066749 
0.0 0.0 0.0 0.0 1.0 0.0 1.0 1.0 0.0 0.0 1.0 1.0 0.0 0.0 1:0.0 2:0.0 3:0.0 4:0.15671641791044777 5:0.8055555555555556 6:1.0 7:0.3333333333333333 8:0.0 9:0.2868985068790137 10:0.0 11:0.0 12:0.0 13:0.0 14:0.16666666666666666 15:0.42857142857142855 16:0.2672612419124244 
0.5733217846798833 0.0 0.0 0.0 1.0 0.0 0.0 0.0 0.0 0.3697718514202931 0.0 0.37245663694867404 0.0 0.0 1:0.7071067811865475 2:0.0 3:0.0 4:0.13846153846153847 5:0.7222222222222222 6:0.0 7:0.8660254037844387 8:0.0 9:0.5497835497835498 10:1.0 11:1.0 12:0.0 13:0.0 14:0.4444444444444444 15:0.8 16:0.5962847939999439 
0.8795198160802961 0.0 0.0 0.0 1.0 0.0 0.0 0.0 0.0 0.0 0.0 0.0 0.0 0.0 1:0.0 2:0.0 3:0.0 4:0.4235294117647059 5:0.6458333333333334 6:0.7368421052631579 7:0.9531759751869954 8:0.0 9:0.3103735084119688 10:1.0 11:1.0 12:0.0 13:0.4999999999999999 14:0.6086956521739131 15:0.8235294117647058 16:0.7134772412317412 
0.0 0.4854652187939474 0.0 1.0 0.0 0.4345646101909242 0.0 0.0 0.0 0.0 0.0 0.0 0.0 0.0 1:0.0 2:0.0 3:0.0 4:0.6181818181818182 5:0.6176470588235294 6:1.0 7:0.8660254037844387 8:1.0 9:0.1360308666402849 10:0.3333333333333333 11:0.6666666666666666 12:0.0 13:0.7071067811865475 14:0.7647058823529411 15:1.0 16:0.8744746321952063 
0.0 0.0 0.0 0.4607041885810579 1.0 0.0 1.0 0.0 0.0 0.0 0.6334792457462011 0.0 0.0 0.0 1:0.5 2:0.0 3:0.0 4:0.12738853503184713 5:0.7727272727272727 6:1.0 7:0.5393598899705937 8:0.0 9:0.2752965681183502 10:1.0 11:1.0 12:0.0 13:0.0 14:0.2631578947368421 15:0.5 16:0.35856858280031806 
0.0 0.0 0.0 1.0 1.0 0.0 1.0 0.0 0.0 0.0 0.0 0.0 0.0 0.0 1:0.5 2:0.0 3:0.0 4:0.12738853503184713 5:0.7727272727272727 6:1.0 7:0.5393598899705937 8:0.0 9:0.2752965681183502 10:1.0 11:1.0 12:0.0 13:0.0 14:0.2631578947368421 15:0.5 16:0.35856858280031806 
0.0 0.0 0.0 0.08016998600910867 1.0 0.0 1.0 0.0 0.011284502318741334 0.0 1.0 0.0 0.0 0.0 1:0.35355339059327373 2:0.0 3:0.0 4:0.1337579617834395 5:0.7954545454545454 6:1.0 7:0.40451991747794525 8:0.0 9:0.34336589436969245 10:1.0 11:0.0 12:0.0 13:0.0 14:0.15789473684210525 15:0.3333333333333333 16:0.2519763153394848 
0.0 1.0 0.0 0.0 0.0 0.0 0.0 0.0 0.0 0.0 0.0 0.0 0.0 0.0 1:0.7071067811865475 2:0.0 3:0.0 4:0.8805970149253731 5:0.5277777777777778 6:0.5 7:0.9354143466934852 8:0.0 9:0.24709760512392098 10:1.0 11:1.0 12:0.0 13:1.0000000000000002 14:0.9444444444444444 15:1.0 16:0.9718253158075502 
0.0 1.0 0.0 1.0 1.0 0.0 0.0 0.0 0.0 0.0 1.0 0.04741498756195772 0.0 0.0 1:0.0 2:0.0 3:0.0 4:0.48091603053435117 5:0.7272727272727273 6:1.0 7:0.8528028654224417 8:0.0 9:0.2998156746795585 10:0.5 11:0.5 12:0.0 13:0.0 14:0.6 15:1.0 16:0.7359800721939873 
0.0 0.0 0.029048311163049022 0.0 1.0 0.0 1.0 1.0 0.0 0.0 1.0 1.0 0.0 0.0 1:0.0 2:0.0 3:0.0 4:0.12790697674418605 5:0.7916666666666667 6:1.0 7:0.16666666666666669 8:0.0 9:0.2824278268232824 10:0.0 11:0.0 12:0.0 13:0.0 14:0.16666666666666666 15:0.4 16:0.2581988897471611 
0.0 1.0 0.0 0.0 0.0 0.0 0.0 1.0 0.0 0.0 1.0 1.0 0.0 0.0 1:0.0 2:0.0 3:0.0 4:0.45348837209302323 5:0.7916666666666667 6:1.0 7:0.8660254037844387 8:0.0 9:0.2716163738222562 10:0.0 11:0.0 12:0.0 13:0.0 14:0.4166666666666667 15:1.0 16:0.6454972243679028 
0.0 0.0 0.0 1.0 1.0 0.0 1.0 1.0 0.0 0.0 1.0 1.0 0.0 1.0 1:0.35355339059327373 2:0.0 3:0.0 4:0.05952380952380952 5:0.7083333333333334 6:1.0 7:0.4193139346887673 8:0.0 9:0.3884719666087779 10:0.5 11:0.5 12:0.0 13:0.0 14:0.18181818181818182 15:0.2857142857142857 16:0.2525381361380527 
0.0 0.0 0.0 0.0 0.19922472843381586 0.0 0.0 0.0 0.0 0.0 0.0 0.0 0.0 0.0 1:0.7071067811865475 2:0.0 3:0.0 4:0.23809523809523808 5:0.8125 6:1.0 7:0.5547001962252291 8:0.0 9:0.3509287675696343 10:0.5 11:0.5 12:0.0 13:0.0 14:0.3181818181818182 15:0.7777777777777778 16:0.5039526306789696 
0.0 0.0 0.0 0.0 1.0 0.0 0.0 0.0 0.0 0.0 1.0 1.0 0.0 0.0 1:0.31622776601683794 2:0.0 3:0.0 4:0.08225108225108226 5:0.7428571428571429 6:1.0 7:0.07647191129018724 8:0.0 9:0.19111755554226034 10:0.0 11:0.0 12:0.0 13:0.8164965809277259 14:0.1935483870967742 15:0.3333333333333333 16:0.24595492912420727 
0.0 0.0 0.0 0.0 1.0 0.0 0.0 0.0 0.0 0.0 1.0 1.0 0.0 0.0 1:0.2581988897471611 2:0.0 3:0.0 4:0.1471861471861472 5:0.7142857142857143 6:1.0 7:0.48666426339228763 8:0.0 9:0.18038647269243413 10:0.75 11:0.75 12:0.0 13:0.0 14:0.4838709677419355 15:0.75 16:0.6333333333333333 
0.0 0.0 0.0 0.14461220651390982 0.0 0.0 0.0 0.0 0.0 0.0 0.0 0.0 0.0 0.0 1:0.6324555320336759 2:0.0 3:0.0 4:0.19480519480519481 5:0.7142857142857143 6:1.0 7:0.43528575006600695 8:0.5 9:0.21064634811880933 10:0.25 11:0.25 12:0.0 13:0.5773502691896258 14:0.41935483870967744 15:0.65 16:0.5666666666666667 
1.0 0.0 0.05367713477867986 1.0 1.0 0.0 0.0 0.48628708079273575 0.0 0.0 1.0 0.8666464057788886 0.0 0.0 1:0.40824829046386296 2:0.0 3:0.0 4:0.1783783783783784 5:0.6481481481481481 6:1.0 7:0.40824829046386296 8:0.5 9:0.40115234841189473 10:0.0 11:0.0 12:0.0 13:0.33333333333333337 14:0.3333333333333333 15:0.47368421052631576 16:0.3973597071195131 
0.0 0.0 0.0 0.0 1.0 0.0 1.0 0.0226172143596375 0.0 0.0 0.0 0.0 0.0 0.0 1:0.5773502691896258 2:0.0 3:0.0 4:0.04864864864864865 5:0.8148148148148149 6:1.0 7:0.9013878188659974 8:0.0 9:0.38089226456541864 10:0.5 11:0.0 12:0.0 13:0.0 14:0.18518518518518517 15:0.5 16:0.30429030972509225 
0.0 0.0 0.0 0.41361724110697384 1.0 0.0 0.0 0.0 0.0 0.0 0.0 0.0 0.0 0.0 1:0.8164965809277259 2:0.0 3:0.0 4:0.12432432432432433 5:0.7962962962962963 6:1.0 7:0.9354143466934853 8:0.0 9:0.3969708096636155 10:0.5 11:0.5 12:0.0 13:0.0 14:0.25925925925925924 15:0.6363636363636364 16:0.4061811972299616 
1.0 0.0 0.0 0.0 1.0 0.0 1.0 0.24181077546756743 0.0 0.0 0.0 1.0 0.0 0.05472587819583678 1:0.0 2:0.0 3:0.0 4:0.04864864864864865 5:0.6666666666666666 6:0.0 7:0.5303300858899106 8:0.0 9:0.40555438635127977 10:0.5 11:0.0 12:0.0 13:0.0 14:0.2222222222222222 15:0.3333333333333333 16:0.2721655269759087 
0.0 0.0 0.0 1.0 1.0 0.0 0.0 0.0 0.0 0.0 0.0 0.0 0.0 0.0 1:0.40824829046386296 2:0.0 3:0.0 4:0.1783783783783784 5:0.7592592592592593 6:1.0 7:0.4364357804719848 8:0.5 9:0.4125146825034253 10:0.0 11:0.0 12:0.0 13:0.40824829046386296 14:0.25925925925925924 15:0.5384615384615384 16:0.3736323588785367 
0.0 0.0 0.0 1.0 1.0 0.0 1.0 1.0 0.29190839939224833 0.0 1.0 1.0 0.0 0.04278822112318992 1:0.0 2:0.0 3:0.0 4:0.0918918918918919 5:0.7407407407407407 6:1.0 7:0.3273268353539886 8:0.5 9:0.42199178229811224 10:0.0 11:0.0 12:0.0 13:0.0 14:0.18518518518518517 15:0.35714285714285715 16:0.25717224993681986 
0.33710434198675965 0.0 0.0 1.0 1.0 0.0 0.0 0.0 0.0 0.0 0.0 0.0 0.0 0.0 1:0.5773502691896258 2:0.0 3:0.0 4:0.1783783783783784 5:0.7037037037037037 6:1.0 7:0.4364357804719848 8:0.5 9:0.4009825520369726 10:0.0 11:0.0 12:0.0 13:0.33333333333333337 14:0.3333333333333333 15:0.5625 16:0.4330127018922193 
0.0 0.0 0.0 0.0 1.0 0.0 1.0 1.0 0.0 0.0 0.0 0.0 0.0 0.0 1:0.5773502691896258 2:0.0 3:0.0 4:0.04864864864864865 5:0.8148148148148149 6:1.0 7:0.9013878188659974 8:0.0 9:0.38089226456541864 10:0.5 11:0.0 12:0.0 13:0.0 14:0.18518518518518517 15:0.5 16:0.30429030972509225 
0.0 0.0 0.0 0.7693341793664789 1.0 0.0 0.0 0.0 0.0 0.0 0.0 0.0 0.0 0.0 1:0.8164965809277259 2:0.0 3:0.0 4:0.12432432432432433 5:0.7962962962962963 6:1.0 7:0.9354143466934853 8:0.0 9:0.3969708096636155 10:0.5 11:0.5 12:0.0 13:0.0 14:0.25925925925925924 15:0.6363636363636364 16:0.4061811972299616 
0.0 0.0 0.0 0.0 1.0 0.0 1.0 0.903730463198608 0.0 0.0 0.0 0.0 0.0 0.0 1:0.5773502691896258 2:0.0 3:0.0 4:0.04864864864864865 5:0.8148148148148149 6:1.0 7:0.9013878188659974 8:0.0 9:0.38089226456541864 10:0.5 11:0.0 12:0.0 13:0.0 14:0.18518518518518517 15:0.5 16:0.30429030972509225 
0.0 0.0 0.0 0.9090814855329696 1.0 0.0 1.0 0.0 0.0 0.0 0.0 1.0 0.0 0.0 1:0.40824829046386296 2:0.0 3:0.0 4:0.10270270270270271 5:0.7407407407407407 6:0.0 7:0.5855400437691198 8:0.0 9:0.41172160841394584 10:0.5 11:0.0 12:0.0 13:0.0 14:0.2222222222222222 15:0.42857142857142855 16:0.3086066999241838 
0.0 0.0 0.0 0.0 0.0 0.0 1.0 0.0 0.0 0.0 0.0 0.0 0.0 0.0 1:0.5773502691896258 2:0.0 3:0.0 4:0.2185430463576159 5:0.8958333333333333 6:1.0 7:0.4714045207910316 8:0.0 9:0.35024428052393336 10:1.0 11:0.5 12:0.0 13:0.0 14:0.22727272727272727 15:1.0 16:0.40824829046386296 
0.3239955391245843 0.0 0.0 0.7302882873367963 1.0 0.0 1.0 0.0 0.0 0.0 0.23779003723126227 1.0 0.0 1.0 1:0.0 2:0.0 3:0.0 4:0.14049586776859505 5:0.825 6:0.0 7:0.1386750490563073 8:0.0 9:0.49448516269060283 10:0.3333333333333333 11:0.3333333333333333 12:0.0 13:0.4999999999999999 14:0.16666666666666666 15:0.42857142857142855 16:0.23145502494313785 
0.0 0.0 0.0 0.0 1.0 0.0 1.0 0.0 0.0 0.0 1.0 1.0 0.0 0.0 1:0.0 2:0.0 3:0.0 4:0.08264462809917356 5:0.875 6:1.0 7:0.4008918628686366 8:0.0 9:0.380028039070306 10:0.3333333333333333 11:0.0 12:0.0 13:0.0 14:0.16666666666666666 15:0.6 16:0.27386127875258304 
0.0 0.0 0.0 0.0 0.0 1.0 0.0 0.0 0.0 0.0 0.0 0.0 0.0 0.0 1:1.0 2:0.0 3:0.0 4:0.3105263157894737 5:0.5666666666666667 6:1.0 7:1.0 8:1.0 9:0.2230700797723549 10:1.0 11:0.5 12:0.0 13:0.8660254037844387 14:0.7 15:0.8076923076923077 16:0.7519206177414045 
1.0 0.15266736890487004 0.30753007561920476 0.0 1.0 0.0 0.0 0.0 0.0 0.0 0.0 1.0 0.0 0.0 1:0.0 2:0.0 3:0.0 4:0.4180327868852459 5:0.5263157894736842 6:0.3333333333333333 7:0.7826237921249264 8:0.0 9:0.17547516585978132 10:1.0 11:1.0 12:0.0 13:0.8660254037844387 14:0.8333333333333334 15:0.8333333333333334 16:0.8229511997978236 
0.0 0.0 0.0 0.0 1.0 0.16526489928371074 1.0 0.0 0.0 0.0 1.0 1.0 0.0 0.0 1:0.0 2:0.0 3:0.0 4:0.062111801242236024 5:0.8478260869565217 6:1.0 7:0.0 8:0.0 9:0.32302995733470896 10:0.0 11:0.0 12:0.0 13:0.0 14:0.18181818181818182 15:0.5714285714285714 16:0.30237157840738177 
0.5116277421347569 1.0 0.0 0.0 0.6878700714320722 0.0 0.0 0.0 0.0 0.0 0.0 0.0 0.0 0.0 1:0.9128709291752769 2:0.0 3:0.0 4:0.7453416149068323 5:0.5652173913043478 6:1.0 7:0.8432740427115678 8:0.0 9:0.33666596153715084 10:0.0 11:0.0 12:0.0 13:0.0 14:0.8181818181818182 15:1.0 16:0.8981462390204986 
0.0 0.0 0.0 0.0 1.0 0.0 1.0 1.0 0.0 0.0 1.0 1.0 0.0 0.0 1:0.0 2:0.0 3:0.0 4:0.07453416149068323 5:0.8478260869565217 6:1.0 7:0.19245008972987526 8:0.0 9:0.23353836653069385 10:0.0 11:0.0 12:0.0 13:0.0 14:0.09090909090909091 15:0.2857142857142857 16:0.15118578920369088 
0.5677607389325154 0.0 0.0 0.0 1.0 0.0 1.0 1.0 0.0 0.0 1.0 1.0 0.0 0.0 1:0.0 2:0.0 3:0.0 4:0.24444444444444444 5:0.5555555555555556 6:0.9333333333333333 7:0.8575894485643643 8:0.0 9:0.3587795845412269 10:0.0 11:0.0 12:0.0 13:0.0 14:0.2916666666666667 15:0.30434782608695654 16:0.34139437099945946 
1.0 0.0 0.0 0.6241728586502707 1.0 0.0 1.0 1.0 0.404966965867777 0.0 1.0 1.0 0.5878124061886759 0.0 1:0.0 2:0.0 3:0.0 4:0.24444444444444444 5:0.5555555555555556 6:0.9333333333333333 7:0.8575894485643643 8:0.0 9:0.3587795845412269 10:0.0 11:0.0 12:0.0 13:0.0 14:0.2916666666666667 15:0.30434782608695654 16:0.34139437099945946 
0.0 0.0 0.0 0.0 0.0 0.0 0.0 0.0 0.0 0.0 1.0 1.0 0.0 0.0 1:0.0 2:0.0 3:0.0 4:0.3148148148148148 5:0.8125 6:1.0 7:0.4472135954999579 8:0.0 9:0.11372549019607844 10:0.0 11:0.0 12:0.0 13:0.0 14:0.375 15:1.0 16:0.6123724356957945 
0.0 0.0 0.0 0.0 1.0 0.0 1.0 0.9313467230043444 0.5625737788287836 0.0 1.0 1.0 0.0 1.0 1:0.0 2:0.0 3:0.0 4:0.06666666666666667 5:0.8571428571428572 6:0.5 7:0.23570226039551587 8:0.0 9:0.31868620151425575 10:0.0 11:0.0 12:0.0 13:0.0 14:0.07142857142857142 15:0.25 16:0.1336306209562122 
1.0 0.02747172599005914 0.9636022664415944 0.547743332498804 0.0 0.0 0.0 0.0 0.0 0.0 0.0 0.0 0.0 0.0 1:1.0000000000000002 2:0.0 3:0.0 4:0.90625 5:0.5 6:1.0 7:0.4999999999999999 8:1.0 9:0.26333333333333336 10:0.0 11:0.0 12:0.0 13:1.0 14:0.8888888888888888 15:0.8888888888888888 16:0.8888888888888888 
0.0 0.0 0.0 0.2517903904613334 1.0 0.06261530558686523 0.0 1.0 0.032141016691029915 0.0 0.0 1.0 0.11016330227731472 1.0 1:0.7071067811865475 2:0.0 3:1.0 4:0.05439330543933055 5:0.8088235294117647 6:0.0 7:0.2300894966542111 8:0.0 9:0.3290136445550607 10:0.5 11:0.0 12:0.0 13:0.0 14:0.25806451612903225 15:0.6666666666666666 16:0.40824829046386296 
1.0 0.0 0.0 0.0 0.0 0.0 0.0 0.0 0.0 0.0 0.0 0.0 0.0 0.0 1:1.0 2:0.0 3:0.0 4:0.2777777777777778 5:0.625 6:1.0 7:1.0 8:0.0 9:0.32058494762363227 10:1.0 11:0.0 12:0.0 13:1.0 14:0.75 15:1.0 16:0.8660254037844387 
0.0 0.0 0.0 0.0 1.0 0.0 0.0 0.0 0.0 0.0 1.0 0.0 0.0 0.0 1:0.4999999999999999 2:0.0 3:0.0 4:0.11282051282051282 5:0.6935483870967742 6:1.0 7:0.5262348115842176 8:0.0 9:0.17553061188138244 10:0.6666666666666666 11:0.3333333333333333 12:0.0 13:0.40824829046386296 14:0.36666666666666664 15:0.6470588235294118 16:0.5444655064804709 
0.0 0.0 0.0 0.0 1.0 0.0 0.0 0.0 0.0 0.0 1.0 0.0 0.0 0.0 1:0.5773502691896258 2:0.0 3:0.0 4:0.13286713286713286 5:0.6944444444444444 6:1.0 7:0.4743416490252569 8:0.0 9:0.24092046308735382 10:0.3333333333333333 11:0.0 12:0.0 13:0.35355339059327373 14:0.3333333333333333 15:0.5454545454545454 16:0.42640143271122094 
1.0 0.0 0.0 1.0 0.0 0.0 0.0 0.0 0.0 0.0 0.0 0.0 0.0 0.0 1:0.5773502691896258 2:0.0 3:0.0 4:0.18181818181818182 5:0.5833333333333334 6:1.0 7:0.8017837257372731 8:1.0 9:0.18558535247002744 10:0.3333333333333333 11:0.3333333333333333 12:0.0 13:0.75 14:0.6666666666666666 15:0.8 16:0.7302967433402215 
1.0 0.0 0.5138595770273501 1.0 1.0 0.28224940731916237 1.0 1.0 0.37659702410098406 0.3446246006040448 1.0 1.0 0.0 0.0 1:0.0 2:0.0 3:0.0 4:0.11764705882352941 5:0.47619047619047616 6:1.0 7:0.7399400733959438 8:0.0 9:0.35542697470420015 10:0.5 11:0.5 12:0.0 13:0.0 14:0.3888888888888889 15:0.3684210526315789 16:0.408248290463863 
0.0 0.0 0.07827416453311556 0.11127235652600637 0.0 0.38724852651553876 0.0 0.0 0.0 0.0 1.0 0.0 0.0 0.0 1:0.0 2:0.0 3:0.0 4:0.13793103448275862 5:0.6875 6:1.0 7:0.8616404368553293 8:0.0 9:0.15792863050927566 10:1.0 11:1.0 12:0.0 13:0.7071067811865475 14:0.6190476190476191 15:0.9285714285714286 16:0.7970533969860858 
0.0 0.0 0.0 0.0 1.0 0.0 1.0 1.0 0.0 0.0 1.0 1.0 0.0 0.0 1:0.0 2:0.0 3:0.0 4:0.10900473933649289 5:0.6896551724137931 6:0.6363636363636364 7:0.6831300510639732 8:0.0 9:0.28541770120988574 10:0.5 11:0.0 12:0.0 13:0.31622776601683794 14:0.2857142857142857 15:0.47058823529411764 16:0.4016096644512494 
0.0 0.0 0.0 0.0 1.0 0.0 0.0 1.0 0.0 0.0 0.0 1.0 0.0 0.0 1:0.0 2:0.0 3:0.0 4:0.0763888888888889 5:0.6956521739130435 6:0.0 7:0.5976143046671968 8:0.0 9:0.08840905683010947 10:0.0 11:0.0 12:0.0 13:0.0 14:0.18181818181818182 15:0.3076923076923077 16:0.25 
0.0 0.0 0.0 0.0 1.0 0.0 0.0 1.0 0.04845882738088314 0.0 0.0 1.0 0.0 0.0 1:0.0 2:0.0 3:0.0 4:0.0763888888888889 5:0.6956521739130435 6:0.0 7:0.5976143046671968 8:0.0 9:0.08840905683010947 10:0.0 11:0.0 12:0.0 13:0.0 14:0.18181818181818182 15:0.3076923076923077 16:0.25 
0.0 0.0 0.8849225053675993 0.9996491257640532 1.0 1.0 1.0 0.4016437940726518 0.0 0.0 1.0 1.0 0.0 0.0 1:0.0 2:0.0 3:0.0 4:0.08108108108108109 5:0.6666666666666666 6:1.0 7:0.3076923076923077 8:0.0 9:0.13948519260779277 10:0.3333333333333333 11:0.3333333333333333 12:0.0 13:0.0 14:0.2413793103448276 15:0.3684210526315789 16:0.3015113445777636 
0.0 0.0 0.0 0.0 1.0 0.0 0.0 0.0 0.0 0.0 0.0 0.0 0.0 0.0 1:0.6708203932499369 2:0.0 3:0.0 4:0.29056603773584905 5:0.6951219512195121 6:1.0 7:0.5921565254637922 8:0.0 9:0.28396305264307414 10:0.3333333333333333 11:0.0 12:0.0 13:0.4472135954999579 14:0.43902439024390244 15:0.75 16:0.5710574352893738 
0.0 0.0 0.0 0.4650864272805713 1.0 0.0 1.0 0.0 0.0 0.0 1.0 1.0 0.0 0.0 1:0.0 2:0.0 3:0.0 4:0.057971014492753624 5:0.7903225806451613 6:1.0 7:0.45226701686664544 8:0.0 9:0.33672028600476667 10:0.6666666666666666 11:0.3333333333333333 12:0.0 13:0.0 14:0.3103448275862069 15:0.75 16:0.4800793585191832 
0.0 1.0 0.0 0.0 0.0 0.0 0.0 0.0 0.0 0.0 0.0 0.0 0.0 0.0 1:0.0 2:0.0 3:0.0 4:0.6857142857142857 5:0.6086956521739131 6:0.0 7:0.9296696802013682 8:0.5 9:0.23253145734348724 10:1.0 11:1.0 12:0.0 13:0.7745966692414834 14:0.8181818181818182 15:1.0 16:0.8956685895029604 
0.0 0.0 0.16392035080342438 0.10465293959675152 0.0 0.0 0.0 0.0 0.0 0.0 0.0 1.0 0.0 0.0 1:0.0 2:0.0 3:0.0 4:0.13805970149253732 5:0.7794117647058824 6:0.0 7:0.5051814855409226 8:0.0 9:0.19268917227942525 10:0.0 11:0.0 12:0.0 13:1.0 14:0.4 15:0.8571428571428571 16:0.6362090102803518 
0.0 0.0 0.0 0.0 1.0 0.0 1.0 0.0 0.0 0.0 0.0 1.0 0.0 0.0 1:0.0 2:0.0 3:0.0 4:0.13805970149253732 5:0.7647058823529411 6:0.0 7:0.6 8:0.0 9:0.17851632537277443 10:1.0 11:1.0 12:0.0 13:0.0 14:0.36666666666666664 15:0.6875 16:0.5400617248673216 
0.0 0.0 0.0 0.0 1.0 0.0 0.0 0.0 0.0 0.0 1.0 0.0 0.0 0.0 1:0.5 2:0.0 3:0.0 4:0.11801242236024845 5:0.7380952380952381 6:1.0 7:0.4472135954999579 8:0.0 9:0.21460142090134038 10:0.3333333333333333 11:0.0 12:0.0 13:0.35355339059327373 14:0.3 15:0.5454545454545454 16:0.3772167680771589 
0.9580081088034735 0.0 0.10927479611676542 0.0 0.0 0.0 0.0 0.0 0.0 0.0 0.0 0.0 0.0 0.0 1:0.8164965809277259 2:0.0 3:0.0 4:0.40611353711790393 5:0.6029411764705882 6:0.8 7:0.846809798439941 8:0.0 9:0.32753563739680225 10:0.0 11:0.0 12:0.0 13:0.9999999999999998 14:0.7666666666666667 15:0.92 16:0.8738847831984206 
1.0 0.0 0.0 0.0 0.0 0.0 0.0 0.0 0.0 0.0 0.0 0.0 0.0 0.0 1:0.0 2:0.0 3:0.0 4:0.5538461538461539 5:0.55 6:1.0 7:0.9999999999999998 8:1.0 9:0.251525922941279 10:1.0 11:0.5 12:0.0 13:0.8660254037844387 14:0.8421052631578947 15:1.0 16:0.9090909090909091 
1.0 0.0 0.0 0.0 1.0 0.0 0.0 0.0 0.0 0.0 0.0 0.0 0.0 0.0 1:0.5773502691896258 2:0.0 3:0.0 4:0.2982456140350877 5:0.6363636363636364 6:1.0 7:0.9035624609139907 8:0.0 9:0.32531161851790047 10:1.0 11:0.6666666666666666 12:0.0 13:0.0 14:0.5238095238095238 15:0.6875 16:0.6123724356957946 
0.0 0.0 0.0 0.0 1.0 0.0 1.0 0.0 0.0 0.0 0.0 0.0 0.0 0.0 1:0.40824829046386296 2:0.0 3:0.0 4:0.2046783625730994 5:0.7272727272727273 6:1.0 7:0.8090398349558905 8:0.0 9:0.3003364471985772 10:1.0 11:0.0 12:0.0 13:0.0 14:0.5238095238095238 15:0.9166666666666666 16:0.7071067811865476 
0.0 0.0 0.0 0.0 1.0 0.0 1.0 0.0 0.0 0.0 0.0 0.0 0.0 0.0 1:0.5773502691896258 2:0.0 3:0.0 4:0.1286549707602339 5:0.8181818181818181 6:1.0 7:0.5222329678670935 8:0.0 9:0.3272106722863891 10:1.0 11:0.0 12:0.0 13:0.0 14:0.23809523809523808 15:0.625 16:0.43301270189221935 
0.0 0.0 0.0 0.0 1.0 0.0 0.9265099084934911 0.0 0.0 0.0 1.0 1.0 0.0 0.0 1:0.0 2:0.0 3:0.0 4:0.07111111111111111 5:0.8285714285714285 6:1.0 7:0.2051956704170308 8:0.0 9:0.3853300649826112 10:0.2 11:0.2 12:0.0 13:0.40824829046386296 14:0.15625 15:0.45454545454545453 16:0.20869596778242056 
0.0 0.0 0.0 1.0 1.0 0.0 0.0 1.0 0.0 0.0 1.0 1.0 0.0 0.0 1:0.0 2:0.0 3:0.0 4:0.10666666666666667 5:0.7142857142857143 6:1.0 7:0.6055300708194984 8:0.0 9:0.37010914231908204 10:0.5 11:0.25 12:0.0 13:0.33333333333333337 14:0.375 15:0.631578947368421 16:0.43285265283781743 
0.0 0.0 0.7569679303448422 0.0 1.0 0.2619196444824592 0.34002077658611585 0.6862405621354537 0.0 0.0 1.0 1.0 0.0 0.0 1:0.0 2:0.0 3:0.0 4:0.07111111111111111 5:0.8285714285714285 6:1.0 7:0.2051956704170308 8:0.0 9:0.3853300649826112 10:0.2 11:0.2 12:0.0 13:0.40824829046386296 14:0.15625 15:0.45454545454545453 16:0.20869596778242056 
1.0 0.0 0.09881299776476656 0.0 1.0 0.0 1.0 0.0 0.0 0.2853642773609672 0.0 1.0 0.0 0.0 1:0.0 2:0.0 3:0.0 4:0.15584415584415584 5:0.5 6:0.0 7:0.6708203932499369 8:0.0 9:0.25685087859000905 10:1.0 11:1.0 12:0.0 13:0.0 14:0.6 15:0.6 16:0.5999999999999999 
0.0 0.0 0.0 0.4420643746763232 1.0 1.0 1.0 1.0 0.0 0.0 0.0 1.0 0.0 0.0 1:0.0 2:0.0 3:0.0 4:0.11688311688311688 5:0.65 6:0.0 7:0.25 8:0.0 9:0.21463755542702911 10:0.0 11:0.0 12:0.0 13:0.0 14:0.3 15:0.42857142857142855 16:0.35856858280031806 
1.0 0.0 0.0 0.0 1.0 0.0 1.0 0.0 0.0 0.0 0.0 1.0 0.0 0.0 1:0.0 2:0.0 3:0.0 4:0.15584415584415584 5:0.45454545454545453 6:0.0 7:0.7216878364870323 8:0.0 9:0.19493605809395284 10:1.0 11:1.0 12:0.0 13:0.0 14:0.6 15:0.5454545454545454 16:0.5720775535473553 
0.41580537940152307 0.0 0.0 0.004978163002402369 0.0 0.0 0.0 1.0 0.0 0.0 0.0 1.0 0.018332872740552644 0.0 1:0.4082482904638631 2:0.0 3:1.0 4:0.5333333333333333 5:0.7380952380952381 6:1.0 7:0.7302967433402213 8:0.0 9:0.21774133324581293 10:0.5 11:0.5 12:0.0 13:0.4999999999999999 14:0.55 15:1.0 16:0.7544335361543179 
1.0 1.0 0.0 0.7150168157266157 1.0 0.07971361558587203 0.0 0.0 0.0 0.0 0.0 0.0 0.3551094459912931 0.0 1:1.0000000000000002 2:0.0 3:0.0 4:0.8679245283018868 5:0.5 6:1.0 7:0.8749999999999998 8:0.0 9:0.2664843416817101 10:0.0 11:0.0 12:0.0 13:0.0 14:0.9333333333333333 15:0.9333333333333333 16:0.9333333333333332 
0.0 0.0 0.0 0.0 1.0 0.0 0.0 1.0 0.0 0.0 1.0 1.0 0.0 0.0 1:0.0 2:0.0 3:0.0 4:0.16744186046511628 5:0.640625 6:1.0 7:0.5294117647058824 8:0.0 9:0.19073333344749963 10:0.0 11:0.0 12:0.0 13:0.5 14:0.3870967741935484 15:0.5454545454545454 16:0.48019603839902475 
0.0 0.0 0.0 0.0 1.0 0.0 0.0 0.0 0.0 0.0 0.0 0.0 0.0 0.0 1:0.6546536707079772 2:0.0 3:0.0 4:0.2049469964664311 5:0.6666666666666666 6:1.0 7:0.17407765595569785 8:0.4 9:0.1983859147355875 10:0.0 11:0.0 12:0.0 13:0.4629100498862757 14:0.38461538461538464 15:0.5555555555555556 16:0.4479893351905204 
0.0 0.0 0.0 0.0 1.0 0.0 1.0 1.0 0.0 0.0 1.0 1.0 0.0 0.0 1:0.0 2:0.0 3:0.0 4:0.05116279069767442 5:0.625 6:1.0 7:0.14625448482542613 8:0.0 9:0.14209847613805815 10:0.3333333333333333 11:0.0 12:0.0 13:0.2886751345948129 14:0.1935483870967742 15:0.2608695652173913 16:0.3027027572983406 
1.0 1.0 0.0 0.0 1.0 0.3155320076738518 0.0 0.0 0.0 0.0 0.0 1.0 0.0 0.0 1:0.0 2:0.0 3:0.0 4:0.553030303030303 5:0.375 6:0.0 7:0.9045340337332909 8:1.0 9:0.23527726659305603 10:1.0 11:0.5 12:0.0 13:0.0 14:0.9411764705882353 15:0.6956521739130435 16:0.8332051183416778 
0.0 0.0 0.0 0.0 1.0 0.0 1.0 1.0 0.0 0.0 1.0 1.0 0.0 1.0 1:0.0 2:0.0 3:0.0 4:0.04697986577181208 5:0.5 6:0.2857142857142857 7:0.08574929257125441 8:0.0 9:0.24634471579985406 10:0.0 11:0.0 12:0.0 13:0.0 14:0.18181818181818182 15:0.18181818181818182 16:0.2 
0.0 0.0 0.0 0.0 1.0 0.0 1.0 1.0 0.0 0.0 1.0 1.0 0.0 0.0 1:0.0 2:0.0 3:0.0 4:0.053691275167785234 5:0.5434782608695652 6:0.2857142857142857 7:0.3333333333333333 8:0.0 9:0.27574093809214856 10:0.0 11:0.0 12:0.0 13:0.40824829046386296 14:0.18181818181818182 15:0.19047619047619047 16:0.1745743121887939 
0.0 0.0 0.0 0.0 1.0 0.0 1.0 5.243651168384779E-4 0.0 0.0 1.0 1.0 0.0 0.0 1:0.0 2:0.0 3:0.0 4:0.06040268456375839 5:0.4107142857142857 6:1.0 7:0.21320071635561041 8:0.0 9:0.2531344755319212 10:0.0 11:0.0 12:0.0 13:0.0 14:0.09090909090909091 15:0.07692307692307693 16:0.07071067811865475 
0.0 0.0 0.0 0.0 1.0 0.0 1.0 0.0 0.0 0.0 1.0 1.0 0.0 0.0 1:0.0 2:0.0 3:0.0 4:0.06870229007633588 5:0.375 6:1.0 7:0.10050378152592121 8:0.0 9:0.20412312676612346 10:0.0 11:0.0 12:0.0 13:0.0 14:0.058823529411764705 15:0.043478260869565216 16:0.043852900965351466 
0.0 0.0 0.0 0.0 1.0 0.0 1.0 1.0 0.0 0.0 1.0 1.0 0.0 0.0 1:0.0 2:0.0 3:0.0 4:0.0670391061452514 5:0.7884615384615384 6:1.0 7:0.35355339059327373 8:0.0 9:0.12734132490055225 10:0.0 11:0.0 12:0.0 13:0.0 14:0.13636363636363635 15:0.2727272727272727 16:0.30151134457776363 
0.0 0.0 0.8792174223337959 0.0 1.0 0.0 0.0 1.0 0.0 0.0 1.0 1.0 0.0 0.0 1:0.0 2:0.0 3:0.0 4:0.07913669064748201 5:0.725 6:1.0 7:0.24999999999999994 8:0.0 9:0.14453781512605043 10:0.0 11:0.0 12:0.0 13:0.7071067811865475 14:0.2222222222222222 15:0.36363636363636365 16:0.3077287274483319 
0.0 0.0 0.0 0.07474258298911104 1.0 0.0 0.0 0.0 0.0 0.0 0.0 0.0 0.0 0.0 1:0.5303300858899106 2:0.0 3:0.0 4:0.33189655172413796 5:0.703125 6:1.0 7:0.5163977794943223 8:0.0 9:0.15304763614055478 10:0.4 11:0.4 12:0.0 13:0.31622776601683794 14:0.41379310344827586 15:0.631578947368421 16:0.5210260492953508 
1.0 0.0 0.8458330397245266 1.0 1.0 0.5190826397581191 0.0 1.0 0.0 0.0 1.0 1.0 0.0 0.0 1:0.0 2:0.0 3:0.0 4:0.22784810126582278 5:0.359375 6:0.5384615384615384 7:0.609849578616645 8:0.0 9:0.20431430779160306 10:0.0 11:0.0 12:0.0 13:0.5 14:0.5454545454545454 15:0.3870967741935484 16:0.48019603839902475 
0.0 0.0 0.0 0.0 1.0 0.0 1.0 1.0 0.0 0.0 1.0 1.0 0.0 0.0 1:0.0 2:0.0 3:0.0 4:0.06962025316455696 5:0.359375 6:1.0 7:0.4824506406770077 8:0.0 9:0.1616102260067299 10:0.0 11:0.0 12:0.0 13:0.0 14:0.18181818181818182 15:0.13793103448275862 16:0.16222142113076254 
0.4774654807645717 0.0 0.0 0.0 1.0 0.31710838145310133 0.0 0.0 0.0 0.0 0.0 0.0 0.0 0.0 1:0.9999999999999998 2:0.0 3:0.0 4:0.4148936170212766 5:0.234375 6:0.7692307692307693 7:0.8453639444116164 8:1.0 9:0.22378614220525178 10:1.0 11:0.0 12:0.0 13:0.5773502691896258 14:0.7857142857142857 15:0.3548387096774194 16:0.5407287150250069 
0.0 0.0 0.0 0.0 1.0 0.0 1.0 1.0 0.0 0.30200753858410767 1.0 1.0 0.0 0.0 1:0.0 2:0.0 3:0.0 4:0.09574468085106383 5:0.17857142857142855 6:0.6666666666666666 7:0.6085806194501845 8:0.0 9:0.24842427973335146 10:1.0 11:0.5 12:0.0 13:0.0 14:0.35714285714285715 15:0.1282051282051282 16:0.280056016805602 
0.0 0.0 0.0 0.0 1.0 0.0 1.0 1.0 0.0 0.0 1.0 1.0 0.0 0.449708626920807 1:0.0 2:0.0 3:0.0 4:0.046632124352331605 5:0.5892857142857143 6:1.0 7:0.21320071635561041 8:0.0 9:0.2531344755319212 10:0.0 11:0.0 12:0.0 13:0.0 14:0.07692307692307693 15:0.09090909090909091 16:0.07071067811865475 
0.2879812417666333 0.0 0.31517163967108125 1.0 1.0 0.0 0.0 0.0 0.0 1.0 1.0 0.0 0.0 0.0 1:0.6546536707079772 2:0.0 3:0.0 4:0.3020833333333333 5:0.33333333333333337 6:1.0 7:0.17407765595569785 8:0.6666666666666666 9:0.19838591473558764 10:0.0 11:0.0 12:0.0 13:0.4629100498862757 14:0.5555555555555556 15:0.38461538461538464 16:0.4479893351905204 
0.0 0.0 0.0 0.0 1.0 0.0 1.0 0.0 0.3977858227615709 0.0 1.0 1.0 0.0 0.0 1:0.0 2:0.0 3:0.0 4:0.046875 5:0.5892857142857143 6:0.8571428571428571 7:0.21938172723813917 8:0.0 9:0.18440971424234942 10:1.0 11:0.0 12:0.0 13:0.0 14:0.18518518518518517 15:0.22727272727272727 16:0.21908902300206642 
0.0 0.0 0.0 0.0 1.0 0.0 1.0 0.0 0.0 0.0 1.0 1.0 0.0 1.0 1:0.0 2:0.0 3:0.0 4:0.05421686746987952 5:0.625 6:0.5 7:0.10050378152592121 8:0.0 9:0.20412312676612346 10:0.0 11:0.0 12:0.0 13:0.0 14:0.043478260869565216 15:0.058823529411764705 16:0.043852900965351466 
0.0 0.0 0.0 0.0 1.0 0.0 1.0 1.0 0.0 0.0 1.0 1.0 0.0 0.0 1:0.0 2:0.0 3:0.0 4:0.06626506024096386 5:0.5208333333333334 6:0.4 7:0.2461829819586655 8:0.0 9:0.1659665668945314 10:0.0 11:0.0 12:0.0 13:0.0 14:0.17391304347826086 15:0.17391304347826086 16:0.20446520502738272 
0.0 0.0 0.0 0.0 1.0 0.19297800312166136 1.0 0.0 0.0 0.0 1.0 1.0 0.0 0.0 1:0.0 2:0.0 3:0.0 4:0.2033898305084746 5:0.21153846153846156 6:0.0 7:0.7115124735378853 8:0.0 9:0.14636215375748024 10:1.0 11:0.0 12:0.0 13:0.6666666666666667 14:0.2727272727272727 15:0.13636363636363635 16:0.30151134457776363 
0.0 0.0 0.0 0.0 1.0 0.0 1.0 0.08291660425032917 0.0 0.0 1.0 1.0 0.0 0.0 1:0.0 2:0.0 3:0.0 4:0.13559322033898305 5:0.22916666666666669 6:0.0 7:0.30151134457776363 8:0.0 9:0.22417641460194654 10:1.0 11:1.0 12:0.0 13:0.31622776601683794 14:0.09090909090909091 15:0.043478260869565216 16:0.11826247919781652 
1.0 1.0 0.0 0.14312367485652885 1.0 0.0 0.0 0.0 0.0 0.0 0.0 0.0 0.0 0.0 1:0.0 2:0.0 3:0.0 4:0.4397590361445783 5:0.625 6:1.0 7:0.9045340337332909 8:0.5 9:0.23527726659305603 10:0.6666666666666666 11:0.3333333333333333 12:0.0 13:0.0 14:0.6956521739130435 15:0.9411764705882353 16:0.8332051183416778 
0.0 0.0 0.0 0.0 1.0 0.0 1.0 0.0 0.0 0.0 0.0 1.0 0.0 0.0 1:0.5303300858899106 2:0.0 3:0.0 4:0.5746268656716418 5:0.296875 6:0.16666666666666666 7:0.43301270189221935 8:0.0 9:0.13135619948096527 10:1.0 11:1.0 12:0.0 13:0.31622776601683794 14:0.631578947368421 15:0.41379310344827586 16:0.5210260492953508 
0.0 0.0 0.0 0.0 1.0 0.0 1.0 0.0 0.0 0.0 1.0 1.0 0.0 1.0 1:0.0 2:0.0 3:0.0 4:0.04477611940298507 5:0.3958333333333333 6:0.5 7:0.0 8:0.0 9:0.15180733302442603 10:0.0 11:0.0 12:0.0 13:0.0 14:0.05263157894736842 15:0.043478260869565216 16:0.04499212706658475 
0.0 0.0 0.0 0.0 1.0 0.0 0.0 0.0 0.0 0.0 0.0 0.0 0.0 0.0 1:0.8249579113843053 2:0.0 3:0.0 4:0.37398373983739835 5:0.265625 6:1.0 7:0.686406472983644 8:0.0 9:0.1594682068886505 10:1.0 11:1.0 12:0.0 13:0.4472135954999579 14:0.7647058823529411 15:0.4482758620689655 16:0.5901671065234753 
0.0 0.0 0.0 0.0 1.0 0.0 0.0 1.0 0.0 0.0 1.0 1.0 0.0 0.0 1:0.35355339059327373 2:0.0 3:0.0 4:0.06584362139917696 5:0.4605263157894737 6:1.0 7:0.43259045634870014 8:0.0 9:0.20138981755031907 10:0.0 11:0.0 12:0.0 13:0.3872983346207417 14:0.3125 15:0.30303030303030304 16:0.4548054859154205 
1.0 0.0 0.0 1.0 0.0 0.0 0.0 0.0 0.0 0.0 0.0 0.0 0.0 0.0 1:0.2886751345948129 2:0.0 3:0.0 4:0.18518518518518517 5:0.5571428571428572 6:0.9333333333333333 7:0.8104408984731079 8:1.0 9:0.21855623871249788 10:0.3333333333333333 11:0.3333333333333333 12:0.0 13:0.47140452079103173 14:0.625 15:0.6896551724137931 16:0.7127509644204137 
0.0 0.0 0.30501029099101495 1.0 1.0 0.0 0.0 1.0 0.0 1.0 1.0 1.0 0.0 0.0 1:0.4472135954999579 2:0.0 3:0.0 4:0.07142857142857142 5:0.2763157894736842 6:1.0 7:0.4338609156373123 8:0.5 9:0.19478508364391553 10:0.5 11:1.0 12:0.0 13:0.42426406871192845 14:0.3333333333333333 15:0.21212121212121213 16:0.30261376633440124 
0.0 0.0 0.0 0.0 1.0 0.0 1.0 0.0 0.0 0.0 1.0 1.0 0.0 0.0 1:0.0 2:0.0 3:0.0 4:0.06944444444444445 5:0.32857142857142857 6:0.3333333333333333 7:0.21821789023599236 8:0.0 9:0.15275570385428727 10:1.0 11:0.0 12:0.0 13:0.0 14:0.21739130434782608 15:0.15625 16:0.19538688270775087 
0.0 0.0 0.0 0.0 1.0 0.0 1.0 0.0 0.0 0.0 1.0 1.0 0.0 0.0 1:0.19999999999999996 2:0.0 3:0.0 4:0.09722222222222222 5:0.3026315789473684 6:0.5714285714285714 7:0.07453559924999299 8:0.0 9:0.16767819313646268 10:0.0 11:0.0 12:0.0 13:0.0 14:0.21739130434782608 15:0.15151515151515152 16:0.20241022618818413 
0.0 0.0 0.04156984403469667 0.0 0.0 0.0 0.0 1.0 0.0 0.0 0.0 0.0 0.0 0.0 1:0.7071067811865475 2:0.0 3:0.0 4:0.05027932960893855 5:0.78 6:1.0 7:0.5892556509887896 8:0.4 9:0.18587674420210312 10:0.0 11:0.0 12:0.0 13:0.6963106238227914 14:0.15 15:0.2727272727272727 16:0.30578831486257535 
0.0 0.0 0.0 0.0 0.0 0.4449077848702378 0.0 1.0 0.0 0.0 0.0 0.0 0.0 0.0 1:0.0 2:0.0 3:0.0 4:0.11734693877551021 5:0.6666666666666666 6:1.0 7:0.6669729688499156 8:1.0 9:0.11901084286533584 10:1.0 11:1.0 12:0.0 13:0.8164965809277259 14:0.3333333333333333 15:0.47368421052631576 16:0.46193488543715594 
0.0 0.0 0.0 0.0 1.0 0.0 0.0 0.0 0.0 0.0 1.0 1.0 0.0 0.0 1:0.4472135954999579 2:0.0 3:0.0 4:0.061224489795918366 5:0.35526315789473684 6:1.0 7:0.05423261445466404 8:0.0 9:0.224374503589616 10:0.0 11:0.0 12:0.0 13:0.5477225575051661 14:0.23076923076923078 15:0.18181818181818182 16:0.28326441144353265 
1.0 0.0 0.0 0.17873947926813974 1.0 0.0 1.0 1.0 0.11728709054784507 0.0 1.0 1.0 0.0 0.0 1:0.0 2:0.0 3:0.0 4:0.10465116279069768 5:0.21999999999999997 6:0.0 7:0.2886751345948129 8:0.3333333333333333 9:0.14851194066143203 10:0.0 11:0.0 12:0.0 13:0.3849001794597505 14:0.2727272727272727 15:0.15 16:0.30578831486257535 
0.0 0.0 0.0 0.027534426140197583 1.0 0.0 1.0 0.9275543364284389 0.0 0.0 1.0 0.5011680499856465 0.0 0.0 1:0.5163977794943222 2:0.0 3:0.0 4:0.1111111111111111 5:0.28260869565217395 6:1.0 7:0.8040302522073697 8:0.0 9:0.201788870743979 10:1.0 11:0.0 12:0.0 13:0.0 14:0.38461538461538464 15:0.21739130434782608 16:0.2891574659831202 
0.0 0.0 0.0 1.0 1.0 0.0 1.0 1.0 0.0 0.0 1.0 1.0 0.0 0.0 1:0.0 2:0.0 3:0.0 4:0.1891891891891892 5:0.38095238095238093 6:0.8333333333333334 7:0.12909944487358058 8:0.0 9:0.3305770184407953 10:0.0 11:0.0 12:0.0 13:0.4999999999999999 14:0.3333333333333333 15:0.25 16:0.3440312310280934 
0.0 0.0 0.0 0.0 1.0 0.0 0.0 0.0 0.0 0.0 0.0 1.0 0.0 0.0 1:0.0 2:0.0 3:0.0 4:0.19827586206896552 5:0.33333333333333337 6:0.625 7:0.6669729688499156 8:1.0 9:0.11901084286533581 10:1.0 11:1.0 12:0.0 13:0.8164965809277259 14:0.47368421052631576 15:0.3333333333333333 16:0.46193488543715594 
0.0 0.0 0.0 0.0 1.0 0.0 0.0 0.0 0.0 0.0 0.0 1.0 0.0 0.0 1:0.0 2:0.0 3:0.0 4:0.2037037037037037 5:0.13333333333333336 6:0.25 7:0.6481812160876687 8:1.0 9:0.117502953051195 10:1.0 11:1.0 12:0.0 13:0.5773502691896258 14:0.75 15:0.2222222222222222 16:0.41247895569215265 
0.0 0.0 0.0 0.0 1.0 0.0 1.0 0.0 0.0 0.0 1.0 1.0 0.0 0.0 1:0.0 2:0.0 3:0.0 4:0.0784313725490196 5:0.36363636363636365 6:1.0 7:0.0 8:0.0 9:0.03812636165577342 10:0.0 11:0.0 12:0.0 13:0.0 14:0.0 15:0.0 16:0.0 
1.0 0.0 0.0 0.0 1.0 0.0 1.0 0.0 0.0 0.0 0.0 1.0 0.0 0.0 1:0.0 2:0.0 3:0.0 4:0.19047619047619047 5:0.3666666666666667 6:0.5 7:0.8164965809277261 8:0.6666666666666666 9:0.2673312812631698 10:1.0 11:1.0 12:0.0 13:0.0 14:0.5454545454545454 15:0.42857142857142855 16:0.43876345447627835 
0.0 0.0 0.0 0.0 1.0 0.0 1.0 0.0 0.0 0.0 1.0 1.0 0.0 0.21928299812799784 1:0.0 2:0.0 3:0.0 4:0.05405405405405406 5:0.6363636363636364 6:0.4 7:0.0 8:0.0 9:0.03812636165577342 10:0.0 11:0.0 12:0.0 13:0.0 14:0.0 15:0.0 16:0.0 
0.0 0.0 0.0 0.9799929881488187 1.0 0.0 0.0 0.0 0.0 0.0 0.0 0.0 0.0 0.0 1:0.2886751345948129 2:0.0 3:0.0 4:0.21844660194174756 5:0.44285714285714284 6:1.0 7:0.7711356597650746 8:0.6666666666666666 9:0.16759968189078092 10:1.0 11:1.0 12:0.0 13:0.47140452079103173 14:0.6896551724137931 15:0.625 16:0.7127509644204137 
0.0 0.0 0.0 0.0 1.0 0.0 0.0 1.0 0.0 0.0 1.0 1.0 0.0 0.0 1:0.3651483716701107 2:0.0 3:0.0 4:0.0970873786407767 5:0.40789473684210525 6:1.0 7:0.3803194146278324 8:0.5 9:0.19503956512855747 10:0.0 11:0.0 12:0.0 13:0.5477225575051661 14:0.41379310344827586 15:0.36363636363636365 16:0.5156879540323449 
0.0 0.0 0.0 0.3868443436347572 1.0 0.0 0.0 1.0 0.0 0.0 1.0 1.0 0.0 0.0 1:0.0 2:0.0 3:0.0 4:0.15217391304347827 5:0.6190476190476191 6:1.0 7:0.12909944487358058 8:0.0 9:0.33057701844079557 10:0.0 11:0.0 12:0.0 13:0.4999999999999999 14:0.25 15:0.3333333333333333 16:0.3440312310280934 
0.0 1.0 0.0 0.0 0.0 0.0 0.0 0.0 0.0 0.0 0.0 0.0 0.0 0.0 1:0.6324555320336759 2:0.0 3:0.0 4:0.888 5:0.43478260869565216 6:1.0 7:1.0 8:0.0 9:0.18253266218768202 10:1.0 11:1.0 12:0.0 13:1.0 14:1.0 15:0.8695652173913043 16:0.9325048082403138 
0.0 0.0 0.0 0.0 0.22027361153116823 0.0 0.0 0.0 0.0 0.0 0.0 0.0 0.0 0.0 1:1.0 2:0.0 3:0.0 4:0.9186991869918699 5:0.25 6:1.0 7:0.7759402897989853 8:1.0 9:0.15633889413993593 10:1.0 11:1.0 12:0.0 13:0.8728715609439696 14:0.9444444444444444 15:0.53125 16:0.7867957924694432 
0.0 0.0 0.0 1.0 1.0 0.05233903834828398 1.0 1.0 0.0 0.0 0.4135641769903765 1.0 0.0 0.4728015664436556 1:0.5 2:0.0 3:0.0 4:0.06030150753768844 5:0.3783783783783784 6:0.2857142857142857 7:0.25712973861328997 8:0.0 9:0.27217870739684497 10:0.0 11:0.0 12:0.0 13:0.0 14:0.25925925925925924 15:0.20588235294117646 16:0.25058072087536704 
0.0 0.0 0.0 0.0 1.0 0.0 1.0 0.0 0.0 0.0 1.0 1.0 0.0 0.6268544368664709 1:0.0 2:0.0 3:0.0 4:0.06779661016949153 5:0.2962962962962963 6:0.0 7:0.12403473458920847 8:0.0 9:0.2108811050894077 10:0.5 11:0.0 12:0.0 13:0.0 14:0.1875 15:0.11538461538461539 16:0.1392715036327889 
0.0 0.0 0.0 0.0 1.0 0.0 1.0 0.0 0.1738871082068027 0.0 0.0 1.0 0.0 0.0 1:0.0 2:0.0 3:0.0 4:0.1864406779661017 5:0.84375 6:0.0 7:0.4472135954999579 8:0.0 9:0.10933510933510934 10:0.5 11:0.5 12:0.0 13:0.0 14:0.125 15:0.4 16:0.22360679774997896 
0.0 0.0 0.0 0.0 1.0 1.0 1.0 0.0 0.0 0.0 0.0 0.0 0.0 0.0 1:0.7071067811865475 2:0.0 3:0.0 4:0.08290155440414508 5:0.375 6:0.6666666666666666 7:0.6708203932499369 8:0.0 9:0.22728606192097228 10:1.0 11:0.5 12:0.0 13:0.23570226039551587 14:0.36 15:0.3103448275862069 16:0.30658330991377586 
0.0 0.0 0.0 0.0 1.0 0.0 1.0 1.0 0.0 0.0 1.0 1.0 0.0 0.0 1:0.0 2:0.0 3:0.0 4:0.08290155440414508 5:0.5 6:0.0 7:0.25087260300212727 8:0.0 9:0.2346478187027947 10:0.3333333333333333 11:0.3333333333333333 12:0.0 13:0.22360679774997896 14:0.24 15:0.2222222222222222 16:0.20739033894608505 
0.0 0.0 0.0 1.0 1.0 0.0 1.0 1.0 0.0 0.5467867561304826 1.0 1.0 0.0 0.0 1:0.0 2:0.0 3:0.0 4:0.1348314606741573 5:0.24074074074074076 6:1.0 7:0.294174202707276 8:0.0 9:0.30483924859471684 10:0.0 11:0.0 12:0.0 13:0.0 14:0.23076923076923078 15:0.12 16:0.1494406444160154 
0.0 0.0 0.0 0.05221057981077468 1.0 0.0 1.0 1.0 0.0 0.0 1.0 1.0 0.0 0.7574118041994871 1:0.0 2:1.0 3:1.0 4:0.05319148936170213 5:0.26785714285714285 6:1.0 7:0.0 8:0.0 9:0.16240249705806975 10:0.0 11:0.0 12:0.0 13:0.0 14:0.06666666666666667 15:0.037037037037037035 16:0.09428090415820634 
0.7522315759851119 0.0 0.0 0.725014585700252 1.0 0.02324511110853629 1.0 1.0 0.0024570111506665646 0.0 1.0 1.0 0.0 0.5912313878852098 1:0.0 2:1.0 3:1.0 4:0.09574468085106383 5:0.3 6:0.6 7:0.14433756729740646 8:0.0 9:0.2103963483103375 10:0.3333333333333333 11:0.3333333333333333 12:0.0 13:0.2886751345948129 14:0.13333333333333333 15:0.08 16:0.10327955589886445 
0.0 0.0 0.0 1.0 1.0 0.9170419047596068 1.0 0.0 0.0 0.0 1.0 1.0 0.0 0.0 1:0.5773502691896258 2:0.0 3:0.0 4:0.14393939393939395 5:0.36 6:1.0 7:0.25087260300212727 8:0.0 9:0.24600997568462624 10:0.5 11:0.5 12:0.0 13:0.47140452079103173 14:0.3888888888888889 15:0.2916666666666667 16:0.3175264481385601 
0.4217379097733047 0.0 0.0 0.0 1.0 0.0 0.0 1.0 0.0 0.0 1.0 1.0 0.0 0.0 1:0.2886751345948129 2:0.0 3:0.0 4:0.175 5:0.3148148148148148 6:1.0 7:0.2182178902359924 8:0.0 9:0.24784542069879725 10:0.0 11:0.0 12:0.0 13:0.6666666666666667 14:0.5625 15:0.34615384615384615 16:0.426014322842305 
0.0 0.0 0.0 0.0 1.0 0.0 0.0 1.0 0.0 0.0 1.0 1.0 0.0 0.0 1:0.0 2:0.0 3:0.0 4:0.1 5:0.3888888888888889 6:1.0 7:0.3223291856101521 8:1.0 9:0.22202511601295316 10:0.6666666666666666 11:0.3333333333333333 12:0.0 13:0.6708203932499369 14:0.3 15:0.2222222222222222 16:0.2809003238667948 
0.0 0.0 0.0 1.0 1.0 1.0 0.0 0.0 0.0 0.0 0.0 1.0 0.0 0.0 1:0.6546536707079772 2:0.0 3:0.0 4:0.09361702127659574 5:0.5606060606060606 6:0.625 7:0.5562939111665911 8:0.0 9:0.23128073048193407 10:0.6666666666666666 11:0.6666666666666666 12:0.0 13:0.0 14:0.4482758620689655 15:0.52 16:0.5264828210920953 
0.0 0.0 0.0 1.0 1.0 0.0 1.0 1.0 0.0 1.0 1.0 1.0 0.0 0.0 1:0.5 2:0.0 3:0.0 4:0.12790697674418605 5:0.1607142857142857 6:0.5 7:0.26967994498529685 8:0.0 9:0.23583179844273747 10:1.0 11:1.0 12:0.0 13:0.0 14:0.3333333333333333 15:0.1111111111111111 16:0.18257418583505539 
1.0 0.0 0.0 1.0 1.0 0.7861645836117374 1.0 1.0 0.0 0.0 1.0 1.0 0.0 0.0 1:0.0 2:0.0 3:0.0 4:0.26744186046511625 5:0.16666666666666669 6:0.5 7:0.49613893835683387 8:0.0 9:0.32192848841893745 10:1.0 11:0.0 12:0.0 13:0.0 14:0.6666666666666666 15:0.23076923076923078 16:0.3713906763541038 
0.0 0.0 0.0 1.0 1.0 0.0 1.0 1.0 0.0 0.05107085606543132 1.0 1.0 0.0 0.0 1:0.0 2:0.0 3:0.0 4:0.18421052631578946 5:0.17857142857142855 6:1.0 7:0.30151134457776363 8:0.0 9:0.15089670548354017 10:0.0 11:0.0 12:0.0 13:0.0 14:0.4 15:0.14814814814814814 16:0.23094010767585027 
0.0 0.0 0.0 0.0 1.0 0.3960171330587442 1.0 0.44928029716780143 0.0 0.0 0.0 1.0 0.0 0.0 1:0.7071067811865475 2:0.0 3:0.0 4:0.06896551724137931 5:0.5 6:0.0 7:0.22613350843332272 8:0.0 9:0.24469501342203534 10:1.0 11:1.0 12:0.0 13:0.0 14:0.19047619047619047 15:0.2 16:0.22750787759664506 
0.027188741599558374 0.0 0.0 0.7547535894026142 1.0 0.0 1.0 0.0 0.0 0.0 1.0 1.0 0.0 0.0 1:0.0 2:0.0 3:0.0 4:0.13513513513513514 5:0.2142857142857143 6:0.4 7:0.3273268353539886 8:0.0 9:0.3925717521734304 10:1.0 11:0.0 12:0.0 13:0.0 14:0.36363636363636365 15:0.14814814814814814 16:0.2439750182371333 
0.0 0.0 0.0 1.0 1.0 0.0 1.0 0.0 0.0 0.0 1.0 1.0 0.0 0.0 1:0.5 2:0.0 3:0.0 4:0.04897959183673469 5:0.6216216216216216 6:1.0 7:0.25712973861328997 8:0.0 9:0.27217870739684513 10:0.25 11:0.0 12:0.0 13:0.0 14:0.20588235294117646 15:0.25925925925925924 16:0.25058072087536704 
0.0 0.0 0.0 1.0 1.0 0.8034011422843377 0.0 0.0 0.0 0.0 1.0 0.0 0.0 0.0 1:0.7071067811865475 2:0.0 3:0.0 4:0.07766990291262135 5:0.625 6:1.0 7:0.625 8:0.0 9:0.207759279804371 10:0.5 11:0.16666666666666666 12:0.0 13:0.23570226039551587 14:0.3103448275862069 15:0.36 16:0.30658330991377586 
0.0 0.0 0.0 0.0 1.0 0.0 0.0 0.0 0.0 0.0 1.0 1.0 0.0 0.0 1:0.2886751345948129 2:0.0 3:0.0 4:0.09170305676855896 5:0.6851851851851851 6:1.0 7:0.2182178902359924 8:0.0 9:0.24784542069879725 10:0.3333333333333333 11:0.0 12:0.0 13:0.6666666666666667 14:0.34615384615384615 15:0.5625 16:0.426014322842305 
0.0 0.0 0.0 0.0 1.0 0.0 1.0 0.0 0.0 0.0 1.0 1.0 0.0 1.0 1:0.0 2:0.0 3:0.0 4:0.07526881720430108 5:0.43333333333333335 6:0.3333333333333333 7:0.0 8:0.0 9:0.20482309072621172 10:0.0 11:0.0 12:0.0 13:0.40824829046386296 14:0.07692307692307693 15:0.06666666666666667 16:0.0716114874039433 
1.0 0.0 0.0 1.0 1.0 0.0 1.0 0.0 0.0 0.0 1.0 1.0 0.0 0.0 1:0.4364357804719848 2:0.0 3:0.0 4:0.1116751269035533 5:0.4393939393939394 6:1.0 7:0.46537892099551725 8:0.0 9:0.2227611785360814 10:0.6666666666666666 11:0.6666666666666666 12:0.0 13:0.0 14:0.52 15:0.4482758620689655 16:0.5264828210920953 
0.0 0.0 0.03873509016726184 0.0 1.0 1.0 0.0 0.11401313189473071 0.0 0.0 1.0 1.0 0.0 0.0 1:0.0 2:0.0 3:0.0 4:0.08121827411167512 5:0.7758620689655172 6:1.0 7:0.09901475429766744 8:0.0 9:0.2010753363290531 10:0.3333333333333333 11:0.3333333333333333 12:0.0 13:0.7071067811865475 14:0.16 15:0.3076923076923077 16:0.22798037629377663 
0.1957619353695269 0.0 0.0 0.0 1.0 0.0 1.0 0.0 0.0 0.0 1.0 1.0 0.0 0.0 1:0.0 2:0.0 3:0.0 4:0.5641025641025641 5:0.15625 6:0.0 7:0.4472135954999579 8:0.0 9:0.10933510933510934 10:1.0 11:1.0 12:0.0 13:0.0 14:0.4 15:0.125 16:0.22360679774997896 
0.0 0.0 0.5682614811763914 0.0 0.0 0.0 0.0 0.0 0.0 0.0 0.0 0.0 0.0 0.0 1:0.5773502691896258 2:0.0 3:0.0 4:0.32142857142857145 5:0.5 6:0.0 7:1.0 8:0.0 9:0.19310809672255455 10:1.0 11:1.0 12:0.0 13:0.8660254037844387 14:0.85 15:0.8947368421052632 16:0.858116330321033 
0.0 1.0 0.13285307246130962 0.0 0.0 0.0 0.0 0.0 0.0 0.0 0.0 0.0 0.0 0.0 1:0.8944271909999159 2:0.0 3:0.0 4:0.7142857142857143 5:0.4722222222222222 6:0.0 7:0.9999999999999998 8:1.0 9:0.3707411310151036 10:1.0 11:1.0 12:0.0 13:0.9999999999999998 14:1.0 15:0.9444444444444444 16:0.9718253158075502 
0.0 0.0 0.0 0.0 1.0 0.0 1.0 0.0 0.0 0.0 1.0 1.0 0.0 0.0 1:0.0 2:0.0 3:0.0 4:0.0625 5:0.3035714285714286 6:0.0 7:0.24806946917841693 8:0.0 9:0.2501689129626124 10:0.5 11:0.0 12:0.0 13:0.31622776601683794 14:0.17647058823529413 15:0.1111111111111111 16:0.1328422328310143 
0.2860261634144428 0.0 0.0 0.11307532528548578 0.0 0.0 0.0 0.0 0.0 0.0 0.0 0.0 0.0 0.0 1:1.0000000000000002 2:0.0 3:0.0 4:0.6477987421383647 5:0.40384615384615385 6:0.2727272727272727 7:0.8366600265340756 8:1.0 9:0.31433223918824016 10:1.0 11:1.0 12:0.0 13:1.0000000000000002 14:0.9523809523809523 15:0.8 16:0.8247860988423226 
0.0 0.0 0.0 0.0 1.0 0.0 1.0 0.8054824728452614 0.0 0.0 1.0 1.0 0.0 1.0 1:0.0 2:0.0 3:0.0 4:0.022900763358778626 5:0.7567567567567568 6:1.0 7:0.0 8:0.0 9:0.2973950243242363 10:0.0 11:0.0 12:0.0 13:0.0 14:0.05714285714285714 15:0.1111111111111111 16:0.11043152607484655 
0.0 1.0 0.0 0.0 0.0 0.0 0.0 0.0 0.0 0.0 0.0 0.0 0.0 0.0 1:1.0 2:0.0 3:0.0 4:1.0 5:0.5 6:1.0 7:1.0000000000000002 8:1.0 9:0.3494940040716307 10:1.0 11:1.0 12:0.0 13:0.9999999999999998 14:1.0 15:1.0 16:1.0 
0.0 1.0 0.0 0.0 0.0 0.0 0.0 0.0 0.0 0.0 0.0 0.0 0.0 0.0 1:1.0 2:0.0 3:0.0 4:1.0 5:0.5 6:1.0 7:0.9999999999999999 8:1.0 9:0.32315990704522574 10:1.0 11:1.0 12:0.0 13:1.0000000000000002 14:1.0 15:1.0 16:0.9999999999999999 
0.0 0.0 0.0 1.0 1.0 1.0 0.0 1.0 0.0 0.31268300282837447 1.0 0.0 0.2522703607160472 0.0 1:0.9999999999999998 2:0.0 3:0.0 4:0.06542056074766354 5:0.3125 6:1.0 7:0.5477225575051661 8:0.0 9:0.3893340078844883 10:0.0 11:0.0 12:0.0 13:0.25 14:0.2 15:0.125 16:0.15811388300841897 
0.0 1.0 0.0 0.0 0.0 0.0 0.0 0.0 0.0 0.0 0.0 0.0 0.0 0.0 1:1.0 2:0.0 3:0.0 4:1.0 5:0.5 6:0.0 7:0.9999999999999999 8:1.0 9:0.24916451910727272 10:1.0 11:1.0 12:0.0 13:1.0000000000000002 14:1.0 15:1.0 16:1.0000000000000002 
0.0 1.0 0.0 0.0 0.0 0.0 0.0 0.0 0.0 0.0 0.0 0.0 0.0 0.0 1:0.0 2:0.0 3:0.0 4:1.0 5:0.5 6:1.0 7:1.0 8:1.0 9:0.3526927437641721 10:1.0 11:1.0 12:0.0 13:0.9999999999999998 14:1.0 15:1.0 16:1.0000000000000002 
0.0 1.0 0.0 0.0 0.0 0.0 0.0 0.0 0.0 0.0 0.0 0.0 0.0 0.0 1:1.0000000000000002 2:0.0 3:0.0 4:1.0 5:0.5 6:0.0 7:0.9999999999999998 8:1.0 9:0.25033333333333335 10:1.0 11:1.0 12:0.0 13:1.0000000000000002 14:1.0 15:1.0 16:1.0 
0.0 1.0 0.0 0.0 0.0 0.0 0.0 0.0 0.0 0.0 0.0 0.0 0.0 0.0 1:0.0 2:0.0 3:0.0 4:1.0 5:0.5 6:1.0 7:1.0 8:1.0 9:0.18747553816046963 10:1.0 11:1.0 12:0.0 13:1.0 14:1.0 15:1.0 16:0.9999999999999998 
0.0 0.6097693686812073 0.0 0.0 0.0 0.0 0.0 0.0 0.0 0.0 0.0 0.0 0.0 0.0 1:1.0000000000000002 2:0.0 3:0.0 4:0.7379679144385026 5:0.5 6:1.0 7:0.9460998335825321 8:0.0 9:0.48995635502497464 10:1.0 11:1.0 12:0.0 13:0.9999999999999998 14:0.9615384615384616 15:0.9615384615384616 16:0.9615384615384617 
0.0 1.0 0.0 0.0 0.0 0.0 0.0 0.0 0.0 0.0 0.0 0.0 0.0 0.0 1:0.0 2:0.0 3:0.0 4:1.0 5:0.5 6:1.0 7:0.9999999999999998 8:1.0 9:0.13931837785048798 10:1.0 11:1.0 12:0.0 13:1.0 14:1.0 15:1.0 16:0.9999999999999998 
0.0 1.0 0.0 0.0 0.0 0.0 0.0 0.0 0.0 0.0 0.0 0.0 0.0 0.0 1:1.0 2:0.0 3:0.0 4:1.0 5:0.5 6:0.0 7:1.0000000000000002 8:1.0 9:0.251444469173757 10:1.0 11:1.0 12:0.0 13:0.9999999999999998 14:1.0 15:1.0 16:1.0000000000000002 
0.0 0.0 0.0 0.0 1.0 0.0 0.0 0.0 0.0 0.0 0.0 0.0 0.0 0.0 1:0.7745966692414834 2:0.0 3:0.0 4:0.23222748815165878 5:0.6818181818181819 6:1.0 7:0.7337993857053429 8:0.0 9:0.2150404649164886 10:1.0 11:1.0 12:0.0 13:0.33333333333333337 14:0.5 15:0.7142857142857143 16:0.5590852462516898 
0.0 0.0 0.0 0.0 1.0 0.0 1.0 0.0 0.0 0.0 1.0 1.0 0.0 0.0 1:0.6324555320336759 2:0.0 3:0.0 4:0.05687203791469194 5:0.6666666666666666 6:1.0 7:0.09245003270420486 8:0.0 9:0.12147991125556341 10:0.0 11:0.0 12:0.0 13:0.0 14:0.06666666666666667 15:0.1111111111111111 16:0.08770580193070292 
0.0 1.0 0.0 0.0 0.0 0.0 0.0 0.0 0.0 0.0 0.0 0.0 0.0 0.0 1:1.0 2:0.0 3:0.0 4:1.0 5:0.5 6:0.0 7:0.8451542547285166 8:0.0 9:0.32705079692695804 10:0.5 11:0.5 12:0.0 13:0.9999999999999998 14:1.0 15:1.0 16:1.0000000000000002 
0.0 1.0 0.0 0.0 0.0 0.0 0.0 0.0 0.0 0.0 0.0 0.0 0.0 0.0 1:0.9999999999999998 2:0.0 3:0.0 4:1.0 5:0.5 6:1.0 7:0.9999999999999999 8:0.0 9:0.3602673835047221 10:1.0 11:1.0 12:0.0 13:0.9999999999999998 14:1.0 15:1.0 16:1.0 
0.0 1.0 0.0 0.0 0.0 0.0 0.0 0.0 0.0 0.0 0.0 0.0 0.0 0.0 1:0.9999999999999998 2:0.0 3:0.0 4:1.0 5:0.5 6:1.0 7:1.0 8:1.0 9:0.25834866228436776 10:0.6666666666666666 11:1.0 12:0.0 13:1.0000000000000002 14:1.0 15:1.0 16:1.0000000000000002 
0.0 1.0 0.0 0.0 0.0 0.0 0.0 0.0 0.0 0.0 0.0 0.0 0.0 0.0 1:1.0000000000000002 2:0.0 3:0.0 4:1.0 5:0.5 6:0.0 7:0.9999999999999998 8:0.0 9:0.21333333333333337 10:1.0 11:1.0 12:0.0 13:0.9999999999999998 14:1.0 15:1.0 16:1.0 
0.0 0.0 0.0 0.0 1.0 0.0 1.0 0.0 0.0 0.0 1.0 1.0 0.0 0.0 1:0.40824829046386296 2:0.0 3:0.0 4:0.09876543209876543 5:0.3529411764705882 6:1.0 7:0.0 8:0.0 9:0.11069603933123025 10:0.0 11:0.0 12:0.0 13:0.0 14:0.08333333333333333 15:0.058823529411764705 16:0.0700140042014005 
0.0 1.0 0.0 0.0 0.0 0.0 0.0 0.0 0.0 0.0 0.0 0.0 0.0 0.0 1:0.9999999999999998 2:0.0 3:0.0 4:1.0 5:0.5 6:1.0 7:0.9999999999999998 8:0.0 9:0.21823529411764706 10:1.0 11:1.0 12:0.0 13:1.0 14:1.0 15:1.0 16:1.0000000000000002 
0.0 0.0 0.0 0.0 1.0 0.0 1.0 0.0 0.0 0.0 1.0 1.0 0.0 0.0 1:0.0 2:0.0 3:0.0 4:0.13580246913580246 5:0.2608695652173913 6:1.0 7:0.15811388300841897 8:0.0 9:0.11721827801984733 10:0.0 11:0.0 12:0.0 13:0.0 14:0.16666666666666666 15:0.09090909090909091 16:0.17320508075688776 
0.0 0.0 0.0 0.0 1.0 0.0 1.0 0.0 0.0 0.0 1.0 1.0 0.0 0.0 1:0.0 2:0.0 3:0.0 4:0.07006369426751592 5:0.7391304347826086 6:0.5 7:0.15811388300841897 8:0.0 9:0.11721827801984734 10:0.5 11:0.0 12:0.0 13:0.0 14:0.09090909090909091 15:0.16666666666666666 16:0.17320508075688776 
0.0 0.0 0.0 0.0 1.0 0.0 1.0 0.0 0.0 0.0 1.0 1.0 0.0 1.0 1:0.0 2:0.0 3:0.0 4:0.024752475247524754 5:0.6290322580645161 6:1.0 7:0.0 8:0.0 9:0.16501669265831367 10:0.0 11:0.0 12:0.0 13:0.0 14:0.10714285714285714 15:0.13636363636363635 16:0.16012815380508713 
0.9091938228395862 0.0 0.0 0.0 0.0 0.0 0.0 0.0 0.0 0.0 0.0 0.0 0.0 0.0 1:0.8682431421244593 2:0.0 3:0.0 4:0.7475247524752475 5:0.5 6:1.0 7:0.8682431421244593 8:0.6666666666666666 9:0.27983315568251205 10:1.0 11:0.5 12:0.0 13:1.0000000000000002 14:1.0 15:1.0 16:0.9740215340114143 
0.0 1.0 0.0 0.0 1.0 0.0 0.0 0.0 0.0 0.0 0.0 0.0 0.0 0.0 1:0.6324555320336759 2:0.0 3:0.0 4:0.9941176470588236 5:0.2391304347826087 6:0.6 7:0.8183170883849714 8:1.0 9:0.26396769816116533 10:1.0 11:1.0 12:0.0 13:0.7071067811865476 14:1.0 15:0.525 16:0.7258661863112977 
1.0 0.0 0.0 0.7799127080223446 1.0 0.0 0.0 0.0 0.0 0.0 0.0 0.0 0.0 0.0 1:0.5999999999999999 2:0.0 3:0.0 4:0.36 5:0.3695652173913043 6:0.6 7:0.8295150620062531 8:0.6666666666666666 9:0.2798726495995295 10:1.0 11:0.5 12:0.0 13:0.5477225575051661 14:0.7096774193548387 15:0.55 16:0.725072166544399 
0.0 0.0 0.0 1.0 1.0 0.0 1.0 0.0 0.0 0.0 0.0 1.0 0.0 1.0 1:0.2886751345948129 2:0.0 3:0.0 4:0.0851063829787234 5:0.3225806451612903 6:0.0 7:0.24253562503633297 8:0.0 9:0.3046543372994411 10:0.3333333333333333 11:0.0 12:0.0 13:0.0 14:0.15789473684210525 15:0.1 16:0.11134044285378082 
0.0 1.0 0.0 0.0 0.0 0.0 0.0 0.0 0.0 0.0 0.0 0.0 0.0 0.0 1:0.7071067811865475 2:0.0 3:0.0 4:0.7897727272727273 5:0.33783783783783783 6:0.0 7:0.8696263565463043 8:1.0 9:0.20814677600566456 10:1.0 11:1.0 12:0.0 13:0.9128709291752769 14:1.0 15:0.7142857142857143 16:0.8433383141984728 
0.3907018421129953 0.0 0.0 0.49826888326108126 1.0 0.0 0.0 1.0 0.0 0.0 0.0 1.0 0.05881540635324062 0.0 1:0.7071067811865475 2:0.0 3:1.0 4:0.6470588235294118 5:0.16216216216216217 6:1.0 7:0.43301270189221935 8:1.0 9:0.1436972878544062 10:0.5 11:0.0 12:0.0 13:0.2886751345948129 14:0.75 15:0.2571428571428571 16:0.49591829906708784 
