svm_type c_svc
kernel_type rbf
gamma 0.0625
nr_class 15
total_sv 2377
rho -0.9572092933903753 0.3336370420541554 -1.027972994729738 -1.0431972102407425 -2.331401367353532 -1.0017653139196299 -1.1157665943731392 -0.8363345616545859 -1.0187666175133532 -0.9460555726640449 -2.0639603066111705 -0.6231103153035632 -1.0519928587576155 -1.0185155046898517 0.665348715838132 -0.995672041936649 -0.9185988384991212 -0.6566827579632268 -0.8714359170129263 -0.2671871938154467 -0.0814613458312373 -1.018315746276042 -0.9721007052143642 -0.8929378348601867 -0.03984696404251601 -0.9854285830325147 -0.47314858881279065 -0.4815407863660239 -0.6608900769717632 -0.5504331373130097 -0.4316045024000725 -0.18875651853710773 -0.28023506340838167 -0.2910434432902248 -0.32207612978264205 -0.31531136563517925 -0.3992735689542409 -0.808612049845769 -0.2107102899886224 0.97158659394611 0.9872227718292912 0.9338531390682503 0.7096822316558068 0.8967316545260744 -0.8607302606105804 -0.7035427384458917 0.7658838312140384 1.0301408795056426 -0.8818854735631113 0.01957320236078718 0.9279875078674268 -0.7962815327886097 0.7540003360797647 0.9230903108698163 -1.0091310169143854 -0.8071092921867852 0.15546772028269099 1.2335318131941668 -0.9705500379889612 -0.28173511754421376 -0.9557351124658264 -0.23474631502202087 -0.4412272220513428 -1.0191173886428273 -0.9816087693086605 -0.8258442935214364 1.1086769182615783 -0.9472871641783752 -0.7845372936988713 0.35361105538697446 0.8497503540746748 -0.9782847698536101 -0.878468617720137 -0.03398119899828134 1.014010728263081 -0.9536536291833769 -0.03456865268827409 0.4924672460272334 -1.0432995940003023 -0.9703564599992713 -0.873497318565151 0.4220260222319665 -0.9519662746964769 -0.7423882294092387 -1.0250406423606901 -0.9505895205561069 -1.5941537201463212 0.9389492761500602 -0.9952404452742845 -0.8968910842662012 0.35047346353530884 0.9746702147636023 1.0126649747182828 -0.745951109628636 0.8627613683764676 0.8543542703193967 1.0152093895877148 -0.8815404256459456 0.1750980785527682 1.0823653597417409 -0.8887211898547905 -0.41826119289849667 -0.9824580376043838 -1.0221448884019313 0.7355714617503225
label 4 2 1 8 9 18 5 15 11 14 10 6 13 12 0
probA -11.344436682203384 -2.9360351762662487 -46.35430216109451 -94.81210892647589 -1.6218144724060117 -234.55847073058547 -2.357629641914147 -8.102453106534481 -204.88833256575816 -162.3630039175315 -1.829377302272641 -1.229021828126907 32.98865873413253 -53.71945257335669 -5.045680120714216 -23.27403352633771 -1.3709162240842427 -2.7346454112575542 -1.9847827392788628 -3.6735670753852165 -2.4803805866601603 -21.876871559528443 -39.130863656643754 -2.9528727748631147 -2.4477008190022573 4.565414984862576 -3.6887435004917215 -4.802420858227123 -4.58105694914032 -4.403783081107934 -5.061877516124523 -4.411698563742643 -4.199431897409835 -4.201224921135181 -5.741960598023447 -4.374334164626708 -4.243876704808256 -26.613313663725958 -3.7958314231526717 -83.4676129291177 -82.04383465296829 -4.354211126632111 -10.483796801578315 -27.19433307036229 -2.6546357339557276 -1.2554131502901602 -17.34885883115745 -37.43675582531906 -7.419102857285181 -4.390028464606539 -28.41824373719824 -10.690309301970707 -2.532563815782521 -1.4042821622410289 -62.206051581113535 -61.91794093288954 -2.5404339667875475 -1.8462138858427024 25.25398964746907 -3.65666928477013 -89.60143055972917 -2.3474721049321015 -9.810814305846552 -80.04323253142528 -106.3643531791369 -2.0449672659514713 -1.4674275255549634 -130.97578690041715 -11.242147578802546 -4.705020450641504 -7.029056430193786 -13.725144350466358 -24.718833224001603 -4.033836361504799 -36.09692818715436 -28.27089253936258 -4.200009282148853 -2.4342000688919105 -55.76235303649527 -19.540624184932412 -1.4228173556028063 -1.6371724928833429 -34.58470999377408 -14.791753722991707 -31.024699914094615 -27.674931695057076 -1.9828515270388738 -1.2200175341357746 -9.123498214642437 -8.40462540008821 1.246688956203081 -53.09778243073363 -147.29353018954478 -6.357187079191868 -15.252666610373016 -25.169386895236254 -55.161521366514066 3.303067793564897 -6.384831536379535 -1.1808646538504712 -38.383649377004396 -10.340119985729391 16.963984043010356 -20.976778665842236 -22.002141400303415
probB 9.585124263889714 0.7593872830889719 42.97556161807364 93.3407618334962 -0.05703073287225292 232.36651988976723 0.6713294667674778 6.767809868312664 201.67143699392278 159.6970938358877 -0.01594310936077079 -0.017692249555542477 -38.81036151877948 51.999277508107205 -1.739513146911617 21.51910440002988 -0.05085019913145015 -0.7611681862886572 0.9933750477845122 -0.9840805578968753 -0.5377229827644298 19.9768740313021 36.67510746853286 -0.3202862800940214 -0.43628791804283523 -7.776153176484041 -0.5148331333983713 1.5284649138275577 1.1420476326708875 0.33008338043897034 1.6293889466475702 0.5309202098970631 0.010906836155169219 0.18727426064716432 1.7488508184459437 0.12755627969351027 1.143878260704007 23.098520079981583 -0.2774760072221374 -81.5045417372099 -79.24296657329177 -3.255795465596192 -7.90019470741757 -25.00202433048329 1.658796503244412 0.5946854411637496 -14.971039083618374 -34.62315692152805 6.032041832243156 -1.7536443207324177 -27.112882109339626 9.596121305869643 -0.8117868880664306 -0.18947794041821578 60.16706158147214 59.702311647886496 -0.6035803997489425 -0.3593461800881217 -29.517662888360817 0.9009871533339714 87.5702761841853 1.1783733786948958 8.614866902990652 76.75666136467751 103.50678471561193 0.4260916399251422 0.22365248183783562 127.57995035065761 9.074716671727339 -2.780683167173608 -5.686224496061371 11.963689974092892 23.0414211648519 -1.9254837284873192 -34.130731641713155 25.9469784445795 -0.9342810319612785 0.9764588201032349 52.6736280334615 16.80048647067157 0.042989686345784046 -0.5617403776132003 31.36549649419986 12.775023663176789 28.361746255151235 25.485917600690662 -0.6842384665764754 -0.49262922222858757 5.635317339785622 6.510971640584897 0.2883462374099026 -49.947255986505475 -144.02036576455342 5.15022504368146 -13.305678487679177 -22.48367985851069 -52.51745192942935 -4.09828042193987 -3.4321267111553304 0.3716283303365991 35.10242155373507 8.24706197696409 -21.80128304839549 19.092019773374908 -19.198027492088272
nr_sv 519 101 97 17 135 427 48 244 159 10 11 244 313 4 48
SV
0.0 0.0 0.0 0.0 1.0 0.0 1.0 0.0 0.0 0.0 0.6936889264954765 0.0 0.0 0.0 1:0.0 2:0.0 3:0.0 4:0.19298245614035087 5:0.5625 6:1.0 7:0.5999999999999999 8:1.0 9:0.22523901219553394 10:1.0 11:0.0 12:0.0 13:0.0 14:0.5 15:0.5714285714285714 16:0.5345224838248487 
0.0 0.0 0.0 0.0 0.0 0.0 0.0 0.0 0.0 0.0 0.0 1.0 0.0 0.0 1:0.4472135954999579 2:0.0 3:0.0 4:0.08860759493670886 5:0.7777777777777778 6:0.5 7:0.42426406871192845 8:0.0 9:0.23352725406837663 10:0.5 11:0.0 12:0.0 13:0.5773502691896258 14:0.32 15:0.6666666666666666 16:0.5184758473652127 
0.0 0.0 0.0 1.0 1.0 0.2690655826327445 1.0 0.0 0.0 0.0 0.0 1.0 0.0 0.0 1:0.4472135954999579 2:0.0 3:0.0 4:0.10759493670886076 5:0.5925925925925926 6:0.5 7:0.3508232077228117 8:0.0 9:0.27543318482492646 10:0.5 11:0.5 12:0.0 13:0.0 14:0.32 15:0.42105263157894735 16:0.47519096331149147 
0.0 0.0 0.0 0.0 1.0 0.0 0.0 0.0 0.0 0.0 0.0 0.0 0.0 0.0 1:0.5163977794943222 2:0.0 3:0.0 4:0.06329113924050633 5:0.7962962962962963 6:1.0 7:0.6666666666666666 8:0.0 9:0.3550117684818611 10:0.5 11:0.5 12:0.0 13:0.0 14:0.28 15:0.6363636363636364 16:0.4873773249664941 
0.0 0.0 0.0 0.0 0.16369964083057434 0.0 0.0 0.0 0.0 0.0 0.0 1.0 0.0 0.0 1:0.4472135954999579 2:0.0 3:0.0 4:0.08860759493670886 5:0.7777777777777778 6:0.5 7:0.42426406871192845 8:0.0 9:0.23352725406837663 10:0.5 11:0.0 12:0.0 13:0.5773502691896258 14:0.32 15:0.6666666666666666 16:0.5184758473652127 
0.0 0.0 0.0 1.0 1.0 0.0 1.0 0.0 0.0 0.0 1.0 1.0 0.0 0.0 1:0.31622776601683794 2:0.0 3:0.0 4:0.10759493670886076 5:0.6851851851851851 6:1.0 7:0.35856858280031806 8:0.0 9:0.26822973539488043 10:0.5 11:0.0 12:0.0 13:0.0 14:0.36 15:0.5625 16:0.535655668229714 
0.0 0.0 0.0 0.0 1.0 0.0 0.0 0.0 0.0 0.0 0.0 0.0 0.0 0.0 1:0.5163977794943222 2:0.0 3:0.0 4:0.06329113924050633 5:0.7962962962962963 6:1.0 7:0.6666666666666666 8:0.0 9:0.3550117684818611 10:0.5 11:0.5 12:0.0 13:0.0 14:0.28 15:0.6363636363636364 16:0.4873773249664941 
0.0 0.0 0.0 1.0 1.0 0.3375392536843607 0.0 1.0 0.0 0.0 1.0 0.0 0.0 0.0 1:0.5773502691896258 2:0.0 3:0.0 4:0.18382352941176472 5:0.6136363636363636 6:1.0 7:0.6153846153846154 8:0.0 9:0.35979110868066766 10:0.5 11:0.5 12:0.0 13:0.4999999999999999 14:0.25 15:0.3333333333333333 16:0.5122717640554154 
0.0 0.0 0.0 1.0 1.0 1.0 0.0 1.0 0.0 0.0 0.0 0.0 0.0 0.0 1:1.0 2:0.0 3:0.0 4:0.08088235294117647 5:0.6818181818181819 6:1.0 7:0.7302967433402213 8:0.0 9:0.2903157600723332 10:0.0 11:0.0 12:0.0 13:0.0 14:0.25 15:0.4166666666666667 16:0.5493502655735357 
0.0 0.0 0.0 1.0 1.0 0.0 0.0 0.0 0.0 0.0 1.0 1.0 0.0 0.0 1:0.4999999999999999 2:0.0 3:0.0 4:0.11029411764705882 5:0.75 6:1.0 7:0.31622776601683794 8:0.0 9:0.2877505330670472 10:0.0 11:0.0 12:0.0 13:0.0 14:0.2 15:0.36363636363636365 16:0.3418817293789138 
0.0 0.0 0.0 1.0 1.0 0.0 1.0 0.3786011862594417 0.0 0.0 0.0 0.0 0.0 0.0 1:0.7071067811865475 2:0.0 3:0.0 4:0.15441176470588236 5:0.7045454545454546 6:1.0 7:0.6689936080056726 8:0.0 9:0.34789877082991216 10:0.5 11:0.5 12:0.0 13:0.0 14:0.2 15:0.36363636363636365 16:0.5202659817144719 
0.0 0.0 0.0 0.7936052027257237 1.0 0.0 0.0 0.0 0.0 0.0 1.0 1.0 0.0 0.0 1:0.4999999999999999 2:0.0 3:0.0 4:0.11029411764705882 5:0.75 6:1.0 7:0.31622776601683794 8:0.0 9:0.2877505330670472 10:0.0 11:0.0 12:0.0 13:0.0 14:0.2 15:0.36363636363636365 16:0.3418817293789138 
1.0 1.0 0.0 1.0 1.0 0.0 1.0 1.0 0.0 0.0 0.0 1.0 0.0 0.0 1:0.0 2:0.0 3:0.0 4:0.3218390804597701 5:0.7 6:0.0 7:0.5669467095138409 8:0.0 9:0.37806618668687636 10:0.0 11:0.0 12:0.0 13:0.0 14:0.35714285714285715 15:0.625 16:0.5850179393017045 
1.0 0.0 0.0 1.0 1.0 0.0 1.0 1.0 0.0 0.0 1.0 1.0 0.0 1.0 1:0.0 2:0.0 3:0.0 4:0.20689655172413793 5:0.5333333333333333 6:0.0 7:0.40089186286863654 8:0.0 9:0.3800707451835271 10:0.0 11:0.0 12:0.0 13:0.0 14:0.2857142857142857 15:0.36363636363636365 16:0.46537892099551725 
1.0 0.0 0.0 1.0 0.0 0.0 0.0 0.0 0.0 0.0 0.0 0.0 0.0 0.0 1:0.9999999999999998 2:0.0 3:0.0 4:0.5121951219512195 5:0.6458333333333334 6:1.0 7:0.6681531047810609 8:1.0 9:0.43888065580790003 10:0.3333333333333333 11:0.3333333333333333 12:0.0 13:0.40824829046386296 14:0.5714285714285714 15:0.8 16:0.7993052538854534 
0.0 0.0 0.0 1.0 1.0 0.0 1.0 1.0 0.0 0.0 1.0 1.0 0.0 0.0 1:0.0 2:0.0 3:0.0 4:0.14634146341463414 5:0.8333333333333333 6:1.0 7:0.35355339059327373 8:0.0 9:0.36145321274893577 10:0.3333333333333333 11:0.3333333333333333 12:0.0 13:0.0 14:0.19047619047619047 15:0.5 16:0.41247895569215265 
1.0 0.0 0.0 1.0 0.0 0.0 0.0 0.0 0.0 0.0 0.0 0.0 0.0 0.0 1:0.7071067811865475 2:0.0 3:0.0 4:0.21138211382113822 5:0.625 6:1.0 7:0.8017837257372731 8:1.0 9:0.4640070397152438 10:0.6666666666666666 11:0.6666666666666666 12:0.0 13:0.40824829046386296 14:0.6190476190476191 15:0.8125 16:0.8164965809277261 
0.0 0.0 0.0 0.0 1.0 0.0 1.0 0.0 0.0 0.0 1.0 1.0 0.0 0.0 1:0.0 2:0.0 3:0.0 4:0.17073170731707318 5:0.875 6:1.0 7:0.5303300858899106 8:0.0 9:0.3438957678315264 10:0.3333333333333333 11:0.0 12:0.0 13:0.0 14:0.23809523809523808 15:0.8333333333333334 16:0.5443310539518174 
0.0 0.0 0.0 1.0 0.0 0.0 0.0 0.0 0.0 0.0 0.0 0.0 0.0 0.0 1:0.7071067811865475 2:0.0 3:0.0 4:0.5040650406504065 5:0.7291666666666666 6:1.0 7:0.7905694150420948 8:1.0 9:0.44369870521010396 10:0.3333333333333333 11:0.3333333333333333 12:0.0 13:0.5773502691896258 14:0.5238095238095238 15:1.0 16:0.8411910241920597 
0.0 0.0 0.0 1.0 1.0 0.0 1.0 1.0 0.0 0.0 0.0 1.0 0.14463511218389852 1.0 1:0.4999999999999999 2:0.0 3:0.0 4:0.15447154471544716 5:0.6458333333333334 6:0.0 7:0.5039526306789696 8:0.0 9:0.4110493524627841 10:0.0 11:0.0 12:0.0 13:0.0 14:0.2857142857142857 15:0.375 16:0.3823595564509362 
0.0 0.0 0.0 0.0 1.0 0.0 1.0 1.0 0.5818343335414174 0.0 1.0 1.0 0.0 0.0 1:0.0 2:0.0 3:0.0 4:0.17073170731707318 5:0.7083333333333334 6:0.3333333333333333 7:0.5103103630798287 8:0.0 9:0.35512741683972926 10:0.3333333333333333 11:0.0 12:0.0 13:0.0 14:0.2857142857142857 15:0.42857142857142855 16:0.4008918628686366 
1.0 0.0 0.0 0.0 1.0 0.0 0.0 0.0 0.0 0.0 0.0 1.0 0.0 0.0 1:0.0 2:0.0 3:0.0 4:0.15384615384615385 5:0.75 6:0.0 7:0.8660254037844387 8:0.0 9:0.27741935483870966 10:1.0 11:1.0 12:0.0 13:0.0 14:0.38461538461538464 15:0.7142857142857143 16:0.472455591261534 
0.0 0.0 0.0 0.0 1.0 0.0 1.0 0.0 0.0 0.0 0.0 1.0 0.0 0.0 1:0.0 2:0.0 3:0.0 4:0.10256410256410256 5:0.6071428571428571 6:0.0 7:0.5 8:0.0 9:0.30911019525030614 10:0.5 11:0.5 12:0.0 13:0.0 14:0.23076923076923078 15:0.3 16:0.2773500981126146 
0.0 0.0 0.0 0.0 1.0 0.0 0.0 0.0 0.0 0.0 0.0 0.0 0.0 0.0 1:0.5773502691896258 2:0.0 3:0.0 4:0.09090909090909091 5:0.8181818181818181 6:1.0 7:0.5 8:0.0 9:0.28827838424788316 10:1.0 11:1.0 12:0.0 13:0.0 14:0.2857142857142857 15:0.75 16:0.43301270189221935 
0.0 0.0 0.0 0.0 1.0 0.0 0.0 0.6106286486239767 0.0 0.0 0.28367331042717 0.0 0.0 0.0 1:0.7745966692414834 2:0.0 3:0.0 4:0.20279720279720279 5:0.6818181818181819 6:1.0 7:0.4811252243246881 8:0.0 9:0.3839279542427859 10:0.0 11:0.0 12:0.0 13:0.7071067811865475 14:0.3333333333333333 15:0.5 16:0.4364357804719848 
0.0 0.0 0.0 1.0 1.0 0.0 1.0 0.0 0.0 0.0 1.0 1.0 0.0 0.0 1:0.0 2:0.0 3:0.0 4:0.1125 5:0.8214285714285714 6:1.0 7:0.7071067811865476 8:0.0 9:0.43405036052094864 10:1.0 11:1.0 12:0.0 13:0.0 14:0.25 15:0.6 16:0.29999999999999993 
0.0 0.0 0.0 0.0 1.0 0.0 1.0 0.0 0.0 0.0 0.0 0.0 0.0 0.0 1:0.7071067811865475 2:0.0 3:0.0 4:0.3 5:0.5714285714285714 6:0.5 7:0.7302967433402214 8:0.0 9:0.3379791833138687 10:1.0 11:0.0 12:0.0 13:0.0 14:0.5 15:0.5 16:0.5163977794943222 
1.0 0.0 0.0 1.0 1.0 0.9399202781624469 0.0 0.0 0.0 0.0 0.0 0.0 0.0 0.0 1:1.0 2:0.0 3:0.0 4:0.4875 5:0.5357142857142857 6:1.0 7:0.9058216273156767 8:0.0 9:0.36098100580546977 10:1.0 11:1.0 12:0.0 13:0.0 14:0.5833333333333334 15:0.6363636363636364 16:0.7694837640638655 
0.0 0.0 0.0 0.0 1.0 0.41006528547035426 1.0 0.0 0.0 0.0 0.0 0.0 0.0 0.0 1:0.7071067811865475 2:0.0 3:0.0 4:0.3 5:0.5714285714285714 6:0.5 7:0.7302967433402214 8:0.0 9:0.3379791833138687 10:1.0 11:0.0 12:0.0 13:0.0 14:0.5 15:0.5 16:0.5163977794943222 
0.45537492206203767 0.0 0.0 0.0 1.0 0.4688975580159861 0.0 1.0 0.0 0.0 0.0 0.0 0.0 0.0 1:0.9486832980505138 2:0.0 3:0.0 4:0.3 5:0.6071428571428571 6:1.0 7:0.8999999999999998 8:0.0 9:0.44358809731861953 10:1.0 11:1.0 12:0.0 13:1.0 14:0.5833333333333334 15:0.6363636363636364 16:0.6067798762169179 
1.0 1.0 0.0 0.0 1.0 0.0 0.0 0.0 0.0 0.0 0.0 0.0 0.0 0.0 1:1.0 2:0.0 3:0.0 4:0.8936170212765957 5:0.65 6:1.0 7:0.8164965809277259 8:0.0 9:0.5675324675324674 10:1.0 11:1.0 12:0.0 13:0.0 14:0.75 15:1.0 16:0.9166666666666666 
1.0 0.0 0.0 0.0 1.0 0.0 1.0 0.0 0.0 0.0 0.0 1.0 0.0 0.0 1:0.0 2:0.0 3:0.0 4:0.2972972972972973 5:0.7307692307692308 6:0.0 7:0.5163977794943222 8:0.0 9:0.3341797986959278 10:0.6666666666666666 11:0.6666666666666666 12:0.0 13:0.0 14:0.3333333333333333 15:0.5714285714285714 16:0.48795003647426655 
0.0 0.0 0.0 1.0 1.0 0.0 0.0 0.0 0.0 0.0 0.0 1.0 0.0 0.0 1:0.0 2:0.0 3:0.0 4:0.43243243243243246 5:0.6923076923076923 6:0.0 7:0.4472135954999579 8:0.0 9:0.34687336473050756 10:0.3333333333333333 11:0.3333333333333333 12:0.0 13:0.4999999999999999 14:0.4166666666666667 15:0.625 16:0.5477225575051661 
1.0 0.0 0.0 0.0 1.0 0.0 0.0 0.0 0.0 0.0 0.0 1.0 0.0 0.0 1:0.0 2:0.0 3:0.0 4:0.4864864864864865 5:0.6153846153846154 6:0.0 7:0.3999999999999999 8:0.0 9:0.3380707357729416 10:0.6666666666666666 11:0.6666666666666666 12:0.0 13:0.7071067811865475 14:0.5 15:0.6 16:0.5715476066494082 
0.8009394068362863 0.0 0.0 0.0 1.0 0.0 1.0 0.0 0.0 0.0 0.0 1.0 0.0 0.0 1:0.0 2:0.0 3:0.0 4:0.2972972972972973 5:0.7307692307692308 6:0.0 7:0.5163977794943222 8:0.0 9:0.3341797986959278 10:0.6666666666666666 11:0.6666666666666666 12:0.0 13:0.0 14:0.3333333333333333 15:0.5714285714285714 16:0.48795003647426655 
0.0 0.735399971441143 0.0 0.0 1.0 0.0 0.0 0.0 0.0 0.0 0.0 1.0 0.0 0.0 1:0.0 2:0.0 3:0.0 4:0.4864864864864865 5:0.7307692307692308 6:0.0 7:0.5163977794943222 8:0.0 9:0.38301295478714836 10:0.6666666666666666 11:0.6666666666666666 12:0.0 13:0.7071067811865475 14:0.5 15:0.8571428571428571 16:0.6831300510639732 
1.0 0.0 0.0 0.8340500980644547 0.0 0.0 0.0 0.0 0.0 0.0 0.0 0.0 0.0 0.0 1:0.7001400420140049 2:0.0 3:0.0 4:0.27040816326530615 5:0.6774193548387097 6:1.0 7:0.8838834764831843 8:0.0 9:0.25863866702511745 10:1.0 11:1.0 12:1.0 13:0.8164965809277259 14:0.5555555555555556 15:0.75 16:0.6445033866354896 
1.0 0.0 0.0 0.0 0.0 0.0 0.0 0.0 0.0 0.0 0.0 0.0 0.0 0.0 1:0.31622776601683794 2:0.0 3:0.0 4:0.27040816326530615 5:0.7096774193548387 6:1.0 7:0.8782753106899461 8:0.0 9:0.2190171288539294 10:1.0 11:0.5 12:1.0 13:0.8164965809277259 14:0.5555555555555556 15:0.8333333333333334 16:0.6416236526819377 
0.0 0.0 0.0 0.0 1.0 0.0 1.0 1.0 0.3393028588802035 0.0 1.0 1.0 0.0 0.0 1:0.0 2:0.0 3:0.0 4:0.10204081632653061 5:0.6129032258064516 6:1.0 7:0.7570332986102252 8:0.0 9:0.2078400513169354 10:0.6666666666666666 11:0.3333333333333333 12:0.0 13:0.2886751345948129 14:0.37037037037037035 15:0.43478260869565216 16:0.408248290463863 
1.0 0.0 0.0 0.0 0.0 0.0 0.0 0.41834997843274 0.0 0.0 0.0 0.0 0.08152752244465925 0.0 1:0.8574929257125441 2:0.0 3:0.0 4:0.27040816326530615 5:0.6935483870967742 6:1.0 7:0.8838834764831843 8:0.0 9:0.25863866702511745 10:1.0 11:1.0 12:1.0 13:0.8164965809277259 14:0.5555555555555556 15:0.7894736842105263 16:0.6612465225335805 
0.0 0.0 0.0 0.0 1.0 0.0 1.0 1.0 0.0 0.0 1.0 1.0 0.0 0.0 1:0.0 2:0.0 3:0.0 4:0.061224489795918366 5:0.5806451612903226 6:1.0 7:0.6350528962771202 8:0.0 9:0.18877390367779182 10:0.6666666666666666 11:0.3333333333333333 12:0.0 13:0.2886751345948129 14:0.37037037037037035 15:0.4 16:0.39339789623472154 
0.0 0.0 0.0 0.07611982822911773 1.0 0.01200203699081505 1.0 1.0 0.0 0.0 1.0 1.0 0.0 0.0 1:0.0 2:0.0 3:0.0 4:0.08673469387755102 5:0.5483870967741935 6:1.0 7:0.8703882797784892 8:0.0 9:0.2641733560028444 10:0.6666666666666666 11:0.3333333333333333 12:0.0 13:0.2886751345948129 14:0.4074074074074074 15:0.44 16:0.45369643578108015 
0.3691759815053063 0.0 0.0 0.0 0.0 0.0 0.0 0.0 0.0 0.0 0.4169209336011907 1.0 0.0 0.0 1:0.0 2:0.0 3:0.0 4:0.10204081632653061 5:0.8387096774193548 6:1.0 7:0.7144345083117604 8:0.0 9:0.20723014116870048 10:0.5 11:0.5 12:1.0 13:0.40824829046386296 14:0.2962962962962963 15:0.8 16:0.5063696835418332 
1.0 0.0 0.0 0.0 1.0 0.0 0.0 0.33928212752311915 0.0 0.0 0.0 0.0 0.0 0.0 1:0.7071067811865475 2:0.0 3:0.0 4:0.3208955223880597 5:0.6590909090909091 6:1.0 7:0.7559289460184544 8:0.0 9:0.3308701037496165 10:0.0 11:0.0 12:0.0 13:0.0 14:0.631578947368421 15:0.8571428571428571 16:0.7902958142673178 
0.0 0.0 0.0 0.0 1.0 0.0 1.0 1.0 0.0 0.0 1.0 1.0 0.0 0.0 1:0.0 2:0.0 3:0.0 4:0.15671641791044777 5:0.7954545454545454 6:1.0 7:0.3333333333333333 8:0.0 9:0.2868985068790137 10:0.0 11:0.0 12:0.0 13:0.0 14:0.21052631578947367 15:0.5 16:0.5687964589945211 
0.0 0.0 0.0 1.0 1.0 0.0 1.0 1.0 0.0 0.0 1.0 1.0 0.0 0.0 1:0.5 2:0.0 3:0.0 4:0.15671641791044777 5:0.6818181818181819 6:1.0 7:0.5039526306789696 8:0.0 9:0.33349412340898404 10:0.0 11:0.0 12:0.0 13:0.0 14:0.3157894736842105 15:0.5454545454545454 16:0.6581451817144176 
0.0 0.0 0.0 1.0 1.0 0.0 0.0 0.0 0.0 0.0 0.0 1.0 0.0 0.0 1:0.5773502691896258 2:0.0 3:0.0 4:0.10236220472440945 5:0.7142857142857143 6:0.0 7:0.31622776601683794 8:0.0 9:0.2936231883480686 10:0.0 11:0.0 12:0.0 13:0.0 14:0.3 15:0.5 16:0.4213504858001923 
0.0 0.0 0.0 1.0 1.0 0.3718021171681472 0.0 0.0 0.0 0.0 0.0 1.0 0.0 0.0 1:0.5773502691896258 2:0.0 3:0.0 4:0.10236220472440945 5:0.7142857142857143 6:0.0 7:0.31622776601683794 8:0.0 9:0.2936231883480686 10:0.0 11:0.0 12:0.0 13:0.0 14:0.3 15:0.5 16:0.4213504858001923 
0.0 0.0 0.0 1.0 0.7195997069048118 0.0 0.0 0.0 0.0 0.0 0.0 1.0 0.0 0.0 1:0.5773502691896258 2:0.0 3:0.0 4:0.14960629921259844 5:0.7380952380952381 6:0.0 7:0.5773502691896258 8:0.0 9:0.4154423079731532 10:0.0 11:0.0 12:0.0 13:0.5773502691896258 14:0.4 15:0.7272727272727273 16:0.5658251521157384 
0.0 0.0 0.0 1.0 1.0 1.0 0.0 0.43900489401624987 0.0 0.0 0.0 1.0 0.0 0.0 1:0.5773502691896258 2:0.0 3:0.0 4:0.10236220472440945 5:0.7142857142857143 6:0.0 7:0.31622776601683794 8:0.0 9:0.2936231883480686 10:0.0 11:0.0 12:0.0 13:0.0 14:0.3 15:0.5 16:0.4213504858001923 
0.0 0.0 0.2321937757269372 1.0 0.0 0.0 0.0 0.0 0.0 0.0 0.0 1.0 0.028932570562001155 0.0 1:0.5773502691896258 2:0.0 3:0.0 4:0.14960629921259844 5:0.7380952380952381 6:0.0 7:0.5773502691896258 8:0.0 9:0.4154423079731532 10:0.0 11:0.0 12:0.0 13:0.5773502691896258 14:0.4 15:0.7272727272727273 16:0.5658251521157384 
0.0 0.0 0.0 0.0 1.0 0.0 1.0 1.0 0.0 0.0 0.0 1.0 0.0 1.0 1:0.0 2:0.0 3:0.0 4:0.09448818897637795 5:0.6666666666666666 6:0.0 7:0.24999999999999994 8:0.0 9:0.3637490648545217 10:0.0 11:0.0 12:0.0 13:0.0 14:0.2 15:0.36363636363636365 16:0.3111879571320709 
0.0 0.0 0.0 0.0 0.0 0.0 0.0 0.0 0.0 0.0 0.0 1.0 0.0 0.0 1:0.0 2:0.0 3:0.0 4:0.112 5:0.8333333333333333 6:0.0 7:0.26726124191242434 8:0.0 9:0.15835921325051758 10:0.0 11:0.0 12:0.0 13:0.0 14:0.2 15:0.5714285714285714 16:0.31524416249564025 
0.0 0.0 0.0 0.0 0.0 0.0 0.0 0.0 0.0 0.0 0.0 1.0 0.0 0.0 1:0.0 2:0.0 3:0.0 4:0.112 5:0.8333333333333333 6:0.0 7:0.26726124191242434 8:0.0 9:0.15835921325051758 10:0.0 11:0.0 12:0.0 13:0.0 14:0.2 15:0.5714285714285714 16:0.31524416249564025 
0.0 0.0 0.0 0.027237668307735222 1.0 0.0 1.0 0.0 0.0 0.0 0.0 0.0 0.0 0.0 1:0.5773502691896258 2:0.0 3:0.0 4:0.12121212121212122 5:0.7580645161290323 6:1.0 7:0.5976143046671968 8:0.0 9:0.35016794658399625 10:0.5 11:0.0 12:0.0 13:0.0 14:0.42857142857142855 15:0.8571428571428571 16:0.7027403853825437 
0.0 0.0 0.0 0.0 1.0 0.0 0.0 0.0 0.0 0.0 0.0 0.0 0.0 0.0 1:0.8164965809277261 2:0.0 3:0.0 4:0.4494949494949495 5:0.6451612903225806 6:0.5 7:0.7378647873726218 8:0.0 9:0.31507961469012097 10:0.5 11:0.0 12:0.0 13:0.4472135954999579 14:0.6428571428571429 15:0.9473684210526315 16:0.8630585385938034 
0.0 0.0 0.0 0.0 1.0 0.0 1.0 0.0 0.0 0.0 0.0 0.0 0.0 0.0 1:0.5773502691896258 2:0.0 3:0.0 4:0.12121212121212122 5:0.7580645161290323 6:1.0 7:0.5976143046671968 8:0.0 9:0.35016794658399625 10:0.5 11:0.0 12:0.0 13:0.0 14:0.42857142857142855 15:0.8571428571428571 16:0.7027403853825437 
0.0 0.0 0.0 1.0 1.0 1.0 0.0 0.0 0.0 0.0 0.0 0.0 0.0 0.0 1:0.8164965809277261 2:0.0 3:0.0 4:0.4494949494949495 5:0.5806451612903226 6:0.5 7:0.6674238124719146 8:0.0 9:0.26046581481049996 10:0.5 11:0.0 12:0.0 13:0.4472135954999579 14:0.6428571428571429 15:0.782608695652174 16:0.8163716483922343 
0.0 0.0 0.0 0.20504071397552864 1.0 0.0 0.0 0.0 0.0 0.0 0.0 0.0 0.0 0.0 1:0.8164965809277261 2:0.0 3:0.0 4:0.4494949494949495 5:0.6451612903225806 6:0.5 7:0.7378647873726218 8:0.0 9:0.31507961469012097 10:0.5 11:0.0 12:0.0 13:0.4472135954999579 14:0.6428571428571429 15:0.9473684210526315 16:0.8630585385938034 
0.0 0.0 0.0 1.0 1.0 0.0 1.0 0.0 0.0 0.0 1.0 0.14922778276953694 0.0 0.0 1:0.4082482904638631 2:0.0 3:0.0 4:0.08585858585858586 5:0.7741935483870968 6:1.0 7:0.47809144373375745 8:0.0 9:0.3657976435776596 10:0.5 11:0.0 12:0.0 13:0.0 14:0.25 15:0.6363636363636364 16:0.6177432843242373 
0.0 0.0 0.0 1.0 1.0 0.0 1.0 1.0 0.0 0.0 1.0 1.0 0.0 0.0 1:0.0 2:0.0 3:0.0 4:0.21505376344086022 5:0.6470588235294118 6:1.0 7:0.5962847939999439 8:0.0 9:0.34357846440049356 10:0.0 11:0.0 12:0.0 13:0.0 14:0.3333333333333333 15:0.4166666666666667 16:0.4213504858001923 
0.0 1.0 0.0 0.0 0.0 0.0 0.0 0.0 0.0 0.0 0.0 0.0 0.0 0.0 1:0.0 2:0.0 3:0.0 4:0.6984126984126984 5:0.65 6:0.0 7:0.7745966692414834 8:0.0 9:0.33647983749403626 10:1.0 11:1.0 12:0.0 13:1.0 14:0.7 15:1.0 16:0.8366600265340756 
0.0 0.0 0.0 0.0 1.0 0.0 1.0 0.0 0.10105246506498312 0.0 0.4348222400269048 0.0 0.0 0.0 1:0.0 2:0.0 3:0.0 4:0.19298245614035087 5:0.5625 6:1.0 7:0.5999999999999999 8:1.0 9:0.22523901219553394 10:1.0 11:0.0 12:0.0 13:0.0 14:0.5 15:0.5714285714285714 16:0.5345224838248487 
1.0 0.0 0.04430840332238719 1.0 1.0 0.0 0.0 0.0 0.0 0.0 1.0 0.09230189315656451 0.0 0.0 1:0.0 2:0.0 3:0.0 4:0.2631578947368421 5:0.6875 6:1.0 7:0.5163977794943222 8:0.0 9:0.40308976013844167 10:1.0 11:1.0 12:0.0 13:1.0 14:0.375 15:0.6 16:0.4743416490252569 
0.0 0.0 0.0 0.0 1.0 0.0 0.0 0.0 0.0 0.0 0.0 1.0 0.0 0.0 1:0.4472135954999579 2:0.0 3:0.0 4:0.08860759493670886 5:0.7777777777777778 6:0.5 7:0.42426406871192845 8:0.0 9:0.23352725406837663 10:0.5 11:0.0 12:0.0 13:0.5773502691896258 14:0.32 15:0.6666666666666666 16:0.5184758473652127 
0.0 0.0 0.0 0.0 1.0 0.0 0.0 0.0 0.0 0.0 0.0 1.0 0.0 0.0 1:0.4472135954999579 2:0.0 3:0.0 4:0.08860759493670886 5:0.7777777777777778 6:0.5 7:0.42426406871192845 8:0.0 9:0.23352725406837663 10:0.5 11:0.0 12:0.0 13:0.5773502691896258 14:0.32 15:0.6666666666666666 16:0.5184758473652127 
0.0 0.0 0.0 0.5487315972057176 1.0 0.0 0.0 0.0 0.0 0.0 0.0 0.0 0.0 0.0 1:0.5163977794943222 2:0.0 3:0.0 4:0.06329113924050633 5:0.7962962962962963 6:1.0 7:0.6666666666666666 8:0.0 9:0.3550117684818611 10:0.5 11:0.5 12:0.0 13:0.0 14:0.28 15:0.6363636363636364 16:0.4873773249664941 
0.0 0.0 0.0 0.0 1.0 0.0 0.0 0.0 0.0 0.0 0.0 1.0 0.0 0.0 1:0.4472135954999579 2:0.0 3:0.0 4:0.08860759493670886 5:0.7777777777777778 6:0.5 7:0.42426406871192845 8:0.0 9:0.23352725406837663 10:0.5 11:0.0 12:0.0 13:0.5773502691896258 14:0.32 15:0.6666666666666666 16:0.5184758473652127 
0.0 0.0 0.0 1.0 1.0 0.0 0.0 0.0 0.0 0.0 0.0 0.0 0.0 0.0 1:0.5163977794943222 2:0.0 3:0.0 4:0.06329113924050633 5:0.7962962962962963 6:1.0 7:0.6666666666666666 8:0.0 9:0.3550117684818611 10:0.5 11:0.5 12:0.0 13:0.0 14:0.28 15:0.6363636363636364 16:0.4873773249664941 
0.0 0.0 0.8765047208763724 0.0 0.7920856817325125 0.0 0.0 0.0 0.0 0.0 0.0 0.0 0.0 0.0 1:0.7453559924999299 2:0.0 3:0.0 4:0.0949367088607595 5:0.7407407407407407 6:0.3333333333333333 7:0.6363961030678926 8:0.3333333333333333 9:0.29103221481029007 10:1.0 11:1.0 12:0.0 13:0.5163977794943222 14:0.2 15:0.35714285714285715 16:0.33601075251612356 
0.0 0.0 0.0 1.0 1.0 1.0 0.0 1.0 0.0 0.0 1.0 0.0 0.0 0.0 1:0.5773502691896258 2:0.0 3:0.0 4:0.18382352941176472 5:0.6136363636363636 6:1.0 7:0.6153846153846154 8:0.0 9:0.35979110868066766 10:0.5 11:0.5 12:0.0 13:0.4999999999999999 14:0.25 15:0.3333333333333333 16:0.5122717640554154 
0.0 0.0 0.0 0.4424603122965838 1.0 0.6660945566846428 0.0 1.0 0.0 0.0 0.0 0.0 0.0 0.0 1:1.0 2:0.0 3:0.0 4:0.08088235294117647 5:0.6818181818181819 6:1.0 7:0.7302967433402213 8:0.0 9:0.2903157600723332 10:0.0 11:0.0 12:0.0 13:0.0 14:0.25 15:0.4166666666666667 16:0.5493502655735357 
0.0 0.0 0.0 0.0 1.0 0.0 0.0 0.0 0.0 0.0 1.0 1.0 0.0 0.0 1:0.4999999999999999 2:0.0 3:0.0 4:0.11029411764705882 5:0.75 6:1.0 7:0.31622776601683794 8:0.0 9:0.2877505330670472 10:0.0 11:0.0 12:0.0 13:0.0 14:0.2 15:0.36363636363636365 16:0.3418817293789138 
0.0 0.0 0.0 1.0 1.0 0.0 1.0 1.0 0.0 0.0 0.0 0.0 0.0 0.0 1:0.7071067811865475 2:0.0 3:0.0 4:0.15441176470588236 5:0.7045454545454546 6:1.0 7:0.6689936080056726 8:0.0 9:0.34789877082991216 10:0.5 11:0.5 12:0.0 13:0.0 14:0.2 15:0.36363636363636365 16:0.5202659817144719 
0.0 0.0 0.0 0.0 1.0 0.0 0.0 0.0 0.0 0.0 1.0 1.0 0.0 0.0 1:0.4999999999999999 2:0.0 3:0.0 4:0.11029411764705882 5:0.75 6:1.0 7:0.31622776601683794 8:0.0 9:0.2877505330670472 10:0.0 11:0.0 12:0.0 13:0.0 14:0.2 15:0.36363636363636365 16:0.3418817293789138 
1.0 1.0 0.017972708384107906 0.9756367106934805 1.0 0.0 1.0 1.0 0.0 0.0 0.0 1.0 0.0 0.0 1:0.0 2:0.0 3:0.0 4:0.3218390804597701 5:0.7 6:0.0 7:0.5669467095138409 8:0.0 9:0.37806618668687636 10:0.0 11:0.0 12:0.0 13:0.0 14:0.35714285714285715 15:0.625 16:0.5850179393017045 
1.0 0.0 0.0 1.0 1.0 0.30013209097554766 1.0 1.0 0.0 0.0 1.0 1.0 0.0 1.0 1:0.0 2:0.0 3:0.0 4:0.20689655172413793 5:0.5333333333333333 6:0.0 7:0.40089186286863654 8:0.0 9:0.3800707451835271 10:0.0 11:0.0 12:0.0 13:0.0 14:0.2857142857142857 15:0.36363636363636365 16:0.46537892099551725 
0.0 0.0 0.027813835111509307 1.0 1.0 0.0 1.0 1.0 0.07634095624908753 0.0 1.0 1.0 0.0 0.0 1:0.0 2:0.0 3:0.0 4:0.18556701030927836 5:0.7777777777777778 6:1.0 7:0.3779644730092272 8:0.0 9:0.40381623344877676 10:0.5 11:0.5 12:0.0 13:0.0 14:0.25 15:0.5 16:0.43301270189221935 
0.0 0.0 0.0 0.0 1.0 0.0 1.0 0.0 0.0 0.0 1.0 1.0 0.0 0.0 1:0.0 2:0.0 3:0.0 4:0.21649484536082475 5:0.8333333333333333 6:1.0 7:0.5669467095138409 8:0.0 9:0.3645526558065258 10:0.5 11:0.0 12:0.0 13:0.0 14:0.3125 15:0.8333333333333334 16:0.5833333333333334 
1.0 0.0 0.0 0.0 0.0 0.0 0.0 0.28569970544382667 0.0 0.0 1.0 0.19268134805409787 0.0 0.0 1:0.0 2:0.0 3:0.0 4:0.20491803278688525 5:0.75 6:1.0 7:0.7559289460184544 8:0.0 9:0.1829181146142667 10:0.5 11:0.5 12:1.0 13:0.4999999999999999 14:0.35 15:0.7 16:0.4949747468305832 
0.19989997309167087 0.0 0.0 0.0 1.0 0.0 0.0 0.0 0.0 0.0 0.0 1.0 0.0 0.0 1:0.0 2:0.0 3:0.0 4:0.15384615384615385 5:0.75 6:0.0 7:0.8660254037844387 8:0.0 9:0.27741935483870966 10:1.0 11:1.0 12:0.0 13:0.0 14:0.38461538461538464 15:0.7142857142857143 16:0.472455591261534 
0.0 0.0 0.06187580433823285 0.0 1.0 0.0 1.0 0.0 0.0 0.0 0.0 1.0 0.0 0.0 1:0.0 2:0.0 3:0.0 4:0.10256410256410256 5:0.6071428571428571 6:0.0 7:0.5 8:0.0 9:0.30911019525030614 10:0.5 11:0.5 12:0.0 13:0.0 14:0.23076923076923078 15:0.3 16:0.2773500981126146 
0.30978539474503075 0.0 1.0 0.5805784553026608 1.0 0.010636470291354385 0.0 0.6631209201581698 0.0 0.0 1.0 1.0 0.0 0.0 1:0.0 2:0.0 3:0.0 4:0.1484375 5:0.6818181818181819 6:1.0 7:0.45291081365783836 8:0.0 9:0.35492543652641717 10:1.0 11:1.0 12:0.0 13:1.0 14:0.3684210526315789 15:0.5833333333333334 16:0.42257712736425823 
0.0 0.0 0.913628623613891 0.0 1.0 0.0 1.0 1.0 0.0 0.0 1.0 1.0 0.0 0.0 1:0.0 2:0.0 3:0.0 4:0.1328125 5:0.7727272727272727 6:1.0 7:0.2773500981126146 8:0.0 9:0.32239867967207153 10:0.0 11:0.0 12:0.0 13:0.0 14:0.2631578947368421 15:0.5555555555555556 16:0.3818813079129867 
0.0 0.0 0.0 0.0 0.5255518052787751 0.0 0.0 0.0 0.0 0.0 0.0 0.0 0.0 0.0 1:0.7071067811865475 2:0.0 3:0.0 4:0.109375 5:0.75 6:1.0 7:0.41602514716892186 8:0.0 9:0.3843218378223342 10:1.0 11:1.0 12:0.0 13:1.0 14:0.42105263157894735 15:0.7272727272727273 16:0.5698028822981898 
0.0 0.0 0.0 0.0 1.0 0.0 1.0 0.0 0.2884759778278443 0.0 1.0 1.0 0.0 0.0 1:0.0 2:0.0 3:0.0 4:0.1171875 5:0.7272727272727273 6:1.0 7:0.3721042037676254 8:0.0 9:0.35495400097454 10:1.0 11:0.0 12:0.0 13:0.0 14:0.3157894736842105 15:0.6 16:0.4008918628686366 
0.0 0.0 0.0 0.0 1.0 0.0 0.0 1.0 0.0 0.0 0.0 0.0 0.0 0.0 1:1.0 2:0.0 3:0.0 4:0.1171875 5:0.6818181818181819 6:0.6666666666666666 7:0.16012815380508716 8:0.0 9:0.29006813544892224 10:1.0 11:1.0 12:0.0 13:1.0 14:0.3684210526315789 15:0.5 16:0.40406101782088427 
0.23851988660783882 0.0 0.0 0.0 1.0 0.8829688026639995 0.0 0.0 0.0 0.0 0.0 0.0 0.0 0.0 1:0.0 2:0.0 3:0.0 4:0.3072289156626506 5:0.5666666666666667 6:1.0 7:0.8058229640253802 8:1.0 9:0.29388639559193835 10:1.0 11:1.0 12:0.0 13:0.35355339059327373 14:0.7142857142857143 15:0.8333333333333334 16:0.8249579113843053 
1.0 0.0 0.004795569193895648 0.0 0.0 0.0 0.0 0.26001305313457057 0.0 0.0 0.0 0.0 0.0 0.0 1:0.0 2:0.0 3:0.0 4:0.22123893805309736 5:0.7222222222222222 6:1.0 7:0.9999999999999999 8:0.0 9:0.19709685528366527 10:1.0 11:1.0 12:1.0 13:0.4999999999999999 14:0.3333333333333333 15:0.6 16:0.447213595499958 
0.0 0.0 0.0 1.0 0.0 0.0 0.0 0.0 0.0 0.0 0.0 0.0 0.0 0.0 1:0.7071067811865475 2:0.0 3:0.0 4:0.7129629629629629 5:0.5952380952380952 6:1.0 7:0.7142857142857142 8:1.0 9:0.43407691250146974 10:0.5 11:0.5 12:0.0 13:0.40824829046386296 14:0.6111111111111112 15:0.7333333333333333 16:0.7985494095046906 
0.0 0.0 0.3728466967073089 1.0 1.0 0.5462254101292909 1.0 0.0 1.0 0.0 1.0 1.0 0.0 0.0 1:0.0 2:0.0 3:0.0 4:0.16666666666666666 5:0.8095238095238095 6:1.0 7:0.3779644730092272 8:0.0 9:0.3557044751405654 10:0.5 11:0.5 12:0.0 13:0.0 14:0.2222222222222222 15:0.5 16:0.43082021842766455 
0.0 0.0 0.0 0.0 1.0 0.0 1.0 1.0 0.0 0.0 1.0 1.0 0.0 0.0 1:0.0 2:0.0 3:0.0 4:0.18518518518518517 5:0.7142857142857143 6:1.0 7:0.5962847939999439 8:0.0 9:0.3391558485649846 10:0.0 11:0.0 12:0.0 13:0.0 14:0.3333333333333333 15:0.5 16:0.45226701686664544 
0.0 0.0 0.0 0.9192048654372232 0.0 0.0 0.0 0.0 0.0 0.0 0.0 0.0 0.0 0.0 1:1.0 2:0.0 3:0.0 4:0.6759259259259259 5:0.6904761904761905 6:1.0 7:0.8451542547285165 8:1.0 9:0.44463105377232803 10:0.5 11:0.5 12:0.0 13:0.5773502691896258 14:0.6111111111111112 15:1.0 16:0.8785953702139588 
0.0 0.0 0.0 0.0 1.0 0.0 1.0 1.0 0.0 0.0 1.0 1.0 0.0 0.0 1:0.0 2:0.0 3:0.0 4:0.18518518518518517 5:0.7142857142857143 6:1.0 7:0.5962847939999439 8:0.0 9:0.3391558485649846 10:0.0 11:0.0 12:0.0 13:0.0 14:0.3333333333333333 15:0.5 16:0.45226701686664544 
0.0 0.0 0.0 0.0 1.0 0.0 1.0 0.0 0.0 0.0 1.0 1.0 0.0 0.0 1:0.0 2:0.0 3:0.0 4:0.19444444444444445 5:0.6666666666666666 6:0.3333333333333333 7:0.545544725589981 8:0.0 9:0.3503485972755054 10:0.5 11:0.0 12:0.0 13:0.0 14:0.3333333333333333 15:0.42857142857142855 16:0.41871789467931186 
0.0 0.0 0.1576355565704323 0.5160645942543381 1.0 0.0 1.0 0.48953614962162123 0.0 0.0 1.0 1.0 0.0 1.0 1:0.0 2:0.0 3:0.0 4:0.07042253521126761 5:0.8478260869565217 6:1.0 7:0.0 8:0.0 9:0.36643270507768216 10:0.0 11:0.0 12:0.0 13:0.0 14:0.21052631578947367 15:0.5714285714285714 16:0.2631806779839076 
1.0 0.0 0.0 0.0 1.0 0.0 0.0 1.0 0.0 0.2183822926287678 1.0 1.0 0.0 0.0 1:0.0 2:0.0 3:0.0 4:0.19626168224299065 5:0.375 6:1.0 7:0.6689936080056726 8:1.0 9:0.28833537846128166 10:0.0 11:0.0 12:0.0 13:0.7071067811865475 14:0.5625 15:0.391304347826087 16:0.543557306504609 
0.0 0.0 0.0 0.0 1.0 0.0 1.0 1.0 0.0 0.0 1.0 1.0 0.0 0.0 1:0.0 2:0.0 3:0.0 4:0.09345794392523364 5:0.75 6:1.0 7:0.4193139346887673 8:0.0 9:0.3355178850918937 10:0.0 11:0.0 12:0.0 13:0.0 14:0.1875 15:0.3333333333333333 16:0.2842676218074806 
0.0 0.0 0.2489106955486646 0.0 1.0 0.0 1.0 1.0 0.0 0.0 1.0 1.0 0.0 0.0 1:0.0 2:0.0 3:0.0 4:0.11214953271028037 5:0.8055555555555556 6:1.0 7:0.2773500981126146 8:0.0 9:0.3057114776000223 10:0.0 11:0.0 12:0.0 13:0.0 14:0.125 15:0.2857142857142857 16:0.16116459280507606 
0.0 0.0 0.0 0.0 1.0 0.0 1.0 1.0 0.0 0.0 1.0 1.0 0.0 0.0 1:0.0 2:0.0 3:0.0 4:0.06666666666666667 5:0.8235294117647058 6:0.5 7:0.23570226039551587 8:0.0 9:0.31868620151425575 10:0.0 11:0.0 12:0.0 13:0.0 14:0.1875 15:0.5 16:0.3746343246326776 
0.0 0.0 0.0 1.0 1.0 0.0 0.0 0.0 0.0 0.0 0.0 1.0 0.0 0.0 1:0.40824829046386296 2:0.0 3:0.0 4:0.19745222929936307 5:0.7321428571428572 6:0.0 7:0.3779644730092272 8:0.0 9:0.27568090835465797 10:0.5 11:0.5 12:0.0 13:0.4999999999999999 14:0.36 15:0.6428571428571429 16:0.6063390625908325 
0.0 0.0 0.0 0.0 0.8676553046338918 0.0 0.0 0.0 0.0 0.0 0.0 0.0 0.0 0.0 1:0.8164965809277259 2:0.0 3:0.0 4:0.06993006993006994 5:0.75 6:1.0 7:0.3779644730092272 8:0.0 9:0.25634505919887396 10:0.0 11:0.0 12:0.0 13:0.0 14:0.2857142857142857 15:0.5454545454545454 16:0.36927447293799825 
0.0 0.0 0.0 0.0 1.0 0.0 0.0 0.0 0.0 0.0 0.0 0.0 0.0 0.0 1:0.5773502691896258 2:0.0 3:0.0 4:0.09090909090909091 5:0.8181818181818181 6:1.0 7:0.5 8:0.0 9:0.28827838424788316 10:1.0 11:1.0 12:0.0 13:0.0 14:0.2857142857142857 15:0.75 16:0.43301270189221935 
0.0 0.0 0.0 0.0 1.0 0.0 0.0 0.9792041230292692 0.0 0.0 0.9242408117573738 0.0 0.0 0.0 1:0.7745966692414834 2:0.0 3:0.0 4:0.20279720279720279 5:0.6818181818181819 6:1.0 7:0.4811252243246881 8:0.0 9:0.3839279542427859 10:0.0 11:0.0 12:0.0 13:0.7071067811865475 14:0.3333333333333333 15:0.5 16:0.4364357804719848 
0.0 0.0 0.0 0.6721515463227387 1.0 1.0 1.0 0.0 0.0 0.0 0.0 0.0 0.0 0.0 1:0.7071067811865475 2:0.0 3:0.0 4:0.3 5:0.5714285714285714 6:0.5 7:0.7302967433402214 8:0.0 9:0.3379791833138687 10:1.0 11:0.0 12:0.0 13:0.0 14:0.5 15:0.5 16:0.5163977794943222 
0.5484933039676753 0.0 0.834613331047907 0.714825559260007 1.0 0.0 1.0 0.0 0.3786197644430691 0.0 1.0 1.0 0.0 0.0 1:0.0 2:0.0 3:0.0 4:0.1125 5:0.8214285714285714 6:1.0 7:0.7071067811865476 8:0.0 9:0.43405036052094864 10:1.0 11:1.0 12:0.0 13:0.0 14:0.25 15:0.6 16:0.29999999999999993 
0.5999693130614617 0.0 0.0 1.0 1.0 0.9525326934122298 1.0 0.0 0.0 0.0 0.0 0.0 0.0 0.0 1:0.7071067811865475 2:0.0 3:0.0 4:0.3 5:0.5714285714285714 6:0.5 7:0.7302967433402214 8:0.0 9:0.3379791833138687 10:1.0 11:0.0 12:0.0 13:0.0 14:0.5 15:0.5 16:0.5163977794943222 
0.0 0.0 0.058129954031744445 0.0 1.0 0.0 0.0 0.5628319390877096 0.0 0.0 0.0 0.0 0.0 0.0 1:0.7071067811865475 2:0.0 3:0.0 4:0.275 5:0.5 6:0.3333333333333333 7:0.8215838362577491 8:0.0 9:0.31270352856235994 10:1.0 11:1.0 12:0.0 13:1.0 14:0.5 15:0.42857142857142855 16:0.47809144373375745 
1.0 1.0 0.0 0.0 1.0 0.0 0.0 0.0 0.0 0.0 0.0 0.0 0.0 0.0 1:1.0 2:0.0 3:0.0 4:0.8936170212765957 5:0.65 6:1.0 7:0.8164965809277259 8:0.0 9:0.5675324675324674 10:1.0 11:1.0 12:0.0 13:0.0 14:0.75 15:1.0 16:0.9166666666666666 
0.0 0.0 0.5213024619308578 1.0 1.0 0.0 0.0 0.0 0.0 0.0 0.0 1.0 0.0 0.0 1:0.0 2:0.0 3:0.0 4:0.43243243243243246 5:0.6923076923076923 6:0.0 7:0.4472135954999579 8:0.0 9:0.34687336473050756 10:0.3333333333333333 11:0.3333333333333333 12:0.0 13:0.4999999999999999 14:0.4166666666666667 15:0.625 16:0.5477225575051661 
1.0 0.0 0.0 0.7420459204986716 1.0 0.0 0.0 0.0 0.0 0.0 0.0 1.0 0.0 0.0 1:0.0 2:0.0 3:0.0 4:0.4864864864864865 5:0.6153846153846154 6:0.0 7:0.3999999999999999 8:0.0 9:0.3380707357729416 10:0.6666666666666666 11:0.6666666666666666 12:0.0 13:0.7071067811865475 14:0.5 15:0.6 16:0.5715476066494082 
0.0 0.9944699699389706 0.0 0.0 1.0 0.0 0.0 0.0 0.0 0.0 0.0 1.0 0.0 0.0 1:0.0 2:0.0 3:0.0 4:0.4864864864864865 5:0.7307692307692308 6:0.0 7:0.5163977794943222 8:0.0 9:0.38301295478714836 10:0.6666666666666666 11:0.6666666666666666 12:0.0 13:0.7071067811865475 14:0.5 15:0.8571428571428571 16:0.6831300510639732 
0.0 0.0 0.0701470698630981 1.0 1.0 0.2564153227537841 1.0 0.0 0.0 0.0 1.0 1.0 0.0 0.0 1:0.2886751345948129 2:0.0 3:0.0 4:0.10606060606060606 5:0.359375 6:0.5 7:0.5499719409228703 8:0.0 9:0.19583430525459508 10:0.6666666666666666 11:0.6666666666666666 12:0.0 13:0.0 14:0.391304347826087 15:0.3103448275862069 16:0.3956282840374722 
0.0 0.0 0.0 0.0 1.0 0.0 1.0 0.0 0.0 0.0 0.0 1.0 0.0 0.0 1:0.0 2:0.0 3:0.0 4:0.08823529411764706 5:0.6739130434782609 6:0.0 7:0.31622776601683794 8:0.0 9:0.30880294946883724 10:0.5 11:0.5 12:0.0 13:0.35355339059327373 14:0.22727272727272727 15:0.35714285714285715 16:0.38805700005813276 
0.0 0.0 0.0 0.0 1.0 0.0 1.0 0.0 0.0 0.0 0.0 1.0 0.0 0.0 1:0.0 2:0.0 3:0.0 4:0.08823529411764706 5:0.6739130434782609 6:0.0 7:0.31622776601683794 8:0.0 9:0.30880294946883724 10:0.5 11:0.5 12:0.0 13:0.35355339059327373 14:0.22727272727272727 15:0.35714285714285715 16:0.38805700005813276 
1.0 1.0 0.0 1.0 0.0 0.0 0.0 0.0 0.16878465277536314 0.0 0.0 1.0 0.0 0.0 1:0.0 2:0.0 3:0.0 4:0.5588235294117647 5:0.5 6:0.0 7:0.7882407813680822 8:1.0 9:0.3486349183055067 10:0.5 11:0.5 12:0.0 13:0.6708203932499369 14:0.5909090909090909 15:0.65 16:0.6685032174373867 
0.0 0.0 0.0 1.0 0.0 0.0 0.0 0.0 0.0 0.0 0.0 0.0 0.0 0.0 1:0.9999999999999998 2:0.0 3:0.0 4:0.25 5:0.7608695652173914 6:0.0 7:0.375 8:0.0 9:0.31213374502898306 10:0.5 11:0.5 12:0.0 13:0.7071067811865475 14:0.45454545454545453 15:0.9090909090909091 16:0.66332495807108 
0.0 0.0 0.0 0.0 1.0 0.0 1.0 0.0 0.0 0.0 0.0 1.0 0.0 0.0 1:0.0 2:0.0 3:0.0 4:0.08823529411764706 5:0.717391304347826 6:0.0 7:0.3572172541558802 8:0.0 9:0.3026316492344896 10:0.5 11:0.5 12:0.0 13:0.2886751345948129 14:0.18181818181818182 15:0.3076923076923077 16:0.2773500981126146 
0.0 0.0 0.0 0.0 1.0 0.0 0.0 0.0 0.0 0.0 0.0 0.18298194241722626 0.0 0.0 1:0.7071067811865475 2:0.0 3:0.0 4:0.13846153846153847 5:0.7727272727272727 6:0.0 7:0.8660254037844387 8:0.0 9:0.5497835497835498 10:1.0 11:1.0 12:0.0 13:0.0 14:0.36363636363636365 15:0.8 16:0.5393598899705937 
0.0 0.0 0.0 0.0 1.0 0.0 0.0 0.0 0.0 0.0 0.0 0.0 0.0 0.0 1:0.7071067811865475 2:0.0 3:0.0 4:0.25595238095238093 5:0.7115384615384616 6:1.0 7:0.6837634587578276 8:0.0 9:0.25996936723184155 10:0.0 11:0.0 12:0.0 13:0.0 14:0.5217391304347826 15:0.8571428571428571 16:0.747545001596402 
0.0 0.0 0.0 0.0 1.0 0.0 0.0 0.0 0.0 0.0 0.0 0.0 0.0 0.0 1:0.7071067811865475 2:0.0 3:0.0 4:0.25595238095238093 5:0.7115384615384616 6:1.0 7:0.6837634587578276 8:0.0 9:0.25996936723184155 10:0.0 11:0.0 12:0.0 13:0.0 14:0.5217391304347826 15:0.8571428571428571 16:0.747545001596402 
0.0 0.0 0.0 0.0 1.0 0.0 1.0 1.0 0.0 0.0 1.0 1.0 0.0 0.0 1:0.0 2:0.0 3:0.0 4:0.125 5:0.8269230769230769 6:1.0 7:0.30151134457776363 8:0.0 9:0.21517388015926026 10:0.0 11:0.0 12:0.0 13:0.0 14:0.17391304347826086 15:0.5 16:0.5380275868489703 
0.0 0.0 0.0 0.0 1.0 0.0 0.0 0.0 0.0 0.0 1.0 1.0 0.0 0.0 1:0.5 2:0.0 3:0.0 4:0.125 5:0.7307692307692308 6:1.0 7:0.4558423058385518 8:0.0 9:0.2615640183599875 10:0.0 11:0.0 12:0.0 13:0.0 14:0.2608695652173913 15:0.5454545454545454 16:0.6225430174794673 
0.1491223244807861 0.0 0.0 0.0 1.0 0.0 0.0 0.0 0.0 0.0 0.0 0.0 0.0 0.0 1:0.0 2:0.0 3:0.0 4:0.4235294117647059 5:0.6346153846153846 6:0.7368421052631579 7:0.9531759751869954 8:0.0 9:0.3103735084119688 10:1.0 11:1.0 12:0.0 13:0.4999999999999999 14:0.625 15:0.8333333333333334 16:0.756978119245116 
0.0 0.0 0.0 0.022650824235125676 0.0 0.0 0.0 0.0 0.0 0.0 0.0 0.0 0.0 0.0 1:0.0 2:0.0 3:0.0 4:0.6909090909090909 5:0.631578947368421 6:1.0 7:0.8660254037844387 8:1.0 9:0.1360308666402849 10:0.3333333333333333 11:0.6666666666666666 12:0.0 13:0.7071067811865475 14:0.7368421052631579 15:1.0 16:0.858395075278952 
0.0 0.0 0.0 0.0 1.0 0.0 1.0 0.0 0.0 0.0 1.0 1.0 0.0 0.0 1:0.4472135954999579 2:0.0 3:0.0 4:0.10240963855421686 5:0.7692307692307692 6:1.0 7:0.5393598899705937 8:0.0 9:0.2752965681183502 10:1.0 11:1.0 12:0.0 13:0.0 14:0.3181818181818182 15:0.5833333333333334 16:0.44556639433950346 
0.0 0.0 0.0 0.0 1.0 0.0 1.0 0.0 0.0 0.0 1.0 0.4718876668952211 0.0 0.0 1:0.4472135954999579 2:0.0 3:0.0 4:0.10240963855421686 5:0.7692307692307692 6:1.0 7:0.5393598899705937 8:0.0 9:0.2752965681183502 10:1.0 11:1.0 12:0.0 13:0.0 14:0.3181818181818182 15:0.5833333333333334 16:0.44556639433950346 
0.0 1.0 0.0 0.0 0.0 0.0 0.0 0.0 0.0 0.0 0.0 0.0 0.0 0.0 1:0.8944271909999159 2:0.0 3:0.0 4:0.8253012048192772 5:0.5192307692307693 6:0.8 7:1.0 8:0.0 9:0.3113136863136862 10:1.0 11:1.0 12:0.0 13:1.0 14:0.9545454545454546 15:1.0 16:0.985184366143778 
0.0 0.0 0.0 0.8645827136805725 1.0 0.0 0.0 0.0 0.0 0.0 0.0 0.0 0.0 0.0 1:0.7071067811865475 2:0.0 3:0.0 4:0.10077519379844961 5:0.8 6:1.0 7:0.5669467095138409 8:0.0 9:0.18634406529143369 10:1.0 11:1.0 12:0.0 13:0.0 14:0.2222222222222222 15:0.5 16:0.41602514716892186 
0.0 0.0 0.0 0.0 0.0 0.051224241547027774 0.0 0.0 0.0 0.0 0.0 0.0 0.0 0.0 1:0.9128709291752769 2:0.0 3:0.0 4:0.17391304347826086 5:0.7407407407407407 6:1.0 7:0.867527617235709 8:0.0 9:0.3476979144738187 10:1.0 11:0.5 12:0.0 13:0.5773502691896258 14:0.391304347826087 15:0.6428571428571429 16:0.48331225268012157 
0.0 0.0 0.0 0.0 0.0 0.0 0.0 0.0 0.0 0.0 0.0 1.0 0.0 0.0 1:0.0 2:0.0 3:0.0 4:0.08 5:0.8409090909090908 6:0.0 7:0.35355339059327373 8:0.0 9:0.14558781002279453 10:0.0 11:0.0 12:0.0 13:0.4472135954999579 14:0.21052631578947367 15:0.5714285714285714 16:0.3571428571428571 
0.0 0.0 0.6706039934772113 0.0 0.0 0.0 0.0 0.0 0.0 0.0 0.0 1.0 0.0 0.0 1:0.0 2:0.0 3:0.0 4:0.24 5:0.75 6:0.0 7:0.6123724356957945 8:0.0 9:0.14174678956985579 10:0.5 11:0.5 12:0.0 13:0.5163977794943222 14:0.42105263157894735 15:0.8 16:0.5241424183609592 
0.0 0.0 0.0 0.0 0.0 0.0 0.0 0.9815856888147363 0.0 0.0 0.0 1.0 0.0 0.0 1:0.0 2:0.0 3:0.0 4:0.08 5:0.7727272727272727 6:0.0 7:0.20412414523193148 8:0.0 9:0.14540666945511235 10:0.0 11:0.0 12:0.0 13:0.6324555320336759 14:0.2631578947368421 15:0.5 16:0.35856858280031806 
0.0 0.0 0.0 0.0 1.0 0.011133851518459878 1.0 0.0 0.021623911052147053 0.0 0.0 1.0 0.0 0.0 1:0.0 2:0.0 3:0.0 4:0.2127659574468085 5:0.7058823529411764 6:0.0 7:0.25 8:0.0 9:0.21971580840128258 10:0.3333333333333333 11:0.3333333333333333 12:0.0 13:0.0 14:0.25 15:0.4444444444444444 16:0.4635863249727653 
0.0 0.0 0.0 0.0 1.0 1.0 1.0 0.074160452383213 0.0 0.0 0.0 1.0 0.0 0.8957876264441933 1:0.0 2:0.0 3:0.0 4:0.20212765957446807 5:0.6470588235294118 6:0.0 7:0.22360679774997896 8:0.0 9:0.2708623076270135 10:0.3333333333333333 11:0.3333333333333333 12:0.0 13:0.0 14:0.25 15:0.4 16:0.48666426339228763 
1.0 1.0 0.0 0.0 1.0 0.0 0.0 0.0 0.0 0.0 0.0 0.0 0.0 0.0 1:1.0 2:0.0 3:0.0 4:0.8936170212765957 5:0.65 6:1.0 7:0.8164965809277259 8:0.0 9:0.5675324675324674 10:1.0 11:1.0 12:0.0 13:0.0 14:0.75 15:1.0 16:0.9166666666666666 
0.0 0.0 0.0 0.8741069683349539 0.0 0.0 0.0 0.0 0.0 0.0 0.0 0.0 0.0 0.0 1:0.0 2:0.0 3:0.0 4:0.5117647058823529 5:0.5806451612903226 6:1.0 7:0.8058229640253802 8:1.0 9:0.2915084567335221 10:1.0 11:1.0 12:0.0 13:0.5773502691896258 14:0.7241379310344828 15:0.875 16:0.8427953808926898 
1.0 0.0 0.0 0.0 0.0 0.007028828977063286 0.0 0.0 0.0 0.0 1.0 1.0 0.593910420914254 0.0 1:0.0 2:0.0 3:0.0 4:0.21739130434782608 5:0.7368421052631579 6:1.0 7:0.7559289460184544 8:0.0 9:0.1829181146142667 10:0.5 11:0.5 12:1.0 13:0.4999999999999999 14:0.3684210526315789 15:0.7 16:0.5078333750770081 
0.7533590932261122 0.0 0.0 1.0 1.0 0.0 1.0 1.0 0.0 0.0 1.0 1.0 0.0 0.0 1:0.0 2:0.0 3:0.0 4:0.31746031746031744 5:0.5384615384615384 6:1.0 7:0.6761234037828131 8:0.0 9:0.3402705015977326 10:0.0 11:0.0 12:0.0 13:0.0 14:0.45454545454545453 15:0.4166666666666667 16:0.4635863249727653 
1.0 0.0 0.21150976488110398 1.0 1.0 0.0 1.0 1.0 0.0 0.0 1.0 1.0 0.0 0.0 1:0.0 2:0.0 3:0.0 4:0.31746031746031744 5:0.5384615384615384 6:1.0 7:0.6761234037828131 8:0.0 9:0.3402705015977326 10:0.0 11:0.0 12:0.0 13:0.0 14:0.45454545454545453 15:0.4166666666666667 16:0.4635863249727653 
0.0 1.0 0.0 0.0 0.0 0.0 0.0 0.0 0.0 0.0 0.0 0.0 0.0 0.0 1:0.9128709291752769 2:0.0 3:0.0 4:0.8765432098765432 5:0.5576923076923077 6:1.0 7:0.9534625892455924 8:0.0 9:0.33109595428187094 10:1.0 11:1.0 12:0.0 13:0.0 14:0.8636363636363636 15:1.0 16:0.9574271077563381 
0.0 0.0 0.0 1.0 1.0 0.0 0.0 0.0 0.0 0.0 1.0 1.0 0.0 0.0 1:0.47140452079103173 2:0.0 3:0.0 4:0.2839506172839506 5:0.6538461538461539 6:1.0 7:0.26967994498529685 8:0.0 9:0.22416768182685534 10:0.0 11:0.0 12:0.0 13:0.0 14:0.45454545454545453 15:0.7142857142857143 16:0.5984437489312764 
0.0 0.0 0.0 0.0 1.0 0.0 1.0 0.0 0.0 0.0 1.0 1.0 0.0 0.0 1:0.0 2:0.0 3:0.0 4:0.11728395061728394 5:0.8461538461538461 6:1.0 7:0.17407765595569785 8:0.0 9:0.2272165932012479 10:0.0 11:0.0 12:0.0 13:0.0 14:0.13636363636363635 15:0.375 16:0.29462782549439476 
0.0 0.0 0.0 0.4589951082989614 0.0 0.0 0.0 0.0 0.0 0.0 1.0 0.0 0.0 0.0 1:0.0 2:0.0 3:0.0 4:0.6260869565217392 5:0.6842105263157895 6:1.0 7:0.6761234037828132 8:0.0 9:0.3106485647300568 10:1.0 11:1.0 12:0.0 13:0.7071067811865475 14:0.6111111111111112 15:1.0 16:0.8164965809277261 
1.0 1.0 0.378591932200653 0.0 0.0 0.0 0.0 0.0 0.0 0.0 0.0 0.0 0.0 0.0 1:0.0 2:0.0 3:0.0 4:0.7378640776699029 5:0.631578947368421 6:0.0 7:0.8660254037844387 8:1.0 9:0.1360308666402849 10:0.3333333333333333 11:0.6666666666666666 12:0.0 13:0.7071067811865475 14:0.7368421052631579 15:1.0 16:0.858395075278952 
0.0 0.0 0.0 0.0 1.0 0.06353822955227666 0.0 1.0 0.14117549819874936 0.0 1.0 1.0 0.0 0.0 1:0.0 2:0.0 3:1.0 4:0.08275862068965517 5:0.8541666666666667 6:1.0 7:0.31622776601683794 8:0.0 9:0.2430896287083685 10:0.0 11:0.0 12:0.0 13:0.5 14:0.17391304347826086 15:0.5714285714285714 16:0.29649972666444047 
0.1392491665655277 0.0 0.0 0.0 1.0 0.0 1.0 0.0 0.0 0.0 1.0 1.0 0.0 0.0 1:0.0 2:0.0 3:0.0 4:0.07526881720430108 5:0.4666666666666667 6:0.0 7:0.16666666666666669 8:0.0 9:0.17978685251871418 10:1.0 11:1.0 12:0.0 13:0.0 14:0.21428571428571427 15:0.21428571428571427 16:0.25928148942086576 
0.0 0.0 0.0 0.7610382269964585 1.0 0.0 1.0 1.0 0.0 0.0 1.0 1.0 0.0 0.0 1:0.0 2:0.0 3:0.0 4:0.10303030303030303 5:0.6206896551724138 6:0.4 7:0.3344968040028363 8:0.0 9:0.2760811187016021 10:0.0 11:0.0 12:0.0 13:0.0 14:0.34615384615384615 15:0.4090909090909091 16:0.3964124835860459 
0.0 0.0 0.0 0.0 1.0 0.0 0.0 1.0 0.0 0.0 0.0 1.0 0.0 0.0 1:0.0 2:0.0 3:0.0 4:0.14423076923076922 5:0.7647058823529411 6:0.2 7:0.5070925528371099 8:0.0 9:0.31334946635649 10:0.0 11:0.0 12:0.0 13:0.0 14:0.3125 15:0.625 16:0.40555355282690625 
0.0 0.0 0.0 0.0 1.0 0.0 0.0 1.0 0.0 0.0 0.0 1.0 0.0 0.0 1:0.0 2:0.0 3:0.0 4:0.14423076923076922 5:0.7647058823529411 6:0.2 7:0.5070925528371099 8:0.0 9:0.31334946635649 10:0.0 11:0.0 12:0.0 13:0.0 14:0.3125 15:0.625 16:0.40555355282690625 
0.1665022230955168 0.0 0.19926291445673297 0.0 1.0 0.0 0.0 0.0 0.0 0.0 1.0 0.0 0.0 0.0 1:0.4999999999999999 2:0.0 3:0.0 4:0.23076923076923078 5:0.6764705882352942 6:1.0 7:0.5070925528371099 8:0.0 9:0.4180500910146029 10:0.0 11:0.0 12:0.0 13:1.0 14:0.5 15:0.7272727272727273 16:0.6225430174794672 
1.0 1.0 0.0 0.0 0.9403040853342165 0.0 0.0 0.0 0.0 0.0 0.0 0.0 0.0 0.0 1:1.0 2:0.0 3:0.0 4:0.8936170212765957 5:0.65 6:1.0 7:0.8164965809277259 8:0.0 9:0.5675324675324674 10:1.0 11:1.0 12:0.0 13:0.0 14:0.75 15:1.0 16:0.9166666666666666 
1.0 0.0 0.5947920312252973 0.0 0.0 0.6004573888879973 0.0 0.0 0.0 0.0 0.0 1.0 0.0 0.0 1:0.0 2:0.0 3:0.0 4:0.2692307692307692 5:0.6956521739130435 6:0.0 7:0.9101820546182064 8:1.0 9:0.4036391494409136 10:0.6666666666666666 11:0.6666666666666666 12:0.0 13:0.6324555320336759 14:0.55 15:0.7857142857142857 16:0.6948083337796512 
1.0 0.0 0.0 0.0 1.0 0.0 0.0 1.0 0.0 0.0 0.0 0.0 0.0 0.0 1:0.7071067811865475 2:0.0 3:0.0 4:0.3208955223880597 5:0.6590909090909091 6:1.0 7:0.7559289460184544 8:0.0 9:0.3308701037496165 10:0.0 11:0.0 12:0.0 13:0.0 14:0.631578947368421 15:0.8571428571428571 16:0.7902958142673178 
1.0 0.0 0.0 0.0 1.0 0.0 0.0 1.0 0.0 0.0 0.0 0.0 0.0 0.0 1:0.7071067811865475 2:0.0 3:0.0 4:0.3208955223880597 5:0.6590909090909091 6:1.0 7:0.7559289460184544 8:0.0 9:0.3308701037496165 10:0.0 11:0.0 12:0.0 13:0.0 14:0.631578947368421 15:0.8571428571428571 16:0.7902958142673178 
0.0 0.0 0.0 0.0 1.0 0.0 1.0 1.0 0.0 0.0 1.0 1.0 0.0 0.0 1:0.0 2:0.0 3:0.0 4:0.15671641791044777 5:0.7954545454545454 6:1.0 7:0.3333333333333333 8:0.0 9:0.2868985068790137 10:0.0 11:0.0 12:0.0 13:0.0 14:0.21052631578947367 15:0.5 16:0.5687964589945211 
0.8791399385135262 0.0 0.0 0.0 1.0 0.0 0.0 0.0 0.0 0.0 0.0 1.0 0.0 0.0 1:0.7071067811865475 2:0.0 3:0.0 4:0.13846153846153847 5:0.7727272727272727 6:0.0 7:0.8660254037844387 8:0.0 9:0.5497835497835498 10:1.0 11:1.0 12:0.0 13:0.0 14:0.36363636363636365 15:0.8 16:0.5393598899705937 
1.0 0.0 0.0 0.0 1.0 0.0 0.0 0.0 0.0 0.0 0.0 0.0 0.0 0.0 1:0.0 2:0.0 3:0.0 4:0.4235294117647059 5:0.6346153846153846 6:0.7368421052631579 7:0.9531759751869954 8:0.0 9:0.3103735084119688 10:1.0 11:1.0 12:0.0 13:0.4999999999999999 14:0.625 15:0.8333333333333334 16:0.756978119245116 
0.0 0.0 0.0 0.831854583301505 0.0 0.22564135269367763 0.0 0.0 0.0 0.0 0.0 0.0 0.0 0.0 1:0.0 2:0.0 3:0.0 4:0.6909090909090909 5:0.631578947368421 6:1.0 7:0.8660254037844387 8:1.0 9:0.1360308666402849 10:0.3333333333333333 11:0.6666666666666666 12:0.0 13:0.7071067811865475 14:0.7368421052631579 15:1.0 16:0.858395075278952 
0.0 0.0 0.0 1.0 1.0 0.0 1.0 0.0 0.0 0.0 0.0 0.0 0.0 0.0 1:0.5 2:0.0 3:0.0 4:0.12738853503184713 5:0.76 6:1.0 7:0.5393598899705937 8:0.0 9:0.2752965681183502 10:1.0 11:1.0 12:0.0 13:0.0 14:0.3333333333333333 15:0.5833333333333334 16:0.45226701686664544 
0.0 0.0 0.0 0.8824698531200883 1.0 0.0 0.5463336107433467 0.0 0.0 0.0 0.0 0.0 0.0 0.0 1:0.5 2:0.0 3:0.0 4:0.12738853503184713 5:0.76 6:1.0 7:0.5393598899705937 8:0.0 9:0.2752965681183502 10:1.0 11:1.0 12:0.0 13:0.0 14:0.3333333333333333 15:0.5833333333333334 16:0.45226701686664544 
0.0 0.0 0.0 0.3224459719695737 1.0 0.0 1.0 0.0 0.0 0.0 1.0 0.0 0.0 0.0 1:0.35355339059327373 2:0.0 3:0.0 4:0.14012738853503184 5:0.74 6:1.0 7:0.40451991747794525 8:0.0 9:0.34336589436969245 10:1.0 11:0.0 12:0.0 13:0.0 14:0.23809523809523808 15:0.45454545454545453 16:0.4392976851069794 
0.0 1.0 0.0 0.0 0.0 0.0 0.0 0.0 0.0 0.0 0.0 0.0 0.0 0.0 1:0.7071067811865475 2:0.0 3:0.0 4:0.8805970149253731 5:0.5238095238095238 6:0.5 7:0.9354143466934852 8:0.0 9:0.24709760512392098 10:1.0 11:1.0 12:0.0 13:1.0000000000000002 14:0.9473684210526315 15:1.0 16:0.9813067629253164 
0.0 1.0 0.0 0.0 1.0 0.0 0.0 0.0 0.0 0.0 1.0 0.6534390608536603 0.0 0.0 1:0.0 2:0.0 3:0.0 4:0.48091603053435117 5:0.7272727272727273 6:1.0 7:0.8528028654224417 8:0.0 9:0.2998156746795585 10:0.5 11:0.5 12:0.0 13:0.0 14:0.6 15:1.0 16:0.7359800721939873 
0.0 0.0 0.06068414869091788 0.0 1.0 0.0 1.0 1.0 0.0 0.0 1.0 1.0 0.0 0.0 1:0.0 2:0.0 3:0.0 4:0.12790697674418605 5:0.7857142857142857 6:1.0 7:0.16666666666666669 8:0.0 9:0.2824278268232824 10:0.0 11:0.0 12:0.0 13:0.0 14:0.21428571428571427 15:0.5 16:0.3273268353539886 
0.0 1.0 0.0 0.0 0.0 0.0 0.0 0.7204923367365134 0.0 0.0 1.0 1.0 0.0 0.0 1:0.0 2:0.0 3:0.0 4:0.45348837209302323 5:0.7857142857142857 6:1.0 7:0.8660254037844387 8:0.0 9:0.2716163738222562 10:0.0 11:0.0 12:0.0 13:0.0 14:0.42857142857142855 15:1.0 16:0.6546536707079772 
0.0 0.0 0.0 1.0 1.0 0.0 1.0 1.0 0.0 0.0 1.0 1.0 0.0 0.18449697514354332 1:0.35355339059327373 2:0.0 3:0.0 4:0.05952380952380952 5:0.6785714285714286 6:1.0 7:0.4193139346887673 8:0.0 9:0.3884719666087779 10:0.5 11:0.5 12:0.0 13:0.0 14:0.25 15:0.375 16:0.4966996338993915 
0.0 0.0 0.0 0.0 1.0 0.0 0.0 0.0 0.0 0.0 0.0 0.0 0.0 0.0 1:0.7071067811865475 2:0.0 3:0.0 4:0.23809523809523808 5:0.8035714285714286 6:1.0 7:0.5547001962252291 8:0.0 9:0.3509287675696343 10:0.5 11:0.5 12:0.0 13:0.0 14:0.375 15:0.8181818181818182 16:0.5869391856534222 
0.0 0.0 0.0 0.0 1.0 0.0 0.0 0.0 0.0 0.0 0.0 0.0 0.0 0.0 1:0.7071067811865475 2:0.0 3:0.0 4:0.23809523809523808 5:0.8035714285714286 6:1.0 7:0.5547001962252291 8:0.0 9:0.3509287675696343 10:0.5 11:0.5 12:0.0 13:0.0 14:0.375 15:0.8181818181818182 16:0.5869391856534222 
0.0 0.0 0.0 0.0 0.9776118226591876 0.0 0.0 0.0 0.0 0.0 1.0 1.0 0.0 0.0 1:0.31622776601683794 2:0.0 3:0.0 4:0.08225108225108226 5:0.7560975609756098 6:1.0 7:0.07647191129018724 8:0.0 9:0.19111755554226034 10:0.0 11:0.0 12:0.0 13:0.8164965809277259 14:0.24242424242424243 15:0.4 16:0.36055512754639896 
0.0 0.0 0.0 0.8399412207210021 1.0 0.0 0.0 0.0 0.0 0.0 1.0 1.0 0.0 0.0 1:0.2581988897471611 2:0.0 3:0.0 4:0.2077922077922078 5:0.7195121951219512 6:1.0 7:0.48666426339228763 8:0.0 9:0.18038647269243413 10:0.75 11:0.75 12:0.0 13:0.0 14:0.5151515151515151 15:0.7391304347826086 16:0.6465757501398398 
0.0 0.0 0.0 0.0 0.8811997013747437 0.0 0.0 0.0 0.0 0.0 0.0 0.0 0.0 0.0 1:0.6324555320336759 2:0.0 3:0.0 4:0.19480519480519481 5:0.6707317073170732 6:1.0 7:0.6722139969935249 8:0.5 9:0.20549881073707085 10:0.75 11:0.5 12:0.0 13:0.40824829046386296 14:0.5454545454545454 15:0.75 16:0.7128336889709045 
1.0 0.0 0.0 1.0 1.0 0.0 0.0 1.0 0.0 0.0 1.0 1.0 0.0 0.0 1:0.40824829046386296 2:0.0 3:0.0 4:0.1783783783783784 5:0.6363636363636364 6:1.0 7:0.40824829046386296 8:0.5 9:0.40115234841189473 10:0.0 11:0.0 12:0.0 13:0.33333333333333337 14:0.3793103448275862 15:0.5238095238095238 16:0.5962847939999439 
0.0 0.0 0.0 0.0 1.0 0.0 0.0 0.08083936823462018 0.0 0.0 0.0 0.0 0.0 0.0 1:0.5773502691896258 2:0.0 3:0.0 4:0.04864864864864865 5:0.8181818181818181 6:1.0 7:0.9013878188659974 8:0.0 9:0.38089226456541864 10:0.5 11:0.0 12:0.0 13:0.0 14:0.2413793103448276 15:0.5833333333333334 16:0.47336463120312877 
1.0 0.0 0.0 0.0 1.0 0.0 1.0 0.30360037091628506 0.0 0.0 0.0 1.0 0.0 0.0 1:0.0 2:0.0 3:0.0 4:0.04864864864864865 5:0.6818181818181819 6:0.0 7:0.5303300858899106 8:0.0 9:0.40555438635127977 10:0.5 11:0.0 12:0.0 13:0.0 14:0.27586206896551724 15:0.4 16:0.4662524041201569 
0.0 0.0 0.0 1.0 1.0 0.0 0.0 0.0 0.0 0.0 0.0 0.0 0.0 0.0 1:0.40824829046386296 2:0.0 3:0.0 4:0.1783783783783784 5:0.7424242424242424 6:1.0 7:0.4364357804719848 8:0.5 9:0.4125146825034253 10:0.0 11:0.0 12:0.0 13:0.40824829046386296 14:0.3103448275862069 15:0.6 16:0.5905863785521988 
0.6249400467932987 0.0 0.0 1.0 1.0 0.0 1.0 1.0 0.0 0.0 1.0 1.0 0.0 0.15950367588488076 1:0.0 2:0.0 3:0.0 4:0.0918918918918919 5:0.7272727272727273 6:1.0 7:0.3273268353539886 8:0.5 9:0.42199178229811224 10:0.0 11:0.0 12:0.0 13:0.0 14:0.2413793103448276 15:0.4375 16:0.5172935265326569 
0.8976439616668864 0.0 0.0 1.0 1.0 0.0 0.0 0.0 0.0 0.0 0.0 0.0 0.0 0.0 1:0.5773502691896258 2:0.0 3:0.0 4:0.1783783783783784 5:0.6818181818181819 6:1.0 7:0.4364357804719848 8:0.5 9:0.4009825520369726 10:0.0 11:0.0 12:0.0 13:0.33333333333333337 14:0.3793103448275862 15:0.6111111111111112 16:0.6227991553292183 
0.0 0.0 0.0 0.0 1.0 0.0 0.0 1.0 0.0 0.0 0.0 0.0 0.0 0.0 1:0.5773502691896258 2:0.0 3:0.0 4:0.04864864864864865 5:0.8181818181818181 6:1.0 7:0.9013878188659974 8:0.0 9:0.38089226456541864 10:0.5 11:0.0 12:0.0 13:0.0 14:0.2413793103448276 15:0.5833333333333334 16:0.47336463120312877 
0.0 0.0 0.0 0.7836394336766124 0.0 0.0 0.0 0.0 0.0 0.0 0.0 0.0 0.0 0.0 1:0.8164965809277259 2:0.0 3:0.0 4:0.12432432432432433 5:0.7878787878787878 6:1.0 7:0.9354143466934853 8:0.0 9:0.3969708096636155 10:0.5 11:0.5 12:0.0 13:0.0 14:0.27586206896551724 15:0.6666666666666666 16:0.5333333333333332 
0.0 0.0 0.0 0.0 1.0 0.0 0.0 0.6990965816899731 0.0 0.0 0.0 0.0 0.0 0.0 1:0.5773502691896258 2:0.0 3:0.0 4:0.04864864864864865 5:0.8181818181818181 6:1.0 7:0.9013878188659974 8:0.0 9:0.38089226456541864 10:0.5 11:0.0 12:0.0 13:0.0 14:0.2413793103448276 15:0.5833333333333334 16:0.47336463120312877 
0.0 0.0 0.0 0.7961707594415542 1.0 0.0 1.0 0.0 0.0 0.0 0.0 1.0 0.0 0.0 1:0.40824829046386296 2:0.0 3:0.0 4:0.10270270270270271 5:0.7424242424242424 6:0.0 7:0.5855400437691198 8:0.0 9:0.41172160841394584 10:0.5 11:0.0 12:0.0 13:0.0 14:0.27586206896551724 15:0.5 16:0.512989176042577 
0.0 0.0 0.0 0.0 1.0 0.0 1.0 0.0 0.0 0.0 0.0 0.0 0.0 0.0 1:0.5773502691896258 2:0.0 3:0.0 4:0.39072847682119205 5:0.8333333333333333 6:1.0 7:0.5773502691896257 8:0.0 9:0.371121992568071 10:1.0 11:0.5 12:0.0 13:0.0 14:0.34782608695652173 15:1.0 16:0.8308675641104959 
0.0 0.0 0.0 0.0 0.0 0.0 1.0 0.0 0.0 0.0 0.0 0.0 0.0 0.0 1:0.5773502691896258 2:0.0 3:0.0 4:0.2781456953642384 5:0.8833333333333333 6:1.0 7:0.4714045207910316 8:0.0 9:0.35024428052393336 10:1.0 11:0.5 12:0.0 13:0.0 14:0.2608695652173913 15:1.0 16:0.6975184488828855 
0.0 0.0 0.0 0.0 1.0 0.0 1.0 0.0 0.0 0.0 0.0 0.0 0.0 0.0 1:0.5773502691896258 2:0.0 3:0.0 4:0.39072847682119205 5:0.8333333333333333 6:1.0 7:0.5773502691896257 8:0.0 9:0.371121992568071 10:1.0 11:0.5 12:0.0 13:0.0 14:0.34782608695652173 15:1.0 16:0.8308675641104959 
0.0 0.0 0.0 0.0 1.0 0.0 1.0 0.0 0.0 0.0 0.0 0.0 0.0 0.0 1:0.5773502691896258 2:0.0 3:0.0 4:0.39072847682119205 5:0.8333333333333333 6:1.0 7:0.5773502691896257 8:0.0 9:0.371121992568071 10:1.0 11:0.5 12:0.0 13:0.0 14:0.34782608695652173 15:1.0 16:0.8308675641104959 
0.0 0.0 0.0 0.0 1.0 0.0 1.0 0.0 0.0 0.0 0.0 0.0 0.0 0.0 1:0.5773502691896258 2:0.0 3:0.0 4:0.39072847682119205 5:0.8333333333333333 6:1.0 7:0.5773502691896257 8:0.0 9:0.371121992568071 10:1.0 11:0.5 12:0.0 13:0.0 14:0.34782608695652173 15:1.0 16:0.8308675641104959 
0.13534591124490286 0.0 0.0 0.08273437952872284 1.0 0.0 1.0 0.0 0.0 0.0 0.0 1.0 0.0 1.0 1:0.0 2:0.0 3:0.0 4:0.14049586776859505 5:0.8333333333333333 6:0.0 7:0.1386750490563073 8:0.0 9:0.49448516269060283 10:0.3333333333333333 11:0.3333333333333333 12:0.0 13:0.4999999999999999 14:0.19047619047619047 15:0.5 16:0.3227486121839514 
0.0 0.0 0.0 0.0 1.0 0.0 1.0 0.0 0.0 0.0 1.0 1.0 0.0 0.0 1:0.0 2:0.0 3:0.0 4:0.08264462809917356 5:0.875 6:1.0 7:0.4008918628686366 8:0.0 9:0.380028039070306 10:0.3333333333333333 11:0.0 12:0.0 13:0.0 14:0.19047619047619047 15:0.6666666666666666 16:0.372677996249965 
0.0 0.0 0.0 0.0 0.0 1.0 0.0 0.0 0.0 0.0 0.0 0.0 0.0 0.0 1:1.0 2:0.0 3:0.0 4:0.3105263157894737 5:0.5454545454545454 6:1.0 7:1.0 8:1.0 9:0.2230700797723549 10:1.0 11:0.5 12:0.0 13:0.8660254037844387 14:0.71875 15:0.8214285714285714 16:0.7888106377466154 
1.0 0.0 0.04611728964721108 0.0 1.0 0.0 0.0 0.0 0.0 0.0 0.0 1.0 0.0 0.0 1:0.0 2:0.0 3:0.0 4:0.45901639344262296 5:0.525 6:0.3333333333333333 7:0.7826237921249264 8:0.0 9:0.17547516585978132 10:1.0 11:1.0 12:0.0 13:0.8660254037844387 14:0.8421052631578947 15:0.8421052631578947 16:0.8314971796756813 
0.0 0.0 0.0 0.0 1.0 0.0 1.0 0.0 0.0 0.0 1.0 1.0 0.0 0.0 1:0.0 2:0.0 3:0.0 4:0.062111801242236024 5:0.8653846153846154 6:1.0 7:0.0 8:0.0 9:0.32302995733470896 10:0.0 11:0.0 12:0.0 13:0.0 14:0.17391304347826086 15:0.5714285714285714 16:0.2592814894208657 
0.3781043358385848 1.0 0.0 0.0 1.0 0.0 0.0 0.0 0.0 0.0 0.0 0.0 0.0 0.0 1:0.9128709291752769 2:0.0 3:0.0 4:0.7453416149068323 5:0.5576923076923077 6:1.0 7:0.8432740427115678 8:0.0 9:0.33666596153715084 10:0.0 11:0.0 12:0.0 13:0.0 14:0.8260869565217391 15:1.0 16:0.9254762227411248 
0.0 0.0 0.0 0.0 1.0 0.0 1.0 0.0 0.0 0.0 1.0 1.0 0.0 0.0 1:0.0 2:0.0 3:0.0 4:0.11801242236024845 5:0.8461538461538461 6:1.0 7:0.19245008972987526 8:0.0 9:0.23353836653069385 10:0.0 11:0.0 12:0.0 13:0.0 14:0.13043478260869565 15:0.375 16:0.30316953129541624 
0.0 0.0 0.0 0.0 1.0 0.0 1.0 1.0 0.0 0.0 1.0 1.0 0.0 0.0 1:0.0 2:0.0 3:0.0 4:0.24444444444444444 5:0.5517241379310345 6:0.9333333333333333 7:0.8575894485643643 8:0.0 9:0.3587795845412269 10:0.0 11:0.0 12:0.0 13:0.0 14:0.32 15:0.3333333333333333 16:0.420210157631365 
0.0 0.0 0.0 0.0 1.0 0.0 1.0 1.0 0.334789814053283 0.0 1.0 1.0 0.536363148075032 0.0 1:0.0 2:0.0 3:0.0 4:0.24444444444444444 5:0.5517241379310345 6:0.9333333333333333 7:0.8575894485643643 8:0.0 9:0.3587795845412269 10:0.0 11:0.0 12:0.0 13:0.0 14:0.32 15:0.3333333333333333 16:0.420210157631365 
0.0 0.0 0.0 0.0 0.06607584171327276 0.0 0.0 0.0 0.0 0.0 1.0 1.0 0.0 0.0 1:0.0 2:0.0 3:0.0 4:0.3148148148148148 5:0.7777777777777778 6:1.0 7:0.4472135954999579 8:0.0 9:0.11372549019607844 10:0.0 11:0.0 12:0.0 13:0.0 14:0.4444444444444444 15:1.0 16:0.6666666666666666 
0.0 0.0 0.0 0.0 1.0 0.0 1.0 1.0 0.0 0.0 1.0 1.0 0.0 0.10376785421344552 1:0.0 2:0.0 3:0.0 4:0.06666666666666667 5:0.8235294117647058 6:0.5 7:0.23570226039551587 8:0.0 9:0.31868620151425575 10:0.0 11:0.0 12:0.0 13:0.0 14:0.1875 15:0.5 16:0.3746343246326776 
1.0 0.0 0.9429493549639303 0.2624550368577629 0.0 0.0 0.0 0.0 0.0 0.0 0.0 0.0 0.0 0.0 1:1.0000000000000002 2:0.0 3:0.0 4:0.90625 5:0.5 6:1.0 7:0.4999999999999999 8:1.0 9:0.26333333333333336 10:0.0 11:0.0 12:0.0 13:1.0 14:0.8888888888888888 15:0.8888888888888888 16:0.8888888888888888 
0.0 0.0 0.0 0.20897748365805102 1.0 0.03689092089177973 0.0 1.0 0.03920304677164422 0.0 0.0 1.0 0.18023047528122466 1.0 1:0.7071067811865475 2:0.0 3:1.0 4:0.05439330543933055 5:0.8292682926829269 6:0.0 7:0.2300894966542111 8:0.0 9:0.3290136445550607 10:0.5 11:0.0 12:0.0 13:0.0 14:0.28125 15:0.6923076923076923 16:0.450499099002703 
0.9482515620960875 0.0 0.0 0.0 0.0 0.23590701484111287 0.0 0.0 0.0 0.0 0.0 0.0 0.0 0.0 1:1.0 2:0.0 3:0.0 4:0.3253968253968254 5:0.6388888888888888 6:1.0 7:1.0 8:0.0 9:0.32058494762363227 10:1.0 11:0.0 12:0.0 13:1.0 14:0.6666666666666666 15:0.9230769230769231 16:0.7844645405527363 
0.0 0.0 0.0 0.0 1.0 0.0 0.0 0.0 0.0 0.0 1.0 0.0 0.0 0.0 1:0.4999999999999999 2:0.0 3:0.0 4:0.11282051282051282 5:0.6764705882352942 6:1.0 7:0.5262348115842176 8:0.0 9:0.17553061188138244 10:0.6666666666666666 11:0.3333333333333333 12:0.0 13:0.40824829046386296 14:0.40625 15:0.6842105263157895 16:0.6131393394849658 
0.0 0.0 0.0 0.0 1.0 0.0 0.0 0.0 0.0 0.0 1.0 0.0 0.0 0.0 1:0.5773502691896258 2:0.0 3:0.0 4:0.13286713286713286 5:0.7045454545454546 6:1.0 7:0.4743416490252569 8:0.0 9:0.24092046308735382 10:0.3333333333333333 11:0.0 12:0.0 13:0.35355339059327373 14:0.35 15:0.5833333333333334 16:0.3903600291794132 
0.9082121517905197 0.0 0.0 1.0 0.0 0.0 0.0 0.0 0.0 0.0 0.0 0.0 0.0 0.0 1:0.5773502691896258 2:0.0 3:0.0 4:0.18181818181818182 5:0.6136363636363636 6:1.0 7:0.8017837257372731 8:1.0 9:0.18558535247002744 10:0.3333333333333333 11:0.3333333333333333 12:0.0 13:0.75 14:0.65 15:0.8125 16:0.7803989725717079 
1.0 0.0 0.5465347330755899 1.0 1.0 0.0 1.0 1.0 0.5682250744180517 0.0 1.0 1.0 0.0 0.0 1:0.0 2:0.0 3:0.0 4:0.11764705882352941 5:0.5217391304347826 6:1.0 7:0.7399400733959438 8:0.0 9:0.35542697470420015 10:0.5 11:0.5 12:0.0 13:0.0 14:0.4 15:0.4 16:0.4005963724010764 
0.0 0.0 0.07721813606872452 0.29367104616088097 1.0 0.6889544595166326 0.0 0.0 0.0 0.0 1.0 1.0 0.0 0.0 1:0.0 2:0.0 3:0.0 4:0.13793103448275862 5:0.7037037037037037 6:1.0 7:0.8616404368553293 8:0.0 9:0.15792863050927566 10:1.0 11:1.0 12:0.0 13:0.7071067811865475 14:0.6363636363636364 15:0.9333333333333333 16:0.7925939239012171 
0.0 0.0 0.0 0.0 1.0 0.0 1.0 1.0 0.0 0.0 1.0 1.0 0.0 0.0 1:0.0 2:0.0 3:0.0 4:0.10900473933649289 5:0.6617647058823529 6:0.6363636363636364 7:0.6831300510639732 8:0.0 9:0.28541770120988574 10:0.5 11:0.0 12:0.0 13:0.31622776601683794 14:0.3333333333333333 15:0.5 16:0.5686068791275765 
0.0 0.0 0.0 0.0 1.0 0.0 0.0 1.0 0.0 0.0 0.0 1.0 0.0 0.0 1:0.0 2:0.0 3:0.0 4:0.0763888888888889 5:0.6875 6:0.0 7:0.5976143046671968 8:0.0 9:0.08840905683010947 10:0.0 11:0.0 12:0.0 13:0.0 14:0.21739130434782608 15:0.35714285714285715 16:0.2853908964926965 
0.0 0.0 0.0 0.0 1.0 0.0 0.0 1.0 0.0 0.0 0.0 1.0 0.0 0.0 1:0.0 2:0.0 3:0.0 4:0.0763888888888889 5:0.6875 6:0.0 7:0.5976143046671968 8:0.0 9:0.08840905683010947 10:0.0 11:0.0 12:0.0 13:0.0 14:0.21739130434782608 15:0.35714285714285715 16:0.2853908964926965 
0.0 0.0 0.015912771167782586 0.8353725021576699 1.0 1.0 1.0 1.0 0.0 0.0 1.0 1.0 0.0 0.0 1:0.0 2:0.0 3:0.0 4:0.08558558558558559 5:0.6944444444444444 6:1.0 7:0.3076923076923077 8:0.0 9:0.13948519260779277 10:0.3333333333333333 11:0.3333333333333333 12:0.0 13:0.0 14:0.25806451612903225 15:0.4 16:0.46352358236214425 
0.0 0.0 0.0 0.0 1.0 0.0 0.0 0.0 0.0 0.0 0.0 0.0 0.0 0.0 1:0.6708203932499369 2:0.0 3:0.0 4:0.29056603773584905 5:0.6666666666666666 6:1.0 7:0.5921565254637922 8:0.0 9:0.28396305264307414 10:0.3333333333333333 11:0.0 12:0.0 13:0.4472135954999579 14:0.46511627906976744 15:0.7692307692307693 16:0.6199304198780666 
0.0 0.0 0.0 1.0 1.0 0.0 1.0 0.0 0.0 0.0 1.0 1.0 0.0 0.0 1:0.0 2:0.0 3:0.0 4:0.057971014492753624 5:0.7941176470588236 6:1.0 7:0.45226701686664544 8:0.0 9:0.33672028600476667 10:0.6666666666666666 11:0.3333333333333333 12:0.0 13:0.0 14:0.3333333333333333 15:0.7692307692307693 16:0.5276448530110863 
0.0 1.0 0.0 0.0 0.0 0.0 0.0 0.0 0.0 0.0 0.0 0.0 0.0 0.0 1:0.0 2:0.0 3:0.0 4:0.7642857142857142 5:0.5769230769230769 6:0.0 7:0.9296696802013682 8:0.5 9:0.23253145734348724 10:1.0 11:1.0 12:0.0 13:0.7745966692414834 14:0.8333333333333334 15:1.0 16:0.8951435925492911 
0.18598607615015383 0.0 0.0 0.16934186288059908 0.0 0.0 0.0 0.0 0.0 0.0 0.0 1.0 0.0 0.0 1:0.0 2:0.0 3:0.0 4:0.13805970149253732 5:0.7702702702702703 6:0.0 7:0.5051814855409226 8:0.0 9:0.19268917227942525 10:0.0 11:0.0 12:0.0 13:1.0 14:0.41935483870967744 15:0.8666666666666667 16:0.702802181054962 
0.0 0.0 0.0 0.0 1.0 0.0 1.0 0.0 0.0 0.0 0.0 1.0 0.0 0.0 1:0.0 2:0.0 3:0.0 4:0.13805970149253732 5:0.7702702702702703 6:0.0 7:0.6 8:0.0 9:0.17851632537277443 10:1.0 11:1.0 12:0.0 13:0.0 14:0.3870967741935484 15:0.7058823529411765 16:0.5773502691896257 
0.0 0.0 0.0 0.0 0.0 0.0 0.0 0.0 0.0 0.0 1.0 0.0 0.0 0.0 1:0.5 2:0.0 3:0.0 4:0.11801242236024845 5:0.74 6:1.0 7:0.4472135954999579 8:0.0 9:0.21460142090134038 10:0.3333333333333333 11:0.0 12:0.0 13:0.35355339059327373 14:0.3181818181818182 15:0.5833333333333334 16:0.3595732599803958 
1.0 0.0 0.020752053319319355 0.0 0.0 0.0 0.0 0.0 0.0 0.0 0.0 0.0 0.0 0.0 1:0.8164965809277259 2:0.0 3:0.0 4:0.40611353711790393 5:0.6071428571428571 6:0.8 7:0.846809798439941 8:0.0 9:0.32753563739680225 10:0.0 11:0.0 12:0.0 13:0.9999999999999998 14:0.78125 15:0.9259259259259259 16:0.9210761168059327 
1.0 0.0 0.0 0.08797124248780393 0.0 0.0 0.0 0.0 0.0 0.0 0.0 0.0 0.0 0.0 1:0.0 2:0.0 3:0.0 4:0.5538461538461539 5:0.5434782608695652 6:1.0 7:0.9999999999999998 8:1.0 9:0.251525922941279 10:1.0 11:0.5 12:0.0 13:0.8660254037844387 14:0.8571428571428571 15:1.0 16:0.9259259259259259 
1.0 0.0 0.0 0.0 1.0 0.0 0.0 0.0 0.0 0.0 0.0 0.0 0.0 0.0 1:0.5773502691896258 2:0.0 3:0.0 4:0.3391812865497076 5:0.6666666666666666 6:1.0 7:0.9035624609139907 8:0.0 9:0.32531161851790047 10:1.0 11:0.6666666666666666 12:0.0 13:0.0 14:0.5416666666666666 15:0.7222222222222222 16:0.6374552583116766 
0.0 0.0 0.0 0.0 1.0 0.0 1.0 0.0 0.0 0.0 0.0 0.0 0.0 0.0 1:0.40824829046386296 2:0.0 3:0.0 4:0.23976608187134502 5:0.7592592592592593 6:1.0 7:0.8090398349558905 8:0.0 9:0.3003364471985772 10:1.0 11:0.0 12:0.0 13:0.0 14:0.5 15:0.9230769230769231 16:0.609449400220044 
0.0 0.0 0.0 0.0 1.0 0.0 1.0 0.0 0.0 0.0 0.0 0.0 0.0 0.0 1:0.5773502691896258 2:0.0 3:0.0 4:0.1286549707602339 5:0.8148148148148149 6:1.0 7:0.5222329678670935 8:0.0 9:0.3272106722863891 10:1.0 11:0.0 12:0.0 13:0.0 14:0.25 15:0.6666666666666666 16:0.5855400437691199 
0.0 0.0 0.0 0.0 1.0 0.0 0.0 0.9057256442282319 0.0 0.0 1.0 1.0 0.0 0.0 1:0.0 2:0.0 3:0.0 4:0.07111111111111111 5:0.8205128205128205 6:1.0 7:0.2051956704170308 8:0.0 9:0.3853300649826112 10:0.2 11:0.2 12:0.0 13:0.40824829046386296 14:0.2 15:0.5384615384615384 16:0.2917299829957891 
1.0 0.0 0.0 1.0 1.0 0.0 0.0 1.0 0.0 0.0 1.0 1.0 0.0 0.0 1:0.0 2:0.0 3:0.0 4:0.10666666666666667 5:0.6923076923076923 6:1.0 7:0.6055300708194984 8:0.0 9:0.37010914231908204 10:0.5 11:0.25 12:0.0 13:0.33333333333333337 14:0.42857142857142855 15:0.6818181818181818 16:0.5237519540989727 
0.0 0.0 0.2194909383958641 0.0 1.0 0.45173791736020164 0.0 1.0 0.0 0.0 1.0 1.0 0.0 0.0 1:0.0 2:0.0 3:0.0 4:0.07111111111111111 5:0.8205128205128205 6:1.0 7:0.2051956704170308 8:0.0 9:0.3853300649826112 10:0.2 11:0.2 12:0.0 13:0.40824829046386296 14:0.2 15:0.5384615384615384 16:0.2917299829957891 
1.0 0.0 0.18095062246467547 0.0 1.0 0.0 1.0 0.0 0.0 0.6344709435540279 0.0 1.0 0.0 0.0 1:0.0 2:0.0 3:0.0 4:0.15584415584415584 5:0.5 6:0.0 7:0.6708203932499369 8:0.0 9:0.25685087859000905 10:1.0 11:1.0 12:0.0 13:0.0 14:0.6 15:0.6 16:0.5999999999999999 
0.0 0.0 0.0 0.0 1.0 0.0 1.0 1.0 0.0 0.0 0.0 1.0 0.0 0.0 1:0.0 2:0.0 3:0.0 4:0.11688311688311688 5:0.65 6:0.0 7:0.25 8:0.0 9:0.21463755542702911 10:0.0 11:0.0 12:0.0 13:0.0 14:0.3 15:0.42857142857142855 16:0.35856858280031806 
1.0 0.0 0.38011134013751624 0.0 1.0 0.0 1.0 0.0 0.0 0.17971234271385222 0.0 1.0 0.0 0.0 1:0.0 2:0.0 3:0.0 4:0.15584415584415584 5:0.45454545454545453 6:0.0 7:0.7216878364870323 8:0.0 9:0.19493605809395284 10:1.0 11:1.0 12:0.0 13:0.0 14:0.6 15:0.5454545454545454 16:0.5720775535473553 
0.6461762915817891 0.0 0.0 0.0 0.8621099429732308 0.009062835888000506 0.0 1.0 0.0 0.0 0.0 1.0 0.0 0.0 1:0.4082482904638631 2:0.0 3:1.0 4:0.5333333333333333 5:0.7291666666666666 6:1.0 7:0.7302967433402213 8:0.0 9:0.21774133324581293 10:0.5 11:0.5 12:0.0 13:0.4999999999999999 14:0.5714285714285714 15:1.0 16:0.821583836257749 
1.0 1.0 0.0 0.8666189724564367 1.0 0.11167877374579084 0.0 0.0 0.0 0.0 0.0 0.0 0.3928590003152593 0.0 1:1.0000000000000002 2:0.0 3:0.0 4:0.8679245283018868 5:0.47058823529411764 6:1.0 7:0.8749999999999998 8:0.0 9:0.2664843416817101 10:0.0 11:0.0 12:0.0 13:0.0 14:0.9375 15:0.9375 16:0.917662935482247 
0.0 0.0 0.0 0.0 1.0 0.0 0.0 1.0 0.0 0.0 1.0 1.0 0.0 0.0 1:0.0 2:0.0 3:0.0 4:0.16744186046511628 5:0.6323529411764706 6:1.0 7:0.5294117647058824 8:0.0 9:0.19073333344749963 10:0.0 11:0.0 12:0.0 13:0.5 14:0.42424242424242425 15:0.5833333333333334 16:0.5132002392796673 
0.0 0.0 0.0 0.0 1.0 0.0 0.0 0.0 0.0 0.0 0.0 0.0 0.0 0.0 1:0.6546536707079772 2:0.0 3:0.0 4:0.2049469964664311 5:0.6595744680851063 6:1.0 7:0.17407765595569785 8:0.4 9:0.1983859147355875 10:0.0 11:0.0 12:0.0 13:0.4629100498862757 14:0.4146341463414634 15:0.5862068965517241 16:0.5883484054145521 
0.0 0.0 0.0 0.0 1.0 0.44768203026392195 1.0 0.9644345936261725 0.0 0.0 1.0 1.0 0.0 0.0 1:0.0 2:0.0 3:0.0 4:0.05116279069767442 5:0.6447368421052632 6:1.0 7:0.14625448482542613 8:0.0 9:0.14209847613805815 10:0.3333333333333333 11:0.0 12:0.0 13:0.2886751345948129 14:0.21212121212121213 15:0.2916666666666667 16:0.5237229365663817 
1.0 1.0 0.0 0.0 1.0 0.5597492786179415 1.0 0.0 0.0 0.0 0.0 1.0 0.0 0.0 1:0.0 2:0.0 3:0.0 4:0.553030303030303 5:0.3888888888888889 6:0.0 7:0.9045340337332909 8:1.0 9:0.23527726659305603 10:1.0 11:0.5 12:0.0 13:0.0 14:0.9444444444444444 15:0.7083333333333334 16:0.8788707488040823 
0.0 0.0 0.0 0.0 1.0 0.0 1.0 1.0 0.0 0.0 1.0 1.0 0.0 1.0 1:0.0 2:0.0 3:0.0 4:0.04697986577181208 5:0.5192307692307693 6:0.2857142857142857 7:0.08574929257125441 8:0.0 9:0.24634471579985406 10:0.0 11:0.0 12:0.0 13:0.0 14:0.25 15:0.25 16:0.2810913475705226 
0.0 0.0 0.0 0.0 1.0 0.0 0.0 1.0 0.0 0.0 1.0 1.0 0.0 0.0 1:0.0 2:0.0 3:0.0 4:0.053691275167785234 5:0.5576923076923077 6:0.2857142857142857 7:0.3333333333333333 8:0.0 9:0.27574093809214856 10:0.0 11:0.0 12:0.0 13:0.40824829046386296 14:0.25 15:0.2608695652173913 16:0.26648544566940835 
0.0 0.0 0.0 0.0 1.0 0.0 1.0 1.0 0.0 0.0 1.0 1.0 0.0 0.7118974684845172 1:0.0 2:0.0 3:0.0 4:0.06040268456375839 5:0.43333333333333335 6:1.0 7:0.21320071635561041 8:0.0 9:0.2531344755319212 10:0.0 11:0.0 12:0.0 13:0.0 14:0.125 15:0.1111111111111111 16:0.18257418583505539 
0.0 0.0 0.0 0.0 1.0 0.0 1.0 0.0 0.0 0.0 1.0 1.0 0.0 0.0 1:0.0 2:0.0 3:0.0 4:0.06870229007633588 5:0.35714285714285715 6:1.0 7:0.10050378152592121 8:0.0 9:0.20412312676612346 10:0.0 11:0.0 12:0.0 13:0.0 14:0.05555555555555555 15:0.041666666666666664 16:0.031497039417435604 
0.0 0.0 0.0 0.0 1.0 0.0 1.0 1.0 0.0 0.0 1.0 1.0 0.0 0.0 1:0.0 2:0.0 3:0.0 4:0.0670391061452514 5:0.7962962962962963 6:1.0 7:0.35355339059327373 8:0.0 9:0.12734132490055225 10:0.0 11:0.0 12:0.0 13:0.0 14:0.13043478260869565 15:0.2727272727272727 16:0.29740895825796587 
0.0 0.0 0.9491864122846475 0.0 0.0 0.0 0.0 1.0 0.0 0.0 1.0 1.0 0.0 0.0 1:0.0 2:0.0 3:0.0 4:0.07913669064748201 5:0.7608695652173914 6:1.0 7:0.24999999999999994 8:0.0 9:0.14453781512605043 10:0.0 11:0.0 12:0.0 13:0.7071067811865475 14:0.2 15:0.36363636363636365 16:0.2799462554779272 
0.0 0.0 0.0 0.0 1.0 0.22221525994631086 0.0 0.0 0.0 0.0 0.43437015835803844 0.0 0.0 0.0 1:0.5303300858899106 2:0.0 3:0.0 4:0.33189655172413796 5:0.6973684210526316 6:1.0 7:0.5163977794943223 8:0.0 9:0.15304763614055478 10:0.4 11:0.4 12:0.0 13:0.31622776601683794 14:0.43333333333333335 15:0.65 16:0.7466786172972663 
1.0 0.0 0.8595597238353658 1.0 1.0 0.96346911105632 0.0 1.0 0.0 0.0 1.0 1.0 0.0 0.0 1:0.0 2:0.0 3:0.0 4:0.22784810126582278 5:0.36764705882352944 6:0.5384615384615384 7:0.609849578616645 8:0.0 9:0.20431430779160306 10:0.0 11:0.0 12:0.0 13:0.5 14:0.5833333333333334 15:0.42424242424242425 16:0.5132002392796673 
0.0 0.0 0.0 0.0 1.0 0.0 1.0 1.0 0.0 0.0 1.0 1.0 0.0 0.0 1:0.0 2:0.0 3:0.0 4:0.06962025316455696 5:0.32894736842105265 6:1.0 7:0.4824506406770077 8:0.0 9:0.1616102260067299 10:0.0 11:0.0 12:0.0 13:0.0 14:0.20833333333333334 15:0.16666666666666666 16:0.2460905535784756 
0.6513220166399937 0.0 0.0 0.0 1.0 0.3147411296662984 0.0 0.0 0.0 0.0 0.0 0.0 0.0 0.0 1:0.9999999999999998 2:0.0 3:0.0 4:0.4148936170212766 5:0.23529411764705882 6:0.7692307692307693 7:0.8453639444116164 8:1.0 9:0.22378614220525178 10:1.0 11:0.0 12:0.0 13:0.5773502691896258 14:0.8 15:0.36363636363636365 16:0.5499719409228703 
0.0 0.0 0.0 0.0 1.0 0.0 1.0 1.0 0.013243221139584357 0.2640561492934375 1.0 1.0 0.0 0.0 1:0.0 2:0.0 3:0.0 4:0.09574468085106383 5:0.17021276595744683 6:0.6666666666666666 7:0.6085806194501845 8:0.0 9:0.24842427973335146 10:1.0 11:0.5 12:0.0 13:0.0 14:0.4 15:0.14634146341463414 16:0.3508232077228117 
0.0 0.0 0.0 0.0 1.0 0.0 1.0 1.0 0.0 0.0 1.0 1.0 0.0 1.0 1:0.0 2:0.0 3:0.0 4:0.046632124352331605 5:0.5666666666666667 6:1.0 7:0.21320071635561041 8:0.0 9:0.2531344755319212 10:0.0 11:0.0 12:0.0 13:0.0 14:0.1111111111111111 15:0.125 16:0.18257418583505539 
0.041009542680346345 0.0 0.35085644592603576 1.0 1.0 0.0 0.0 0.0 0.0 1.0 1.0 0.06089704755043368 0.0 0.0 1:0.6546536707079772 2:0.0 3:0.0 4:0.3020833333333333 5:0.3404255319148936 6:1.0 7:0.17407765595569785 8:0.6666666666666666 9:0.19838591473558764 10:0.0 11:0.0 12:0.0 13:0.4629100498862757 14:0.5862068965517241 15:0.4146341463414634 16:0.5883484054145521 
0.0 0.0 0.0 0.0 1.0 0.0 1.0 0.0 0.26097801278660104 0.0 1.0 1.0 0.0 0.0 1:0.0 2:0.0 3:0.0 4:0.052083333333333336 5:0.609375 6:0.8571428571428571 7:0.21938172723813917 8:0.0 9:0.18440971424234942 10:1.0 11:0.0 12:0.0 13:0.0 14:0.2413793103448276 15:0.2916666666666667 16:0.30429030972509225 
0.0 0.0 0.0 0.0 1.0 0.0 1.0 0.0 0.4336613435372331 0.0 1.0 1.0 0.0 1.0 1:0.0 2:0.0 3:0.0 4:0.05421686746987952 5:0.6428571428571428 6:0.5 7:0.10050378152592121 8:0.0 9:0.20412312676612346 10:0.0 11:0.0 12:0.0 13:0.0 14:0.041666666666666664 15:0.05555555555555555 16:0.031497039417435604 
0.0 0.0 0.0 0.0 1.0 0.0 1.0 1.0 0.0 0.0 1.0 1.0 0.0 0.0 1:0.0 2:0.0 3:0.0 4:0.06626506024096386 5:0.5357142857142857 6:0.4 7:0.2461829819586655 8:0.0 9:0.1659665668945314 10:0.0 11:0.0 12:0.0 13:0.0 14:0.20833333333333334 15:0.2 16:0.37908769828787275 
0.0 0.0 0.0 0.0 1.0 0.06278960941250726 1.0 0.0 0.0 0.0 1.0 1.0 0.0 0.0 1:0.0 2:0.0 3:0.0 4:0.2033898305084746 5:0.20370370370370372 6:0.0 7:0.7115124735378853 8:0.0 9:0.14636215375748024 10:1.0 11:0.0 12:0.0 13:0.6666666666666667 14:0.2727272727272727 15:0.13043478260869565 16:0.29740895825796587 
0.0 0.0 0.0 0.0 1.0 0.0 1.0 0.0 0.0 0.0 1.0 1.0 0.0 0.0 1:0.0 2:0.0 3:0.0 4:0.1694915254237288 5:0.19642857142857145 6:0.0 7:0.30151134457776363 8:0.0 9:0.22417641460194654 10:1.0 11:1.0 12:0.0 13:0.31622776601683794 14:0.09090909090909091 15:0.041666666666666664 16:0.09304842103984709 
1.0 1.0 0.0 0.8500060133720522 1.0 0.0 0.0 0.0 0.0 0.0 0.0 0.0 0.0 0.0 1:0.0 2:0.0 3:0.0 4:0.4397590361445783 5:0.6111111111111112 6:1.0 7:0.9045340337332909 8:0.5 9:0.23527726659305603 10:0.6666666666666666 11:0.3333333333333333 12:0.0 13:0.0 14:0.7083333333333334 15:0.9444444444444444 16:0.8788707488040823 
0.0 0.0 0.0 0.0 1.0 0.0 1.0 0.0 0.0 0.0 0.0 1.0 0.0 0.0 1:0.5303300858899106 2:0.0 3:0.0 4:0.5746268656716418 5:0.3026315789473684 6:0.16666666666666666 7:0.43301270189221935 8:0.0 9:0.13135619948096527 10:1.0 11:1.0 12:0.0 13:0.31622776601683794 14:0.65 15:0.43333333333333335 16:0.7466786172972663 
0.0 0.0 0.0 0.0 1.0 0.0 1.0 0.0 0.0 0.0 1.0 1.0 0.0 1.0 1:0.0 2:0.0 3:0.0 4:0.05223880597014925 5:0.42592592592592593 6:0.5 7:0.0 8:0.0 9:0.15180733302442603 10:0.0 11:0.0 12:0.0 13:0.0 14:0.1 15:0.08333333333333333 16:0.37142857142857144 
0.0 0.0 0.0 0.0 1.0 0.1072133216320128 0.0 0.0 0.0 0.0 0.1949222478797365 0.0 0.0 0.0 1:0.8249579113843053 2:0.0 3:0.0 4:0.37398373983739835 5:0.25 6:1.0 7:0.686406472983644 8:0.0 9:0.1594682068886505 10:1.0 11:1.0 12:0.0 13:0.4472135954999579 14:0.7777777777777778 15:0.4666666666666667 16:0.6849174907329855 
0.0 0.0 0.0 0.0 1.0 0.0 0.0 1.0 0.0 0.0 1.0 1.0 0.0 0.0 1:0.35355339059327373 2:0.0 3:0.0 4:0.06584362139917696 5:0.4318181818181818 6:1.0 7:0.43259045634870014 8:0.0 9:0.20138981755031907 10:0.0 11:0.0 12:0.0 13:0.3872983346207417 14:0.3333333333333333 15:0.3055555555555556 16:0.5222329678670935 
1.0 0.0 0.0 1.0 0.0 0.0 0.0 0.0 0.0 0.0 0.0 0.0 0.0 0.0 1:0.2886751345948129 2:0.0 3:0.0 4:0.18518518518518517 5:0.5657894736842105 6:0.9333333333333333 7:0.8104408984731079 8:1.0 9:0.21855623871249788 10:0.3333333333333333 11:0.3333333333333333 12:0.0 13:0.47140452079103173 14:0.6363636363636364 15:0.7 16:0.7473028425354331 
0.0 0.0 0.11162201033432455 1.0 1.0 0.0 0.0 1.0 0.0 0.9114946907945529 1.0 1.0 0.0 0.0 1:0.4472135954999579 2:0.0 3:0.0 4:0.08571428571428572 5:0.28409090909090906 6:1.0 7:0.4338609156373123 8:0.5 9:0.19478508364391553 10:0.5 11:1.0 12:0.0 13:0.42426406871192845 14:0.391304347826087 15:0.25 16:0.4421576882853819 
0.0 0.0 0.0 0.0 1.0 0.0 1.0 0.0 0.0 0.0 1.0 1.0 0.0 0.0 1:0.0 2:0.0 3:0.0 4:0.06944444444444445 5:0.3157894736842105 6:0.3333333333333333 7:0.21821789023599236 8:0.0 9:0.15275570385428727 10:1.0 11:0.0 12:0.0 13:0.0 14:0.25 15:0.18181818181818182 16:0.2598076211353316 
0.0 0.0 0.0 0.950740643872671 1.0 0.0 1.0 0.0 0.0 0.0 1.0 1.0 0.0 0.0 1:0.19999999999999996 2:0.0 3:0.0 4:0.09722222222222222 5:0.2727272727272727 6:0.5714285714285714 7:0.07453559924999299 8:0.0 9:0.16767819313646268 10:0.0 11:0.0 12:0.0 13:0.0 14:0.25 15:0.16666666666666666 16:0.251259453814803 
0.0 0.0 0.0 0.0 0.0 0.0 0.0 1.0 0.0 0.0 0.0 0.0 0.0 0.0 1:0.7071067811865475 2:0.0 3:0.0 4:0.05027932960893855 5:0.7777777777777778 6:1.0 7:0.5892556509887896 8:0.4 9:0.18587674420210312 10:0.0 11:0.0 12:0.0 13:0.6963106238227914 14:0.19047619047619047 15:0.3333333333333333 16:0.36980013081681945 
0.0 0.0 0.0 0.0 0.0 0.6279519341526969 0.0 0.9957908880846758 0.0 0.0 0.0 0.0 0.0 0.0 1:0.0 2:0.0 3:0.0 4:0.11734693877551021 5:0.65625 6:1.0 7:0.6669729688499156 8:1.0 9:0.11901084286533584 10:1.0 11:1.0 12:0.0 13:0.8164965809277259 14:0.3448275862068966 15:0.5 16:0.4772135722318334 
0.0 0.0 0.0 0.0 1.0 0.0 1.0 0.0 0.0 0.0 1.0 1.0 0.0 0.0 1:0.4472135954999579 2:0.0 3:0.0 4:0.061224489795918366 5:0.3522727272727273 6:1.0 7:0.05423261445466404 8:0.0 9:0.224374503589616 10:0.0 11:0.0 12:0.0 13:0.5477225575051661 14:0.2857142857142857 15:0.2222222222222222 16:0.43362909039199393 
1.0 0.0 0.0 1.0 1.0 0.0 1.0 1.0 0.14598640103564992 0.0 1.0 1.0 0.0 0.0 1:0.0 2:0.0 3:0.0 4:0.16279069767441862 5:0.2222222222222222 6:0.0 7:0.2886751345948129 8:0.3333333333333333 9:0.14851194066143203 10:0.0 11:0.0 12:0.0 13:0.3849001794597505 14:0.3333333333333333 15:0.19047619047619047 16:0.36980013081681945 
0.0 0.0 0.0 0.18803886116982232 1.0 0.0 1.0 1.0 0.0 0.0 1.0 0.0 0.0 0.0 1:0.5163977794943222 2:0.0 3:0.0 4:0.1111111111111111 5:0.3125 6:1.0 7:0.8040302522073697 8:0.0 9:0.201788870743979 10:1.0 11:0.0 12:0.0 13:0.0 14:0.42857142857142855 15:0.25 16:0.34655164004183603 
0.0 0.0 0.0 1.0 1.0 0.0 1.0 1.0 0.0 0.0 1.0 1.0 0.0 0.0 1:0.0 2:0.0 3:0.0 4:0.1891891891891892 5:0.35416666666666663 6:0.8333333333333334 7:0.12909944487358058 8:0.0 9:0.3305770184407953 10:0.0 11:0.0 12:0.0 13:0.4999999999999999 14:0.375 15:0.2727272727272727 16:0.39019948628585394 
0.0 0.0 0.0 0.0 1.0 0.0 0.0 0.0 0.0 0.0 0.0 1.0 0.0 0.0 1:0.0 2:0.0 3:0.0 4:0.19827586206896552 5:0.34375 6:0.625 7:0.6669729688499156 8:1.0 9:0.11901084286533581 10:1.0 11:1.0 12:0.0 13:0.8164965809277259 14:0.5 15:0.3448275862068966 16:0.4772135722318334 
0.0 0.0 0.0 0.0 1.0 0.0 0.0 0.0 0.0 0.0 0.0 1.0 0.0 0.0 1:0.0 2:0.0 3:0.0 4:0.2037037037037037 5:0.125 6:0.25 7:0.6481812160876687 8:1.0 9:0.117502953051195 10:1.0 11:1.0 12:0.0 13:0.5773502691896258 14:0.75 15:0.20689655172413793 16:0.40147753427348304 
0.0 0.0 0.0 0.0 1.0 0.0 1.0 0.0 0.0 0.0 1.0 1.0 0.0 0.0 1:0.0 2:0.0 3:0.0 4:0.0784313725490196 5:0.36363636363636365 6:1.0 7:0.0 8:0.0 9:0.03812636165577342 10:0.0 11:0.0 12:0.0 13:0.0 14:0.0 15:0.0 16:0.0 
0.39700428544008737 0.0 0.0 0.0 1.0 0.0 1.0 0.0 0.0 0.0 0.0 1.0 0.0 0.0 1:0.0 2:0.0 3:0.0 4:0.19047619047619047 5:0.375 6:0.5 7:0.8164965809277261 8:0.6666666666666666 9:0.2673312812631698 10:1.0 11:1.0 12:0.0 13:0.0 14:0.5 15:0.4 16:0.4082482904638631 
0.0 0.0 0.0 0.0 1.0 0.0 1.0 0.0 0.0 0.0 1.0 1.0 0.0 1.0 1:0.0 2:0.0 3:0.0 4:0.05405405405405406 5:0.6363636363636364 6:0.4 7:0.0 8:0.0 9:0.03812636165577342 10:0.0 11:0.0 12:0.0 13:0.0 14:0.0 15:0.0 16:0.0 
0.0 0.0 0.0 1.0 1.0 0.0 0.0 0.0 0.0 0.0 0.0 0.0 0.0 0.0 1:0.2886751345948129 2:0.0 3:0.0 4:0.21844660194174756 5:0.4342105263157895 6:1.0 7:0.7711356597650746 8:0.6666666666666666 9:0.16759968189078092 10:1.0 11:1.0 12:0.0 13:0.47140452079103173 14:0.7 15:0.6363636363636364 16:0.7473028425354331 
0.0 0.0 0.0 0.0 1.0 0.0 0.0 1.0 0.0 0.0 1.0 1.0 0.0 0.0 1:0.3651483716701107 2:0.0 3:0.0 4:0.13106796116504854 5:0.375 6:1.0 7:0.3803194146278324 8:0.5 9:0.19503956512855747 10:0.0 11:0.0 12:0.0 13:0.5477225575051661 14:0.43333333333333335 15:0.3611111111111111 16:0.5518915695898104 
0.0 0.0 0.0 0.0 1.0 0.0 1.0 1.0 0.0 0.0 1.0 1.0 0.0 0.0 1:0.0 2:0.0 3:0.0 4:0.15217391304347827 5:0.6458333333333334 6:1.0 7:0.12909944487358058 8:0.0 9:0.33057701844079557 10:0.0 11:0.0 12:0.0 13:0.4999999999999999 14:0.2727272727272727 15:0.375 16:0.39019948628585394 
0.0 1.0 0.0 0.0 0.0 0.0 0.0 0.0 0.0 0.0 0.0 0.0 0.0 0.0 1:0.6324555320336759 2:0.0 3:0.0 4:0.888 5:0.4375 6:1.0 7:1.0 8:0.0 9:0.18253266218768202 10:1.0 11:1.0 12:0.0 13:1.0 14:1.0 15:0.875 16:0.9354143466934854 
0.0 0.0 0.0 1.0 1.0 0.18578387213580325 1.0 1.0 0.0 0.0 0.6950695390120154 1.0 0.0 0.7343180676804487 1:0.5 2:0.0 3:0.0 4:0.06030150753768844 5:0.375 6:0.2857142857142857 7:0.25712973861328997 8:0.0 9:0.27217870739684497 10:0.0 11:0.0 12:0.0 13:0.0 14:0.2857142857142857 15:0.2222222222222222 16:0.3217979514674192 
0.0 0.0 0.0 0.0 1.0 0.0 1.0 0.0 0.0 0.0 1.0 1.0 0.0 0.02494046103996818 1:0.0 2:0.0 3:0.0 4:0.06779661016949153 5:0.2833333333333333 6:0.0 7:0.12403473458920847 8:0.0 9:0.2108811050894077 10:0.5 11:0.0 12:0.0 13:0.0 14:0.23529411764705882 15:0.14814814814814814 16:0.23606684260939012 
0.0 0.0 0.0 0.0 0.0 0.0 1.0 0.0 0.2959168945941899 0.0 0.0 1.0 0.0 0.0 1:0.0 2:0.0 3:0.0 4:0.1864406779661017 5:0.8529411764705883 6:0.0 7:0.4472135954999579 8:0.0 9:0.10933510933510934 10:0.5 11:0.5 12:0.0 13:0.0 14:0.11764705882352941 15:0.4 16:0.21693045781865616 
0.0 0.0 0.0 0.0 1.0 1.0 1.0 0.0 0.0 0.0 0.0 0.0 0.0 0.0 1:0.7071067811865475 2:0.0 3:0.0 4:0.08290155440414508 5:0.4473684210526316 6:0.6666666666666666 7:0.6708203932499369 8:0.0 9:0.22728606192097228 10:1.0 11:0.5 12:0.0 13:0.23570226039551587 14:0.4074074074074074 15:0.3548387096774194 16:0.3131121455425747 
0.0 0.0 0.0 1.0 1.0 0.8808041203410965 1.0 1.0 0.0 0.0 1.0 1.0 0.0 0.0 1:0.0 2:0.0 3:0.0 4:0.08290155440414508 5:0.484375 6:0.0 7:0.25087260300212727 8:0.0 9:0.2346478187027947 10:0.3333333333333333 11:0.3333333333333333 12:0.0 13:0.22360679774997896 14:0.2962962962962963 15:0.26666666666666666 16:0.40535567355051205 
0.0 0.0 0.0 1.0 1.0 0.0 1.0 1.0 0.0 0.6970925750673964 1.0 1.0 0.0 0.3660105342709174 1:0.0 2:0.0 3:0.0 4:0.1348314606741573 5:0.25806451612903225 6:1.0 7:0.294174202707276 8:0.0 9:0.30483924859471684 10:0.0 11:0.0 12:0.0 13:0.0 14:0.3333333333333333 15:0.18518518518518517 16:0.3681050869161552 
0.0 0.0 0.0 0.0 1.0 0.0 1.0 1.0 0.0 0.0 1.0 1.0 0.0 0.9896172506379628 1:0.0 2:1.0 3:1.0 4:0.06382978723404255 5:0.2833333333333333 6:1.0 7:0.0 8:0.0 9:0.16240249705806975 10:0.0 11:0.0 12:0.0 13:0.0 14:0.11764705882352941 15:0.07142857142857142 16:0.16637806616154058 
0.792241828967043 0.0 0.0 0.7563091377745619 1.0 0.032484270494614824 1.0 1.0 0.006087505761109677 0.0 1.0 1.0 0.0 0.41322918920854884 1:0.0 2:1.0 3:1.0 4:0.09574468085106383 5:0.3035714285714286 6:0.6 7:0.14433756729740646 8:0.0 9:0.2103963483103375 10:0.3333333333333333 11:0.3333333333333333 12:0.0 13:0.2886751345948129 14:0.23529411764705882 15:0.14814814814814814 16:0.22140372138502384 
0.0 0.0 0.0 1.0 1.0 1.0 1.0 0.2603457361073701 0.0 0.0 1.0 1.0 0.0 0.0 1:0.5773502691896258 2:0.0 3:0.0 4:0.14393939393939395 5:0.3833333333333333 6:1.0 7:0.25087260300212727 8:0.0 9:0.24600997568462624 10:0.5 11:0.5 12:0.0 13:0.47140452079103173 14:0.45 15:0.34615384615384615 16:0.6115766297251507 
0.0 0.0 0.0 0.9783563851407577 1.0 0.0 0.0 1.0 0.0 0.0 1.0 1.0 0.0 0.0 1:0.2886751345948129 2:0.0 3:0.0 4:0.175 5:0.296875 6:1.0 7:0.2182178902359924 8:0.0 9:0.24784542069879725 10:0.0 11:0.0 12:0.0 13:0.6666666666666667 14:0.6111111111111112 15:0.3793103448275862 16:0.4601950115131127 
0.0 0.0 0.0 0.0 1.0 0.0 0.47417043209217297 1.0 0.0 0.0 1.0 1.0 0.0 0.0 1:0.0 2:0.0 3:0.0 4:0.1 5:0.390625 6:1.0 7:0.3223291856101521 8:1.0 9:0.22202511601295316 10:0.6666666666666666 11:0.3333333333333333 12:0.0 13:0.6708203932499369 14:0.3333333333333333 15:0.23333333333333334 16:0.49354811679282456 
0.0 0.0 0.0 1.0 1.0 0.732910118066102 1.0 0.0 0.0 0.0 0.0 1.0 0.0 0.0 1:0.6546536707079772 2:0.0 3:0.0 4:0.20851063829787234 5:0.5526315789473684 6:0.625 7:0.5562939111665911 8:0.0 9:0.23128073048193407 10:0.6666666666666666 11:0.6666666666666666 12:0.0 13:0.0 14:0.5 15:0.5714285714285714 16:0.601929265428846 
0.0 0.0 0.0 0.0 1.0 0.0 1.0 1.0 0.0 1.0 1.0 1.0 0.0 0.0 1:0.5 2:0.0 3:0.0 4:0.12790697674418605 5:0.18333333333333335 6:0.5 7:0.26967994498529685 8:0.0 9:0.23583179844273747 10:1.0 11:1.0 12:0.0 13:0.0 14:0.3 15:0.10714285714285714 16:0.14269544824634822 
1.0 0.0 0.0 1.0 1.0 0.7715670258458935 1.0 1.0 0.02277340208581366 0.0 1.0 1.0 0.0 0.0 1:0.0 2:0.0 3:0.0 4:0.26744186046511625 5:0.18333333333333335 6:0.5 7:0.49613893835683387 8:0.0 9:0.32192848841893745 10:1.0 11:0.0 12:0.0 13:0.0 14:0.7 15:0.25925925925925924 16:0.5399055247990171 
0.0 0.0 0.0 0.0 1.0 0.0 1.0 1.0 0.0 0.0 1.0 1.0 0.0 0.0 1:0.0 2:0.0 3:0.0 4:0.18421052631578946 5:0.18333333333333335 6:1.0 7:0.30151134457776363 8:0.0 9:0.15089670548354017 10:0.0 11:0.0 12:0.0 13:0.0 14:0.36363636363636365 15:0.14285714285714285 16:0.20683507599800766 
0.0 0.0 0.0 0.8054268832298835 1.0 0.43164086839231247 1.0 0.8343015702662224 0.0 0.0 0.0 1.0 0.0 0.0 1:0.7071067811865475 2:0.0 3:0.0 4:0.2 5:0.48 6:0.0 7:0.22613350843332272 8:0.0 9:0.24469501342203534 10:1.0 11:1.0 12:0.0 13:0.0 14:0.22727272727272727 15:0.22727272727272727 16:0.4449492083146097 
0.11058077172559902 0.0 0.0 0.9862991955470233 1.0 0.0 1.0 0.13349883443866514 0.0 0.0 1.0 1.0 0.0 0.06904786033834984 1:0.0 2:0.0 3:0.0 4:0.13513513513513514 5:0.20588235294117646 6:0.4 7:0.3273268353539886 8:0.0 9:0.3925717521734304 10:1.0 11:0.0 12:0.0 13:0.0 14:0.4166666666666667 15:0.1724137931034483 16:0.3 
0.0 0.0 0.0 1.0 1.0 0.0 1.0 0.0 0.0 0.0 1.0 1.0 0.0 0.0 1:0.5 2:0.0 3:0.0 4:0.04897959183673469 5:0.625 6:1.0 7:0.25712973861328997 8:0.0 9:0.27217870739684513 10:0.25 11:0.0 12:0.0 13:0.0 14:0.2222222222222222 15:0.2857142857142857 16:0.3217979514674192 
0.0 0.0 0.0 0.49008572407259593 1.0 0.0 0.0 0.5452003386315442 0.0 0.0 1.0 0.0 0.0 0.0 1:0.7071067811865475 2:0.0 3:0.0 4:0.07766990291262135 5:0.5526315789473684 6:1.0 7:0.625 8:0.0 9:0.207759279804371 10:0.5 11:0.16666666666666666 12:0.0 13:0.23570226039551587 14:0.3548387096774194 15:0.4074074074074074 16:0.3131121455425747 
0.0 0.0 0.0 0.0 1.0 0.0 0.0 0.0 0.0 0.0 1.0 1.0 0.0 0.0 1:0.2886751345948129 2:0.0 3:0.0 4:0.09170305676855896 5:0.703125 6:1.0 7:0.2182178902359924 8:0.0 9:0.24784542069879725 10:0.3333333333333333 11:0.0 12:0.0 13:0.6666666666666667 14:0.3793103448275862 15:0.6111111111111112 16:0.4601950115131127 
0.0 0.0 0.0 0.0 1.0 0.0 1.0 0.0 0.0 0.0 1.0 1.0 0.0 1.0 1:0.0 2:0.0 3:0.0 4:0.07526881720430108 5:0.47058823529411764 6:0.3333333333333333 7:0.0 8:0.0 9:0.20482309072621172 10:0.0 11:0.0 12:0.0 13:0.40824829046386296 14:0.14285714285714285 15:0.11764705882352941 16:0.20683507599800766 
1.0 0.0 0.0 1.0 1.0 0.0 1.0 0.0 0.0 0.0 1.0 1.0 0.0 0.0 1:0.4364357804719848 2:0.0 3:0.0 4:0.22842639593908629 5:0.4473684210526316 6:1.0 7:0.46537892099551725 8:0.0 9:0.2227611785360814 10:0.6666666666666666 11:0.6666666666666666 12:0.0 13:0.0 14:0.5714285714285714 15:0.5 16:0.601929265428846 
0.0 0.0 0.05143192015348445 0.0 1.0 1.0 0.0 0.0 0.0 0.0 1.0 1.0 0.0 0.0 1:0.0 2:0.0 3:0.0 4:0.08121827411167512 5:0.7647058823529411 6:1.0 7:0.09901475429766744 8:0.0 9:0.2010753363290531 10:0.3333333333333333 11:0.3333333333333333 12:0.0 13:0.7071067811865475 14:0.17857142857142858 15:0.35714285714285715 16:0.3457820374040623 
0.0 0.0 0.0 0.0 1.0 0.0 1.0 0.0 0.0 0.0 1.0 1.0 0.0 0.0 1:0.0 2:0.0 3:0.0 4:0.5897435897435898 5:0.14705882352941174 6:0.0 7:0.4472135954999579 8:0.0 9:0.10933510933510934 10:1.0 11:1.0 12:0.0 13:0.0 14:0.4 15:0.11764705882352941 16:0.21693045781865616 
0.0 0.0 0.33895191234391214 0.0 0.0 0.0 0.0 0.0 0.0 0.0 0.0 0.0 0.0 0.0 1:0.5773502691896258 2:0.0 3:0.0 4:0.4142857142857143 5:0.5 6:0.0 7:1.0 8:0.0 9:0.19310809672255455 10:1.0 11:1.0 12:0.0 13:0.8660254037844387 14:0.8571428571428571 15:0.9 16:0.8807048459279794 
0.2965570196124786 1.0 0.09353164476213403 0.026456918961912698 0.0 0.0 0.0 0.0 0.0 0.0 0.0 0.0 0.0 0.0 1:0.8944271909999159 2:0.0 3:0.0 4:0.7142857142857143 5:0.4736842105263158 6:0.0 7:0.9999999999999998 8:1.0 9:0.3707411310151036 10:1.0 11:1.0 12:0.0 13:0.9999999999999998 14:1.0 15:0.9473684210526315 16:0.9733285267845753 
0.0 0.0 0.0 0.0 1.0 0.0 1.0 0.7358647890523279 0.0 0.0 1.0 1.0 0.0 0.0 1:0.0 2:0.0 3:0.0 4:0.09821428571428571 5:0.2727272727272727 6:0.0 7:0.24806946917841693 8:0.0 9:0.2501689129626124 10:0.5 11:0.0 12:0.0 13:0.31622776601683794 14:0.2222222222222222 15:0.13793103448275862 16:0.24066495746038516 
0.0 0.0 0.0 0.0 1.0 0.0 1.0 0.0 0.0 0.0 1.0 1.0 0.0 1.0 1:0.0 2:0.0 3:0.0 4:0.022900763358778626 5:0.7625 6:1.0 7:0.0 8:0.0 9:0.2973950243242363 10:0.0 11:0.0 12:0.0 13:0.0 14:0.08333333333333333 15:0.15789473684210525 16:0.19466570535691502 
0.0 1.0 0.0 0.0 0.0 0.0 0.0 0.0 0.0 0.0 0.0 0.0 0.0 0.0 1:1.0 2:0.0 3:0.0 4:1.0954198473282444 5:0.5 6:1.0 7:1.0000000000000002 8:1.0 9:0.3494940040716307 10:1.0 11:1.0 12:0.0 13:0.9999999999999998 14:1.0 15:1.0 16:0.9999999999999999 
0.0 1.0 0.0 0.0 0.0 0.0 0.0 0.0 0.0 0.0 0.0 0.0 0.0 0.0 1:1.0 2:0.0 3:0.0 4:1.074766355140187 5:0.5 6:1.0 7:0.9999999999999999 8:1.0 9:0.32315990704522574 10:1.0 11:1.0 12:0.0 13:1.0000000000000002 14:1.0 15:1.0 16:0.9999999999999998 
0.0 0.0 0.0 1.0 1.0 0.7186817906068517 0.0 1.0 0.0 0.25307417024659423 1.0 0.0 0.2587290387761772 0.0 1:0.9999999999999998 2:0.0 3:0.0 4:0.06542056074766354 5:0.33333333333333337 6:1.0 7:0.5477225575051661 8:0.0 9:0.3893340078844883 10:0.0 11:0.0 12:0.0 13:0.25 14:0.29411764705882354 15:0.19230769230769232 16:0.2906591794880899 
0.0 1.0 0.0 0.0 0.0 0.0 0.0 0.0 0.0 0.0 0.0 0.0 0.0 0.0 1:1.0 2:0.0 3:0.0 4:1.075 5:0.5 6:0.0 7:0.9999999999999999 8:1.0 9:0.24916451910727272 10:1.0 11:1.0 12:0.0 13:1.0000000000000002 14:1.0 15:1.0 16:1.0 
0.0 1.0 0.0 0.0 0.0 0.0 0.0 0.0 0.0 0.0 0.0 0.0 0.0 0.0 1:0.0 2:0.0 3:0.0 4:1.0265486725663717 5:0.5 6:1.0 7:1.0 8:1.0 9:0.3526927437641721 10:1.0 11:1.0 12:0.0 13:0.9999999999999998 14:1.0 15:1.0 16:1.0 
0.0 1.0 0.0 0.0 0.0 0.0 0.0 0.0 0.0 0.0 0.0 0.0 0.0 0.0 1:1.0000000000000002 2:0.0 3:0.0 4:1.1982758620689655 5:0.5 6:0.0 7:0.9999999999999998 8:1.0 9:0.25033333333333335 10:1.0 11:1.0 12:0.0 13:1.0000000000000002 14:1.0 15:1.0 16:1.0 
0.0 1.0 0.0 0.0 0.0 0.0 0.0 0.0 0.0 0.0 0.0 0.0 0.0 0.0 1:0.0 2:0.0 3:0.0 4:1.0121951219512195 5:0.5 6:1.0 7:1.0 8:1.0 9:0.18747553816046963 10:1.0 11:1.0 12:0.0 13:1.0 14:1.0 15:1.0 16:0.9999999999999998 
0.0 1.0 0.0 0.0 0.0 0.0 0.0 0.0 0.0 0.0 0.0 0.0 0.0 0.0 1:1.0000000000000002 2:0.0 3:0.0 4:0.893048128342246 5:0.5 6:1.0 7:0.9460998335825321 8:0.0 9:0.48995635502497464 10:1.0 11:1.0 12:0.0 13:0.9999999999999998 14:0.9642857142857143 15:0.9642857142857143 16:0.9722222222222222 
0.0 1.0 0.0 0.0 0.0 0.0 0.0 0.0 0.0 0.0 0.0 0.0 0.0 0.0 1:0.0 2:0.0 3:0.0 4:1.1153846153846154 5:0.5 6:1.0 7:0.9999999999999998 8:1.0 9:0.13931837785048798 10:1.0 11:1.0 12:0.0 13:1.0 14:1.0 15:1.0 16:1.0 
0.0 1.0 0.0 0.0 0.0 0.0 0.0 0.0 0.0 0.0 0.0 0.0 0.0 0.0 1:1.0 2:0.0 3:0.0 4:1.1042345276872965 5:0.5 6:0.0 7:1.0000000000000002 8:1.0 9:0.251444469173757 10:1.0 11:1.0 12:0.0 13:0.9999999999999998 14:1.0 15:1.0 16:1.0 
0.0 1.0 0.0 0.0 0.0 0.0 0.0 0.0 0.0 0.0 0.0 0.0 0.0 0.0 1:1.0 2:0.0 3:0.0 4:1.1612903225806452 5:0.5 6:1.0 7:1.0 8:1.0 9:0.16562661699791514 10:1.0 11:1.0 12:0.0 13:1.0000000000000002 14:1.0 15:1.0 16:1.0 
0.0 0.0 0.0 0.0 1.0 0.0 0.0 0.0 0.0 0.0 0.0 0.0 0.0 0.0 1:0.7745966692414834 2:0.0 3:0.0 4:0.23222748815165878 5:0.6666666666666666 6:1.0 7:0.7337993857053429 8:0.0 9:0.2150404649164886 10:1.0 11:1.0 12:0.0 13:0.33333333333333337 14:0.5161290322580645 15:0.7272727272727273 16:0.6588078458684123 
0.0 0.0 0.0 0.0 1.0 0.0 0.07250643530831499 0.0 0.0 0.0 1.0 1.0 0.0 0.0 1:0.6324555320336759 2:0.0 3:0.0 4:0.05687203791469194 5:0.6666666666666666 6:1.0 7:0.09245003270420486 8:0.0 9:0.12147991125556341 10:0.0 11:0.0 12:0.0 13:0.0 14:0.0967741935483871 15:0.15789473684210525 16:0.22278319716975173 
0.0 1.0 0.0 0.0 0.0 0.0 0.0 0.0 0.0 0.0 0.0 0.0 0.0 0.0 1:1.0 2:0.0 3:0.0 4:1.0252100840336134 5:0.5 6:0.0 7:0.8451542547285166 8:0.0 9:0.32705079692695804 10:0.5 11:0.5 12:0.0 13:0.9999999999999998 14:1.0 15:1.0 16:1.0000000000000002 
0.0 1.0 0.0 0.0 0.0 0.0 0.0 0.0 0.0 0.0 0.0 0.0 0.0 0.0 1:0.9999999999999998 2:0.0 3:0.0 4:1.0444444444444445 5:0.5 6:1.0 7:0.9999999999999999 8:0.0 9:0.3602673835047221 10:1.0 11:1.0 12:0.0 13:0.9999999999999998 14:1.0 15:1.0 16:0.9999999999999998 
0.0 1.0 0.0 0.0 0.0 0.0 0.0 0.0 0.0 0.0 0.0 0.0 0.0 0.0 1:0.9999999999999998 2:0.0 3:0.0 4:1.0574162679425838 5:0.5 6:1.0 7:1.0 8:1.0 9:0.25834866228436776 10:0.6666666666666666 11:1.0 12:0.0 13:1.0000000000000002 14:1.0 15:1.0 16:0.9999999999999998 
0.0 1.0 0.0 0.0 0.0 0.0 0.0 0.0 0.0 0.0 0.0 0.0 0.0 0.0 1:1.0000000000000002 2:0.0 3:0.0 4:1.0857142857142856 5:0.5 6:0.0 7:0.9999999999999998 8:0.0 9:0.21333333333333337 10:1.0 11:1.0 12:0.0 13:0.9999999999999998 14:1.0 15:1.0 16:1.0 
0.0 0.0 0.0 0.0 1.0 0.0 1.0 0.0 0.0 0.0 1.0 1.0 0.0 0.0 1:0.40824829046386296 2:0.0 3:0.0 4:0.09876543209876543 5:0.38235294117647056 6:1.0 7:0.0 8:0.0 9:0.11069603933123025 10:0.0 11:0.0 12:0.0 13:0.0 14:0.07692307692307693 15:0.058823529411764705 16:0.06726727939963126 
0.0 1.0 0.0 0.0 0.0 0.0 0.0 0.0 0.0 0.0 0.0 0.0 0.0 0.0 1:0.9999999999999998 2:0.0 3:0.0 4:1.037037037037037 5:0.5 6:1.0 7:0.9999999999999998 8:0.0 9:0.21823529411764706 10:1.0 11:1.0 12:0.0 13:1.0 14:1.0 15:1.0 16:1.0000000000000002 
0.0 0.0 0.0 0.0 1.0 0.0 1.0 0.5542922786788166 0.0 0.0 1.0 1.0 0.0 0.0 1:0.0 2:0.0 3:0.0 4:0.13580246913580246 5:0.25 6:1.0 7:0.15811388300841897 8:0.0 9:0.11721827801984733 10:0.0 11:0.0 12:0.0 13:0.0 14:0.23076923076923078 15:0.125 16:0.25318484177091666 
0.0 0.0 0.0 0.0 1.0 0.0 1.0 0.0 0.0 0.0 1.0 1.0 0.0 0.0 1:0.0 2:0.0 3:0.0 4:0.07006369426751592 5:0.75 6:0.5 7:0.15811388300841897 8:0.0 9:0.11721827801984734 10:0.5 11:0.0 12:0.0 13:0.0 14:0.125 15:0.23076923076923078 16:0.25318484177091666 
0.0 0.0 0.0 0.0 1.0 0.0 1.0 0.0 0.0 0.0 1.0 1.0 0.0 0.0 1:0.0 2:0.0 3:0.0 4:0.0297029702970297 5:0.6388888888888888 6:1.0 7:0.0 8:0.0 9:0.16501669265831367 10:0.0 11:0.0 12:0.0 13:0.0 14:0.16666666666666666 15:0.20833333333333334 16:0.3038218101251 
0.5894705175906276 0.0 0.0 0.0 0.0 0.0 0.0 0.0 0.0 0.0 0.0 0.0 0.0 0.0 1:0.8682431421244593 2:0.0 3:0.0 4:0.7475247524752475 5:0.5 6:1.0 7:0.8682431421244593 8:0.6666666666666666 9:0.27983315568251205 10:1.0 11:0.5 12:0.0 13:1.0000000000000002 14:1.0 15:1.0 16:0.9805806756909201 
0.0 1.0 0.0 0.0 0.8513427618437065 0.0 0.0 0.0 0.0 0.0 0.0 0.0 0.0 0.0 1:0.6324555320336759 2:0.0 3:0.0 4:1.1470588235294117 5:0.2450980392156863 6:0.6 7:0.8183170883849714 8:1.0 9:0.26396769816116533 10:1.0 11:1.0 12:0.0 13:0.7071067811865476 14:1.0 15:0.5476190476190477 16:0.7504787743864564 
0.7048497012801144 0.0 0.0 0.9424358889293852 1.0 0.7532780084807249 0.0 0.0 0.0 0.0 0.0 0.0 0.0 0.0 1:0.5999999999999999 2:0.0 3:0.0 4:0.36 5:0.3529411764705882 6:0.6 7:0.8295150620062531 8:0.6666666666666666 9:0.2798726495995295 10:1.0 11:0.5 12:0.0 13:0.5477225575051661 14:0.71875 15:0.5476190476190477 16:0.7320806164525238 
0.0 0.0 0.0 1.0 1.0 0.0 1.0 1.0 0.0 0.0 0.0 1.0 0.0 1.0 1:0.2886751345948129 2:0.0 3:0.0 4:0.0851063829787234 5:0.3142857142857143 6:0.0 7:0.24253562503633297 8:0.0 9:0.3046543372994411 10:0.3333333333333333 11:0.0 12:0.0 13:0.0 14:0.2 15:0.12121212121212122 16:0.2198260025574647 
0.0 1.0 0.0 0.0 0.0 0.0 0.0 0.0 0.0 0.0 0.0 0.0 0.0 0.0 1:0.7071067811865475 2:0.0 3:0.0 4:0.8409090909090909 5:0.34615384615384615 6:0.0 7:0.8696263565463043 8:1.0 9:0.20814677600566456 10:1.0 11:1.0 12:0.0 13:0.9128709291752769 14:1.0 15:0.7222222222222222 16:0.8581366251553131 
0.1723942624471237 0.0 0.0 0.24703493050276695 1.0 0.0 0.0 1.0 0.0 0.0 0.0 1.0 0.07061607648442109 0.0 1:0.7071067811865475 2:0.0 3:1.0 4:0.6470588235294118 5:0.15384615384615385 6:1.0 7:0.43301270189221935 8:1.0 9:0.1436972878544062 10:0.5 11:0.0 12:0.0 13:0.2886751345948129 14:0.75 15:0.25 16:0.47336463120312877 
0.2716076645791028 0.0 0.0 0.0 0.0 0.0 0.0 0.0 0.0 0.0 0.0 0.0 0.0 0.0 1:0.9999999999999998 2:0.0 3:0.0 4:0.6866666666666666 5:0.5 6:1.0 7:0.9999999999999999 8:1.0 9:0.23103057528480944 10:0.6666666666666666 11:1.0 12:0.0 13:0.6666666666666667 14:0.9545454545454546 15:0.9545454545454546 16:0.9545454545454546 
0.0 1.0 0.0 0.0 0.0 0.0 0.0 0.0 0.0 0.0 0.0 0.0 0.0 0.0 1:0.8944271909999159 2:0.0 3:0.0 4:0.6779661016949152 5:0.5263157894736842 6:0.0 7:0.9999999999999998 8:1.0 9:0.3707411310151036 10:1.0 11:1.0 12:0.0 13:0.9999999999999998 14:0.9473684210526315 15:1.0 16:0.9733285267845753 
0.0 0.0 0.0 0.1741437421335402 1.0 0.0 1.0 1.0 0.0 0.0 1.0 1.0 0.0 0.0 1:0.0 2:0.0 3:0.0 4:0.09090909090909091 5:0.3372093023255814 6:1.0 7:0.35355339059327373 8:0.0 9:0.1466269792934598 10:0.0 11:0.0 12:0.0 13:0.22360679774997896 14:0.4230769230769231 15:0.3235294117647059 16:0.48776425689910546 
0.0 0.0 0.0 0.0 1.0 0.0 1.0 0.0 0.0 0.0 1.0 1.0 0.0 0.0 1:0.0 2:0.0 3:0.0 4:0.05851063829787234 5:0.6451612903225806 6:0.5 7:0.10540925533894598 8:0.0 9:0.07670777437353168 10:0.0 11:0.0 12:0.0 13:0.0 14:0.06896551724137931 15:0.09523809523809523 16:0.06711560552140244 
