svm_type c_svc
kernel_type rbf
gamma 0.5
nr_class 2
total_sv 1000
rho 0.3262573477318911
label 0 1
nr_sv 500 500
SV
1.0 1:0.0 2:-2.0 
0.21854939333570486 1:0.0 2:-3.0 
0.7238755987341887 1:0.0 2:-4.0 
0.4080757956793135 1:0.0 2:-5.0 
0.6038494520115026 1:0.0 2:-6.0 
0.4833983997036456 1:0.0 2:-7.0 
0.5556374480767252 1:0.0 2:-8.0 
0.515076318255942 1:0.0 2:-9.0 
0.5355915322918426 1:0.0 2:-10.0 
0.5277634685999487 1:0.0 2:-11.0 
0.5274704773230134 1:0.0 2:-12.0 
0.5326142460446078 1:0.0 2:-13.0 
0.5250853164267213 1:0.0 2:-14.0 
0.5326783333784277 1:0.0 2:-15.0 
0.5268040894325323 1:0.0 2:-16.0 
0.5295605132754403 1:0.0 2:-17.0 
0.5301050594429851 1:0.0 2:-18.0 
0.5266621828569709 1:0.0 2:-19.0 
0.5332034319693988 1:0.0 2:-20.0 
0.5239393937291051 1:0.0 2:-21.0 
0.5347154694366325 1:0.0 2:-22.0 
0.5239612757378203 1:0.0 2:-23.0 
0.532752597971024 1:0.0 2:-24.0 
0.5271905451130692 1:0.0 2:-25.0 
0.5285970260154886 1:0.0 2:-26.0 
0.5319220040821278 1:0.0 2:-27.0 
0.5248950384031682 1:0.0 2:-28.0 
0.533513179366379 1:0.0 2:-29.0 
0.5250008016348859 1:0.0 2:-30.0 
0.532984865915189 1:0.0 2:-31.0 
0.5260047664510639 1:0.0 2:-32.0 
0.5313366218045881 1:0.0 2:-33.0 
0.5284155548853829 1:0.0 2:-34.0 
0.5282614561328975 1:0.0 2:-35.0 
0.5321816325965057 1:0.0 2:-36.0 
0.5249146532403767 1:0.0 2:-37.0 
0.5335640403902542 1:0.0 2:-38.0 
0.524274269672169 1:0.0 2:-39.0 
0.5336079098695986 1:0.0 2:-40.0 
0.5254284569153567 1:0.0 2:-41.0 
0.5318462147800657 1:0.0 2:-42.0 
0.5281298710440887 1:0.0 2:-43.0 
0.5275585017237483 1:0.0 2:-44.0 
0.532320662603044 1:0.0 2:-45.0 
0.5251183047443805 1:0.0 2:-46.0 
0.5338391988297212 1:0.0 2:-47.0 
0.5242870278040944 1:0.0 2:-48.0 
0.5341633235337204 1:0.0 2:-49.0 
0.5244609378555758 1:0.0 2:-50.0 
0.5325130718126158 1:0.0 2:-51.0 
0.5277612318453093 1:0.0 2:-52.0 
0.5282578014746004 1:0.0 2:-53.0 
0.5316419527325222 1:0.0 2:-54.0 
0.5255430378872559 1:0.0 2:-55.0 
0.533585044231188 1:0.0 2:-56.0 
0.523821048853994 1:0.0 2:-57.0 
0.5345350266725237 1:0.0 2:-58.0 
0.5241040758318406 1:0.0 2:-59.0 
0.5333457593342992 1:0.0 2:-60.0 
0.5263978543772059 1:0.0 2:-61.0 
0.5300473267121216 1:0.0 2:-62.0 
0.5303037198478593 1:0.0 2:-63.0 
0.5260656141640007 1:0.0 2:-64.0 
0.5339773704441854 1:0.0 2:-65.0 
0.5233269965305793 1:0.0 2:-66.0 
0.5349211227083532 1:0.0 2:-67.0 
0.5237759246335454 1:0.0 2:-68.0 
0.5337849728053006 1:0.0 2:-69.0 
0.5257504702952865 1:0.0 2:-70.0 
0.5309066776239157 1:0.0 2:-71.0 
0.5294508866586504 1:0.0 2:-72.0 
0.526831263012895 1:0.0 2:-73.0 
0.5330257499127219 1:0.0 2:-74.0 
0.5240923148449083 1:0.0 2:-75.0 
0.5345928555925226 1:0.0 2:-76.0 
0.5239510159594697 1:0.0 2:-77.0 
0.5336554358459388 1:0.0 2:-78.0 
0.5259766181655047 1:0.0 2:-79.0 
0.530705850915192 1:0.0 2:-80.0 
0.5297786454776444 1:0.0 2:-81.0 
0.5263716905555056 1:0.0 2:-82.0 
0.5335494297158687 1:0.0 2:-83.0 
0.5237437826657614 1:0.0 2:-84.0 
0.5350538952263408 1:0.0 2:-85.0 
0.5234516090572583 1:0.0 2:-86.0 
0.533718750731262 1:0.0 2:-87.0 
0.525845586319644 1:0.0 2:-88.0 
0.530839975087799 1:0.0 2:-89.0 
0.5290470299786465 1:0.0 2:-90.0 
0.5270483319436929 1:0.0 2:-91.0 
0.5333547163006936 1:0.0 2:-92.0 
0.5235158096936182 1:0.0 2:-93.0 
0.5351709639525005 1:0.0 2:-94.0 
0.5231463144839659 1:0.0 2:-95.0 
0.5342638732060896 1:0.0 2:-96.0 
0.5256116274358885 1:0.0 2:-97.0 
0.530666564314903 1:0.0 2:-98.0 
0.5300953472829703 1:0.0 2:-99.0 
0.5263815612848138 1:0.0 2:-100.0 
0.5332391454609269 1:0.0 2:-101.0 
0.5244658414505209 1:0.0 2:-102.0 
0.5339811847820023 1:0.0 2:-103.0 
0.5243693583890333 1:0.0 2:-104.0 
0.5327957643180407 1:0.0 2:-105.0 
0.5270378665991268 1:0.0 2:-106.0 
0.5287384474266101 1:0.0 2:-107.0 
0.5317805214075861 1:0.0 2:-108.0 
0.5247342317622656 1:0.0 2:-109.0 
0.5341470734299257 1:0.0 2:-110.0 
0.5238611653805992 1:0.0 2:-111.0 
0.5345048113477259 1:0.0 2:-112.0 
0.5244026742841571 1:0.0 2:-113.0 
0.5324037476319454 1:0.0 2:-114.0 
0.5270245502752203 1:0.0 2:-115.0 
0.5297235492249576 1:0.0 2:-116.0 
0.5298431523333218 1:0.0 2:-117.0 
0.5271333159675016 1:0.0 2:-118.0 
0.5322907042651909 1:0.0 2:-119.0 
0.5246825618649675 1:0.0 2:-120.0 
0.5343505386779646 1:0.0 2:-121.0 
0.5238701506327945 1:0.0 2:-122.0 
0.5335529385943086 1:0.0 2:-123.0 
0.5259594537996127 1:0.0 2:-124.0 
0.5304342481001002 1:0.0 2:-125.0 
0.5305738451829438 1:0.0 2:-126.0 
0.5258929043180518 1:0.0 2:-127.0 
0.5331216341178997 1:0.0 2:-128.0 
0.5249793746694841 1:0.0 2:-129.0 
0.5331940254591978 1:0.0 2:-130.0 
0.5255923852592771 1:0.0 2:-131.0 
0.5321743918105943 1:0.0 2:-132.0 
0.5271813224169103 1:0.0 2:-133.0 
0.5287093115461602 1:0.0 2:-134.0 
0.5324928641731064 1:0.0 2:-135.0 
0.5236884280676772 1:0.0 2:-136.0 
0.5359912951970659 1:0.0 2:-137.0 
0.521485622782714 1:0.0 2:-138.0 
0.5365715307947052 1:0.0 2:-139.0 
0.522629760722892 1:0.0 2:-140.0 
0.5343246628480505 1:0.0 2:-141.0 
0.5258357045571862 1:0.0 2:-142.0 
0.5300740045136291 1:0.0 2:-143.0 
0.5308990650227144 1:0.0 2:-144.0 
0.5255484907900099 1:0.0 2:-145.0 
0.5337475207350504 1:0.0 2:-146.0 
0.5234023875881507 1:0.0 2:-147.0 
0.5351224146154668 1:0.0 2:-148.0 
0.5237304272649915 1:0.0 2:-149.0 
0.5337857390894314 1:0.0 2:-150.0 
0.5261469553048519 1:0.0 2:-151.0 
0.5295561813859881 1:0.0 2:-152.0 
0.5315425098629871 1:0.0 2:-153.0 
0.523984024895092 1:0.0 2:-154.0 
0.5361071873525327 1:0.0 2:-155.0 
0.521400745565812 1:0.0 2:-156.0 
0.5365569160514511 1:0.0 2:-157.0 
0.52259470331678 1:0.0 2:-158.0 
0.5347207574671315 1:0.0 2:-159.0 
0.5246029877581643 1:0.0 2:-160.0 
0.5316039595882602 1:0.0 2:-161.0 
0.52864477614702 1:0.0 2:-162.0 
0.5267219410456034 1:0.0 2:-163.0 
0.533699355887985 1:0.0 2:-164.0 
0.5231595945659998 1:0.0 2:-165.0 
0.535915397639084 1:0.0 2:-166.0 
0.5225415996930489 1:0.0 2:-167.0 
0.5343886709187573 1:0.0 2:-168.0 
0.525446028746709 1:0.0 2:-169.0 
0.5308984773023164 1:0.0 2:-170.0 
0.529838809032275 1:0.0 2:-171.0 
0.5267693277099874 1:0.0 2:-172.0 
0.5327794937714005 1:0.0 2:-173.0 
0.5240874963964206 1:0.0 2:-174.0 
0.5351111224967549 1:0.0 2:-175.0 
0.5232213864163421 1:0.0 2:-176.0 
0.533936302326995 1:0.0 2:-177.0 
0.5263060131672797 1:0.0 2:-178.0 
0.5294558427582181 1:0.0 2:-179.0 
0.5304563248208697 1:0.0 2:-180.0 
0.5259207791469167 1:0.0 2:-181.0 
0.5333592351686562 1:0.0 2:-182.0 
0.5244163646939719 1:0.0 2:-183.0 
0.5340303155534102 1:0.0 2:-184.0 
0.52454610183106 1:0.0 2:-185.0 
0.5329636524947331 1:0.0 2:-186.0 
0.5272946266936137 1:0.0 2:-187.0 
0.5278751946995719 1:0.0 2:-188.0 
0.5327786535960202 1:0.0 2:-189.0 
0.5237268793730578 1:0.0 2:-190.0 
0.5357638342221389 1:0.0 2:-191.0 
0.522064397546928 1:0.0 2:-192.0 
0.5360675352720841 1:0.0 2:-193.0 
0.5226168105787542 1:0.0 2:-194.0 
0.534361960476671 1:0.0 2:-195.0 
0.5258126446475309 1:0.0 2:-196.0 
0.5305551312264233 1:0.0 2:-197.0 
0.5296510827404781 1:0.0 2:-198.0 
0.5256621169833476 1:0.0 2:-199.0 
0.5344084565304115 1:0.0 2:-200.0 
0.5230777175755499 1:0.0 2:-201.0 
0.5349602236061115 1:0.0 2:-202.0 
0.5242173006365238 1:0.0 2:-203.0 
0.5327742873542971 1:0.0 2:-204.0 
0.527320084438303 1:0.0 2:-205.0 
0.5290892798866832 1:0.0 2:-206.0 
0.5315206745272849 1:0.0 2:-207.0 
0.5249926639238297 1:0.0 2:-208.0 
0.5338611407476449 1:0.0 2:-209.0 
0.5242437696465532 1:0.0 2:-210.0 
0.5336462252365215 1:0.0 2:-211.0 
0.5260671723116709 1:0.0 2:-212.0 
0.5302659171210093 1:0.0 2:-213.0 
0.5296096360725434 1:0.0 2:-214.0 
0.5269389581270607 1:0.0 2:-215.0 
0.5327947924589349 1:0.0 2:-216.0 
0.5242904893420129 1:0.0 2:-217.0 
0.5351244093384766 1:0.0 2:-218.0 
0.5224922085906374 1:0.0 2:-219.0 
0.5357930144792125 1:0.0 2:-220.0 
0.5234029000854944 1:0.0 2:-221.0 
0.5328479131561553 1:0.0 2:-222.0 
0.5278082375846278 1:0.0 2:-223.0 
0.5279628677865593 1:0.0 2:-224.0 
0.5320876124902327 1:0.0 2:-225.0 
0.5250202427547758 1:0.0 2:-226.0 
0.5341363720021273 1:0.0 2:-227.0 
0.5237208880433438 1:0.0 2:-228.0 
0.5341299564066838 1:0.0 2:-229.0 
0.5250293029372868 1:0.0 2:-230.0 
0.5321362292136794 1:0.0 2:-231.0 
0.5273451786028918 1:0.0 2:-232.0 
0.5287412124822476 1:0.0 2:-233.0 
0.5321661292364946 1:0.0 2:-234.0 
0.5245266660451601 1:0.0 2:-235.0 
0.5343069984072595 1:0.0 2:-236.0 
0.5239823882293487 1:0.0 2:-237.0 
0.5341930544412482 1:0.0 2:-238.0 
0.5242056193756335 1:0.0 2:-239.0 
0.5336895385857303 1:0.0 2:-240.0 
0.5258484754913412 1:0.0 2:-241.0 
0.5303795080053514 1:0.0 2:-242.0 
0.530876577288728 1:0.0 2:-243.0 
0.525143775965024 1:0.0 2:-244.0 
0.5343406125956277 1:0.0 2:-245.0 
0.5235990730037676 1:0.0 2:-246.0 
0.5350665516356854 1:0.0 2:-247.0 
0.5233284080151539 1:0.0 2:-248.0 
0.5346073783634652 1:0.0 2:-249.0 
0.5247411334842242 1:0.0 2:-250.0 
0.5312250372551324 1:0.0 2:-251.0 
0.5293476969507765 1:0.0 2:-252.0 
0.5271866293582338 1:0.0 2:-253.0 
0.532497537601005 1:0.0 2:-254.0 
0.5247797999524282 1:0.0 2:-255.0 
0.533601649569977 1:0.0 2:-256.0 
0.5255909240676992 1:0.0 2:-257.0 
0.5312185327679666 1:0.0 2:-258.0 
0.5281504270904592 1:0.0 2:-259.0 
0.528294838574901 1:0.0 2:-260.0 
0.5318975764873953 1:0.0 2:-261.0 
0.5241795834241533 1:0.0 2:-262.0 
0.5356865014342024 1:0.0 2:-263.0 
0.5219398969987346 1:0.0 2:-264.0 
0.5360797199982466 1:0.0 2:-265.0 
0.5229758539263923 1:0.0 2:-266.0 
0.5339502603444786 1:0.0 2:-267.0 
0.5259131499738526 1:0.0 2:-268.0 
0.5300576512162808 1:0.0 2:-269.0 
0.5304042278558633 1:0.0 2:-270.0 
0.5262061806180253 1:0.0 2:-271.0 
0.5330202010559539 1:0.0 2:-272.0 
0.5240496701801827 1:0.0 2:-273.0 
0.5345188030116084 1:0.0 2:-274.0 
0.5239479466411369 1:0.0 2:-275.0 
0.5331033789031042 1:0.0 2:-276.0 
0.5274428545115486 1:0.0 2:-277.0 
0.5283354280991961 1:0.0 2:-278.0 
0.5318287410440505 1:0.0 2:-279.0 
0.5246237251841146 1:0.0 2:-280.0 
0.5344517093204523 1:0.0 2:-281.0 
0.523516646001587 1:0.0 2:-282.0 
0.5351889196257326 1:0.0 2:-283.0 
0.5232908293802765 1:0.0 2:-284.0 
0.5343906622483026 1:0.0 2:-285.0 
0.5249226267699859 1:0.0 2:-286.0 
0.5315818963880717 1:0.0 2:-287.0 
0.5288726971430988 1:0.0 2:-288.0 
0.5272679182793214 1:0.0 2:-289.0 
0.532643242100187 1:0.0 2:-290.0 
0.5239967252748566 1:0.0 2:-291.0 
0.5350881857285588 1:0.0 2:-292.0 
0.5233116575138655 1:0.0 2:-293.0 
0.534424922520802 1:0.0 2:-294.0 
0.5251957153719642 1:0.0 2:-295.0 
0.5304295232917414 1:0.0 2:-296.0 
0.5302404933714491 1:0.0 2:-297.0 
0.5266966479774375 1:0.0 2:-298.0 
0.5327849985125069 1:0.0 2:-299.0 
0.5238213042698369 1:0.0 2:-300.0 
0.5354320754049942 1:0.0 2:-301.0 
0.5225977591009894 1:0.0 2:-302.0 
0.5347615151801483 1:0.0 2:-303.0 
0.5251822507585128 1:0.0 2:-304.0 
0.531048356694986 1:0.0 2:-305.0 
0.5295739490619045 1:0.0 2:-306.0 
0.5266652118892432 1:0.0 2:-307.0 
0.533390052515999 1:0.0 2:-308.0 
0.5238240764517801 1:0.0 2:-309.0 
0.5346695205007602 1:0.0 2:-310.0 
0.5244050926242246 1:0.0 2:-311.0 
0.532514561291461 1:0.0 2:-312.0 
0.5271413425884814 1:0.0 2:-313.0 
0.5295326272496359 1:0.0 2:-314.0 
0.5314697814475856 1:0.0 2:-315.0 
0.5243242675193889 1:0.0 2:-316.0 
0.5352334127496605 1:0.0 2:-317.0 
0.5225513973796689 1:0.0 2:-318.0 
0.5354510166059759 1:0.0 2:-319.0 
0.5231537292540743 1:0.0 2:-320.0 
0.5342358575227444 1:0.0 2:-321.0 
0.5256069071189963 1:0.0 2:-322.0 
0.5306208455000889 1:0.0 2:-323.0 
0.529707676843334 1:0.0 2:-324.0 
0.5263056496906097 1:0.0 2:-325.0 
0.5334697865920045 1:0.0 2:-326.0 
0.5235200440146267 1:0.0 2:-327.0 
0.5348284763265242 1:0.0 2:-328.0 
0.5241247178135262 1:0.0 2:-329.0 
0.5333352062426319 1:0.0 2:-330.0 
0.526109867024899 1:0.0 2:-331.0 
0.530196822417944 1:0.0 2:-332.0 
0.5296805785218012 1:0.0 2:-333.0 
0.5269259641084422 1:0.0 2:-334.0 
0.5327372674902295 1:0.0 2:-335.0 
0.5242065485445622 1:0.0 2:-336.0 
0.534084665612133 1:0.0 2:-337.0 
0.5250764876811302 1:0.0 2:-338.0 
0.5317442282637106 1:0.0 2:-339.0 
0.5280078490044654 1:0.0 2:-340.0 
0.528624801513166 1:0.0 2:-341.0 
0.5308690845372351 1:0.0 2:-342.0 
0.5255256595820311 1:0.0 2:-343.0 
0.5341681237258872 1:0.0 2:-344.0 
0.5230209672136392 1:0.0 2:-345.0 
0.5359097216379675 1:0.0 2:-346.0 
0.522472431846916 1:0.0 2:-347.0 
0.534772438725384 1:0.0 2:-348.0 
0.5251103036975333 1:0.0 2:-349.0 
0.5312663245457703 1:0.0 2:-350.0 
0.5295490543882306 1:0.0 2:-351.0 
0.5259471802680888 1:0.0 2:-352.0 
0.5342284430941671 1:0.0 2:-353.0 
0.5231391159925582 1:0.0 2:-354.0 
0.5351095511033575 1:0.0 2:-355.0 
0.5235045392928502 1:0.0 2:-356.0 
0.53425395207634 1:0.0 2:-357.0 
0.5252433955870239 1:0.0 2:-358.0 
0.5313194393848798 1:0.0 2:-359.0 
0.5286478392583935 1:0.0 2:-360.0 
0.5276773956997439 1:0.0 2:-361.0 
0.5324099075913856 1:0.0 2:-362.0 
0.5247285561675354 1:0.0 2:-363.0 
0.5337696438633697 1:0.0 2:-364.0 
0.5251997111475137 1:0.0 2:-365.0 
0.5319063529523116 1:0.0 2:-366.0 
0.527809504370528 1:0.0 2:-367.0 
0.5285096015746241 1:0.0 2:-368.0 
0.5315304170274924 1:0.0 2:-369.0 
0.5247358604665032 1:0.0 2:-370.0 
0.5345548447803271 1:0.0 2:-371.0 
0.5234976304615793 1:0.0 2:-372.0 
0.534134539888394 1:0.0 2:-373.0 
0.5248045739257462 1:0.0 2:-374.0 
0.5324013083219681 1:0.0 2:-375.0 
0.5266819107713149 1:0.0 2:-376.0 
0.5304367848882914 1:0.0 2:-377.0 
0.5300014796961308 1:0.0 2:-378.0 
0.5261304982365965 1:0.0 2:-379.0 
0.5334087132063003 1:0.0 2:-380.0 
0.5235711767358033 1:0.0 2:-381.0 
0.5348636000657776 1:0.0 2:-382.0 
0.5240905119048657 1:0.0 2:-383.0 
0.5325326418483001 1:0.0 2:-384.0 
0.5274253331925158 1:0.0 2:-385.0 
0.5283708909928916 1:0.0 2:-386.0 
0.5321082068924154 1:0.0 2:-387.0 
0.5246174566883537 1:0.0 2:-388.0 
0.5341598580058122 1:0.0 2:-389.0 
0.5240537215042615 1:0.0 2:-390.0 
0.5339848498806113 1:0.0 2:-391.0 
0.5247574372816565 1:0.0 2:-392.0 
0.532952439662138 1:0.0 2:-393.0 
0.526529677542209 1:0.0 2:-394.0 
0.53015914948002 1:0.0 2:-395.0 
0.5306516894328109 1:0.0 2:-396.0 
0.525733730361831 1:0.0 2:-397.0 
0.5340022958004258 1:0.0 2:-398.0 
0.5233409669544341 1:0.0 2:-399.0 
0.5355826169406263 1:0.0 2:-400.0 
0.5222374101789818 1:0.0 2:-401.0 
0.5356150224246291 1:0.0 2:-402.0 
0.52350310740046 1:0.0 2:-403.0 
0.532942219822713 1:0.0 2:-404.0 
0.5275465042775555 1:0.0 2:-405.0 
0.5281853136037947 1:0.0 2:-406.0 
0.5313804305173147 1:0.0 2:-407.0 
0.5261634806470536 1:0.0 2:-408.0 
0.5325867765817236 1:0.0 2:-409.0 
0.5259244595841233 1:0.0 2:-410.0 
0.5319767727712806 1:0.0 2:-411.0 
0.5264505895881084 1:0.0 2:-412.0 
0.5303514163760729 1:0.0 2:-413.0 
0.5305131175411174 1:0.0 2:-414.0 
0.5257286957361359 1:0.0 2:-415.0 
0.5343091083569842 1:0.0 2:-416.0 
0.5230198097360877 1:0.0 2:-417.0 
0.5351698951993793 1:0.0 2:-418.0 
0.5240896822116782 1:0.0 2:-419.0 
0.53287030965739 1:0.0 2:-420.0 
0.5269634683939725 1:0.0 2:-421.0 
0.5288305354747562 1:0.0 2:-422.0 
0.5316025691161401 1:0.0 2:-423.0 
0.5254082057378962 1:0.0 2:-424.0 
0.5335080817914771 1:0.0 2:-425.0 
0.5243897457664686 1:0.0 2:-426.0 
0.5340465596074889 1:0.0 2:-427.0 
0.5245772282301778 1:0.0 2:-428.0 
0.5325054696934285 1:0.0 2:-429.0 
0.5269887829232232 1:0.0 2:-430.0 
0.529161262991677 1:0.0 2:-431.0 
0.5310456858254603 1:0.0 2:-432.0 
0.525525820431217 1:0.0 2:-433.0 
0.5340807537746348 1:0.0 2:-434.0 
0.5232942319316523 1:0.0 2:-435.0 
0.5350025096943786 1:0.0 2:-436.0 
0.5240555680923473 1:0.0 2:-437.0 
0.5330033517721245 1:0.0 2:-438.0 
0.5272709169566178 1:0.0 2:-439.0 
0.5288118399305216 1:0.0 2:-440.0 
0.5309995697059705 1:0.0 2:-441.0 
0.5253843399507226 1:0.0 2:-442.0 
0.5339364269816989 1:0.0 2:-443.0 
0.5232871554692281 1:0.0 2:-444.0 
0.5349871729423661 1:0.0 2:-445.0 
0.5240765340126473 1:0.0 2:-446.0 
0.5323221161016025 1:0.0 2:-447.0 
0.5275757377279342 1:0.0 2:-448.0 
0.5285181462998735 1:0.0 2:-449.0 
0.5317635002934266 1:0.0 2:-450.0 
0.525192649189382 1:0.0 2:-451.0 
0.5340963643508875 1:0.0 2:-452.0 
0.523674255323034 1:0.0 2:-453.0 
0.5345952536603227 1:0.0 2:-454.0 
0.5243439570017537 1:0.0 2:-455.0 
0.5324422973681894 1:0.0 2:-456.0 
0.5274179953929108 1:0.0 2:-457.0 
0.52920364172405 1:0.0 2:-458.0 
0.5309196099732815 1:0.0 2:-459.0 
0.5252416539660668 1:0.0 2:-460.0 
0.534048429069141 1:0.0 2:-461.0 
0.5240106803873875 1:0.0 2:-462.0 
0.5343032000133635 1:0.0 2:-463.0 
0.5246908582638737 1:0.0 2:-464.0 
0.5326119271637938 1:0.0 2:-465.0 
0.5273419539038873 1:0.0 2:-466.0 
0.5286450811183271 1:0.0 2:-467.0 
0.5308297015564668 1:0.0 2:-468.0 
0.5264291033121371 1:0.0 2:-469.0 
0.5327605997864934 1:0.0 2:-470.0 
0.5243466715858449 1:0.0 2:-471.0 
0.5346361807027478 1:0.0 2:-472.0 
0.5236468625480487 1:0.0 2:-473.0 
0.5337759306158143 1:0.0 2:-474.0 
0.525548058533742 1:0.0 2:-475.0 
0.5312185991372124 1:0.0 2:-476.0 
0.5287649063491293 1:0.0 2:-477.0 
0.5272131326041619 1:0.0 2:-478.0 
0.5329882157069454 1:0.0 2:-479.0 
0.5242784381463486 1:0.0 2:-480.0 
0.5346860966190621 1:0.0 2:-481.0 
0.5230114669127051 1:0.0 2:-482.0 
0.5354709222352537 1:0.0 2:-483.0 
0.5235415124590984 1:0.0 2:-484.0 
0.5329956222802509 1:0.0 2:-485.0 
0.527733613739139 1:0.0 2:-486.0 
0.5279493675802857 1:0.0 2:-487.0 
0.5317533761880677 1:0.0 2:-488.0 
0.5251793228058033 1:0.0 2:-489.0 
0.5329804308154669 1:0.0 2:-490.0 
0.5266639710375053 1:0.0 2:-491.0 
0.528366096983146 1:0.0 2:-492.0 
0.5353763396017035 1:0.0 2:-493.0 
0.5144461561222378 1:0.0 2:-494.0 
0.5554384294862555 1:0.0 2:-495.0 
0.4841049363648961 1:0.0 2:-496.0 
0.6031155164801032 1:0.0 2:-497.0 
0.40884980036822194 1:0.0 2:-498.0 
0.7237948198252423 1:0.0 2:-499.0 
0.21824798340281804 1:0.0 2:-500.0 
1.0 1:0.0 2:-501.0 
-0.6029720866620244 1:0.0 2:1000.0 
-0.5203304550798656 1:0.0 2:1002.0 
-0.5312231825453839 1:0.0 2:1004.0 
-0.5298041788227422 1:0.0 2:1006.0 
-0.5299097963901197 1:0.0 2:1008.0 
-0.5300178635119359 1:0.0 2:1010.0 
-0.5300838907631992 1:0.0 2:1012.0 
-0.5303093835805723 1:0.0 2:1014.0 
-0.52949742114637 1:0.0 2:1016.0 
-0.5299541449624849 1:0.0 2:1018.0 
-0.5301275701192967 1:0.0 2:1020.0 
-0.5300698462342273 1:0.0 2:1022.0 
-0.5298798840068291 1:0.0 2:1024.0 
-0.530103852548994 1:0.0 2:1026.0 
-0.5302459302002589 1:0.0 2:1028.0 
-0.5298150402915383 1:0.0 2:1030.0 
-0.5298527368133532 1:0.0 2:1032.0 
-0.5299023763814013 1:0.0 2:1034.0 
-0.5297770844129435 1:0.0 2:1036.0 
-0.5300742812113186 1:0.0 2:1038.0 
-0.5301699862989724 1:0.0 2:1040.0 
-0.5299604526676971 1:0.0 2:1042.0 
-0.5295371952147762 1:0.0 2:1044.0 
-0.5300150944528503 1:0.0 2:1046.0 
-0.5300914789427311 1:0.0 2:1048.0 
-0.529958595967657 1:0.0 2:1050.0 
-0.5298895706807283 1:0.0 2:1052.0 
-0.5300427326653319 1:0.0 2:1054.0 
-0.5302891322550156 1:0.0 2:1056.0 
-0.5300393709338891 1:0.0 2:1058.0 
-0.5300249500753856 1:0.0 2:1060.0 
-0.5299539239449521 1:0.0 2:1062.0 
-0.5296713562522777 1:0.0 2:1064.0 
-0.5300136869118218 1:0.0 2:1066.0 
-0.5300023253260449 1:0.0 2:1068.0 
-0.5298600690153739 1:0.0 2:1070.0 
-0.5299491445976304 1:0.0 2:1072.0 
-0.5299255160135117 1:0.0 2:1074.0 
-0.5300111672253885 1:0.0 2:1076.0 
-0.5300994153038245 1:0.0 2:1078.0 
-0.5302417059397906 1:0.0 2:1080.0 
-0.5297168318825682 1:0.0 2:1082.0 
-0.5299543045826351 1:0.0 2:1084.0 
-0.5298750798540597 1:0.0 2:1086.0 
-0.5300997722294255 1:0.0 2:1088.0 
-0.5298472601494846 1:0.0 2:1090.0 
-0.5299545363958755 1:0.0 2:1092.0 
-0.5298548633381047 1:0.0 2:1094.0 
-0.5299907739829659 1:0.0 2:1096.0 
-0.5299117988484052 1:0.0 2:1098.0 
-0.5299589305314121 1:0.0 2:1100.0 
-0.5299116508601897 1:0.0 2:1102.0 
-0.5301645181993072 1:0.0 2:1104.0 
-0.5299805286440782 1:0.0 2:1106.0 
-0.5298880032877137 1:0.0 2:1108.0 
-0.5298962486869391 1:0.0 2:1110.0 
-0.5301010666780613 1:0.0 2:1112.0 
-0.5295824860291551 1:0.0 2:1114.0 
-0.5301023861866531 1:0.0 2:1116.0 
-0.5299053914725572 1:0.0 2:1118.0 
-0.5301456529538527 1:0.0 2:1120.0 
-0.5299672867080182 1:0.0 2:1122.0 
-0.5302311699230078 1:0.0 2:1124.0 
-0.5300509112308651 1:0.0 2:1126.0 
-0.5299050777869122 1:0.0 2:1128.0 
-0.5301457858036368 1:0.0 2:1130.0 
-0.5297890524230836 1:0.0 2:1132.0 
-0.5298956703693294 1:0.0 2:1134.0 
-0.5295924398128743 1:0.0 2:1136.0 
-0.5300841370078468 1:0.0 2:1138.0 
-0.5301469436896982 1:0.0 2:1140.0 
-0.5303021146972566 1:0.0 2:1142.0 
-0.5300135751492089 1:0.0 2:1144.0 
-0.5300042206816346 1:0.0 2:1146.0 
-0.5298789977926359 1:0.0 2:1148.0 
-0.5301474316636412 1:0.0 2:1150.0 
-0.5301779729302489 1:0.0 2:1152.0 
-0.5299356402011437 1:0.0 2:1154.0 
-0.5302368215975579 1:0.0 2:1156.0 
-0.5298894410426962 1:0.0 2:1158.0 
-0.52948946119488 1:0.0 2:1160.0 
-0.5297528027449453 1:0.0 2:1162.0 
-0.5303721495870157 1:0.0 2:1164.0 
-0.53016697856485 1:0.0 2:1166.0 
-0.5298614087531645 1:0.0 2:1168.0 
-0.5301455592911979 1:0.0 2:1170.0 
-0.5302167029157159 1:0.0 2:1172.0 
-0.5300935868482946 1:0.0 2:1174.0 
-0.5299111005483581 1:0.0 2:1176.0 
-0.529823788435591 1:0.0 2:1178.0 
-0.5301455189373974 1:0.0 2:1180.0 
-0.5300014078143529 1:0.0 2:1182.0 
-0.5302635462596796 1:0.0 2:1184.0 
-0.5301334678556778 1:0.0 2:1186.0 
-0.5299311343617371 1:0.0 2:1188.0 
-0.5301454821858654 1:0.0 2:1190.0 
-0.5299094345924373 1:0.0 2:1192.0 
-0.5299138596428012 1:0.0 2:1194.0 
-0.530116351617254 1:0.0 2:1196.0 
-0.5302484293749798 1:0.0 2:1198.0 
-0.5301842413766485 1:0.0 2:1200.0 
-0.5298958125694068 1:0.0 2:1202.0 
-0.5302478587516822 1:0.0 2:1204.0 
-0.529790215444232 1:0.0 2:1206.0 
-0.530070046424151 1:0.0 2:1208.0 
-0.5301234525920501 1:0.0 2:1210.0 
-0.5300126718794376 1:0.0 2:1212.0 
-0.5296276200945296 1:0.0 2:1214.0 
-0.5299534398603231 1:0.0 2:1216.0 
-0.530332446300354 1:0.0 2:1218.0 
-0.5298870132264591 1:0.0 2:1220.0 
-0.5300994188879382 1:0.0 2:1222.0 
-0.5293437012720261 1:0.0 2:1224.0 
-0.5303567990895951 1:0.0 2:1226.0 
-0.530339821923439 1:0.0 2:1228.0 
-0.5299534337175669 1:0.0 2:1230.0 
-0.5299737174425491 1:0.0 2:1232.0 
-0.5302109106756346 1:0.0 2:1234.0 
-0.5299524484701379 1:0.0 2:1236.0 
-0.5301390446335917 1:0.0 2:1238.0 
-0.5298701063000805 1:0.0 2:1240.0 
-0.5300776830475588 1:0.0 2:1242.0 
-0.5297296019662647 1:0.0 2:1244.0 
-0.5301183750294137 1:0.0 2:1246.0 
-0.5300939733441943 1:0.0 2:1248.0 
-0.5298896899029046 1:0.0 2:1250.0 
-0.5296887588208512 1:0.0 2:1252.0 
-0.5300919278250739 1:0.0 2:1254.0 
-0.5303143890788089 1:0.0 2:1256.0 
-0.5303585828613921 1:0.0 2:1258.0 
-0.529963598113972 1:0.0 2:1260.0 
-0.5300214069280353 1:0.0 2:1262.0 
-0.5300056118940022 1:0.0 2:1264.0 
-0.5295414858037955 1:0.0 2:1266.0 
-0.5301513093945676 1:0.0 2:1268.0 
-0.5294935119514752 1:0.0 2:1270.0 
-0.5300060832702242 1:0.0 2:1272.0 
-0.5301431031942598 1:0.0 2:1274.0 
-0.5299293060772023 1:0.0 2:1276.0 
-0.5301681354236251 1:0.0 2:1278.0 
-0.5298145300569596 1:0.0 2:1280.0 
-0.5296772947446192 1:0.0 2:1282.0 
-0.5300257892314283 1:0.0 2:1284.0 
-0.5298709959069554 1:0.0 2:1286.0 
-0.5303069174851165 1:0.0 2:1288.0 
-0.530073447888226 1:0.0 2:1290.0 
-0.5300926381305024 1:0.0 2:1292.0 
-0.5300600100422187 1:0.0 2:1294.0 
-0.5298710045623827 1:0.0 2:1296.0 
-0.5301575636218162 1:0.0 2:1298.0 
-0.5303201636049293 1:0.0 2:1300.0 
-0.5301359695417006 1:0.0 2:1302.0 
-0.5298825690629032 1:0.0 2:1304.0 
-0.5300132171311243 1:0.0 2:1306.0 
-0.5303868591712337 1:0.0 2:1308.0 
-0.5299572791577633 1:0.0 2:1310.0 
-0.5300133265843364 1:0.0 2:1312.0 
-0.5300279718841063 1:0.0 2:1314.0 
-0.529975893986601 1:0.0 2:1316.0 
-0.5303019013298327 1:0.0 2:1318.0 
-0.5298737152994515 1:0.0 2:1320.0 
-0.5300503841297848 1:0.0 2:1322.0 
-0.5295439935493592 1:0.0 2:1324.0 
-0.5302560156380611 1:0.0 2:1326.0 
-0.5295521235556935 1:0.0 2:1328.0 
-0.5301207235469515 1:0.0 2:1330.0 
-0.5296120041113932 1:0.0 2:1332.0 
-0.5303050769242807 1:0.0 2:1334.0 
-0.5300597694921875 1:0.0 2:1336.0 
-0.5295407188775879 1:0.0 2:1338.0 
-0.529948806153523 1:0.0 2:1340.0 
-0.5302448139297202 1:0.0 2:1342.0 
-0.5300028260410731 1:0.0 2:1344.0 
-0.5299357633680204 1:0.0 2:1346.0 
-0.5298603034507475 1:0.0 2:1348.0 
-0.5301757075377953 1:0.0 2:1350.0 
-0.5300790752839205 1:0.0 2:1352.0 
-0.5302075796006658 1:0.0 2:1354.0 
-0.5299449083232395 1:0.0 2:1356.0 
-0.5300098353325866 1:0.0 2:1358.0 
-0.529885705190009 1:0.0 2:1360.0 
-0.5301279689023469 1:0.0 2:1362.0 
-0.5300757581591585 1:0.0 2:1364.0 
-0.5298169801309632 1:0.0 2:1366.0 
-0.529976045013369 1:0.0 2:1368.0 
-0.5303488751657278 1:0.0 2:1370.0 
-0.5298311420910347 1:0.0 2:1372.0 
-0.5301930210569357 1:0.0 2:1374.0 
-0.5295387577623627 1:0.0 2:1376.0 
-0.5300274857988951 1:0.0 2:1378.0 
-0.5298912332759425 1:0.0 2:1380.0 
-0.5295959417923504 1:0.0 2:1382.0 
-0.5300751671070527 1:0.0 2:1384.0 
-0.5298286474360263 1:0.0 2:1386.0 
-0.5300018530497789 1:0.0 2:1388.0 
-0.5298807423751785 1:0.0 2:1390.0 
-0.5300657891913511 1:0.0 2:1392.0 
-0.5300302842440388 1:0.0 2:1394.0 
-0.530105603218227 1:0.0 2:1396.0 
-0.530206175140958 1:0.0 2:1398.0 
-0.5301397966192225 1:0.0 2:1400.0 
-0.52987285372469 1:0.0 2:1402.0 
-0.5299483166162139 1:0.0 2:1404.0 
-0.5300012693268631 1:0.0 2:1406.0 
-0.529680571735098 1:0.0 2:1408.0 
-0.5301002772188338 1:0.0 2:1410.0 
-0.530110152120649 1:0.0 2:1412.0 
-0.529615468923561 1:0.0 2:1414.0 
-0.5300397639646232 1:0.0 2:1416.0 
-0.5302715000371441 1:0.0 2:1418.0 
-0.5294063635604117 1:0.0 2:1420.0 
-0.5303580573499651 1:0.0 2:1422.0 
-0.5298584234021141 1:0.0 2:1424.0 
-0.5301068861016006 1:0.0 2:1426.0 
-0.5302485568174432 1:0.0 2:1428.0 
-0.5298689120194524 1:0.0 2:1430.0 
-0.5300523676113538 1:0.0 2:1432.0 
-0.5299270427776892 1:0.0 2:1434.0 
-0.5300528957020721 1:0.0 2:1436.0 
-0.529967198177218 1:0.0 2:1438.0 
-0.5298207018558919 1:0.0 2:1440.0 
-0.5302725274202079 1:0.0 2:1442.0 
-0.5298319077028377 1:0.0 2:1444.0 
-0.5302315779741669 1:0.0 2:1446.0 
-0.5299082817306114 1:0.0 2:1448.0 
-0.5294331101840117 1:0.0 2:1450.0 
-0.5300678247263291 1:0.0 2:1452.0 
-0.5297725796010097 1:0.0 2:1454.0 
-0.5302948627504832 1:0.0 2:1456.0 
-0.5298518047336243 1:0.0 2:1458.0 
-0.5298853631342286 1:0.0 2:1460.0 
-0.5302749938648799 1:0.0 2:1462.0 
-0.530021939570061 1:0.0 2:1464.0 
-0.5299939852073349 1:0.0 2:1466.0 
-0.530073975761113 1:0.0 2:1468.0 
-0.5294587144949703 1:0.0 2:1470.0 
-0.530123280254316 1:0.0 2:1472.0 
-0.5297835323035198 1:0.0 2:1474.0 
-0.5304159713903296 1:0.0 2:1476.0 
-0.5300590410806011 1:0.0 2:1478.0 
-0.5299437650070394 1:0.0 2:1480.0 
-0.5296491423962146 1:0.0 2:1482.0 
-0.5298522191211055 1:0.0 2:1484.0 
-0.5298564828668805 1:0.0 2:1486.0 
-0.530396421058864 1:0.0 2:1488.0 
-0.5298599634877383 1:0.0 2:1490.0 
-0.5299265338387067 1:0.0 2:1492.0 
-0.5296850268765068 1:0.0 2:1494.0 
-0.5300865548073264 1:0.0 2:1496.0 
-0.5299937002572577 1:0.0 2:1498.0 
-0.5299601564575784 1:0.0 2:1500.0 
-0.5299025752969002 1:0.0 2:1502.0 
-0.529867866133811 1:0.0 2:1504.0 
-0.5302145031732338 1:0.0 2:1506.0 
-0.5299001478337567 1:0.0 2:1508.0 
-0.5298542912727564 1:0.0 2:1510.0 
-0.5299050891826544 1:0.0 2:1512.0 
-0.5298631253138046 1:0.0 2:1514.0 
-0.5301623885324965 1:0.0 2:1516.0 
-0.5298921893478575 1:0.0 2:1518.0 
-0.5300894793177611 1:0.0 2:1520.0 
-0.5299216428265824 1:0.0 2:1522.0 
-0.5297902464917971 1:0.0 2:1524.0 
-0.5301275793357113 1:0.0 2:1526.0 
-0.5295914754777441 1:0.0 2:1528.0 
-0.529789451785609 1:0.0 2:1530.0 
-0.5301214931215583 1:0.0 2:1532.0 
-0.5298231010157372 1:0.0 2:1534.0 
-0.5298919243596829 1:0.0 2:1536.0 
-0.5300578493046304 1:0.0 2:1538.0 
-0.5299119144557519 1:0.0 2:1540.0 
-0.5298927907657095 1:0.0 2:1542.0 
-0.5298599912751393 1:0.0 2:1544.0 
-0.5299325248676633 1:0.0 2:1546.0 
-0.5299769279074668 1:0.0 2:1548.0 
-0.5298892744061152 1:0.0 2:1550.0 
-0.5302323353947195 1:0.0 2:1552.0 
-0.5299593047822787 1:0.0 2:1554.0 
-0.529919595930341 1:0.0 2:1556.0 
-0.5300105129019372 1:0.0 2:1558.0 
-0.5298551160944748 1:0.0 2:1560.0 
-0.5303594535849836 1:0.0 2:1562.0 
-0.5298577514644673 1:0.0 2:1564.0 
-0.5302419690177952 1:0.0 2:1566.0 
-0.5296225970949852 1:0.0 2:1568.0 
-0.5299392913427974 1:0.0 2:1570.0 
-0.5302346525825059 1:0.0 2:1572.0 
-0.5298501125827718 1:0.0 2:1574.0 
-0.5302514948566868 1:0.0 2:1576.0 
-0.5300335122194295 1:0.0 2:1578.0 
-0.5297246179364538 1:0.0 2:1580.0 
-0.5298493971806465 1:0.0 2:1582.0 
-0.529966998155474 1:0.0 2:1584.0 
-0.529932370113476 1:0.0 2:1586.0 
-0.5300892990418643 1:0.0 2:1588.0 
-0.5297747549982089 1:0.0 2:1590.0 
-0.5299287072368153 1:0.0 2:1592.0 
-0.5300193345708162 1:0.0 2:1594.0 
-0.5298923024825436 1:0.0 2:1596.0 
-0.5300769149972504 1:0.0 2:1598.0 
-0.5302014807388225 1:0.0 2:1600.0 
-0.5298927977052073 1:0.0 2:1602.0 
-0.5298710913509506 1:0.0 2:1604.0 
-0.5299542910677393 1:0.0 2:1606.0 
-0.5301252929290867 1:0.0 2:1608.0 
-0.5300037114120987 1:0.0 2:1610.0 
-0.5295666037635276 1:0.0 2:1612.0 
-0.5304270004324128 1:0.0 2:1614.0 
-0.5298958491330732 1:0.0 2:1616.0 
-0.5299986853433645 1:0.0 2:1618.0 
-0.5298742471753469 1:0.0 2:1620.0 
-0.5299896568407316 1:0.0 2:1622.0 
-0.5298099675041882 1:0.0 2:1624.0 
-0.5301482605926182 1:0.0 2:1626.0 
-0.5299199868902955 1:0.0 2:1628.0 
-0.5299093661795748 1:0.0 2:1630.0 
-0.5300035021579421 1:0.0 2:1632.0 
-0.529996111393848 1:0.0 2:1634.0 
-0.5302030383955632 1:0.0 2:1636.0 
-0.5300731228693671 1:0.0 2:1638.0 
-0.5301559056819014 1:0.0 2:1640.0 
-0.5299233665897183 1:0.0 2:1642.0 
-0.5298333877490982 1:0.0 2:1644.0 
-0.5301052945808306 1:0.0 2:1646.0 
-0.5295305858703976 1:0.0 2:1648.0 
-0.5300935410572492 1:0.0 2:1650.0 
-0.5299113629911341 1:0.0 2:1652.0 
-0.529941184120168 1:0.0 2:1654.0 
-0.5298359529908342 1:0.0 2:1656.0 
-0.5301865351585177 1:0.0 2:1658.0 
-0.5294844054086236 1:0.0 2:1660.0 
-0.5302069299917803 1:0.0 2:1662.0 
-0.5302064741780355 1:0.0 2:1664.0 
-0.5296996935364878 1:0.0 2:1666.0 
-0.5300838273564893 1:0.0 2:1668.0 
-0.5301430367896257 1:0.0 2:1670.0 
-0.5294111002041448 1:0.0 2:1672.0 
-0.5300801902699169 1:0.0 2:1674.0 
-0.5297023151692951 1:0.0 2:1676.0 
-0.5300614463274381 1:0.0 2:1678.0 
-0.5299920194141632 1:0.0 2:1680.0 
-0.5301469998805801 1:0.0 2:1682.0 
-0.529991211225655 1:0.0 2:1684.0 
-0.5297002400494037 1:0.0 2:1686.0 
-0.5301054237622594 1:0.0 2:1688.0 
-0.5301170149997877 1:0.0 2:1690.0 
-0.5296225906781135 1:0.0 2:1692.0 
-0.5299947541521206 1:0.0 2:1694.0 
-0.5296887739016034 1:0.0 2:1696.0 
-0.5302091059121431 1:0.0 2:1698.0 
-0.5301765952601447 1:0.0 2:1700.0 
-0.5297035583963937 1:0.0 2:1702.0 
-0.5301367300728187 1:0.0 2:1704.0 
-0.5296830906687263 1:0.0 2:1706.0 
-0.5302051554741454 1:0.0 2:1708.0 
-0.5296790986292041 1:0.0 2:1710.0 
-0.5299936256656039 1:0.0 2:1712.0 
-0.5299169650416891 1:0.0 2:1714.0 
-0.5300315030095839 1:0.0 2:1716.0 
-0.5296838035112625 1:0.0 2:1718.0 
-0.5294692002067114 1:0.0 2:1720.0 
-0.529884676057555 1:0.0 2:1722.0 
-0.5303921470065314 1:0.0 2:1724.0 
-0.5299082289865898 1:0.0 2:1726.0 
-0.5299169038641549 1:0.0 2:1728.0 
-0.5304112791088966 1:0.0 2:1730.0 
-0.5299896854659515 1:0.0 2:1732.0 
-0.5300620012368494 1:0.0 2:1734.0 
-0.5299027578326341 1:0.0 2:1736.0 
-0.5299982479689236 1:0.0 2:1738.0 
-0.5296160046868894 1:0.0 2:1740.0 
-0.5303797939194574 1:0.0 2:1742.0 
-0.5296533916587025 1:0.0 2:1744.0 
-0.5299183537158338 1:0.0 2:1746.0 
-0.5302383694885644 1:0.0 2:1748.0 
-0.5301903531533861 1:0.0 2:1750.0 
-0.5298982141261481 1:0.0 2:1752.0 
-0.5301280979593537 1:0.0 2:1754.0 
-0.5295062290749444 1:0.0 2:1756.0 
-0.5296117316118044 1:0.0 2:1758.0 
-0.5300767008172038 1:0.0 2:1760.0 
-0.5300739210724423 1:0.0 2:1762.0 
-0.5297419810237318 1:0.0 2:1764.0 
-0.5299563781966153 1:0.0 2:1766.0 
-0.5299363443119951 1:0.0 2:1768.0 
-0.5299171762567356 1:0.0 2:1770.0 
-0.5299770367191157 1:0.0 2:1772.0 
-0.5296819818473308 1:0.0 2:1774.0 
-0.5298502375448946 1:0.0 2:1776.0 
-0.529948934550911 1:0.0 2:1778.0 
-0.5299434642165558 1:0.0 2:1780.0 
-0.5300126749946936 1:0.0 2:1782.0 
-0.5302273604253741 1:0.0 2:1784.0 
-0.5302341606731484 1:0.0 2:1786.0 
-0.5298809750428743 1:0.0 2:1788.0 
-0.5299071820192763 1:0.0 2:1790.0 
-0.529981729242767 1:0.0 2:1792.0 
-0.5299779169720807 1:0.0 2:1794.0 
-0.5300262340057765 1:0.0 2:1796.0 
-0.5298276422135567 1:0.0 2:1798.0 
-0.5297890357158254 1:0.0 2:1800.0 
-0.529880105262294 1:0.0 2:1802.0 
-0.5299679836117983 1:0.0 2:1804.0 
-0.5299062836418963 1:0.0 2:1806.0 
-0.5295025989408825 1:0.0 2:1808.0 
-0.5300053617829948 1:0.0 2:1810.0 
-0.5302249416321699 1:0.0 2:1812.0 
-0.5302208162659832 1:0.0 2:1814.0 
-0.5299578188396261 1:0.0 2:1816.0 
-0.5299964278511797 1:0.0 2:1818.0 
-0.5299755863300922 1:0.0 2:1820.0 
-0.5300855015529946 1:0.0 2:1822.0 
-0.5297888472736352 1:0.0 2:1824.0 
-0.5299916792108378 1:0.0 2:1826.0 
-0.529572862751268 1:0.0 2:1828.0 
-0.5300514837593003 1:0.0 2:1830.0 
-0.5299777131593786 1:0.0 2:1832.0 
-0.5300428512534355 1:0.0 2:1834.0 
-0.5304141634242516 1:0.0 2:1836.0 
-0.5293747155441568 1:0.0 2:1838.0 
-0.5300451390838504 1:0.0 2:1840.0 
-0.529843733878196 1:0.0 2:1842.0 
-0.53011467121644 1:0.0 2:1844.0 
-0.5297109922269845 1:0.0 2:1846.0 
-0.5303054899029152 1:0.0 2:1848.0 
-0.530079868696469 1:0.0 2:1850.0 
-0.529612180292258 1:0.0 2:1852.0 
-0.5302503687744307 1:0.0 2:1854.0 
-0.5302322417352903 1:0.0 2:1856.0 
-0.5300861301625606 1:0.0 2:1858.0 
-0.5299758213443697 1:0.0 2:1860.0 
-0.5299964952471496 1:0.0 2:1862.0 
-0.5301802385615016 1:0.0 2:1864.0 
-0.5299311891790079 1:0.0 2:1866.0 
-0.5297766378345184 1:0.0 2:1868.0 
-0.5299881439366372 1:0.0 2:1870.0 
-0.529910277388081 1:0.0 2:1872.0 
-0.5302691704576887 1:0.0 2:1874.0 
-0.5301442741104192 1:0.0 2:1876.0 
-0.5301184905787873 1:0.0 2:1878.0 
-0.5302818012301738 1:0.0 2:1880.0 
-0.5299244606859669 1:0.0 2:1882.0 
-0.529945347532235 1:0.0 2:1884.0 
-0.52985721216712 1:0.0 2:1886.0 
-0.5300049140474977 1:0.0 2:1888.0 
-0.529970872350574 1:0.0 2:1890.0 
-0.5300765855009145 1:0.0 2:1892.0 
-0.5300054909809533 1:0.0 2:1894.0 
-0.5300691150053459 1:0.0 2:1896.0 
-0.5299687302089345 1:0.0 2:1898.0 
-0.5299158069832237 1:0.0 2:1900.0 
-0.5300445173304833 1:0.0 2:1902.0 
-0.5300089602806514 1:0.0 2:1904.0 
-0.5303892515874442 1:0.0 2:1906.0 
-0.5299056506242038 1:0.0 2:1908.0 
-0.5298901194445351 1:0.0 2:1910.0 
-0.5303133342404381 1:0.0 2:1912.0 
-0.5299071084118948 1:0.0 2:1914.0 
-0.5299051604880325 1:0.0 2:1916.0 
-0.5303435718935549 1:0.0 2:1918.0 
-0.529926203424491 1:0.0 2:1920.0 
-0.5298205309611328 1:0.0 2:1922.0 
-0.5299581643136202 1:0.0 2:1924.0 
-0.5301116044936982 1:0.0 2:1926.0 
-0.5299503608730367 1:0.0 2:1928.0 
-0.5303584269633709 1:0.0 2:1930.0 
-0.5298667114645983 1:0.0 2:1932.0 
-0.5300281201547699 1:0.0 2:1934.0 
-0.5294343369221896 1:0.0 2:1936.0 
-0.5299729433111229 1:0.0 2:1938.0 
-0.5298386423274002 1:0.0 2:1940.0 
-0.530243795014592 1:0.0 2:1942.0 
-0.5300771951250243 1:0.0 2:1944.0 
-0.529858520260437 1:0.0 2:1946.0 
-0.5299028492026299 1:0.0 2:1948.0 
-0.5301194482425837 1:0.0 2:1950.0 
-0.5302729184453625 1:0.0 2:1952.0 
-0.5298604343057938 1:0.0 2:1954.0 
-0.5300448373787283 1:0.0 2:1956.0 
-0.5301260953125935 1:0.0 2:1958.0 
-0.5301106243328023 1:0.0 2:1960.0 
-0.5299204284919399 1:0.0 2:1962.0 
-0.5297781516593743 1:0.0 2:1964.0 
-0.5299539678397218 1:0.0 2:1966.0 
-0.5300680574332016 1:0.0 2:1968.0 
-0.5301155019191643 1:0.0 2:1970.0 
-0.5300752022382991 1:0.0 2:1972.0 
-0.529897663230644 1:0.0 2:1974.0 
-0.5302943445003245 1:0.0 2:1976.0 
-0.5300149808701927 1:0.0 2:1978.0 
-0.5299558714881195 1:0.0 2:1980.0 
-0.5299003974866511 1:0.0 2:1982.0 
-0.5300545621232651 1:0.0 2:1984.0 
-0.5301158318554572 1:0.0 2:1986.0 
-0.5302873150626345 1:0.0 2:1988.0 
-0.5299566821188536 1:0.0 2:1990.0 
-0.5296273305008665 1:0.0 2:1992.0 
-0.5313473246531147 1:0.0 2:1994.0 
-0.5197273823475842 1:0.0 2:1996.0 
-0.6033364801230949 1:0.0 2:1998.0 
